solver_type L2R_LR
nr_class 3
label 10 24 25
nr_feature 58820
bias -1
w
0.8274441300801422 -0.7594566989766522 -1.006241370477641 
1.633766534615959 -1.374398051834167 -1.509385226359654 
0.1103524975783562 -0.7928123719213039 -0.0857758110291264 
0.2669053680214015 -0.0221932165329896 -0.2474404916218734 
0.03586970685117227 -0.4225762379874595 -0.06074842346008977 
0.7330886867933506 -0.04614394255984872 -0.8951532637201203 
0.4709517069251496 -0.3232723205501112 -0.2878970895265512 
0.2669053680214015 -0.0221932165329896 -0.2474404916218734 
0.03299453614419246 -0.3331369039793996 -0.01630434103618752 
-0.7594313356905328 0.04664825886599562 0.5116593003446217 
-0.05376106989202091 -0.7258202337200922 -0.06845243212959433 
0.2413195617549128 -0.7224427243219828 -0.1080892683082911 
0.4178595843291118 -0.6781190233753569 -0.527793980474113 
0.2886779328868662 -0.2481575340839532 -0.2177060980483333 
0.03299453614419246 -0.3331369039793996 -0.01630434103618752 
0.03586970685117227 -0.4225762379874595 -0.06074842346008977 
0.3553833804699951 -0.08763281999028653 -0.4480731850885904 
0.09950033102929741 -0.01414100391474136 -0.0586724869764074 
-0.2217622662734389 -0.305298890232604 0.2883775996043131 
0.0142540514076642 -0.00326261401570319 -0.01056281356571112 
-0.2217622662734389 -0.305298890232604 0.2883775996043131 
1.191004323192263 -0.4966483153438019 -0.9452726928247122 
0.8133028248001831 -1.512258889083915 -1.024709838910643 
0.6969157647248315 -0.5648902301577221 -0.5684308838613701 
0.2019019160952513 -0.3547827247369901 -0.2859084453225688 
0.1490271905467705 -0.3490213464336376 -0.2134907540098679 
0.1698999503693383 -0.09620873765179899 -0.1627483779351002 
0.08279416499429175 -0.7935585822066195 -0.09998331599905531 
1.14746266421195 -0.6098741725664626 -1.211664523868103 
-0.0253239252522367 -0.05051458666738884 0.04325766657122947 
0.08279416499429175 -0.7935585822066195 -0.09998331599905531 
0.3219674905133132 -0.1102791172972857 -0.2709197181908082 
0.5714467482925562 -0.1806714375948448 -0.4635993846099566 
0.7266950869134714 0.5734661084697096 -1.685865600053236 
0.01378974360952735 -0.006633391818539882 -0.003189514922379826 
0.01378974360952735 -0.006633391818539882 -0.003189514922379826 
-0.1452023440632451 0.08392044265670173 0.1468003155397419 
0.3496339374542939 -0.1676755679004355 -0.6164955132337462 
0.786353681441901 -0.05341157167070476 -0.8480909045745263 
0.3496339374542939 -0.1676755679004355 -0.6164955132337462 
-0.4611142835985838 0.1979295305013054 0.3862012022606157 
0.1032848044377144 -0.1993699666019539 -0.1756985896088526 
0.2649387591143962 -1.18039067942494 0.0458413538703975 
0.1032848044377144 -0.1993699666019539 -0.1756985896088526 
-0.01015508407502589 0.2488181743458267 -0.1488117862492379 
-0.2809451078405184 0.2323896479165677 0.3139583662932971 
0.08382200910187798 -0.02477078309352318 -0.03351421547577235 
0.03244426446129896 -0.003915797023854626 -0.03744341932320643 
0.2417047309313224 -0.3363722036478832 -0.1956463955234604 
0.2417047309313224 -0.3363722036478832 -0.1956463955234604 
0.0418978162381051 -0.01131124157976977 -0.04612302039299161 
0.531296450728569 -0.4697120002618118 -0.6204189936345842 
0.03244426446129896 -0.003915797023854626 -0.03744341932320643 
0.01702914559460393 -0.2134872185949004 -0.1315113558095452 
0.01702914559460393 -0.2134872185949004 -0.1315113558095452 
0.05395968491767838 -0.1758036803863327 0.08038626248832399 
0.531296450728569 -0.4697120002618118 -0.6204189936345842 
0.03244426446129896 -0.003915797023854626 -0.03744341932320643 
-0.1029398586252588 -0.03744241493221781 0.1316853549175194 
0.0418978162381051 -0.01131124157976977 -0.04612302039299161 
0.03244426446129896 -0.003915797023854626 -0.03744341932320643 
0.03244426446129896 -0.003915797023854626 -0.03744341932320643 
-0.1551479868005495 -0.2444632020268403 0.4108714002545841 
0.03244426446129896 -0.003915797023854626 -0.03744341932320643 
-0.1029398586252588 -0.03744241493221781 0.1316853549175194 
1.765783851864933 -2.302196727873289 -1.752612511978093 
0.06355937305503753 -0.01520433159815054 -0.06769941673980456 
0.08085290878069926 -0.02993521243950518 -0.08396703778133673 
0.08085290878069926 -0.02993521243950518 -0.08396703778133673 
0.2667125908122803 -0.2328839158558248 -0.3694558378175564 
-0.0349562635271674 -0.3737329138668264 0.03362931822525367 
0.0946897740405036 -0.02579796516060711 -0.09301245033165342 
0.2667125908122803 -0.2328839158558248 -0.3694558378175564 
0.05765357189872854 -0.01250819177013351 -0.0585174052441253 
0.5754128201569267 -0.4680342728359867 -0.7362061488840034 
0.05765357189872854 -0.01250819177013351 -0.0585174052441253 
-0.0349562635271674 -0.3737329138668264 0.03362931822525367 
0.0946897740405036 -0.02579796516060711 -0.09301245033165342 
0.05765357189872854 -0.01250819177013351 -0.0585174052441253 
0.06355937305503753 -0.01520433159815054 -0.06769941673980456 
0.05765357189872854 -0.01250819177013351 -0.0585174052441253 
0.08260796798623443 -0.3849348191197031 0.1054645827887302 
0.5754128201569267 -0.4680342728359867 -0.7362061488840034 
-0.2166897786986096 -0.02352880303596271 0.2403373926159491 
-0.2166897786986096 -0.02352880303596271 0.2403373926159491 
0.08260796798623443 -0.3849348191197031 0.1054645827887302 
0.7262144647212221 -1.228772390819365 -0.5927216463257021 
0.2549672882029005 -0.4922440185158828 -0.1246151260097259 
0.546619825233182 -0.6437856997602098 -0.40045943139785 
0.546619825233182 -0.6437856997602098 -0.40045943139785 
-0.09504303040110072 0.5694836596343322 -0.7154384364020372 
0.274184634826012 0.1018916587887123 -0.4752833533095446 
0.274184634826012 0.1018916587887123 -0.4752833533095446 
0.8347532454192448 -0.9335048999618976 -0.7368688367938337 
0.8347532454192448 -0.9335048999618976 -0.7368688367938337 
0.01520294698256521 -0.005794009211608891 -0.009270841967140439 
0.1550070972922335 -0.2312995913881182 -0.02665310436009841 
1.318962097037091 -0.9974111744035884 -1.212693219936155 
0.01520294698256521 -0.005794009211608891 -0.009270841967140439 
0.8815744581955489 -0.9421755460743763 -0.5249655684176531 
-1.458837269981469 -0.4406781473789759 1.737965133485167 
0.8743081125057253 -0.4977807162414885 -0.8226568474880952 
1.08057452799131 -0.6942462637086695 -1.036299298413323 
0.1465058299014856 -0.03736437494359802 -0.137865226450859 
-0.1579604034098764 -0.4682897298426334 0.1975997411408841 
0.6737359237230531 -0.2805153637123779 -0.6323211916558913 
0.81237079868263 -0.9769845731698064 -0.8140173590465363 
-0.1579604034098764 -0.4682897298426334 0.1975997411408841 
0.1465058299014856 -0.03736437494359802 -0.137865226450859 
0.009302892911818029 -0.005486288879267041 -0.006230538981648491 
0.03324491108935063 -0.0511215377742624 -0.01922455375561815 
0.03324491108935063 -0.0511215377742624 -0.01922455375561815 
-0.2501063025933817 0.1624289064718239 0.2328567638500118 
1.185648166128091 -0.9567600947328874 -1.326465514352664 
0.007661395354806293 -0.125897545080779 0.00635918970775582 
0.4981992342841937 -0.5291222046335653 -0.6467716770849322 
0.1441694238060943 -0.05047057822503571 -0.1581237398138797 
0.007661395354806293 -0.125897545080779 0.00635918970775582 
0.1441694238060943 -0.05047057822503571 -0.1581237398138797 
2.184294384098533 -1.486655564941047 -2.247114364721984 
-0.2501063025933817 0.1624289064718239 0.2328567638500118 
0.8658375388765647 -0.7393084182225407 -0.7232646420396894 
0.8658375388765647 -0.7393084182225407 -0.7232646420396894 
0.4981992342841937 -0.5291222046335653 -0.6467716770849322 
-0.4059469982590509 -0.100514123134981 0.3798742581931615 
0.1072938639659366 -0.04376616360195165 -0.1064974356484276 
0.5600420043976764 -0.5004073130903952 -0.5360625102800204 
-0.2985919112824471 -0.00884044537530455 0.2869891251541349 
0.04076129756005214 -0.02250041788961324 -0.04066008702460107 
0.1940430670038988 -0.3791163025701338 -0.3121557554407904 
0.1072938639659366 -0.04376616360195165 -0.1064974356484276 
0.04076129756005214 -0.02250041788961324 -0.04066008702460107 
0.4911429164744215 -0.4471305771023092 -0.5504824177657698 
0.1940430670038988 -0.3791163025701338 -0.3121557554407904 
0.4911429164744215 -0.4471305771023092 -0.5504824177657698 
-0.2985919112824471 -0.00884044537530455 0.2869891251541349 
0.5600420043976764 -0.5004073130903952 -0.5360625102800204 
0.03544035959933921 -0.01613158695945806 -0.03431031069311988 
-0.02400236924076045 -0.07048511266427193 -0.1700834470186382 
2.251677063398945 -1.800730938805505 -2.02064849061303 
0.2948686497568986 -0.7517864343205595 0.172059248563686 
0.4108634314659566 -1.195586644272837 -0.02546882372021875 
0.004495872625131984 -0.00579813309244605 -0.005171040676547113 
-0.02397037024356671 -1.239734878798694 0.2285426284060783 
0.05537567693328946 -0.01138954960356852 -0.06895467286912468 
0.2807431012557609 -0.1208258696336764 -0.2481358657665156 
0.05537567693328946 -0.01138954960356852 -0.06895467286912468 
0.3375237313518228 -0.6236433293309183 -0.3447062684243274 
0.3448446503696236 -0.1187463530663365 -0.5133124954413117 
0.3448446503696236 -0.1187463530663365 -0.5133124954413117 
0.2807431012557609 -0.1208258696336764 -0.2481358657665156 
0.05537567693328946 -0.01138954960356852 -0.06895467286912468 
0.7478328506128472 -0.4485419997023606 -0.6696292271891184 
0.003452938434023257 -0.004994177000651325 -0.002586423466674635 
0.003452938434023257 -0.004994177000651325 -0.002586423466674635 
0.2246588108855665 -0.2260279416144489 -0.09191895144273009 
0.2246588108855665 -0.2260279416144489 -0.09191895144273009 
-0.3314648709196067 -0.5726400247400715 0.3534177100964231 
0.003452938434023257 -0.004994177000651325 -0.002586423466674635 
0.2066183145890499 -0.1621900142441521 -0.1603982036921997 
0.2978504720762741 -0.1801966660069391 -0.2233352604103841 
0.003452938434023257 -0.004994177000651325 -0.002586423466674635 
-0.3314648709196067 -0.5726400247400715 0.3534177100964231 
0.1774016109145661 -0.1834626975727456 -0.08428681130387729 
0.1889270500138157 -0.1996279816379024 -0.4640079871821302 
-0.1708921539290628 0.04129893623805404 0.07816232464817958 
0.1124845124012031 0.05577385491076031 -0.1585500553828062 
0.1889270500138157 -0.1996279816379024 -0.4640079871821302 
0.1124845124012031 0.05577385491076031 -0.1585500553828062 
-0.2239407674618329 0.02739741885138684 0.2809062538251579 
-0.2239407674618329 0.02739741885138684 0.2809062538251579 
0.7622895394039457 -0.4512775910881617 -0.7690221750704772 
0.7622895394039457 -0.4512775910881617 -0.7690221750704772 
-0.1557247379900539 0.3057880177997183 -0.1485689454331427 
-0.2955107494489998 0.5428930313259711 -0.04530433734246826 
-0.1708921539290628 0.04129893623805404 0.07816232464817958 
-0.1603015766658203 -0.007816285696166665 0.1468191840816322 
-0.0733932157241048 -0.1584060015562199 0.2386925388411663 
-0.1603015766658203 -0.007816285696166665 0.1468191840816322 
0.07199671511197424 -0.2419745499618572 -0.02987497333158391 
-0.02712152069992285 0.08738762309231565 -0.2190266322335102 
-0.01004709579585116 -0.02304973434300098 -0.1347348819302742 
0.3517099238244184 -0.136479183973184 -0.4980243085928328 
-0.01004709579585116 -0.02304973434300098 -0.1347348819302742 
-0.02712152069992285 0.08738762309231565 -0.2190266322335102 
-0.01460814952664103 0.00922146318560281 -0.07159291097014277 
0.3309061944188845 -0.6997962436771673 -0.2584268847040162 
-0.1968750646857269 -0.1400125170290262 0.2510194220253145 
0.008784023809059315 -0.002317505650318773 -0.0090158068335557 
0.3309061944188845 -0.6997962436771673 -0.2584268847040162 
0.008784023809059315 -0.002317505650318773 -0.0090158068335557 
0.7076726786551897 -0.8864108565863813 -0.7474400201264525 
0.7076726786551897 -0.8864108565863813 -0.7474400201264525 
-0.3131058655479751 -0.6459079251012813 0.757904914836258 
0.3517099238244184 -0.136479183973184 -0.4980243085928328 
0.07199671511197424 -0.2419745499618572 -0.02987497333158391 
1.082371472233708 -1.412934247505311 -0.7861936958156645 
0.3322702919594928 -0.02483265887111964 -0.2144406107492972 
0.4204778667249416 0.1522235644967423 -0.669443677072262 
0.4759333703271838 0.0672448538972983 -0.6633055006420669 
0.6780514077241496 -0.74823763455243 -0.620575435254904 
0.2601448563876922 -0.0811790905803713 -0.2665687755905295 
0.2601448563876922 -0.0811790905803713 -0.2665687755905295 
0.2261620375170297 -0.4614850336359683 -0.2526909713854217 
0.08250898385278735 -0.2632674752100476 -0.1072659069951229 
0.08250898385278735 -0.2632674752100476 -0.1072659069951229 
0.4659020350675568 -0.5023724189021872 -0.4075304763728407 
0.6780514077241496 -0.74823763455243 -0.620575435254904 
0.7589396429347759 -0.9034787240384147 -0.7974130884451077 
0.01476710476635938 -0.0003961041971874663 -0.01728630436518584 
0.2261620375170297 -0.4614850336359683 -0.2526909713854217 
0.01476710476635938 -0.0003961041971874663 -0.01728630436518584 
-0.430720669087624 -0.02155009717988916 0.4700056275224044 
0.7589396429347759 -0.9034787240384147 -0.7974130884451077 
0.002373222175521516 -0.002055554420386721 -0.001096987597129271 
-0.4069355195444594 0.4707520549648335 0.1016725207161262 
0.06246573238001985 -0.07487509949477789 -0.167401293950614 
-0.4069355195444594 0.4707520549648335 0.1016725207161262 
0.02138293722246834 -0.5298410112141629 0.3935828746616367 
0.06246573238001985 -0.07487509949477789 -0.167401293950614 
0.02138293722246834 -0.5298410112141629 0.3935828746616367 
0.002373222175521516 -0.002055554420386721 -0.001096987597129271 
0.1569172738234017 -0.06269470517434089 -0.1404193736865639 
0 0 0 
0.05342857925357726 -0.01540898516390424 -0.04935027557780491 
0.3100402421862461 -0.06889109971402531 -0.2535561748509154 
-0.04261234201427214 -0.3055970141053721 -0.1265041971275088 
0.3597413826171084 -0.07229088225026582 -0.4430058678443484 
0.4170487647974461 -0.0767940164768853 -0.3958313645071999 
0.2151628150396293 -0.427138387935801 -0.1387178873533424 
0.05660667640125733 -0.01560357156348064 -0.05195370622579368 
0.3100402421862461 -0.06889109971402531 -0.2535561748509154 
0.2821383866692415 -0.5645071258857904 -0.1078689710800748 
-0.1453364064161781 -0.09897229622641948 0.1461749322825061 
0.07740217264092053 -0.01760484926258667 -0.07778319653800359 
0.05342857925357726 -0.01540898516390424 -0.04935027557780491 
-0.1453364064161781 -0.09897229622641948 0.1461749322825061 
0.1538526204244561 -0.04037690445855495 -0.1520227387080056 
0.003627322891541674 -0.0001357747043391288 -0.00460740478185929 
0.3597413826171084 -0.07229088225026582 -0.4430058678443484 
0.05342857925357726 -0.01540898516390424 -0.04935027557780491 
0.1538526204244561 -0.04037690445855495 -0.1520227387080056 
0.007379812965476486 -0.006098529364706871 -0.008794529233491716 
0.05342857925357726 -0.01540898516390424 -0.04935027557780491 
0.003627322891541674 -0.0001357747043391288 -0.00460740478185929 
-0.3047897103387066 -0.02334114029415191 0.2686447404978407 
-0.02644671493780419 -0.2563710948716219 0.3541498395427286 
0.2948760059741177 -0.159147839262675 -0.2779142375765908 
0.003002507039776086 -0.003275254321215071 -0.002908634844293716 
0.003002507039776086 -0.003275254321215071 -0.002908634844293716 
0.1751487720255115 -0.131172719367173 -0.1792599877693832 
0.01941892169810821 -0.3960803826688671 0.01757691356716207 
0.003002507039776086 -0.003275254321215071 -0.002908634844293716 
0.0451788644229384 -0.01015055151667232 -0.04176426503483208 
0.6605578960211883 -0.3854436231065871 -0.5546364839298817 
0.2090358218851494 -0.1416936524118925 -0.09195211472738135 
0.158363456689215 -0.4434338635117711 -0.1276742149798607 
0.572722800942711 -0.3237160192370429 -0.5842840532888551 
0.6295317386626583 -0.497819950315482 -0.7052338541907661 
0.5054176675332021 -0.1926241817267561 -0.5171679577608729 
0.7081496897899012 -0.7166291312173043 -0.8526051077902761 
0.003002507039776086 -0.003275254321215071 -0.002908634844293716 
0.496237140380574 -0.5099733346861011 -0.2918471889470183 
0.005892822535847957 -0.004497747340491532 -0.004690389419280635 
-0.02065176920655055 -0.07302545186860419 0.01261907085279584 
0.005892822535847957 -0.004497747340491532 -0.004690389419280635 
0.005892822535847957 -0.004497747340491532 -0.004690389419280635 
0.005892822535847957 -0.004497747340491532 -0.004690389419280635 
0.005892822535847957 -0.004497747340491532 -0.004690389419280635 
0.005892822535847957 -0.004497747340491532 -0.004690389419280635 
-0.02065176920655055 -0.07302545186860419 0.01261907085279584 
0.005892822535847957 -0.004497747340491532 -0.004690389419280635 
0.5561954987207844 -0.8508371071614259 -0.5305359495215729 
0.005892822535847957 -0.004497747340491532 -0.004690389419280635 
0.005892822535847957 -0.004497747340491532 -0.004690389419280635 
0.008412820981072764 -0.007919588113022975 -0.007754862492167123 
0.005892822535847957 -0.004497747340491532 -0.004690389419280635 
0.2347993938201384 0.1257549213670837 -0.4571378216452886 
0.09224957781534654 0.1307324282290061 -0.3209713015313665 
0.005892822535847957 -0.004497747340491532 -0.004690389419280635 
0.005892822535847957 -0.004497747340491532 -0.004690389419280635 
0.005892822535847957 -0.004497747340491532 -0.004690389419280635 
0.005892822535847957 -0.004497747340491532 -0.004690389419280635 
0.005892822535847957 -0.004497747340491532 -0.004690389419280635 
0.5361206361571464 -0.3977935471158075 -0.509878112422445 
0.005892822535847957 -0.004497747340491532 -0.004690389419280635 
0.5561954987207844 -0.8508371071614259 -0.5305359495215729 
0.005892822535847957 -0.004497747340491532 -0.004690389419280635 
-1.029575043943098 0.574014171587686 0.6644201517454538 
0.2216525149508797 -0.4881188987150609 -0.03953416164907084 
-0.5018040264542468 -0.1586724786872619 0.6720116601298692 
-0.6255100038341855 -0.1381582011342337 0.7594112854755091 
0.3720804620632933 -0.2113385439792477 -0.2257158222878528 
0.02047546023285067 -0.005611245109424907 -0.02633408005593831 
0.407151320486663 -0.7185799452136153 -0.3573625446627124 
0.407151320486663 -0.7185799452136153 -0.3573625446627124 
0.3759917184407573 -0.2097318132622031 -0.2237710608662499 
0.02047546023285067 -0.005611245109424907 -0.02633408005593831 
0.1059680772118025 0.09398377271914181 -0.3712057363843255 
0.02047546023285067 -0.005611245109424907 -0.02633408005593831 
0.02047546023285067 -0.005611245109424907 -0.02633408005593831 
0.02047546023285067 -0.005611245109424907 -0.02633408005593831 
0.02047546023285067 -0.005611245109424907 -0.02633408005593831 
0.02047546023285067 -0.005611245109424907 -0.02633408005593831 
0.02047546023285067 -0.005611245109424907 -0.02633408005593831 
0.02047546023285067 -0.005611245109424907 -0.02633408005593831 
-0.1552000489407425 0.09512892507090528 0.04212103555171741 
0.02932579612918492 -0.009661965350140208 -0.01840879074000732 
0.02932579612918492 -0.009661965350140208 -0.01840879074000732 
0.02932579612918492 -0.009661965350140208 -0.01840879074000732 
0.02932579612918492 -0.009661965350140208 -0.01840879074000732 
0.4016172174588059 -0.3776349526917949 -0.4503495521104997 
0.02932579612918492 -0.009661965350140208 -0.01840879074000732 
0.02932579612918492 -0.009661965350140208 -0.01840879074000732 
-0.7343583625417195 -0.1860160514104872 0.7075657548987693 
0.02932579612918492 -0.009661965350140208 -0.01840879074000732 
0.02932579612918492 -0.009661965350140208 -0.01840879074000732 
0.4016172174588059 -0.3776349526917949 -0.4503495521104997 
0.02932579612918492 -0.009661965350140208 -0.01840879074000732 
-0.05346664915600813 0.3249143260103489 -0.06074029305564961 
-0.05346664915600813 0.3249143260103489 -0.06074029305564961 
-0.05346664915600813 0.3249143260103489 -0.06074029305564961 
-0.1893218224554529 -0.01197632060184269 0.1589715234816524 
-0.2565199606167984 0.09895515027838253 0.226621621334392 
-0.2332614557225391 0.07943946338386157 0.2054208311478213 
0.324463484104289 0.002453634366435255 -0.4357837105384322 
-0.2332614557225391 0.07943946338386157 0.2054208311478213 
-0.1893218224554529 -0.01197632060184269 0.1589715234816524 
-0.2543374782098016 0.3873782863345515 -0.02651847010534097 
-0.4892848546847006 0.6574338610886064 -0.07376872444194761 
-0.2543374782098016 0.3873782863345515 -0.02651847010534097 
0.324463484104289 0.002453634366435255 -0.4357837105384322 
-0.05346664915600813 0.3249143260103489 -0.06074029305564961 
-0.2543374782098016 0.3873782863345515 -0.02651847010534097 
-0.1374309617436888 -0.8490425429666867 -0.02292355172152299 
-0.4892848546847006 0.6574338610886064 -0.07376872444194761 
0.6662351508420571 -0.599591212456693 -0.5919891522497316 
-0.2543374782098016 0.3873782863345515 -0.02651847010534097 
-0.0945419018226074 -0.4519703439092633 0.221907454619595 
0.3478898709703447 -0.2875830253649366 -0.3239312752908446 
-0.04466071299891196 0.5319007918933009 -0.2054904439911083 
0.1585418960689002 1.089108157229393 -0.8102033340389911 
-0.2543374782098016 0.3873782863345515 -0.02651847010534097 
0.2008708290537935 -0.06246396032420259 -0.03422182295030864 
0.2008708290537935 -0.06246396032420259 -0.03422182295030864 
0.1176847583822061 -0.5350585133659692 -0.09895062305916537 
0.2008708290537935 -0.06246396032420259 -0.03422182295030864 
0.1176847583822061 -0.5350585133659692 -0.09895062305916537 
0.2008708290537935 -0.06246396032420259 -0.03422182295030864 
-0.1563110648828599 -0.2253555324810802 0.04635188238442715 
-0.06289523512649614 0.8317181848043158 -0.3315777994951405 
-0.005823694291831443 -0.559911404833125 0.1803703489101024 
0.4161909652007455 -0.4567178640388033 -0.3281655045571374 
-0.1393426117077459 -0.07690921102226876 0.1232936566192317 
0.2008708290537935 -0.06246396032420259 -0.03422182295030864 
-0.3177668510565818 2.009637028235901 -1.003498655455306 
0.3834790401805438 -0.3614404517264113 -0.2738093081031097 
0.1456577479086615 -0.5338004692304746 -0.05947723249512295 
0.0005955154244716916 -0.0002082870780900666 -0.0003696201840162402 
0.0005955154244716916 -0.0002082870780900666 -0.0003696201840162402 
0.06342901686364899 -0.0714151637091386 -0.02977541580830562 
0.005905801156308991 -0.002696139828017028 -0.009182011495679262 
0.005905801156308991 -0.002696139828017028 -0.009182011495679262 
0.2102648929940785 -0.1189689522139938 -0.1267699712916897 
0.3256988838526103 -0.08929460363578655 -0.2774709395667437 
0.1326700950633564 -0.04488773256332976 -0.1264239140393429 
0.6085699526247944 -0.9940588239756791 -0.4354627807762567 
1.522282670646757 -1.457471742720972 -1.385512691891067 
0.3256988838526103 -0.08929460363578655 -0.2774709395667437 
0.6560226883086919 -0.680451314290954 -0.421446928904877 
0.1721943611565522 -0.08140728440768577 -0.1816097572058082 
0.1721943611565522 -0.08140728440768577 -0.1816097572058082 
0.01193635358930376 -0.008623688407307891 -0.01279687822705004 
0.003033307317037231 -0.002441993625429777 -0.00280893435236599 
0.1256844025945267 -0.4912551336797785 -0.05766734514265977 
0.1256844025945267 -0.4912551336797785 -0.05766734514265977 
0.003033307317037231 -0.002441993625429777 -0.00280893435236599 
0.001034477484534811 -0.001021009122185764 -0.001318484427522869 
0.001034477484534811 -0.001021009122185764 -0.001318484427522869 
0.001034477484534811 -0.001021009122185764 -0.001318484427522869 
0.001034477484534811 -0.001021009122185764 -0.001318484427522869 
0.2742905450734185 -0.7385308623652106 0.07880015734373728 
0.001034477484534811 -0.001021009122185764 -0.001318484427522869 
0.2742905450734185 -0.7385308623652106 0.07880015734373728 
-0.1508426103439071 -0.2587113098383914 0.1879598149524891 
0.001171804829375796 -0.0008518133264605737 -0.000244214659428294 
0.7009589003507609 -0.2101550617664155 -0.6458526968652174 
0.6286403141252342 -0.4002878654039517 -0.8832160332761029 
0.6286403141252342 -0.4002878654039517 -0.8832160332761029 
-0.1508426103439071 -0.2587113098383914 0.1879598149524891 
0.02315579762792158 -0.06611814981976052 -0.01722543512538073 
-0.2205170119772479 0.1816442935020481 0.07992430660978099 
0.1231177260211221 -0.07771078595676197 -0.3520603544117818 
0.1231177260211221 -0.07771078595676197 -0.3520603544117818 
0.001171804829375796 -0.0008518133264605737 -0.000244214659428294 
0.1098292492306564 -0.06691357917092169 -0.1110754617568398 
0.5611910537257456 -0.727944315535066 -0.5657946646079295 
0.1098292492306564 -0.06691357917092169 -0.1110754617568398 
0.07078487288506106 -0.04523795107887493 -0.06655926997622243 
0.05418471378852542 -0.03311797401704406 -0.05500260598087712 
0.05418471378852542 -0.03311797401704406 -0.05500260598087712 
0.05418471378852542 -0.03311797401704406 -0.05500260598087712 
0.07078487288506106 -0.04523795107887493 -0.06655926997622243 
0.4818388799622051 -0.2915506542121867 -0.4657895885610551 
0.4658176082516066 -0.371802118682339 -0.4705214379211621 
0.4658176082516066 -0.371802118682339 -0.4705214379211621 
0.1375892270887869 -0.1874038529338669 -0.1407674237159883 
0.4818388799622051 -0.2915506542121867 -0.4657895885610551 
0.1375892270887869 -0.1874038529338669 -0.1407674237159883 
0.1375892270887869 -0.1874038529338669 -0.1407674237159883 
0.1375892270887869 -0.1874038529338669 -0.1407674237159883 
0.1375892270887869 -0.1874038529338669 -0.1407674237159883 
-0.2740301053490623 -0.09507630835184014 0.3033557410667406 
0.2164450057762396 -0.1121642384820631 -0.2388528084747451 
0.2164450057762396 -0.1121642384820631 -0.2388528084747451 
0.3343846441602757 -0.1762202244400649 -0.3205357688505511 
-0.2740301053490623 -0.09507630835184014 0.3033557410667406 
0.2422270635847172 -0.1204552724860183 -0.2491170581210368 
0.3343846441602757 -0.1762202244400649 -0.3205357688505511 
0.2422270635847172 -0.1204552724860183 -0.2491170581210368 
0.0493177250764944 -0.04271050405467374 -0.0535868914434621 
0.0493177250764944 -0.04271050405467374 -0.0535868914434621 
0.0493177250764944 -0.04271050405467374 -0.0535868914434621 
0.0493177250764944 -0.04271050405467374 -0.0535868914434621 
0.09863545015298868 -0.08542100810934748 -0.107173782886924 
0.1155191520666976 -0.08763374167651958 -0.1174347269225309 
-0.09196808805650268 -0.1130369560707573 0.1014879958314482 
-0.09196808805650268 -0.1130369560707573 0.1014879958314482 
0.3005890860223719 -0.4244614470761455 -0.2767712602901461 
0.1336188443997431 -0.141540037611231 -0.1089168750905963 
0.3496682401319035 -0.3025442399264605 -0.3418152538502844 
0.3496682401319035 -0.3025442399264605 -0.3418152538502844 
0.0493177250764944 -0.04271050405467374 -0.0535868914434621 
0.1155191520666976 -0.08763374167651958 -0.1174347269225309 
0.0493177250764944 -0.04271050405467374 -0.0535868914434621 
0.3005890860223719 -0.4244614470761455 -0.2767712602901461 
0.1336188443997431 -0.141540037611231 -0.1089168750905963 
0.1474287031571836 -0.1226482888511565 -0.1323572267206612 
0.1474287031571836 -0.1226482888511565 -0.1323572267206612 
0.09863545015298868 -0.08542100810934748 -0.107173782886924 
0.2240502671300495 -0.1109161427423793 -0.241831476496721 
0.2240502671300495 -0.1109161427423793 -0.241831476496721 
0.09863545015298868 -0.08542100810934748 -0.107173782886924 
-0.2746739374012804 -0.1684015512737727 0.2222849733685729 
0.4682429216754406 -0.2324176972924461 -0.5153881847053107 
0.2256596908374851 -0.1641378121889402 -0.2172136350025306 
-0.2746739374012804 -0.1684015512737727 0.2222849733685729 
0.08611948421066097 -0.08005604532595741 -0.07720656148580635 
0.4682429216754406 -0.2324176972924461 -0.5153881847053107 
0.2497106355783157 -0.1943298684741953 -0.2402923922189747 
0.08611948421066097 -0.08005604532595741 -0.07720656148580635 
0.2256596908374851 -0.1641378121889402 -0.2172136350025306 
0.2497106355783157 -0.1943298684741953 -0.2402923922189747 
0.1646038388859874 -0.1562854116931981 -0.1458606223708213 
0.2770344856869648 -0.1967918302010782 -0.2662263668999147 
0.1743682081923639 -0.1886143511729514 -0.1746648188043533 
0.3317754729521578 -0.3093799332865156 -0.3380694629829653 
0.1743682081923639 -0.1886143511729514 -0.1746648188043533 
0.08616779742903405 -0.09569549209055074 -0.08657056176223149 
0.168966721556603 -0.1798191366676144 -0.1704252982107326 
0.168966721556603 -0.1798191366676144 -0.1704252982107326 
0.08616779742903405 -0.09569549209055074 -0.08657056176223149 
0.3317754729521578 -0.3093799332865156 -0.3380694629829653 
0.2770344856869648 -0.1967918302010782 -0.2662263668999147 
0.279631124383911 -0.3022899742292061 -0.2806481005435261 
0.1580684789159065 -0.1573413548682576 -0.1629038031818281 
0.1580684789159065 -0.1573413548682576 -0.1629038031818281 
0.3307295158820995 -0.2528988343467275 -0.2551626390979829 
0.3307295158820995 -0.2528988343467275 -0.2551626390979829 
0.1580684789159065 -0.1573413548682576 -0.1629038031818281 
0.1580684789159065 -0.1573413548682576 -0.1629038031818281 
0.1269714288025264 -0.1382537099397565 -0.1357809149163795 
0.1269714288025264 -0.1382537099397565 -0.1357809149163795 
0.1269714288025264 -0.1382537099397565 -0.1357809149163795 
0.1269714288025264 -0.1382537099397565 -0.1357809149163795 
0.1269714288025264 -0.1382537099397565 -0.1357809149163795 
0.05564453544213099 -0.03379560515387765 -0.05607285577596267 
0.05564453544213099 -0.03379560515387765 -0.05607285577596267 
0.05564453544213099 -0.03379560515387765 -0.05607285577596267 
0.05564453544213099 -0.03379560515387765 -0.05607285577596267 
0.05564453544213099 -0.03379560515387765 -0.05607285577596267 
-0.1008464004388787 -0.1305249108120892 0.1198360925839691 
-0.1008464004388787 -0.1305249108120892 0.1198360925839691 
0.05177860976043115 -0.01919386889055525 -0.05516154276776545 
0.04931772507649428 -0.04271050405467374 -0.05358689144346195 
0.04931772507649428 -0.04271050405467374 -0.05358689144346195 
0.04931772507649428 -0.04271050405467374 -0.05358689144346195 
0.04931772507649428 -0.04271050405467374 -0.05358689144346195 
0.04931772507649428 -0.04271050405467374 -0.05358689144346195 
0.04931772507649428 -0.04271050405467374 -0.05358689144346195 
0.1348331493073784 -0.1066024348542388 -0.1390736401155857 
0.1348331493073784 -0.1066024348542388 -0.1390736401155857 
0.147839130865103 -0.1763099319770573 -0.1476651763258469 
0.147839130865103 -0.1763099319770573 -0.1476651763258469 
-0.1666962472266762 -0.1013958404839619 0.2668721748233304 
-0.01593104806487078 0.5212104724684843 -0.06352847706177872 
0.06520288582485069 -0.3801485563508888 -0.02351356171738836 
-0.1437331038712052 -0.2435326390893431 0.2144725418406829 
0.4624203522459646 -0.5211069866473188 -0.5245814864557526 
0.4376059768956076 -0.9597715834252242 -0.3754403324476723 
0.03109705011338015 -0.01908764492850118 -0.02712288826544861 
0.03109705011338015 -0.01908764492850118 -0.02712288826544861 
0.03109705011338015 -0.01908764492850118 -0.02712288826544861 
0.03109705011338015 -0.01908764492850118 -0.02712288826544861 
0.03109705011338015 -0.01908764492850118 -0.02712288826544861 
0.03482131366026504 -0.005012323243285689 -0.03788650367248799 
0.03482131366026504 -0.005012323243285689 -0.03788650367248799 
0.03482131366026504 -0.005012323243285689 -0.03788650367248799 
0.03482131366026504 -0.005012323243285689 -0.03788650367248799 
0.03482131366026504 -0.005012323243285689 -0.03788650367248799 
0.03482131366026504 -0.005012323243285689 -0.03788650367248799 
0.03482131366026504 -0.005012323243285689 -0.03788650367248799 
0.03482131366026504 -0.005012323243285689 -0.03788650367248799 
0.03482131366026504 -0.005012323243285689 -0.03788650367248799 
0.03482131366026504 -0.005012323243285689 -0.03788650367248799 
0.03482131366026504 -0.005012323243285689 -0.03788650367248799 
0.03482131366026504 -0.005012323243285689 -0.03788650367248799 
-0.141727227630667 -0.3203833310595571 0.1669014954634918 
0.20430779971374 -0.2992057750812652 -0.08421546899521429 
-0.1794832744408884 0.2084516201089327 -0.1512790730119005 
0.1074912946695652 -0.03135520185035526 -0.1072690226377536 
0.1074912946695652 -0.03135520185035526 -0.1072690226377536 
0.1074912946695652 -0.03135520185035526 -0.1072690226377536 
0.1074912946695652 -0.03135520185035526 -0.1072690226377536 
0.02377983937193166 -0.5696141926266277 0.1475690690166003 
0.1309156963528702 -0.06029546854316591 -0.1141554110225041 
0.5365437930889621 -0.4520621612336384 -0.3837761880060794 
0.3016219229950206 -0.134557499576339 -0.3300544324875036 
0.4162204692021167 -0.2759867228117563 -0.3685153058099459 
0.5365437930889621 -0.4520621612336384 -0.3837761880060794 
0.0001395496887312475 -0.5180335270123608 -0.08325059885859398 
0.0001395496887312475 -0.5180335270123608 -0.08325059885859398 
0.1309156963528702 -0.06029546854316591 -0.1141554110225041 
0.0002871396344650987 -0.0003526992572978999 -0.0002354283243980435 
0.07507215268114831 -0.0333777148962072 -0.08147089128369073 
0.1685124747024222 0.05873752302927474 -0.225907597687915 
0.2287770824559035 -0.1094001438655779 -0.283966169385919 
0.3695906908821309 -0.01929096894867213 -0.4668716556324303 
0.07507215268114831 -0.0333777148962072 -0.08147089128369073 
0.2117397568597631 -0.09617787384891564 -0.1698035956545448 
0.2287770824559035 -0.1094001438655779 -0.283966169385919 
0.0002871396344650987 -0.0003526992572978999 -0.0002354283243980435 
0.0002871396344650987 -0.0003526992572978999 -0.0002354283243980435 
0.002180252601790295 -0.0006647274990339554 -0.002700054640616844 
0.0002871396344650987 -0.0003526992572978999 -0.0002354283243980435 
-0.1042734312457321 -0.04192689559494243 -0.2468807677311907 
0.0002871396344650987 -0.0003526992572978999 -0.0002354283243980435 
0.0002871396344650987 -0.0003526992572978999 -0.0002354283243980435 
0.7001657973071799 -0.3170178429994282 -0.4932020765064533 
0.0002871396344650987 -0.0003526992572978999 -0.0002354283243980435 
0.5753187194187932 -0.5686275157130587 -0.5547101075611007 
0.2117397568597631 -0.09617787384891564 -0.1698035956545448 
0.1685124747024222 0.05873752302927474 -0.225907597687915 
0.002180252601790295 -0.0006647274990339554 -0.002700054640616844 
0.2451251769721572 -0.07061505449853725 -0.1967923623788135 
0.606505908218721 -0.8920098922860921 -0.4394159894347107 
0.7001657973071799 -0.3170178429994282 -0.4932020765064533 
0.3911026337097323 -0.6678945008864172 -0.1595724717786723 
0.0002871396344650987 -0.0003526992572978999 -0.0002354283243980435 
-0.223418547499937 -0.04749823570637074 0.1631641162277739 
0.008793221796952012 -0.002839979379794121 -0.01090631646450937 
0.4676997251634881 -0.1851134654626268 -0.3316144605076148 
0.06617405221976294 -0.035046513512804 -0.07212040247068706 
0.008793221796952012 -0.002839979379794121 -0.01090631646450937 
0.366575391688955 -0.2385198063092192 -0.2429056027086625 
0.089171584523588 -0.06904785031460357 -0.0183246885632827 
0.1943772362115856 -0.1133077801442824 -0.07310165741357923 
0.06617405221976294 -0.035046513512804 -0.07212040247068706 
0.01858852306974548 -0.01552713260800763 -0.01712074549086039 
0.01858852306974548 -0.01552713260800763 -0.01712074549086039 
0.3525493533276159 -0.6715791958599734 -0.2251226227929274 
0.135268454092867 -0.02336411566285081 -0.1295280536022625 
0.004067383967348815 -0.001576724923890652 -0.003362421360202816 
0.01766787239578604 -0.02003775091166963 -0.01172708249667329 
0.135268454092867 -0.02336411566285081 -0.1295280536022625 
0.004067383967348815 -0.001576724923890652 -0.003362421360202816 
0.1606243398438185 -0.09864623729984284 -0.08937159907248073 
0.5235621612387804 -0.4346188976511682 -0.4701758597489846 
-0.1988888563922336 -0.07282588012651213 0.1630101010336739 
0.5235621612387804 -0.4346188976511682 -0.4701758597489846 
0.004067383967348815 -0.001576724923890652 -0.003362421360202816 
0.01142428907138478 -0.01206779644971529 -0.01385785003502499 
-0.1319685050809188 -0.4160809435429479 0.09526186456241831 
0.03378179332396553 -0.03034205840476329 -0.03894036768254004 
0.03378179332396553 -0.03034205840476329 -0.03894036768254004 
0.2508133673575889 -0.08135347050579719 -0.2510196231801934 
-0.09085624785151611 -0.05320688898828407 0.08799265685753954 
-0.05311227708008896 -0.6169221434851249 0.2686840431695033 
-0.09085624785151611 -0.05320688898828407 0.08799265685753954 
0.01142428907138478 -0.01206779644971529 -0.01385785003502499 
0.003808703913063885 -0.0006603242154542496 -0.005950931821635806 
0.0540623402487669 -0.02829993585150663 -0.06433304945642331 
0.0540623402487669 -0.02829993585150663 -0.06433304945642331 
0.1466056964376471 -0.08517107171411376 -0.2403236030342298 
-0.2760152792574001 -0.5553320850362933 0.4192464956771181 
1.209565251282052 -1.065846413310568 -1.244341986789517 
0.0540623402487669 -0.02829993585150663 -0.06433304945642331 
0.04024654280053445 -0.231789100607549 -0.09982992498250612 
0.0540623402487669 -0.02829993585150663 -0.06433304945642331 
0.0540623402487669 -0.02829993585150663 -0.06433304945642331 
0.0540623402487669 -0.02829993585150663 -0.06433304945642331 
0.01275182991320155 -0.2265727684765269 -0.08233344934627693 
1.579788071342246 -1.059296393041491 -1.363712487140593 
0.4350337159477105 -0.5036301172232307 -0.3701847563283202 
0.04014201752632842 -0.02515252782749688 -0.02140582958819429 
0.1242244141727307 -0.1810569289970783 -0.06960447711204287 
0.01046200047577255 -0.01756632757443165 -0.01233159960083564 
-0.9085909330868887 -0.3103330390799115 0.8541067975342406 
0.01046200047577255 -0.01756632757443165 -0.01233159960083564 
-1.310119845862739 -0.2811177112738844 1.314992940459473 
0.004242030404480134 -0.01954859808438019 0.001848257093134117 
-0.06395644890532612 -0.341161153762006 -0.04345854653754846 
-0.8911912558752951 -0.3032076985093915 0.8550813677490272 
0.2631689491638399 -0.2284104098399829 -0.2148556056590637 
-0.06395644890532612 -0.341161153762006 -0.04345854653754846 
-1.649927580387463 -0.2862604768707997 1.761049269431086 
-0.008254557019111703 -0.01808703035723014 0.0068455063784129 
0.0005294417238899249 -0.0002905230433001661 -0.0002391848234196026 
0.07500977730097963 -0.001746021854897495 -0.09468603780763603 
0.0005294417238899249 -0.0002905230433001661 -0.0002391848234196026 
0.0005294417238899249 -0.0002905230433001661 -0.0002391848234196026 
0.0005294417238899249 -0.0002905230433001661 -0.0002391848234196026 
0.0005294417238899249 -0.0002905230433001661 -0.0002391848234196026 
0.0005294417238899249 -0.0002905230433001661 -0.0002391848234196026 
0.07500977730097963 -0.001746021854897495 -0.09468603780763603 
0.0005294417238899249 -0.0002905230433001661 -0.0002391848234196026 
-0.01918144058637374 -0.2999284345052857 0.1746826495187268 
-0.00654937613671186 -0.1242630088036696 0.1201808513575233 
0.0005294417238899249 -0.0002905230433001661 -0.0002391848234196026 
0.2089593304100578 -0.1299887076614294 -0.2002042960173346 
0.09454831229265288 -0.02183387975095537 -0.1059387628279201 
0.0718337874143406 -0.01182324416872848 -0.08273958643899745 
0.0718337874143406 -0.01182324416872848 -0.08273958643899745 
0.0718337874143406 -0.01182324416872848 -0.08273958643899745 
0.4552758179070214 -1.36383857607868 -0.3883842734152456 
0.0718337874143406 -0.01182324416872848 -0.08273958643899745 
0.0718337874143406 -0.01182324416872848 -0.08273958643899745 
0.4552758179070214 -1.36383857607868 -0.3883842734152456 
0.09454831229265288 -0.02183387975095537 -0.1059387628279201 
0.0718337874143406 -0.01182324416872848 -0.08273958643899745 
-0.2892571190717479 -0.03451611653080817 0.253127287124937 
0.3418367325814635 -0.3971131002967809 -0.2350418155337009 
0.1708026553841199 -0.2208788289407415 -0.2681570563010661 
0.0548756862731398 -0.01577899560253268 -0.02010882896068899 
0.5320151143095978 -0.2959379295217639 -0.6643158514032728 
0.3418367325814635 -0.3971131002967809 -0.2350418155337009 
-0.2892571190717479 -0.03451611653080817 0.253127287124937 
0.1626265671751939 -0.4555829959837082 -0.123930682414757 
0.0548756862731398 -0.01577899560253268 -0.02010882896068899 
-0.0873826776489023 -0.1308869525491251 -0.0385437743792133 
0.01517891878722321 -0.3249296971007337 0.05721441341111001 
0.5320151143095978 -0.2959379295217639 -0.6643158514032728 
-0.0873826776489023 -0.1308869525491251 -0.0385437743792133 
0.1626265671751939 -0.4555829959837082 -0.123930682414757 
0.01517891878722321 -0.3249296971007337 0.05721441341111001 
0.1708026553841199 -0.2208788289407415 -0.2681570563010661 
-0.1980682549551025 -0.2532914773617724 0.3752882723346436 
0.1831147929564374 -0.008287648528311192 -0.1403514592451192 
0.1831147929564374 -0.008287648528311192 -0.1403514592451192 
0.108829913467834 -0.1430028875430288 0.04842074356675511 
0.4277719862790158 -0.07989781845024162 -0.6041559262542257 
0.09300203976091706 -0.07676237856154929 -0.3416024611684161 
0.2406989740786658 0.08438967816441484 -0.411309347913784 
0.3002339631723588 -0.2526092371500691 -0.1064111364977074 
0.2671815300539799 -0.01143229450920353 -0.2469966627555778 
0.2406989740786658 0.08438967816441484 -0.411309347913784 
0.2671815300539799 -0.01143229450920353 -0.2469966627555778 
0.5826715407525129 -0.2154803198816526 -0.4230416003721235 
0.3565273911256773 -0.1213686212139737 -0.3099293639535338 
0.419651113396087 -0.1511369853669257 -0.3639416406678003 
-0.217332343601028 -0.2171404777802508 0.2473699511668234 
-0.2124459302937978 -0.05688995060922566 0.2604191253302808 
0.8577903786727935 -0.485004397666397 -0.8519053879034058 
-0.2363449977126662 -0.2596112270752818 0.2987771779452387 
-0.09059761495362695 -0.2848736449158282 0.3036539889458251 
-0.6645573192352051 -0.2271905806466525 0.6190804919223104 
-0.2483434270142264 -0.05563820324429058 0.299493620090829 
0.1831147929564374 -0.008287648528311192 -0.1403514592451192 
0.1831147929564374 -0.008287648528311192 -0.1403514592451192 
-0.2363449977126662 -0.2596112270752818 0.2987771779452387 
0.1802053343091201 -0.00522927852213317 -0.1375299761572095 
0.2711132394962177 -0.08356936572485127 -0.2286704216250952 
-0.949547556697605 -0.1395775760933247 0.8022462952744743 
0.4719186460371972 -0.3272068757392328 -0.489761367727211 
0.6168674309380278 -0.2813809397489627 -0.6928476234225023 
0.1620669657665883 -0.207211905190672 -0.1801217045228573 
0.2851363990289385 -0.5262824648498682 -0.2393342298913736 
1.280206723285803 -0.6674380512952206 -0.990457343908012 
0.2004279576399933 -0.2425428177182631 -0.2320727348125287 
0.205776870622085 -0.5394846676491231 -0.2303222227431402 
-0.5058062905367188 -0.1375859240170555 0.4907645391505451 
0.1478770763043932 -0.5351747937279852 -0.190114998298522 
0.4719186460371972 -0.3272068757392328 -0.489761367727211 
0.2815763168252874 -0.5197906981396494 -0.1451689242569606 
0.2815763168252874 -0.5197906981396494 -0.1451689242569606 
0.002909458647317348 -0.003058370006178022 -0.002821483087909695 
0.02851616868060704 0.2882430809275909 -0.1119295750249494 
0.01316258367146958 -0.00192019414716135 -0.01143512175835267 
0.1806049313948024 -0.03726265769480497 -0.1937572056160324 
0.07750801630083461 -0.01441316033861421 -0.08414006778270768 
0.1806049313948024 -0.03726265769480497 -0.1937572056160324 
0.06641696375125906 -0.01337167607665886 -0.07200770855526359 
-0.004442228744015876 -0.2693766660126275 -0.08286871973176507 
0.07970426297060702 -0.4623644510102797 0.04473177606758868 
0.01316258367146958 -0.00192019414716135 -0.01143512175835267 
0.0993521739162351 -0.007293279998707851 -0.08021928113759699 
-0.5852660968682283 0.2277574302599234 0.53366615163315 
0.2747071875912961 -0.1594275810227429 -0.1525885784599754 
0.0993521739162351 -0.007293279998707851 -0.08021928113759699 
-0.4550004409944268 -0.01589815072564334 0.5456593016274932 
0.04311602035637892 -0.001039910429414787 -0.06228099689761485 
-0.3059109882670555 -0.1388562831406898 0.340837604817568 
0.1204488541881494 -0.2454948666830975 -0.03300786849967344 
0.1204488541881494 -0.2454948666830975 -0.03300786849967344 
0.0136222782930471 -0.06343806997904793 -0.03938632561255515 
0.04311602035637892 -0.001039910429414787 -0.06228099689761485 
0.04311602035637892 -0.001039910429414787 -0.06228099689761485 
0.1287192538005206 -0.4248238394794508 -0.04504105268274167 
0.04311602035637892 -0.001039910429414787 -0.06228099689761485 
-0.3059109882670555 -0.1388562831406898 0.340837604817568 
0.0136222782930471 -0.06343806997904793 -0.03938632561255515 
0.0458279109339147 -0.639643611701335 0.1189183604754131 
-0.4173159972829463 0.3258073891694631 0.2022726587091676 
-0.4173159972829463 0.3258073891694631 0.2022726587091676 
0.1075582183852693 -0.1537388465188452 -0.1743183647928443 
0.1075582183852693 -0.1537388465188452 -0.1743183647928443 
-0.1748484559268967 0.8702730531333183 -0.3766470011031002 
0.1168303982411039 -0.006687713247576608 -0.1299562531921185 
0.1168303982411039 -0.006687713247576608 -0.1299562531921185 
0.1245337552139207 -0.2066951985082297 -0.002366344252021486 
0.2112474072371919 -0.3444862387303686 -0.1309458475604617 
-0.3659010661892528 -0.238839401992811 0.4591025277884271 
-0.5983643839926456 0.2406392290935353 0.5716613504601284 
0.3633158662829957 -0.2736860064338282 -0.2452250869703181 
-0.1075126139097315 -0.2855504342884136 0.2868781518748419 
-0.7865753232064268 0.7035432822560838 0.2305726162905581 
0.1499368470718178 -0.3846855371995233 -0.1032874165566367 
0.4480141148533686 -0.06132418450583625 -0.6196934369127636 
0.4480141148533686 -0.06132418450583625 -0.6196934369127636 
0.02749471288733292 -0.005216332131022017 -0.01749647563622914 
0.02749471288733292 -0.005216332131022017 -0.01749647563622914 
0.1389394085194973 -0.2715504535666515 -0.1674852957692751 
0.509175550602441 -0.6585382455869997 -0.2396712002182565 
0.02749471288733292 -0.005216332131022017 -0.01749647563622914 
0.1389394085194973 -0.2715504535666515 -0.1674852957692751 
0.2112474072371919 -0.3444862387303686 -0.1309458475604617 
0.04788872591755396 -0.4386541617973771 0.1343745151059379 
0.1663410659699234 -0.05280941992081808 -0.5161197309927116 
0.01053219208824621 -0.0005697372292116807 -0.01620675697968018 
0.3023788436522376 -0.1506531547529795 -0.4162538945203637 
0.008579591338289897 -0.001582846581265814 -0.0146843923901216 
0.3023788436522376 -0.1506531547529795 -0.4162538945203637 
0.05915079866727763 -0.03004535149229107 -0.05972538130476937 
-0.3398077345247231 -0.00514276559691536 0.4460563289716132 
0.6679552892234081 -0.4915559758964447 -0.5306211776305363 
0.5917724125180965 -0.8160422820395485 -0.3986539766096869 
0.008579591338289897 -0.001582846581265814 -0.0146843923901216 
0.2282495810644625 -0.1363616025164632 -0.1809836819755627 
0.5917724125180965 -0.8160422820395485 -0.3986539766096869 
0.6679552892234081 -0.4915559758964447 -0.5306211776305363 
0.01053219208824621 -0.0005697372292116807 -0.01620675697968018 
-0.3714616265331429 -0.04313309528652843 0.4318664269518869 
-0.3714616265331429 -0.04313309528652843 0.4318664269518869 
0.2859636459681029 -0.2714782770966559 -0.3114599144718795 
0.00418966929809741 -4.680375972006861e-05 -0.002882558527766515 
-0.08832816371646884 -0.3873412844242226 0.2085889220593772 
0.2859636459681029 -0.2714782770966559 -0.3114599144718795 
0.4331025655562537 -0.3150058751985292 -0.2931575803549471 
0.04149256668108981 -0.0999178209240784 -0.1131839466829156 
0.00418966929809741 -4.680375972006861e-05 -0.002882558527766515 
0.04149256668108981 -0.0999178209240784 -0.1131839466829156 
0.2820300701560391 -0.5801942346358465 -0.1990723987944779 
1.132838941251514 -0.7439202095613313 -1.026946229400573 
0.05963540382792746 0.03016104247224551 -0.2258563523827428 
-0.766355203379625 -0.03915886792622505 0.9075740653783358 
0.05963540382792746 0.03016104247224551 -0.2258563523827428 
-0.08838496913777025 0.1155365961197659 -0.226870768087604 
0.1276310490413861 -0.007293746332390109 -0.121549721117765 
-0.08832816371646884 -0.3873412844242226 0.2085889220593772 
0.2820300701560391 -0.5801942346358465 -0.1990723987944779 
0.9977742286277393 -0.7024325912333423 -0.8827179363336549 
0.3506320237920495 -0.4296235789342585 -0.431521601034267 
0.2206182778024566 -0.9090792567459647 0.04396696770826318 
0.001495060371870983 -7.476138089979693e-05 -0.001351449037227308 
0.3506320237920495 -0.4296235789342585 -0.431521601034267 
0.2417655309739211 -0.3055519105684729 -0.1198027117727787 
0.5286312451069285 -0.5388723429997397 -0.3714186305071223 
-0.2316361091584077 -0.01478383080363923 0.2613215001311648 
0.3256192891380708 -0.2970197981839094 -0.4354039715785528 
-0.2316361091584077 -0.01478383080363923 0.2613215001311648 
-0.2417205939137376 -0.4876192860398965 0.2641824910087937 
0.001495060371870983 -7.476138089979693e-05 -0.001351449037227308 
0.004571955722263842 -0.0005033878375965355 -0.01110811393830211 
0.3824761623666375 -0.617625276370004 -0.337950792589514 
0.0550605664608905 -0.01600400245120892 -0.05804685205403951 
0.0550605664608905 -0.01600400245120892 -0.05804685205403951 
0.004571955722263842 -0.0005033878375965355 -0.01110811393830211 
0.3824761623666375 -0.617625276370004 -0.337950792589514 
0.06348225991071918 -0.0051784048707047 -0.1072509974681698 
0.4113197045071298 -0.1278758155530476 -0.4919921162739619 
0.07727744585333916 -0.3736384450666519 -0.08811841823567916 
0.8555753252410051 -0.5874668236558643 -0.8197668290344963 
0.4670934843389087 -0.3008569871266133 -0.3804273518477005 
1.108184632319941 -0.3629296610950916 -0.9244750554814614 
0.8555753252410051 -0.5874668236558643 -0.8197668290344963 
0.4113197045071298 -0.1278758155530476 -0.4919921162739619 
0.07727744585333916 -0.3736384450666519 -0.08811841823567916 
0.4670934843389087 -0.3008569871266133 -0.3804273518477005 
0.473569690329311 -0.1153410785099268 -0.5129980593729586 
0.1338180733406739 -0.06736466912443689 0.01515246760026428 
-0.07261038598339081 -0.05342036143085745 0.2212763468653364 
0.1794351013943125 -0.1707193500512734 -0.1599600236012252 
0.7216992355864679 -0.4587906574316301 -0.685215076871018 
0.1026925021720009 0.0257794457107262 -0.2722191436324263 
0.1026925021720009 0.0257794457107262 -0.2722191436324263 
-0.16255225616785 0.301426855879929 -0.1655006885907771 
0.7149546746744114 -0.3018090824971995 -0.5658490216850401 
-0.3815992057218847 0.3236197397062783 -0.004377262711634064 
0.1794351013943125 -0.1707193500512734 -0.1599600236012252 
0.2219285616384581 -0.1646172916439439 -0.4037280856535014 
-0.3815992057218847 0.3236197397062783 -0.004377262711634064 
0.06339086722052911 0.2368994938241881 -0.3219105560514983 
0.1078215358978541 -0.05408105318253371 -0.09417992639875666 
-0.1319835657549931 -0.2412815979221208 0.2299777539128851 
0.451305703955815 0.1326753263217468 -0.5889789271693172 
0.1407650016302292 0.2236474027804138 -0.458490279978917 
0.1350834701902037 -0.01379476783692022 -0.3458676295084937 
-0.6404067278296278 0.7712812386997433 0.3523557108421758 
-0.1086458825359693 0.06552047926384019 0.1365818048483073 
0.1777880828507942 -0.2877924847085443 -0.1019602254402642 
-0.1086458825359693 0.06552047926384019 0.1365818048483073 
-0.3076206101035435 0.2210351421621875 0.2244281416763395 
-0.3076206101035435 0.2210351421621875 0.2244281416763395 
0.1407650016302292 0.2236474027804138 -0.458490279978917 
-0.4312228636964338 0.6152806014975686 -0.001244800438338665 
-0.6404067278296278 0.7712812386997433 0.3523557108421758 
-0.1319835657549931 -0.2412815979221208 0.2299777539128851 
-0.02612154153321627 -0.07534573040852158 0.01105256716113563 
0.5431891786908427 -0.6860807778900471 -0.3313124990603775 
-0.2334436982204 -0.004297989360373919 0.2351517868409508 
0.2108266455426093 -0.2973998464323772 -0.2401272905103287 
-0.2334436982204 -0.004297989360373919 0.2351517868409508 
-0.2334436982204 -0.004297989360373919 0.2351517868409508 
-0.2334436982204 -0.004297989360373919 0.2351517868409508 
0.2108266455426093 -0.2973998464323772 -0.2401272905103287 
-0.2334436982204 -0.004297989360373919 0.2351517868409508 
-0.102784472031725 -0.07550208109901335 0.1204306042917727 
-0.7364993651638537 -0.03066858065071439 0.7210521643445863 
-0.102784472031725 -0.07550208109901335 0.1204306042917727 
-0.2334436982204 -0.004297989360373919 0.2351517868409508 
-0.6247138139670938 -0.04920305888141058 0.5873240547894688 
-0.2239894228513833 -0.01920491212798769 0.2291679742428038 
-0.2239894228513833 -0.01920491212798769 0.2291679742428038 
-0.1245408970972302 -0.01087801120898081 0.140800455512183 
-0.2171315980718567 -0.02539186742095638 0.2571279167532071 
-0.2171315980718567 -0.02539186742095638 0.2571279167532071 
-0.4837826246117699 0.5186460835668866 0.1907487610396826 
-0.2171315980718567 -0.02539186742095638 0.2571279167532071 
0.08070787801292841 -0.08268759442887086 -0.1512765479779583 
-0.2171315980718567 -0.02539186742095638 0.2571279167532071 
-0.3569086196428406 -0.06392406293611116 0.4515621746551937 
-0.3569086196428406 -0.06392406293611116 0.4515621746551937 
-0.895537119285328 0.6381440444667635 0.5616742259680234 
-0.2171315980718567 -0.02539186742095638 0.2571279167532071 
-0.2171315980718567 -0.02539186742095638 0.2571279167532071 
0.08070787801292841 -0.08268759442887086 -0.1512765479779583 
-0.2171315980718567 -0.02539186742095638 0.2571279167532071 
-0.2171315980718567 -0.02539186742095638 0.2571279167532071 
0.2264884364185946 -0.1969758473295183 -0.01002013240823707 
-0.3489180101867521 -0.07519169223530174 0.3730842064437976 
-0.3489180101867521 -0.07519169223530174 0.3730842064437976 
-0.3489180101867521 -0.07519169223530174 0.3730842064437976 
-0.02586664966509273 0.01572438558327749 0.04804459197262075 
-0.05743077026859687 -0.0314780820762334 0.08014958739534783 
-0.09494990359146718 -0.02640705440648148 0.1177674314147018 
-0.05743077026859687 -0.0314780820762334 0.08014958739534783 
-0.09494990359146718 -0.02640705440648148 0.1177674314147018 
-0.3489180101867521 -0.07519169223530174 0.3730842064437976 
-0.2247104794008683 -0.07780813342324482 0.2627115552982967 
-0.09494990359146718 -0.02640705440648148 0.1177674314147018 
-0.09494990359146718 -0.02640705440648148 0.1177674314147018 
-0.02586664966509273 0.01572438558327749 0.04804459197262075 
-0.09494990359146718 -0.02640705440648148 0.1177674314147018 
-0.1943765811666932 -0.002351500577857424 0.1793783486113076 
0.2131949018271201 -0.536684025192106 -0.2165230899749668 
-0.1943765811666932 -0.002351500577857424 0.1793783486113076 
-0.1943765811666932 -0.002351500577857424 0.1793783486113076 
-0.1953333639024391 -0.002629731513641285 0.1839620002463563 
-0.1943765811666932 -0.002351500577857424 0.1793783486113076 
-0.4307425614108273 -0.04955540498976544 0.4678170619893169 
-0.1943765811666932 -0.002351500577857424 0.1793783486113076 
-0.1943765811666932 -0.002351500577857424 0.1793783486113076 
-0.1943765811666932 -0.002351500577857424 0.1793783486113076 
-0.1943765811666932 -0.002351500577857424 0.1793783486113076 
0.2131949018271201 -0.536684025192106 -0.2165230899749668 
-0.05959152542859171 -0.04643313725096284 0.0759384264177882 
-0.05959152542859171 -0.04643313725096284 0.0759384264177882 
-0.05959152542859171 -0.04643313725096284 0.0759384264177882 
-0.05959152542859171 -0.04643313725096284 0.0759384264177882 
-0.05959152542859171 -0.04643313725096284 0.0759384264177882 
0.02000490761894862 -0.3080765591532936 0.02483539626163589 
0.02000490761894862 -0.3080765591532936 0.02483539626163589 
-0.05959152542859171 -0.04643313725096284 0.0759384264177882 
-0.311530108842971 0.3318974993846062 0.03698703285292167 
-0.04627682586791428 -0.04660818507275306 0.06561686245525399 
0.2216542028833786 -0.06260658089220782 -0.2738577379647177 
0.544755562258127 -0.27234837132942 -0.5247478906714254 
-0.03727756478126198 -0.009965134674014694 0.03718311585668685 
-0.03727756478126198 -0.009965134674014694 0.03718311585668685 
-0.03727756478126198 -0.009965134674014694 0.03718311585668685 
-0.03727756478126198 -0.009965134674014694 0.03718311585668685 
-0.9967569671461562 -0.0700780801468783 0.8496754942664089 
-0.03727756478126198 -0.009965134674014694 0.03718311585668685 
-0.9967569671461562 -0.0700780801468783 0.8496754942664089 
-0.03727756478126198 -0.009965134674014694 0.03718311585668685 
-0.5419627793391499 -0.1153633239072883 0.5183604165277444 
0.002870271293341795 -0.003353271561526264 -0.00244336390162317 
0.002870271293341795 -0.003353271561526264 -0.00244336390162317 
0.04481421571833152 -0.04788762144866136 -0.04355195384739664 
0.04481421571833152 -0.04788762144866136 -0.04355195384739664 
0.4804593960528643 -0.2507755546845173 -0.4828995695893122 
0.01206039976980589 -0.008109277931214054 -0.008986596433656339 
0.01206039976980589 -0.008109277931214054 -0.008986596433656339 
0.7312803423062846 -0.3291696544676473 -0.641504153596675 
0.04219486925078524 -0.04453895576381695 -0.0328310717975092 
0.04219486925078524 -0.04453895576381695 -0.0328310717975092 
0.1030388970284788 -0.2820181103122922 -0.3263010417584993 
0.4804593960528643 -0.2507755546845173 -0.4828995695893122 
0.7312803423062846 -0.3291696544676473 -0.641504153596675 
-0.09616789572784327 -0.03927788752290349 0.1469780380307708 
0.00486410394035291 -0.0008885758299129209 -0.003702417554663152 
0.00486410394035291 -0.0008885758299129209 -0.003702417554663152 
0.006713959999180716 -0.006781779658479795 -0.005073551934707962 
0.01594742358058739 0.07862054656533497 -0.0907452608900175 
0.006713959999180716 -0.006781779658479795 -0.005073551934707962 
-0.09616789572784327 -0.03927788752290349 0.1469780380307708 
0.01594742358058739 0.07862054656533497 -0.0907452608900175 
0.5488343334543555 -0.4486674045751591 -0.5250475151317393 
0.5488343334543555 -0.4486674045751591 -0.5250475151317393 
0.02344243392071014 -0.004463108765525287 -0.02090521485453778 
-0.2496340030483534 0.3313196274334608 0.4259732053803852 
-1.04938761392897 0.9742467831209991 0.4280439157796183 
-0.144015836783614 -0.3215276510779206 0.2591587962195325 
0.4467136166761561 -0.2491212289478095 -0.3871557430768971 
0.4467136166761561 -0.2491212289478095 -0.3871557430768971 
-0.144015836783614 -0.3215276510779206 0.2591587962195325 
0.03687280152756185 -0.1705275652867884 -0.1925172005425163 
0.002606203262797712 -0.0003945989344690912 -0.003184273133127053 
0.001894391076909281 -0.0001515801084028241 -0.002119480707386917 
0.001894391076909281 -0.0001515801084028241 -0.002119480707386917 
0.06140579310802105 -0.02627986504651626 -0.0317012147302012 
0.1089104271077905 -0.03555555282979083 -0.06901551845849783 
0.4524146560075109 -0.3615277117815581 -0.3950697189420279 
-0.1034871951026105 -0.09393125921507578 0.1637296775559852 
0.1237167851615202 -0.04175783184377585 -0.1087840811053584 
-0.3823598106772511 0.1967866919746691 0.2410223636184125 
-0.3823598106772511 0.1967866919746691 0.2410223636184125 
-0.2333445538109639 0.1108588802320592 0.05579371341861316 
0.06704085418641949 -0.02576965618823715 -0.06024152070178102 
-0.1034871951026105 -0.09393125921507578 0.1637296775559852 
0.02266168947337902 -0.00271365350629397 -0.03313047797352948 
0.001894391076909281 -0.0001515801084028241 -0.002119480707386917 
0.6198794618448324 -0.7015105654909234 -0.5771591685242489 
0.1237167851615202 -0.04175783184377585 -0.1087840811053584 
0.2308104504284967 -0.1522042458711988 -0.2831132392790754 
0.6198794618448324 -0.7015105654909234 -0.5771591685242489 
0.02266168947337902 -0.00271365350629397 -0.03313047797352948 
0.001894391076909281 -0.0001515801084028241 -0.002119480707386917 
-0.1629895045567635 -0.05597395002266739 0.1253321408553795 
0.1731580653753868 -0.03517237498919622 -0.1091034910481309 
-0.0544353207052993 -0.01806900264399292 0.03952020203767434 
-0.003734492578067967 -0.2398075141065101 -0.1425776543323533 
-0.003734492578067967 -0.2398075141065101 -0.1425776543323533 
-0.1842767354028721 0.275102743831962 -0.1333142333651183 
0.2070989116118256 -0.02161204644204542 -0.2192510104280743 
-0.0544353207052993 -0.01806900264399292 0.03952020203767434 
0.2070989116118256 -0.02161204644204542 -0.2192510104280743 
1.311746163091909 -0.4802466989055328 -1.156246636390567 
0.06337748078027658 -0.006519103458140431 -0.07731844954378898 
0.01070824297498614 -0.00221396768746166 -0.002599713000372454 
0.01463196352257327 -0.002385133238870291 -0.01087196153327133 
0.5002018554554493 -0.727034657815764 -0.2524328901173023 
0.09304307097878724 -0.2678045000306604 -0.1845157174949867 
0.08923629243746355 -0.1661483741240957 -0.09060315001879084 
0.8719497112142346 -0.7124514786070801 -0.7541407317394303 
0.0162426364147219 -0.002832660327007281 -0.01228186156020695 
0.0299371965429094 -0.00982775105748776 -0.02398934925941887 
0.0162426364147219 -0.002832660327007281 -0.01228186156020695 
-0.3446789070822607 0.04354312008492497 0.08085349661089256 
0.08923629243746355 -0.1661483741240957 -0.09060315001879084 
0.01463196352257327 -0.002385133238870291 -0.01087196153327133 
0.1565536878545108 -0.6997568604434685 0.03039834715346265 
0.01463196352257327 -0.002385133238870291 -0.01087196153327133 
-0.1574764753860672 0.262685308779624 -0.0765984893456151 
-0.1363744830238917 -0.1295514630557673 0.1557712796817841 
-0.1363744830238917 -0.1295514630557673 0.1557712796817841 
0.2594653603689817 -0.09077289268103471 -0.2677530977983571 
-0.5815026211317581 0.3668905701298155 0.4725414327772188 
-0.243920088406006 0.2442313007650506 0.2754018854309168 
-0.1828975778083947 0.4762361466788441 -0.08238920830947083 
-0.05903529283767797 0.1690128996542005 0.1826236121861023 
0.1330732427318922 -0.2092852325854352 -0.1245439997553986 
0.005653124884767767 0.3166548504609051 -0.2919256519924658 
0.005653124884767767 0.3166548504609051 -0.2919256519924658 
-0.5815026211317581 0.3668905701298155 0.4725414327772188 
-0.1828975778083947 0.4762361466788441 -0.08238920830947083 
-0.3556631235017515 0.4694201060241421 0.01204958859701774 
-0.1735989142928107 0.2982561055510635 0.03889178692338319 
-0.01458992771883055 0.3762560020574574 0.1237248797642145 
-0.1828975778083947 0.4762361466788441 -0.08238920830947083 
-0.1735989142928107 0.2982561055510635 0.03889178692338319 
0.1620973306259823 0.3917529550623877 -0.3339981286274054 
-0.1828975778083947 0.4762361466788441 -0.08238920830947083 
-1.11294320171249 0.7160982547380224 0.9342661116847447 
-1.11294320171249 0.7160982547380224 0.9342661116847447 
-0.3385873691773372 -0.02258348971141398 0.4562248775122477 
-0.3385873691773372 -0.02258348971141398 0.4562248775122477 
0.0005967274311814695 -0.06584715514029214 -0.00838198716876944 
-0.1765114830966202 -0.01839796845909888 0.2384952581946882 
0.09906324256029127 -0.5207395721056635 -0.09725181334818375 
-0.0466964373699171 -0.04629338875329383 0.07216447086087355 
-0.2537793987029806 -0.5034234939782956 0.3640378651647664 
0.3958582001315205 -0.4082948221040951 -0.5197802259301462 
0.0005967274311814695 -0.06584715514029214 -0.00838198716876944 
-0.2730462045537128 -0.4321450969474211 0.318512150100263 
-0.1367262315460198 -0.004151640427774913 0.1219382181610791 
-0.0466964373699171 -0.04629338875329383 0.07216447086087355 
-0.1765114830966202 -0.01839796845909888 0.2384952581946882 
0.0264787516489911 -0.001659629352227171 -0.02831425264720762 
0.0264787516489911 -0.001659629352227171 -0.02831425264720762 
0.0264787516489911 -0.001659629352227171 -0.02831425264720762 
0.493587097271709 -0.09761932277113844 -0.6270229519012883 
0.1142299600785064 -0.2183968087665089 -0.1162401495398995 
0.0264787516489911 -0.001659629352227171 -0.02831425264720762 
-0.3006247632417767 -0.2015256705897735 0.3637945350495312 
-0.3006247632417767 -0.2015256705897735 0.3637945350495312 
0.02759277607775927 -0.001975789729433894 -0.0301923084973367 
0.0264787516489911 -0.001659629352227171 -0.02831425264720762 
0.0264787516489911 -0.001659629352227171 -0.02831425264720762 
0.0264787516489911 -0.001659629352227171 -0.02831425264720762 
0.1432175279489248 -0.09968658614420757 -0.07486128608189808 
0.05030133793406406 -0.0297534995763377 -0.05813509970318703 
0.3371562744689361 -0.3219642713397663 -0.2780390438821991 
0.3371562744689361 -0.3219642713397663 -0.2780390438821991 
0.001612750597142685 -0.002543177380214158 -0.001324019776709706 
0.1040337425167206 -0.01843671908802331 -0.07178313091449728 
0.001612750597142685 -0.002543177380214158 -0.001324019776709706 
0.1040337425167206 -0.01843671908802331 -0.07178313091449728 
0.04757699771440753 -0.1704593156256015 0.02394807264862237 
0.001612750597142685 -0.002543177380214158 -0.001324019776709706 
0.05030133793406406 -0.0297534995763377 -0.05813509970318703 
0.04757699771440753 -0.1704593156256015 0.02394807264862237 
0.5163534254497182 -0.03543134501079433 -0.3949989127463908 
0.001612750597142685 -0.002543177380214158 -0.001324019776709706 
0.01279786680193308 -0.001067299267881059 -0.01753217826954423 
0.01279786680193308 -0.001067299267881059 -0.01753217826954423 
-0.0468033680222342 -0.4854475129879457 0.02133548389140046 
0.01279786680193308 -0.001067299267881059 -0.01753217826954423 
0.1250373696823308 -0.3050042482407501 -0.04473320329534033 
0.3489072126291076 -0.422198591568407 -0.4751771641224447 
0.02445672452050606 -0.2285280195551842 0.06875900569270081 
0.1522017278923591 -0.08714273241107731 -0.1211998389304123 
-0.0468033680222342 -0.4854475129879457 0.02133548389140046 
0.01279786680193308 -0.001067299267881059 -0.01753217826954423 
0.09961037965036432 -0.00296802057824231 -0.1394328897098706 
0.1522017278923591 -0.08714273241107731 -0.1211998389304123 
0.1250373696823308 -0.3050042482407501 -0.04473320329534033 
0.02445672452050606 -0.2285280195551842 0.06875900569270081 
0.09961037965036432 -0.00296802057824231 -0.1394328897098706 
0.04718147209698352 -0.005724881416364343 -0.05714463566550802 
-0.0758520587660118 0.2103975430273634 0.05949840930270936 
-0.0758520587660118 0.2103975430273634 0.05949840930270936 
-0.3971689192406497 0.101740334754325 0.4944105872145994 
-0.04426330371727404 0.07725711238144174 -0.1372080214359824 
-0.3587545121540837 -0.037025828817881 0.4031224731917512 
0.2052430301996215 -0.1777803238592332 -0.05969702382136038 
-1.315942032767185 0.3144838382653963 1.153938271753052 
-0.4234406304173773 -0.009384015381691953 0.4556505956481411 
-0.4234406304173773 -0.009384015381691953 0.4556505956481411 
0.4881179794262436 -0.9220325136649556 -0.393725944743071 
0.2580570938928813 -0.3854944378319933 -0.1941747513306477 
0.4881179794262436 -0.9220325136649556 -0.393725944743071 
-0.3587545121540837 -0.037025828817881 0.4031224731917512 
0.3160958308247052 -0.3706451886808522 -0.0378921648896017 
0.4211115384681748 -0.8960961327502497 -0.2236643643256503 
0.007527486647529912 -0.0002102691423505507 -0.009782707622400402 
0.007527486647529912 -0.0002102691423505507 -0.009782707622400402 
0.8198823889055951 -0.3458527074207508 -0.6577898412992663 
0.1905650149231235 -0.107028779594565 -0.5029722082610097 
0.2297420239948927 -0.3052618460486464 -0.2684474092113549 
0.002172961413691289 -0.0003799950348794877 -0.003233288576880693 
0.002172961413691289 -0.0003799950348794877 -0.003233288576880693 
0.1427560000890055 -0.01209496882766646 -0.1481682616525822 
0.1427560000890055 -0.01209496882766646 -0.1481682616525822 
0.06883395975775894 -0.0133565251172649 -0.1002174777304186 
-0.02481437535035455 -0.438664596777905 0.1491411540080823 
0.0610308113635772 -0.07024526540443468 -0.05909777329811314 
0.02296314335547087 -0.1421367986053813 -0.05239963298264766 
0.0610308113635772 -0.07024526540443468 -0.05909777329811314 
0.6117500717105231 -0.2034966498122985 -0.6569770220135253 
0.2037075875083482 -0.03988104669686642 -0.2277885382559713 
0.004274909791105268 -0.0009667812345384854 -0.001974489851824181 
0.08768696338117228 -0.01431611941605865 -0.06887447857719642 
0.08768696338117228 -0.01431611941605865 -0.06887447857719642 
0.05475197888488731 -0.0551624517571003 -0.08785747120691836 
0.004274909791105268 -0.0009667812345384854 -0.001974489851824181 
0.1190306377194844 -0.01706424931033823 -0.3287948823876053 
-0.1415658812559124 0.3967659599232869 -0.1949637649381203 
-0.08384032637786452 -0.09449993382555205 0.07985275865120699 
-0.1415658812559124 0.3967659599232869 -0.1949637649381203 
0.004274909791105268 -0.0009667812345384854 -0.001974489851824181 
0.05475197888488731 -0.0551624517571003 -0.08785747120691836 
0.0304568147817195 -0.04742031921223203 -0.01699793469670308 
0.1647714090778883 -0.08111030837800953 -0.119408414166367 
0.6167250633550241 -0.3084323440540658 -0.732935921855343 
0.1647714090778883 -0.08111030837800953 -0.119408414166367 
0.1190306377194844 -0.01706424931033823 -0.3287948823876053 
0.09789989712816029 -0.0479341906102815 -0.07326461556271437 
0.03762102795685267 -0.01554495077697965 -0.03131013026475647 
0.007685806719482412 -0.003595929676843598 -0.00581539471846765 
-0.2774367816767442 -0.3362633185943003 0.2963099943557296 
0.8167436634218306 -0.9069606902108666 -0.7843864184128513 
0.01811683842351781 -0.002006774969202996 -0.02634626403307563 
-0.2774367816767442 -0.3362633185943003 0.2963099943557296 
0.2474566226156666 -0.5094647444681661 -0.1399788207318325 
0.3522676060446202 -0.7137889728435994 -0.1717871086687084 
0.01811683842351781 -0.002006774969202996 -0.02634626403307563 
-0.5365177606263249 -0.08881117968706606 0.6044227951333542 
-0.5365177606263249 -0.08881117968706606 0.6044227951333542 
-0.3483935039114923 0.2984361175250471 -0.07237918914719099 
-0.2120516988579699 -0.1389976501507897 0.2464323173042391 
0.04410516769416296 -0.1808801118345043 0.03957293203422295 
-0.7490176695433443 -0.002841342862719991 0.7000296537913351 
-0.7490176695433443 -0.002841342862719991 0.7000296537913351 
-0.7490176695433443 -0.002841342862719991 0.7000296537913351 
0.1697616119332901 -0.3186521192463488 0.02605206532358069 
0.227359779636107 -0.05750301714160121 -0.1978177141135699 
0.1782775253058276 -0.247739995905474 -0.03333833412744272 
0.2257659400898877 -0.08436759366576575 -0.2660087717669588 
0.227359779636107 -0.05750301714160121 -0.1978177141135699 
-0.5401333601725967 0.262229024686942 0.6254907063752629 
-0.5401333601725967 0.262229024686942 0.6254907063752629 
0.1022838645125895 -0.01994187513318686 -0.07300691983472761 
0.2351627326048337 -0.173329134781967 -0.1292056710671727 
0.1022838645125895 -0.01994187513318686 -0.07300691983472761 
0.01357014582767177 -0.01066451586548914 -0.006694807362523431 
0.01357014582767177 -0.01066451586548914 -0.006694807362523431 
0.2351627326048337 -0.173329134781967 -0.1292056710671727 
0.02113359582126798 -0.01834718490698397 -0.0110977066106861 
0.6840679044211183 -0.1961725505597689 -0.5054109912945643 
-0.303407229817141 -0.03547573747931882 0.4165087989844701 
0.1303903563333183 -0.01409389739892671 -0.0857868817709012 
0.004869033469629214 -0.0649600942398514 -0.1031221260009006 
0.1303903563333183 -0.01409389739892671 -0.0857868817709012 
-0.303407229817141 -0.03547573747931882 0.4165087989844701 
0.004869033469629214 -0.0649600942398514 -0.1031221260009006 
-0.1138187731010553 -0.02784444513917901 0.179412026648946 
0.009416123632643164 -0.009364626221263266 -0.001080069565497504 
0.009416123632643164 -0.009364626221263266 -0.001080069565497504 
0.3227331286443456 -0.2705764604201067 -0.07845793837732068 
0.009416123632643164 -0.009364626221263266 -0.001080069565497504 
-0.7285947981141546 0.2948408492352055 0.138716668088165 
0.009416123632643164 -0.009364626221263266 -0.001080069565497504 
0.009416123632643164 -0.009364626221263266 -0.001080069565497504 
0.4303541515572852 -0.264610076788714 -0.1522090442876107 
0.009416123632643164 -0.009364626221263266 -0.001080069565497504 
0.6924187615908359 -0.1736810307974486 -1.14111414142801 
0.7621344872909331 -0.6522996464102345 -1.309281729436513 
0.01683066661729597 -0.01289268345280093 -0.01019887564884692 
0.01683066661729597 -0.01289268345280093 -0.01019887564884692 
0.01044013433887589 -0.00734809687951561 -0.006270637393941921 
0.2062359653969478 -0.1142825745643037 -0.166330210158344 
0.01044013433887589 -0.00734809687951561 -0.006270637393941921 
0.01044013433887589 -0.00734809687951561 -0.006270637393941921 
0.2062359653969478 -0.1142825745643037 -0.166330210158344 
0.1072367665823699 -0.09956430277974972 -0.04835867896126705 
0.1072367665823699 -0.09956430277974972 -0.04835867896126705 
0.2273293544387934 -0.206897191705715 -0.2271703699784713 
0.2273293544387934 -0.206897191705715 -0.2271703699784713 
-0.2699166901098458 -0.1343086496171423 0.2555643967755675 
0.5780496837154795 -0.4391249057597159 -0.6126931514447191 
0.5780496837154795 -0.4391249057597159 -0.6126931514447191 
0.3913086322302092 -0.05765263585049411 -0.3438823091103531 
0.3286437922580968 -0.05886518683524741 -0.4519473115452793 
0.5010645849340425 -0.3887779121617489 -0.5359545069580536 
-0.1403978945229715 0.1034394212483823 0.03994922641592899 
-0.3606508965897663 -0.2406075150742969 0.4511171356602328 
-0.1403978945229715 0.1034394212483823 0.03994922641592899 
0.03193752759068402 -0.1790741704215889 -0.02143384331447399 
0.3083403497979649 -0.2403569191460623 -0.2537751485835433 
0.3083403497979649 -0.2403569191460623 -0.2537751485835433 
0.1581685556595669 -0.1028139233834878 -0.1052225324741487 
0.007464835018573255 -0.0008171712984660493 -0.004734822895557868 
0.1581685556595669 -0.1028139233834878 -0.1052225324741487 
0.007464835018573255 -0.0008171712984660493 -0.004734822895557868 
0.007464835018573255 -0.0008171712984660493 -0.004734822895557868 
0.007464835018573255 -0.0008171712984660493 -0.004734822895557868 
0.007464835018573255 -0.0008171712984660493 -0.004734822895557868 
0.007464835018573255 -0.0008171712984660493 -0.004734822895557868 
0.007464835018573255 -0.0008171712984660493 -0.004734822895557868 
0.007464835018573255 -0.0008171712984660493 -0.004734822895557868 
1.082703197899351 -0.6575542936643405 -0.9317359312475149 
0.03997922992293378 -0.008241711511566928 -0.03214157322596741 
0.2423543950306283 -0.4178403176851766 -0.1534194519761911 
0.1459156045074394 -0.3370241766949651 -0.07867597878999256 
0.1108605387374566 -0.0374950293224169 -0.109366951792084 
0.1108605387374566 -0.0374950293224169 -0.109366951792084 
-0.427592630044028 0.451206133962508 0.1417340700123196 
-0.427592630044028 0.451206133962508 0.1417340700123196 
0.03997922992293378 -0.008241711511566928 -0.03214157322596741 
0.03997922992293378 -0.008241711511566928 -0.03214157322596741 
0.01052556735997147 -0.001801164343661945 -0.009515986897654476 
-0.01068500661577473 0.003657788285450724 -0.0340071282527118 
0.01052556735997147 -0.001801164343661945 -0.009515986897654476 
0.04997457059976512 -0.0114869282036425 -0.04845753927116365 
-0.01068500661577473 0.003657788285450724 -0.0340071282527118 
0.04997457059976512 -0.0114869282036425 -0.04845753927116365 
0.01052556735997147 -0.001801164343661945 -0.009515986897654476 
0.1892675207193655 -0.0299178006001004 -0.1819559087596878 
-0.2556026585614218 0.3385412969949812 0.05624746902123153 
-0.5211992902543121 0.2652543901713831 0.4504473470586361 
0.1155845211725108 -0.5506444670996928 -0.1076646652658018 
0.3042660562367676 -0.3605585489346944 -0.2896480975661776 
0.01560908328571516 -0.000918684040234037 -0.005788942219503149 
0.1155845211725108 -0.5506444670996928 -0.1076646652658018 
0.01560908328571516 -0.000918684040234037 -0.005788942219503149 
0.6765602717827549 -0.3483333125453474 -0.6719511168177478 
-0.2606228641879818 -0.005128636132889641 0.2559694492286758 
-0.2606228641879818 -0.005128636132889641 0.2559694492286758 
0.6765602717827549 -0.3483333125453474 -0.6719511168177478 
0.3042660562367676 -0.3605585489346944 -0.2896480975661776 
0.1892675207193655 -0.0299178006001004 -0.1819559087596878 
0.0176141070781942 -0.001147790829386381 -0.006852855783693123 
-0.8873188252998474 0.1026277683858124 0.8669997216715958 
-0.352562519772069 -0.479867014653601 0.4645880502350434 
-0.09134652991214284 -0.01695026641818151 0.1287274566443002 
-0.5188807241516813 -0.04389224226347692 0.4545383441763467 
-0.352562519772069 -0.479867014653601 0.4645880502350434 
-0.09134652991214284 -0.01695026641818151 0.1287274566443002 
-0.09134652991214284 -0.01695026641818151 0.1287274566443002 
-0.09134652991214284 -0.01695026641818151 0.1287274566443002 
-0.4560723454109451 -0.02566976283397414 0.4538197590250281 
-0.6062070151704124 0.009800935617145262 0.5490143288180839 
-0.1406040648450619 -0.15049286913077 0.303433088585532 
-0.1406040648450619 -0.15049286913077 0.303433088585532 
0.1811916715487518 -0.01733874759818996 -0.1810428040253157 
0.2355514225579478 -0.06554906728015758 -0.2502911250842496 
-0.1686908196434771 0.1334150129889328 0.1213837590055253 
-0.1686908196434771 0.1334150129889328 0.1213837590055253 
0.1811916715487518 -0.01733874759818996 -0.1810428040253157 
-0.08376616615320066 -0.01693785234093667 0.03817453193275924 
0.1604026308697117 -0.2041694543680418 -0.1824308821099861 
0.1232094644642919 -0.4822929482757947 0.09495541805662427 
-0.323931392090407 -0.02351656944650964 0.3195784612089757 
-0.9500008194472456 -0.03104994348355068 0.9639456583695356 
0.2138072764869043 -0.3308524939708226 -0.206588866076509 
-0.287125108818679 -0.2822735711893509 0.3303774709550897 
-0.9500008194472456 -0.03104994348355068 0.9639456583695356 
0.03897132685555305 -0.02301496329133613 -0.1384533823306283 
-0.0331430046110294 0.06566896067308424 -0.004525222889706045 
-0.04769944461671002 -0.01930661735385403 0.05782006976079673 
-0.0331430046110294 0.06566896067308424 -0.004525222889706045 
-0.04464285650376171 -0.01992315090732193 0.05588329988665671 
-0.1236472247746699 -0.07065046009485043 0.04444925829363638 
-0.04769944461671002 -0.01930661735385403 0.05782006976079673 
-0.04464285650376171 -0.01992315090732193 0.05588329988665671 
-0.323931392090407 -0.02351656944650964 0.3195784612089757 
0.2138072764869043 -0.3308524939708226 -0.206588866076509 
0.03897132685555305 -0.02301496329133613 -0.1384533823306283 
0.4299239817962664 -0.1805336225273169 -0.3216850471506377 
0.1188500177803672 0.275708786189679 -0.2549784207884522 
-0.04769944461671002 -0.01930661735385403 0.05782006976079673 
-0.04769944461671002 -0.01930661735385403 0.05782006976079673 
-0.276231947473697 -0.004209952092655604 0.261758391448179 
0.2204367430033962 -0.1415301018726646 -0.204743206883878 
0.2204367430033962 -0.1415301018726646 -0.204743206883878 
-0.276231947473697 -0.004209952092655604 0.261758391448179 
-0.276231947473697 -0.004209952092655604 0.261758391448179 
0.4642395626269948 -0.4887287274577629 -0.3997488231570867 
-0.276231947473697 -0.004209952092655604 0.261758391448179 
0.4642395626269948 -0.4887287274577629 -0.3997488231570867 
-0.258058192489699 -0.02298071543074186 0.2393294778852039 
0.2945196325897557 -0.07729652047798881 -0.2738250976647874 
0.2945196325897557 -0.07729652047798881 -0.2738250976647874 
0.2177574408896547 -0.1613087406365422 -0.2802616040496025 
0.4606504594759408 -0.5701578651761101 -0.388195213000444 
0.4606504594759408 -0.5701578651761101 -0.388195213000444 
0.184206071045563 -0.1471701286129686 -0.2493631029746733 
-0.2624755442250057 0.3473519080310477 0.1105074926138195 
-0.5353795156357593 0.267647885151491 0.3981217629442295 
0.2177574408896547 -0.1613087406365422 -0.2802616040496025 
0.3204682534433444 -0.006885738748616099 -0.3265736777292986 
-0.1228306247365862 -0.1583973048270043 0.1911093397617074 
0.2658228601958205 -0.4466300536355394 -0.1888555024558086 
0.07832892552498395 -0.01766559157377264 -0.09478891821244005 
0.2658228601958205 -0.4466300536355394 -0.1888555024558086 
0.170379837015174 -0.2319980523989878 -0.06187783164523266 
0.02021411359029549 -0.0008685588964516971 -0.0253435629774506 
0.02021411359029549 -0.0008685588964516971 -0.0253435629774506 
0.274051095072721 -0.1747496853270079 -0.209604958848699 
0.04216561144119649 -0.01068407691215813 -0.05492640743363814 
0.274051095072721 -0.1747496853270079 -0.209604958848699 
0.02021411359029549 -0.0008685588964516971 -0.0253435629774506 
-0.3138149974193378 -0.1424378912709306 0.3101299442091484 
0.02021411359029549 -0.0008685588964516971 -0.0253435629774506 
0.230122114186437 -0.1868479063363156 -0.1752657512560062 
0.02021411359029549 -0.0008685588964516971 -0.0253435629774506 
0.230122114186437 -0.1868479063363156 -0.1752657512560062 
0.02021411359029549 -0.0008685588964516971 -0.0253435629774506 
-0.3503611005435983 -0.04578362059435199 0.3836730700988567 
-0.1283506420739278 -0.01217643577794781 -0.1605582286569624 
0.02021411359029549 -0.0008685588964516971 -0.0253435629774506 
-0.3503611005435983 -0.04578362059435199 0.3836730700988567 
0.1213922237391174 -0.02394060909056351 -0.1086016702270942 
-0.2683756311926242 -0.111410315912708 0.4098768275293805 
-0.01085562310903048 -0.4907344011056805 0.04877473545658728 
-0.4740409430007703 0.163287748707649 0.389554448332632 
0.001899486094158441 -0.3813702569883806 0.1172890315285384 
-0.1262911308258088 -0.00643885521553843 0.1135316832262898 
-0.4740409430007703 0.163287748707649 0.389554448332632 
0.001899486094158441 -0.3813702569883806 0.1172890315285384 
-0.8754731852535994 0.03438021693993232 0.7335650940082955 
-0.2683756311926242 -0.111410315912708 0.4098768275293805 
-0.01085562310903048 -0.4907344011056805 0.04877473545658728 
-0.1262911308258088 -0.00643885521553843 0.1135316832262898 
0.01302176586953488 -0.003014844280646455 -0.0181399808163556 
0.036289427313279 -0.01412860842476328 -0.0369096499600221 
0.1248408067601481 -0.01915699140569358 -0.15523381001201 
0.4147064446032461 -0.2443084329907072 -0.2973265936310475 
0.2613107443620134 -0.04827766679863753 -0.2317291087719675 
0.2613107443620134 -0.04827766679863753 -0.2317291087719675 
0.4147064446032461 -0.2443084329907072 -0.2973265936310475 
0.1248408067601481 -0.01915699140569358 -0.15523381001201 
0.1235929536552452 -0.0184893170614858 -0.1544562911630346 
0.1179517004751416 -0.07449966423867113 -0.1245957805089533 
0.1741782871909159 -0.1194257238234642 -0.1646169792360259 
0.1751404814406841 -0.2671012380972873 -0.1510969371553286 
0.06425894054232013 -0.1996378965050189 -0.04178683823700256 
0.1365951064417999 -0.01688859836693549 -0.1241869370966049 
0.06425894054232013 -0.1996378965050189 -0.04178683823700256 
0.1179517004751416 -0.07449966423867113 -0.1245957805089533 
0.1365951064417999 -0.01688859836693549 -0.1241869370966049 
0.1751404814406841 -0.2671012380972873 -0.1510969371553286 
0.494387284538627 -0.7872828541712504 -0.309398140667243 
0.1483260467851207 -0.1083251083667496 -0.1218189967309141 
0.1483260467851207 -0.1083251083667496 -0.1218189967309141 
-0.4011959208637612 -0.1151605151548292 0.4454031600157248 
0.02431529971403566 -0.01644543297580235 -0.0283657283569908 
0.1939442351105532 -0.0389448153809666 -0.189262791027459 
0.1939442351105532 -0.0389448153809666 -0.189262791027459 
0.005571575777415811 -0.006222317559348864 -0.006455461154637526 
0.005571575777415811 -0.006222317559348864 -0.006455461154637526 
0.2087422365850138 -0.08325915256862376 -0.2424939429497918 
0.03165336101155145 -0.01930962635925197 -0.03360192979270895 
0.5978373002601368 -0.01219100410580068 -0.6045228786827467 
0.1591025518205042 -0.01378493396031311 -0.1632488640613413 
0.02431529971403566 -0.01644543297580235 -0.0283657283569908 
0.005571575777415811 -0.006222317559348864 -0.006455461154637526 
0.2087422365850138 -0.08325915256862376 -0.2424939429497918 
0.03165336101155145 -0.01930962635925197 -0.03360192979270895 
0.005571575777415811 -0.006222317559348864 -0.006455461154637526 
0.01592778979112403 -0.005330835815066635 -0.01488327055251715 
0.01592778979112403 -0.005330835815066635 -0.01488327055251715 
0.07383144462649446 -0.02069498838764736 -0.04259652474507387 
0.01592778979112403 -0.005330835815066635 -0.01488327055251715 
0.01592778979112403 -0.005330835815066635 -0.01488327055251715 
0.1900688851301484 -0.03350494353172829 -0.1427827256351399 
0.0843231906990599 -0.008866243252064065 -0.07763573877535968 
0.06430406998747332 -0.01805282670071109 -0.03622912100938398 
0.06430406998747332 -0.01805282670071109 -0.03622912100938398 
0.07383144462649446 -0.02069498838764736 -0.04259652474507387 
0.1900688851301484 -0.03350494353172829 -0.1427827256351399 
0.02494629842957173 -0.0005536719146592774 -0.04475751413758808 
0.3068068676617489 -0.1017913088554085 -0.2196371210270878 
0.02494629842957173 -0.0005536719146592774 -0.04475751413758808 
0.1858071381248025 -0.09903614181617443 -0.08871736205908311 
-0.07109725377872202 -0.00542777456735942 0.05584491194771931 
-0.121624272283412 -0.0828819811472765 0.1772977269892293 
-0.06973297331540643 -0.2778601865454383 0.1047168315579547 
-0.06973297331540643 -0.2778601865454383 0.1047168315579547 
-0.121624272283412 -0.0828819811472765 0.1772977269892293 
-0.1096872233329119 0.01831885111634781 0.05979730793758219 
-0.07109725377872202 -0.00542777456735942 0.05584491194771931 
0.0001987933564353271 -0.002401136630312303 0.002182402513982263 
0.0001987933564353271 -0.002401136630312303 0.002182402513982263 
-0.9585009390943231 0.3727084496794877 0.7106686445737194 
-0.1258740864262986 -0.04817811766060815 0.2031065083142712 
-0.8232784670285217 0.09352899104183567 0.6496658869791455 
0.8924245747099731 -0.5334273060926845 -0.6497693998445435 
-3.214581304821294 0.08677374951311911 3.171387527179029 
-0.8232784670285217 0.09352899104183567 0.6496658869791455 
-0.1096872233329119 0.01831885111634781 0.05979730793758219 
0.3065023688260645 -0.1392949146764737 -0.2205429242469314 
-0.4364196126485423 -0.07227896343568198 0.287260490837621 
-0.004912661835242078 -0.003493073618018333 0.002317645505825991 
-1.730932040840081 0.06792562907248746 1.427847070728777 
-1.730932040840081 0.06792562907248746 1.427847070728777 
-0.004912661835242078 -0.003493073618018333 0.002317645505825991 
-0.2390518344623921 -0.04659235019521475 0.2892687830133889 
0.1468752676857094 -0.0401670093286407 -0.1440371603500639 
0.03357970897445581 -0.009777723157064258 -0.0248898472950555 
0.03357970897445581 -0.009777723157064258 -0.0248898472950555 
0.04542711320197422 -0.02186113080365144 -0.03635207419500263 
0.1963996785089556 -0.2036557491489391 -0.2526766259354296 
0.02772960841880253 -0.01200369192709149 -0.01071059444233949 
0.05248054443427362 -0.02322145164645728 -0.03598588768766568 
-0.0218637110634442 0.004343002478344312 -0.0531323667965057 
-0.4131759315713371 -0.2560401785964223 0.5624812518928088 
-0.0218637110634442 0.004343002478344312 -0.0531323667965057 
0.1963996785089556 -0.2036557491489391 -0.2526766259354296 
0.1270584472899242 -0.03239959498641475 -0.1366942849870554 
0.05073626370939772 0.00200413156962399 -0.0770064800220297 
0.2595673324636648 -0.09739767533151832 -0.1927995606230198 
0.03772740588774848 -0.0106733315558446 -0.03214472184310786 
0.200577408028142 -0.07813643323214159 -0.1727955672937568 
0.03772740588774848 -0.0106733315558446 -0.03214472184310786 
0.2595673324636648 -0.09739767533151832 -0.1927995606230198 
0.200577408028142 -0.07813643323214159 -0.1727955672937568 
0.02460967844356223 -0.01130291125602884 -0.02514808100786679 
-0.3837910741546284 0.5076573951901978 -0.06706360401668691 
0.1695296500934285 -0.1669886150844606 -0.1547291160614988 
0.1695296500934285 -0.1669886150844606 -0.1547291160614988 
-0.01635031930745728 -0.106274730221718 0.0781299312183955 
-0.260813839652068 -0.1824587979959271 0.363708976413631 
0.00885593867975789 -0.002858029607735802 -0.01224657159693385 
0.008082293326347526 -0.002749987439680082 -0.01087619535312309 
0.00885593867975789 -0.002858029607735802 -0.01224657159693385 
0.008082293326347526 -0.002749987439680082 -0.01087619535312309 
0.5571656641834773 -0.6755662073073473 -0.4948456330708727 
0.5571656641834773 -0.6755662073073473 -0.4948456330708727 
0.00414678268680343 -0.02654488927651705 0.002048105974373053 
0.00414678268680343 -0.02654488927651705 0.002048105974373053 
0.008082293326347526 -0.002749987439680082 -0.01087619535312309 
0.03516587991531314 -0.02413656126428097 -0.03110470619719157 
0.1594815550611185 -0.06468222104411928 -0.1441599099897802 
0.2714461265349947 -0.2933372615411401 -0.2263501272380161 
0.2714461265349947 -0.2933372615411401 -0.2263501272380161 
0.1594815550611185 -0.06468222104411928 -0.1441599099897802 
0.1317632717714325 -0.08943748121174466 -0.2321915305320489 
0.1317632717714325 -0.08943748121174466 -0.2321915305320489 
0.05096443383431756 -0.02841579241020566 -0.05629718778632383 
0.0724627983753677 -0.1911347125088319 -0.04928899131012591 
-0.0548930354737109 -0.05712690599124873 0.08319576909005952 
-0.0548930354737109 -0.05712690599124873 0.08319576909005952 
0.0724627983753677 -0.1911347125088319 -0.04928899131012591 
0.03516587991531314 -0.02413656126428097 -0.03110470619719157 
0.1062032831263146 -0.04255421578801376 -0.1013312494446546 
-0.149519506868505 0.1839506754131913 0.02336579585908991 
-0.149519506868505 0.1839506754131913 0.02336579585908991 
0.1269706011479105 0.1012695100298716 -0.1300354674290088 
0.2711789416573509 -0.2409465712707921 -0.2200241761077093 
0 0 0 
0.1269706011479105 0.1012695100298716 -0.1300354674290088 
0.4024998469918962 -0.1853034502604718 -0.2689377220764633 
0.1378375020027473 -0.09413942715902057 -0.1047088531048082 
0.05500427987869125 -0.02778790110524427 -0.04105730942834474 
0.1480499164588812 -0.04427690949843261 -0.1440912621281573 
0.08734429910728607 -0.06549346972254487 -0.05903454369207385 
-0.1972223113122027 0.02481979237165313 0.1394925300021093 
0.09669211185313087 -0.0517894982473902 -0.07289097731647322 
0.05500427987869125 -0.02778790110524427 -0.04105730942834474 
0.2722639360269241 -0.214414629219635 -0.2482074337796745 
0.04001834832909514 -0.009628798174362423 -0.02639074829084156 
0.04001834832909514 -0.009628798174362423 -0.02639074829084156 
-0.02571285731628853 -0.01659617640286123 -0.122841129217885 
-0.02571285731628853 -0.01659617640286123 -0.122841129217885 
0.367976710106484 -0.1367517087055158 -0.3617924811961356 
-0.0614648230988407 -0.04815020990351894 0.08984006014997943 
0.02153102796880761 -0.004635924490973866 -0.01837102016793523 
0.02153102796880761 -0.004635924490973866 -0.01837102016793523 
-0.03134543537950665 0.218335828006755 -0.3208148797491713 
-0.4574972147228229 0.4628932528701474 -0.03100679475253294 
-0.4574972147228229 0.4628932528701474 -0.03100679475253294 
-0.4474651365228653 0.4187456588663414 -0.03121565616367692 
0.2905737024662891 -0.01991920544815081 -0.3056711177311433 
0.2817392980383334 0.2309274885032058 -0.6176483201385208 
-0.1449877611964521 -0.1039994218566991 0.1014806402445738 
0.3831871787900558 -0.1312694476068322 -0.5072234378034394 
-0.2184022810147372 0.323590857669851 -0.02565207698604398 
-0.2390949337080857 0.1393023952002964 -0.005354717766488966 
-0.2390949337080857 0.1393023952002964 -0.005354717766488966 
-0.2390949337080857 0.1393023952002964 -0.005354717766488966 
-0.2390949337080857 0.1393023952002964 -0.005354717766488966 
0.3526505796540669 -0.0959911490264822 -0.4352343756332631 
-0.1143977603066031 0.1310986172208896 -0.1207484835224095 
-0.2390949337080857 0.1393023952002964 -0.005354717766488966 
-0.2390949337080857 0.1393023952002964 -0.005354717766488966 
-0.2390949337080857 0.1393023952002964 -0.005354717766488966 
0.02000955741957205 0.01569979544264795 -0.2389154614831886 
0.09365054383819826 -0.1256189224843349 -0.1203990126136926 
0.07716488428562572 -0.04567957237897184 -0.07301315396776069 
0.586100714969212 -0.2486274969145684 -0.48673206059565 
0.03786838201313511 -0.01138518587075727 -0.03044106335820298 
0.1707995905690856 -0.0995815151437993 -0.09318703734937411 
0.5116916320512478 -0.2970940543467139 -0.7506750498785187 
0.5465948176073633 -0.2435347196117032 -0.4673464248796362 
0.03556717318463581 -0.01090998041285237 -0.02815377315803544 
0.02334425261253886 -0.004356595324986778 -0.007313485507313392 
0.02334425261253886 -0.004356595324986778 -0.007313485507313392 
-0.4118540634649683 -0.01358388495998827 0.4535591208200157 
-0.4109746592314401 -0.1963959657947217 0.4865736050489827 
-0.091192966912198 -0.06008517541860486 0.1049060179249296 
0.02334425261253886 -0.004356595324986778 -0.007313485507313392 
0.02334425261253886 -0.004356595324986778 -0.007313485507313392 
0.02334425261253886 -0.004356595324986778 -0.007313485507313392 
-0.2594456872834814 0.3099618983770439 -0.1644771147945277 
-0.091192966912198 -0.06008517541860486 0.1049060179249296 
-0.4109746592314401 -0.1963959657947217 0.4865736050489827 
-0.2594456872834814 0.3099618983770439 -0.1644771147945277 
0.117570333497029 -0.05912890096590895 -0.07563815431688746 
-0.01824189529645774 -0.02469470460063879 0.05385962347280041 
0.01654691856781035 -0.05486942786733034 0.08569639250380059 
-0.01824189529645774 -0.02469470460063879 0.05385962347280041 
0.01654691856781035 -0.05486942786733034 0.08569639250380059 
-0.04716679232182645 -0.02426403074778418 0.08496258543244303 
-0.05822079499753258 -0.01898794798316638 0.07133967643513862 
-0.02488214957739417 -0.04879091804294776 0.04863260423244789 
0.01419760106195465 -0.06042691948930723 0.002332579643915684 
-0.05822079499753258 -0.01898794798316638 0.07133967643513862 
-0.06327613610839329 -0.01852893628789097 0.07421937519815844 
0.3516867000822535 -0.1154246044172406 -0.6132417458134785 
0.0135657310902046 -0.00183601950444516 -0.01772729194893389 
0.01419901415416295 -0.003000627106212497 -0.0184862431918898 
0.3809816644394212 -0.2739849881412918 -0.3696387881074839 
0.1747072921473558 -0.05813224823439793 -0.0944887658402775 
0.1747072921473558 -0.05813224823439793 -0.0944887658402775 
-0.6534736052232223 -0.2109322645349766 0.8279363621311504 
0.2981565209144221 -0.1202774873666424 -0.2122921842853037 
-0.4712799662100026 0.2034714567509643 0.3498605486939397 
0.4062434593279138 -0.371437438119472 -0.2255197525607565 
0.01582063143163867 -0.000589238622636093 -0.02030566495333705 
0.4062434593279138 -0.371437438119472 -0.2255197525607565 
0.0135657310902046 -0.00183601950444516 -0.01772729194893389 
0.7565164050726851 -0.4011947862264852 -0.8729915862813652 
0.1249475568874913 -0.003644671892704178 -0.1042657460995862 
0.2429196137591586 -0.1648326990874109 -0.1367629869772882 
0.2429196137591586 -0.1648326990874109 -0.1367629869772882 
0.004635505282400696 -0.001346321649216145 -0.005416848069025896 
0.09369990092137452 -0.07323467241351957 -0.07646821243507154 
-0.106517482395267 -0.1063002323947173 0.1385927524808067 
0.1302811007527195 -0.06139352949796366 -0.09859621440797134 
0.004635505282400696 -0.001346321649216145 -0.005416848069025896 
0.09369990092137452 -0.07323467241351957 -0.07646821243507154 
-0.106517482395267 -0.1063002323947173 0.1385927524808067 
0.1351461520082357 -0.04792275559193772 -0.05880477133001127 
0.1351461520082357 -0.04792275559193772 -0.05880477133001127 
0.1351461520082357 -0.04792275559193772 -0.05880477133001127 
-0.1864807208913332 -0.04461102859232718 0.07921272007435004 
0.108536264611869 -0.04036579099728965 -0.04430373173057259 
0.108536264611869 -0.04036579099728965 -0.04430373173057259 
-0.1947293933245962 -0.05232344656891727 0.3244311242905344 
-0.3728490434606609 -0.2007513871304314 0.4216287578053047 
-0.3728490434606609 -0.2007513871304314 0.4216287578053047 
-0.1864807208913332 -0.04461102859232718 0.07921272007435004 
0.1274628942371704 -0.05368000843960623 -0.03713318225821986 
0.1351461520082357 -0.04792275559193772 -0.05880477133001127 
-0.1947293933245962 -0.05232344656891727 0.3244311242905344 
0.2991386061624541 -0.192001005976885 -0.04875536976261952 
-0.4456855784918749 0.3739553172052767 0.1406396576381976 
-0.02819521489707502 0.1105702199112543 -0.08297423956158596 
0.1638222139613791 -0.0888087847351437 -0.1144535332069188 
0.2671567855072927 -0.6305438096808835 -0.1046949988975605 
0.2671567855072927 -0.6305438096808835 -0.1046949988975605 
0.1638222139613791 -0.0888087847351437 -0.1144535332069188 
0.04902101587906301 -0.03226464283577932 -0.02523466956389174 
-0.1730689052432007 -0.05481494626392864 0.1843498130788237 
-0.1730689052432007 -0.05481494626392864 0.1843498130788237 
0.0985633897372597 -0.05140082406965669 -0.03792824308781331 
0.0985633897372597 -0.05140082406965669 -0.03792824308781331 
0.1525745540481673 -0.3005020980604944 0.03966849709801232 
0.1525745540481673 -0.3005020980604944 0.03966849709801232 
0.1103259465580222 -0.07525861544115278 -0.04617411566635745 
0.0169081086696415 -0.004737805619273891 -0.01897789329755716 
0.02592611411136689 -0.006012210196184615 -0.0299127569946196 
0.0169081086696415 -0.004737805619273891 -0.01897789329755716 
0.0169081086696415 -0.004737805619273891 -0.01897789329755716 
0.0169081086696415 -0.004737805619273891 -0.01897789329755716 
0.02592611411136689 -0.006012210196184615 -0.0299127569946196 
0.0169081086696415 -0.004737805619273891 -0.01897789329755716 
0.0169081086696415 -0.004737805619273891 -0.01897789329755716 
-0.4317864149358768 -0.2059681838687054 0.5371814709174846 
-1.075418597117258 -1.138193415835661 1.524165863864249 
-2.345865957437511 0.4143084123598706 1.76117612239033 
-0.003862089313509416 -0.07900344905553278 0.003714938298972317 
-0.4317864149358768 -0.2059681838687054 0.5371814709174846 
-0.003862089313509416 -0.07900344905553278 0.003714938298972317 
0.1927729201039398 -0.1518139888501152 -0.2077251876008975 
0.2326374183646405 -0.1767153069144319 -0.3994969726043487 
-0.003862089313509416 -0.07900344905553278 0.003714938298972317 
0.02440906557427534 -0.01691827502832258 -0.02687518831100524 
0.02440906557427534 -0.01691827502832258 -0.02687518831100524 
0.03983688951488992 -0.01731918653215661 -0.0435530263675163 
0.03531334419924684 -0.01944717679863771 -0.04103262802789945 
0.02440906557427534 -0.01691827502832258 -0.02687518831100524 
0.2254787270420968 -0.08161229687418307 -0.1790213634954876 
0.07533514410000827 -0.05027399030377939 -0.03876987946524135 
0.02440906557427534 -0.01691827502832258 -0.02687518831100524 
0.2254787270420968 -0.08161229687418307 -0.1790213634954876 
0.02440906557427534 -0.01691827502832258 -0.02687518831100524 
0.07533514410000827 -0.05027399030377939 -0.03876987946524135 
0.02440906557427534 -0.01691827502832258 -0.02687518831100524 
0.02440906557427534 -0.01691827502832258 -0.02687518831100524 
0.02440906557427534 -0.01691827502832258 -0.02687518831100524 
0.03531334419924684 -0.01944717679863771 -0.04103262802789945 
-0.1964988640739027 -0.00494635428826851 0.1729966162604814 
0.09526718027495062 -0.07913777177350712 -0.04720300232297595 
-0.1964988640739027 -0.00494635428826851 0.1729966162604814 
-0.1964988640739027 -0.00494635428826851 0.1729966162604814 
-0.1964988640739027 -0.00494635428826851 0.1729966162604814 
-0.1964988640739027 -0.00494635428826851 0.1729966162604814 
0.09526718027495062 -0.07913777177350712 -0.04720300232297595 
-0.1964988640739027 -0.00494635428826851 0.1729966162604814 
-0.2194335451579056 -0.0560497814103415 0.1936251706834371 
-0.1964988640739027 -0.00494635428826851 0.1729966162604814 
-0.1964988640739027 -0.00494635428826851 0.1729966162604814 
-0.1964988640739027 -0.00494635428826851 0.1729966162604814 
0.006228733611243368 -0.003056915011508503 -0.009985179167541035 
0.006228733611243368 -0.003056915011508503 -0.009985179167541035 
0.001779248449619469 -0.001411562322553173 -0.003361722851380475 
0.04534946595929126 -0.1389987216568569 0.110675497575458 
0.0638054900584515 -0.0112514343400413 -0.07406947879021424 
0.08783826044351435 -0.02041147936442052 -0.09862168504599259 
0.04534946595929126 -0.1389987216568569 0.110675497575458 
0.3476089358579574 -0.0348104376345389 -0.3582176642243606 
-0.3165811826930445 0.1217666311144305 0.1918804937618727 
-0.2934009576504149 0.1124950837797193 0.1830289083062281 
-0.2934009576504149 0.1124950837797193 0.1830289083062281 
0.2980728178215641 -0.01672832600616628 -0.4567775797560649 
-0.1540546466829428 -0.1685248229892985 0.354156924505689 
