solver_type L2R_LR
nr_class 3
label 12 13 10
nr_feature 58800
bias -1
w
1.229784178499751 -1.228559314696633 -1.511442827552352 
1.569093302343297 -1.569542511937525 -0.6213193547652539 
0.1345414560859237 -0.1282093476269542 -1.921474309646767 
0.327512579704649 -0.3262486831924066 -0.003973249509600364 
-0.01398920929177248 0.01332611013552115 -1.101110367176841 
0.9092373156214008 -0.9095453071063485 -0.1330435880809828 
0.1224391272167857 -0.1230780970287083 -0.01332593166090535 
0.327512579704649 -0.3262486831924066 -0.003973249509600364 
0.02240056404956654 -0.02417926076344578 -0.6198292479314027 
-0.7323105148779984 0.7342086552805465 -0.1591948748230665 
-0.01273660484972421 0.01449738387075151 -0.9586301884126626 
0.3176276835543613 -0.3145732353774073 -0.922185022892505 
0.6390383511088473 -0.6463773629149042 -0.7877676409614137 
-0.8860340654277488 0.8792807144279758 -0.02540354881706809 
0.02240056404956654 -0.02417926076344578 -0.6198292479314027 
-0.01398920929177248 0.01332611013552115 -1.101110367176841 
-0.1454215093253133 0.1421810493448891 -0.01315399070199976 
0.1995280682901941 -0.1986963057297617 -0.00119850848204579 
-0.2050550504332214 0.2066747472711821 -0.4047517866675197 
0.07070757391682073 -0.07039120670360821 -0.001814935044464487 
-0.2050550504332214 0.2066747472711821 -0.4047517866675197 
1.154728689208395 -1.158997715418531 -0.163799511821701 
0.7732009389153889 -0.7699640913642161 -1.353400675373559 
0.7135336016686462 -0.7154034234134764 -0.4080796216869165 
0.1781619937913596 -0.1779747504909107 -0.5685646608061725 
0.08045519856479169 -0.08194084525190862 -0.5641915847216716 
0.3023569612642205 -0.3025095549615515 -0.02082339626276099 
0.08483751664431158 -0.08598907137115769 -1.018401772886088 
1.309159650818358 -1.310200255816392 -0.5079975037103739 
0.01684827728237612 -0.01663437659840301 -0.002954476110331573 
0.08483751664431158 -0.08598907137115769 -1.018401772886088 
-0.06862954527354791 0.06714983763802011 -0.02469198079465386 
0.519515069429263 -0.5203773526503589 -0.04695325552593135 
0.9292423317327784 -0.9291179156695274 -1.722211913036624 
0.01386112225129217 -0.01412236209614399 -1.480971217954061e-06 
0.01386112225129217 -0.01412236209614399 -1.480971217954061e-06 
0.01479496900186926 -0.01490228393598943 -0.04828691782484753 
0.1482384635886695 -0.1467621144786542 -0.8695423886003306 
0.8306027477066914 -0.8327441330922256 -0.1881553277527068 
0.1482384635886695 -0.1467621144786542 -0.8695423886003306 
-0.1878932570685635 0.1870627801016724 -0.02652090306402408 
-0.04878522266849761 0.04846914555208887 -0.2877501511495518 
-0.03595459551914964 0.04572679445782572 -1.966511869778927 
-0.04878522266849761 0.04846914555208887 -0.2877501511495518 
-0.07283531244718368 0.06874229502630187 -0.09906424711756309 
-0.1709335796063812 0.1652193182773146 -0.1836995430835294 
0.06468899237899324 -0.06509289213247535 -1.774625427338025e-05 
0.04162749129449034 -0.04142564402723046 -0.0002189837267010459 
-0.06640897424795808 0.07280102712467248 -0.4750348727396388 
-0.06640897424795808 0.07280102712467248 -0.4750348727396388 
0.05151704411039543 -0.05117768916164583 -0.004622191046197478 
0.7940107680007813 -0.8205514423737594 -0.6805239188819266 
0.04162749129449034 -0.04142564402723046 -0.0002189837267010459 
-0.01978839206813189 0.01825341326151941 -1.034838461117557 
-0.01978839206813189 0.01825341326151941 -1.034838461117557 
-0.1166846143750604 0.1199156240939564 -0.02883275665548989 
0.7940107680007813 -0.8205514423737594 -0.6805239188819266 
0.04162749129449034 -0.04142564402723046 -0.0002189837267010459 
-0.05111874587171506 0.05017182049746222 -0.005749713729266458 
0.05151704411039543 -0.05117768916164583 -0.004622191046197478 
0.04162749129449034 -0.04142564402723046 -0.0002189837267010459 
0.04162749129449034 -0.04142564402723046 -0.0002189837267010459 
-0.1501540346656782 0.1609592930368987 -0.03188464394392039 
0.04162749129449034 -0.04142564402723046 -0.0002189837267010459 
-0.05111874587171506 0.05017182049746222 -0.005749713729266458 
1.677550850686974 -1.655139323168614 -2.734241885234254 
0.08759104522500667 -0.08715566546851353 -0.0106475742842541 
0.1331950560359834 -0.132708605459126 -0.01596569388916578 
0.1331950560359834 -0.132708605459126 -0.01596569388916578 
0.100531574452492 -0.09831133725493019 -0.1879820304618622 
-0.03902871707641174 0.03398903358751232 -0.4641960594418049 
0.1098467374051497 -0.1097156655949006 -0.01318390570118166 
0.100531574452492 -0.09831133725493019 -0.1879820304618622 
0.0661696228096262 -0.06578862454497046 -0.00846698632710113 
0.6928257739642775 -0.6956869669907237 -1.077583014598976 
0.0661696228096262 -0.06578862454497046 -0.00846698632710113 
-0.03902871707641174 0.03398903358751232 -0.4641960594418049 
0.1098467374051497 -0.1097156655949006 -0.01318390570118166 
0.0661696228096262 -0.06578862454497046 -0.00846698632710113 
0.08759104522500667 -0.08715566546851353 -0.0106475742842541 
0.0661696228096262 -0.06578862454497046 -0.00846698632710113 
0.03165462896348201 -0.03696852985474066 -0.09844721222025889 
0.6928257739642775 -0.6956869669907237 -1.077583014598976 
-0.2223260375534763 0.2214590701970481 -0.01118053563913429 
-0.2223260375534763 0.2214590701970481 -0.01118053563913429 
0.03165462896348201 -0.03696852985474066 -0.09844721222025889 
0.5958621405650276 -0.5793822325803968 -0.9694775917854836 
0.3557106434004654 -0.355703795273274 -0.2879977315332714 
0.6941776508661073 -0.6971301103202148 -0.3247158496629278 
0.6941776508661073 -0.6971301103202148 -0.3247158496629278 
0.3591818659799763 -0.3558124247152704 -0.05108756535271779 
0.08018930904370708 -0.08779552426199713 -0.09628599424447172 
0.08018930904370708 -0.08779552426199713 -0.09628599424447172 
0.3862435407323775 -0.3850977846414239 -0.5650274307494212 
0.3862435407323775 -0.3850977846414239 -0.5650274307494212 
0.03098292654765279 -0.03120772653638381 -0.001828134477829898 
0.3656263965452978 -0.36901969585474 -0.009617515334939059 
1.281701376562635 -1.275767572826688 -0.4956373974091332 
0.03098292654765279 -0.03120772653638381 -0.001828134477829898 
-0.05864043208248484 0.06423761228126049 -0.766915452675441 
-1.267563929055594 1.262176566330834 -1.101826858730436 
0.9812135828848908 -0.9814927882024823 -0.2108316915220042 
1.279044757762225 -1.273574432146809 -0.2906262645200956 
-0.1601114402249549 0.1593959767093268 -0.02106888174176808 
-0.3291369152821746 0.3246774380401233 -0.2835875498427768 
0.4827029950953832 -0.4875511294926216 -0.1951628101672993 
0.8419990472236755 -0.83902613869947 -0.6174543568047546 
-0.3291369152821746 0.3246774380401233 -0.2835875498427768 
-0.1601114402249549 0.1593959767093268 -0.02106888174176808 
0.02398062114534732 -0.02399015741019911 -0.0004693721399519463 
0.0281581663591595 -0.02821447125729098 -0.006385088501455458 
0.0281581663591595 -0.02821447125729098 -0.006385088501455458 
-0.0835864294092116 0.08820113353651468 -0.06727001960565422 
1.168643552185085 -1.169315651125086 -0.6465730333988583 
0.06579894195681686 -0.06576708440588529 -0.07306297836127248 
0.216163923490529 -0.2136119936213009 -0.5853086798468934 
0.338332630715436 -0.3380845584461427 -0.03283476150411007 
0.06579894195681686 -0.06576708440588529 -0.07306297836127248 
0.338332630715436 -0.3380845584461427 -0.03283476150411007 
1.973534650289477 -1.972262877140055 -0.9785959767104216 
-0.0835864294092116 0.08820113353651468 -0.06727001960565422 
0.6399160508422709 -0.6459613292217992 -0.5422230445423492 
0.6399160508422709 -0.6459613292217992 -0.5422230445423492 
0.216163923490529 -0.2136119936213009 -0.5853086798468934 
-0.2045320418679285 0.2062394272727575 -0.09603906210512511 
-0.1257985370372189 0.1246597576043845 -0.03710583312310133 
0.3892741633030511 -0.3857613568822998 -0.5492244220514165 
-0.08055349612401726 0.08155851413296523 -0.1556810089793849 
0.03305312722625534 -0.03333698741496242 -0.01807712517043716 
0.414652240939656 -0.4132236480038337 -0.5870782436607687 
-0.1257985370372189 0.1246597576043845 -0.03710583312310133 
0.03305312722625534 -0.03333698741496242 -0.01807712517043716 
0.7602710912770627 -0.7610807707739319 -0.4134402513232303 
0.414652240939656 -0.4132236480038337 -0.5870782436607687 
0.7602710912770627 -0.7610807707739319 -0.4134402513232303 
-0.08055349612401726 0.08155851413296523 -0.1556810089793849 
0.3892741633030511 -0.3857613568822998 -0.5492244220514165 
0.01638641369767111 -0.01640418181285758 -0.01496087295063365 
0.2023037727338865 -0.1947904823177247 -0.223233137852114 
2.100785025941498 -2.095437728258307 -0.7749168447897241 
0.1860694269048034 -0.1803446353441879 -0.06832995446620849 
0.6183278953128247 -0.6157131235239071 -0.5840186767348619 
0.01458516390781254 -0.01485612728144966 -0.001801083198822447 
0.1399284680082613 -0.1507676962667766 -0.8946626060745545 
0.0452791224824306 -0.04556227977013153 -0.006412047652385853 
0.3640763424120631 -0.3621048720814579 -0.07834947629700548 
0.0452791224824306 -0.04556227977013153 -0.006412047652385853 
0.5823765392812745 -0.5909829228840454 -0.4122268954401706 
0.3290286488303664 -0.3253212114700137 -0.4959058941153106 
0.3290286488303664 -0.3253212114700137 -0.4959058941153106 
0.3640763424120631 -0.3621048720814579 -0.07834947629700548 
0.0452791224824306 -0.04556227977013153 -0.006412047652385853 
0.5465334205151502 -0.5433959696674316 -0.31230199981992 
0.01316155733738185 -0.01323709987956954 -0.005519146376491216 
0.01316155733738185 -0.01323709987956954 -0.005519146376491216 
-0.04180983550756079 0.03864566815221412 -0.06518412889688827 
-0.04180983550756079 0.03864566815221412 -0.06518412889688827 
-0.249925905509611 0.2457555488445263 -0.3603831363021089 
0.01316155733738185 -0.01323709987956954 -0.005519146376491216 
0.4589490749940976 -0.4537047361967388 -0.04461015441838653 
0.5757471525987854 -0.5700665295043053 -0.05101977898908094 
0.01316155733738185 -0.01323709987956954 -0.005519146376491216 
-0.249925905509611 0.2457555488445263 -0.3603831363021089 
-0.3888409909425189 0.3889069076024634 -0.08004307821622897 
0.07154196765684724 -0.1273208550246151 -0.145423598849603 
-0.1064314829340566 0.1204359211409797 -0.3870054249699329 
-0.05097877145512092 0.07103234498578652 -0.02316506076249491 
0.07154196765684724 -0.1273208550246151 -0.145423598849603 
-0.05097877145512092 0.07103234498578652 -0.02316506076249491 
0.02908097286384766 -0.03455063327357008 -0.1015336484921804 
0.02908097286384766 -0.03455063327357008 -0.1015336484921804 
0.4220233890893513 -0.413591747188096 -0.3721890431425384 
0.4220233890893513 -0.413591747188096 -0.3721890431425384 
-0.5621762729773542 0.5635050865382473 -0.2936349672530584 
-0.1576907429191969 0.1541586632075114 -0.3429532960673629 
-0.1064314829340566 0.1204359211409797 -0.3870054249699329 
-0.101988970423752 0.1012776718456842 -0.0002572645676548455 
-0.2086683468980558 0.2147160541245124 -0.236216925069593 
-0.101988970423752 0.1012776718456842 -0.0002572645676548455 
0.3999712436901788 -0.4042602453063273 -0.1076590656988592 
-0.247189403111471 0.2470290963732447 -0.4479606190786555 
-0.05687199471943145 0.05928673491368545 -0.6413694993580301 
0.5877404205291785 -0.5914847575844914 -0.3727902999644589 
-0.05687199471943145 0.05928673491368545 -0.6413694993580301 
-0.247189403111471 0.2470290963732447 -0.4479606190786555 
-0.1507649422572822 0.1526970720613413 -0.5663197685225834 
0.4989064303385832 -0.4966238246416629 -0.4924791469900894 
-0.2080672097952084 0.2168181166923401 -0.4520437716422254 
0.04970087117077786 -0.05057300668967741 -0.00140083380086913 
0.4989064303385832 -0.4966238246416629 -0.4924791469900894 
0.04970087117077786 -0.05057300668967741 -0.00140083380086913 
0.4617923888535438 -0.4661501731974947 -1.135329716925307 
0.4617923888535438 -0.4661501731974947 -1.135329716925307 
-0.3609577181455103 0.3586816849394257 -0.2057573929492204 
0.5877404205291785 -0.5914847575844914 -0.3727902999644589 
0.3999712436901788 -0.4042602453063273 -0.1076590656988592 
0.7326197585311062 -0.7278533117075212 -1.038185104348663 
0.2798107199333998 -0.2780945956479565 -0.006413572651108595 
0.1484557387903205 -0.1504767051637139 -0.09634374184545821 
-0.2182025403333722 0.2191210495118812 -0.1133043502816153 
0.6426099365332169 -0.6416124420949214 -0.584048845773109 
0.2144692188002669 -0.2132084276574979 -0.05343630474775149 
0.2144692188002669 -0.2132084276574979 -0.05343630474775149 
0.1760890095304212 -0.1831457059586705 -0.6896747867269739 
0.2339656888253047 -0.2302544308082955 -0.2021451310147939 
0.2339656888253047 -0.2302544308082955 -0.2021451310147939 
0.6558916236559631 -0.6492511245192809 -0.283072644067376 
0.6426099365332169 -0.6416124420949214 -0.584048845773109 
0.7579873940426547 -0.802146313202227 -0.5827109555523043 
0.009750927863810514 -0.00895417689649977 -0.0001900525019265487 
0.1760890095304212 -0.1831457059586705 -0.6896747867269739 
0.009750927863810514 -0.00895417689649977 -0.0001900525019265487 
0.2230143298909903 -0.2140580174215653 -0.008686915075801651 
0.7579873940426547 -0.802146313202227 -0.5827109555523043 
0.004113952480441947 -0.004207153769042469 -0.0001001846191475553 
-0.6425560114463273 0.6465261662345965 -0.02360476147473485 
-0.07541723172210155 0.07803921279205055 -0.5663007802377925 
-0.6425560114463273 0.6465261662345965 -0.02360476147473485 
0.05868442247823696 -0.05878175217858256 -0.0737389131484469 
-0.07541723172210155 0.07803921279205055 -0.5663007802377925 
0.05868442247823696 -0.05878175217858256 -0.0737389131484469 
0.004113952480441947 -0.004207153769042469 -0.0001001846191475553 
0.2235525626600635 -0.225268777870632 -0.008630591448751964 
0 0 0 
0.05956756943404368 -0.0578265254867351 -0.003355826027545137 
0.4261723498027022 -0.4254032659672032 -0.01368346081793495 
0.3065614270948719 -0.3047313771136227 -0.7521516447139868 
0.5255121802622831 -0.5253260877293372 -0.1067009412352894 
0.2558406646955629 -0.2526159512364058 -0.01844053242558275 
0.2024659731175138 -0.2061530563683094 -0.4930092610702648 
0.09707521672022631 -0.09615353327993534 -0.003476809062912601 
0.4261723498027022 -0.4254032659672032 -0.01368346081793495 
0.5214585297127192 -0.525473638886219 -0.4396967636707045 
-0.08797953051996532 0.09225336303877506 -0.08554055987403281 
0.161263823965736 -0.1623517881130165 -0.001813143457536864 
0.05956756943404368 -0.0578265254867351 -0.003355826027545137 
-0.08797953051996532 0.09225336303877506 -0.08554055987403281 
0.1835680193313864 -0.1863224493014667 -0.01239732690511643 
0.005793376288829635 -0.005684715210577593 -2.682280723686943e-05 
0.5255121802622831 -0.5253260877293372 -0.1067009412352894 
0.05956756943404368 -0.0578265254867351 -0.003355826027545137 
0.1835680193313864 -0.1863224493014667 -0.01239732690511643 
0.09097683925461134 -0.09054468909441692 -0.0159452012015763 
0.05956756943404368 -0.0578265254867351 -0.003355826027545137 
0.005793376288829635 -0.005684715210577593 -2.682280723686943e-05 
-0.2836574017492401 0.288455787484567 -0.4429096448535044 
0.1025823634263727 -0.03999378637222225 -0.0156766976419968 
0.6256853157410396 -0.6279346900618556 -0.04666679811300235 
0.009798626627571177 -0.009250922545466205 -0.002856452640154095 
0.009798626627571177 -0.009250922545466205 -0.002856452640154095 
0.4087323741036702 -0.4096373464793699 -0.03891359641766265 
-0.07067253868877554 0.0540112346729649 -0.2943418124979142 
0.009798626627571177 -0.009250922545466205 -0.002856452640154095 
0.0386836422940809 -0.03656669896433826 -0.005468392929982417 
0.3490537888921906 -0.3484300025386828 -0.2743331220861843 
0.2066231945445821 -0.2014194420451722 -0.02928319006788896 
0.2433039090755267 -0.2577290481403033 -0.3214720506728758 
0.2309282503744591 -0.2348544616071495 -0.1859690478698499 
0.186732395569205 -0.1801712367104806 -0.4091855410918531 
0.1680343427923884 -0.1646397790990976 -0.06518366762695303 
-0.07296260808272245 0.1040194885906595 -1.202026393970577 
0.009798626627571177 -0.009250922545466205 -0.002856452640154095 
0.4148876922350224 -0.4188115382850932 -0.2336650235297895 
0.01069991502515337 -0.01095169809360166 -0.003242363111231453 
0.1563290446752806 -0.1570095361232046 -0.0703911583760438 
0.01069991502515337 -0.01095169809360166 -0.003242363111231453 
0.01069991502515337 -0.01095169809360166 -0.003242363111231453 
0.01069991502515337 -0.01095169809360166 -0.003242363111231453 
0.01069991502515337 -0.01095169809360166 -0.003242363111231453 
0.01069991502515337 -0.01095169809360166 -0.003242363111231453 
0.1563290446752806 -0.1570095361232046 -0.0703911583760438 
0.01069991502515337 -0.01095169809360166 -0.003242363111231453 
0.2994583061849136 -0.2960481403247436 -0.9887914804315653 
0.01069991502515337 -0.01095169809360166 -0.003242363111231453 
0.01069991502515337 -0.01095169809360166 -0.003242363111231453 
0.01300998718518767 -0.01325383297192319 -0.003731439485407257 
0.01069991502515337 -0.01095169809360166 -0.003242363111231453 
0.07960914273153182 -0.08323820016568989 -0.04569600530237316 
-0.07407139008103185 0.07010443001972613 -0.0425080574375632 
0.01069991502515337 -0.01095169809360166 -0.003242363111231453 
0.01069991502515337 -0.01095169809360166 -0.003242363111231453 
0.01069991502515337 -0.01095169809360166 -0.003242363111231453 
0.01069991502515337 -0.01095169809360166 -0.003242363111231453 
0.01069991502515337 -0.01095169809360166 -0.003242363111231453 
0.4308524422467865 -0.4268139773835198 -0.2337124181900895 
0.01069991502515337 -0.01095169809360166 -0.003242363111231453 
0.2994583061849136 -0.2960481403247436 -0.9887914804315653 
0.01069991502515337 -0.01095169809360166 -0.003242363111231453 
-0.5289647375568721 0.5074146675241943 -1.113970302722439 
0.6520061959879688 -0.6886245834982607 -0.5992264058073146 
-0.1037313354369557 0.1044836593128625 -0.05367118473025916 
-0.3054168434744594 0.3066769220459151 -0.02183107404821737 
0.3724963997271941 -0.3757001713517666 -0.03696982434067878 
0.01533248497073523 -0.01469098414436779 -0.002543548771598681 
0.2578125892719785 -0.2539564796767551 -0.4931159764957984 
0.2578125892719785 -0.2539564796767551 -0.4931159764957984 
0.4811284561730933 -0.4832321873043239 -0.03573145540650088 
0.01533248497073523 -0.01469098414436779 -0.002543548771598681 
-0.0657123513543037 0.03712603818710308 -0.5312101032921303 
0.01533248497073523 -0.01469098414436779 -0.002543548771598681 
0.01533248497073523 -0.01469098414436779 -0.002543548771598681 
0.01533248497073523 -0.01469098414436779 -0.002543548771598681 
0.01533248497073523 -0.01469098414436779 -0.002543548771598681 
0.01533248497073523 -0.01469098414436779 -0.002543548771598681 
0.01533248497073523 -0.01469098414436779 -0.002543548771598681 
0.01533248497073523 -0.01469098414436779 -0.002543548771598681 
-0.2152544969612091 0.215396075065023 -0.05799123522593465 
0.03844170817447883 -0.03745082613178971 -0.0007854544487095872 
0.03844170817447883 -0.03745082613178971 -0.0007854544487095872 
0.03844170817447883 -0.03745082613178971 -0.0007854544487095872 
0.03844170817447883 -0.03745082613178971 -0.0007854544487095872 
0.2080547084408131 -0.2026000616422886 -0.4106523472678565 
0.03844170817447883 -0.03745082613178971 -0.0007854544487095872 
0.03844170817447883 -0.03745082613178971 -0.0007854544487095872 
-0.5504741844529421 0.5497784513717762 -0.2126745080669627 
0.03844170817447883 -0.03745082613178971 -0.0007854544487095872 
0.03844170817447883 -0.03745082613178971 -0.0007854544487095872 
0.2080547084408131 -0.2026000616422886 -0.4106523472678565 
0.03844170817447883 -0.03745082613178971 -0.0007854544487095872 
0.09579231179255006 -0.0977823943700151 8.998701130317783e-06 
0.09579231179255006 -0.0977823943700151 8.998701130317783e-06 
0.09579231179255006 -0.0977823943700151 8.998701130317783e-06 
-0.1107751458703104 0.1127142862749568 -0.3756759777299629 
-0.07411278589845166 0.07270695772411191 -0.08157318187795935 
-0.1513552458781426 0.1510614303410246 -0.1114505181311611 
0.4737712999871008 -0.4751613824420926 -0.1711695799795167 
-0.1513552458781426 0.1510614303410246 -0.1114505181311611 
-0.1107751458703104 0.1127142862749568 -0.3756759777299629 
0.03331896007914171 -0.03348003652219939 4.463093728573339e-06 
0.09433226990753778 -0.09405930079655681 -0.006405864690824291 
0.03331896007914171 -0.03348003652219939 4.463093728573339e-06 
0.4737712999871008 -0.4751613824420926 -0.1711695799795167 
0.09579231179255006 -0.0977823943700151 8.998701130317783e-06 
0.03331896007914171 -0.03348003652219939 4.463093728573339e-06 
-0.3754951341147693 0.3758495581024414 -1.50139790580359 
0.09433226990753778 -0.09405930079655681 -0.006405864690824291 
0.8471569720608352 -0.8429633603747703 -0.7409749147904792 
0.03331896007914171 -0.03348003652219939 4.463093728573339e-06 
0.1827113600010644 -0.1898039877526692 -0.4513064864358052 
0.2383207505478419 -0.2418511876985549 -0.4365681709262632 
0.4065667782547289 -0.4079333549655618 -0.003752445221255453 
0.4657967886093327 -0.4660035140944281 -0.01732732240788057 
0.03331896007914171 -0.03348003652219939 4.463093728573339e-06 
0.06247335171340835 -0.06430235784781571 4.535607401744451e-06 
0.06247335171340835 -0.06430235784781571 4.535607401744451e-06 
0.1985362970936625 -0.2017127669113795 -0.5044163159830859 
0.06247335171340835 -0.06430235784781571 4.535607401744451e-06 
0.1985362970936625 -0.2017127669113795 -0.5044163159830859 
0.06247335171340835 -0.06430235784781571 4.535607401744451e-06 
-0.5246751707337275 0.5323948714980501 -1.057915646913 
-0.09541902154980592 0.09348599442704061 -0.003611403481568596 
0.1369995036941631 -0.126464541695864 -0.357857309626848 
0.5742166271058529 -0.5696106923297177 -0.4737486806545453 
0.06164668763056543 -0.0659073137545704 -0.4905480696959746 
0.06247335171340835 -0.06430235784781571 4.535607401744451e-06 
0.170826116059396 -0.1750860843923874 -0.01762924299686596 
0.1729913303092572 -0.1717789211801477 -0.2330554464139669 
-0.1155487586311548 0.1143701664127253 -0.3312084047318578 
0.004311211460349754 -0.00432538979336688 -0.0001643366007057068 
0.004311211460349754 -0.00432538979336688 -0.0001643366007057068 
0.2265194110955266 -0.2264045350965116 -0.02722679848512161 
0.02142142241538048 -0.02136704092354308 -0.002180587957152975 
0.02142142241538048 -0.02136704092354308 -0.002180587957152975 
-0.3584920367548157 0.3601434091866185 -0.01795052413129554 
0.1127951662364381 -0.1112997520244033 -0.01966125079698694 
-0.1818689920435509 0.1841256549813663 -0.007677531419230922 
0.9469229196587239 -0.9424343692165542 -0.582116247020723 
1.550806218741732 -1.538898640456288 -0.8212363457339458 
0.1127951662364381 -0.1112997520244033 -0.01966125079698694 
0.1052416498335398 -0.1031580517243282 -0.4270449351227238 
0.3438538833521265 -0.3454754840570867 -0.03385937703956049 
0.3438538833521265 -0.3454754840570867 -0.03385937703956049 
-0.7717980199731724 0.7746770387475413 -0.01093130761591293 
0.01192176613669214 -0.01191969724680715 -0.0008345520805083502 
0.03372287259053618 -0.03472803987689742 -0.6391259716764961 
0.03372287259053618 -0.03472803987689742 -0.6391259716764961 
0.01192176613669214 -0.01191969724680715 -0.0008345520805083502 
0.003371440017411054 -0.003351199493316198 -0.0003313942829083579 
0.003371440017411054 -0.003351199493316198 -0.0003313942829083579 
0.003371440017411054 -0.003351199493316198 -0.0003313942829083579 
0.003371440017411054 -0.003351199493316198 -0.0003313942829083579 
0.1480166034708408 -0.1505317959706496 -0.1643037547298958 
0.003371440017411054 -0.003351199493316198 -0.0003313942829083579 
0.1480166034708408 -0.1505317959706496 -0.1643037547298958 
-0.1445753021484793 0.1440113550511936 -0.5074327470321749 
0.002169768871110008 -0.002051718068512436 -2.76761815030552e-05 
0.4407040997859904 -0.4382828195147647 -0.102832420967815 
0.127897659564752 -0.1607939559837401 -0.3252262456343488 
0.127897659564752 -0.1607939559837401 -0.3252262456343488 
-0.1445753021484793 0.1440113550511936 -0.5074327470321749 
0.02019998603152037 -0.0201808755992286 -0.06546130871899296 
-0.1313460238334945 0.1368349953374628 -0.3561195813103528 
-0.09251718241657381 0.09069433844411745 -0.2797546206964589 
-0.09251718241657381 0.09069433844411745 -0.2797546206964589 
0.002169768871110008 -0.002051718068512436 -2.76761815030552e-05 
0.1113112530516999 -0.1133341189372331 -0.04612634362487015 
0.9433078107068712 -0.9382971508256821 -0.7997178420459554 
0.1113112530516999 -0.1133341189372331 -0.04612634362487015 
-0.2222140755631621 0.2211492559857867 -0.02902779906885719 
0.06683871470519009 -0.06805496442208019 -0.0229377502730444 
0.06683871470519009 -0.06805496442208019 -0.0229377502730444 
0.06683871470519009 -0.06805496442208019 -0.0229377502730444 
-0.2222140755631621 0.2211492559857867 -0.02902779906885719 
-0.7459067463214628 0.7427637086348911 -0.2590741423883519 
0.4051645206021471 -0.4007742889236822 -0.3001316111214646 
0.4051645206021471 -0.4007742889236822 -0.3001316111214646 
0.4054481712811476 -0.405881828305706 -0.2075798790054225 
-0.7459067463214628 0.7427637086348911 -0.2590741423883519 
0.4054481712811476 -0.405881828305706 -0.2075798790054225 
0.4054481712811476 -0.405881828305706 -0.2075798790054225 
0.4054481712811476 -0.405881828305706 -0.2075798790054225 
0.4054481712811476 -0.405881828305706 -0.2075798790054225 
0.06286810969082854 -0.06471410325076923 -0.06744089431273036 
0.2049835052979114 -0.2057671701367882 -0.09569492781520943 
0.2049835052979114 -0.2057671701367882 -0.09569492781520943 
0.3155126783714094 -0.3168021923455274 -0.1067539249576369 
0.06286810969082854 -0.06471410325076923 -0.06744089431273036 
0.2340442833575084 -0.2360633103226025 -0.09492657846543014 
0.3155126783714094 -0.3168021923455274 -0.1067539249576369 
0.2340442833575084 -0.2360633103226025 -0.09492657846543014 
0.04847238389869604 -0.04845348425055492 -0.04735356854772604 
0.04847238389869604 -0.04845348425055492 -0.04735356854772604 
0.04847238389869604 -0.04845348425055492 -0.04735356854772604 
0.04847238389869604 -0.04845348425055492 -0.04735356854772604 
0.09694476779739208 -0.09690696850110983 -0.09470713709545209 
0.120839525869748 -0.1215515527914781 -0.09472654952142755 
-0.1648792452662844 0.1653166564495997 -0.1029672276877266 
-0.1648792452662844 0.1653166564495997 -0.1029672276877266 
0.3878473035488321 -0.3869520378506583 -0.4070526681633113 
0.1345459983305589 -0.1347386457231816 -0.09480006405537338 
0.3390081178602728 -0.3401254381841254 -0.3155934044233565 
0.3390081178602728 -0.3401254381841254 -0.3155934044233565 
0.04847238389869604 -0.04845348425055492 -0.04735356854772604 
0.120839525869748 -0.1215515527914781 -0.09472654952142755 
0.04847238389869604 -0.04845348425055492 -0.04735356854772604 
0.3878473035488321 -0.3869520378506583 -0.4070526681633113 
0.1345459983305589 -0.1347386457231816 -0.09480006405537338 
0.243080910934461 -0.2435845288054347 -0.1013671626626914 
0.243080910934461 -0.2435845288054347 -0.1013671626626914 
0.09694476779739208 -0.09690696850110983 -0.09470713709545209 
0.1294524505933021 -0.1296158050424022 -0.1002250115607502 
0.1294524505933021 -0.1296158050424022 -0.1002250115607502 
0.09694476779739208 -0.09690696850110983 -0.09470713709545209 
-0.2044301446795789 0.2044600017151274 -0.1646527723594021 
0.2718942210707957 -0.269784399374132 -0.2312169004437089 
0.2490757790586301 -0.249467633085258 -0.163259292422884 
-0.2044301446795789 0.2044600017151274 -0.1646527723594021 
0.09821198993806608 -0.09831726082565534 -0.08121153418015746 
0.2718942210707957 -0.269784399374132 -0.2312169004437089 
0.266488558229462 -0.2670006811283787 -0.1774770736482666 
0.09821198993806608 -0.09831726082565534 -0.08121153418015746 
0.2490757790586301 -0.249467633085258 -0.163259292422884 
0.266488558229462 -0.2670006811283787 -0.1774770736482666 
0.188372493533859 -0.1886721590868685 -0.1591537925517175 
-0.1283542975669222 0.1265366063640715 -0.18664567117625 
0.2416937565809894 -0.2423453796776557 -0.1945308429691575 
0.3681391920856469 -0.3677886673544701 -0.3114883465168282 
0.2416937565809894 -0.2423453796776557 -0.1945308429691575 
0.1181939429543937 -0.117952478409465 -0.09475466294744296 
0.2310441302366166 -0.2306125107232304 -0.1875737129642091 
0.2310441302366166 -0.2306125107232304 -0.1875737129642091 
0.1181939429543937 -0.117952478409465 -0.09475466294744296 
0.3681391920856469 -0.3677886673544701 -0.3114883465168282 
-0.1283542975669222 0.1265366063640715 -0.18664567117625 
0.3318230256632161 -0.3313763117857101 -0.3077729554981073 
0.1731158873015633 -0.170046738342582 -0.1605055797100768 
0.1731158873015633 -0.170046738342582 -0.1605055797100768 
0.338188398729076 -0.3386074264255273 -0.1762026964755098 
0.338188398729076 -0.3386074264255273 -0.1762026964755098 
0.1731158873015633 -0.170046738342582 -0.1605055797100768 
0.1731158873015633 -0.170046738342582 -0.1605055797100768 
0.1214295926586536 -0.1222966984224006 -0.1492701316869583 
0.1214295926586536 -0.1222966984224006 -0.1492701316869583 
0.1214295926586536 -0.1222966984224006 -0.1492701316869583 
0.1214295926586536 -0.1222966984224006 -0.1492701316869583 
0.1214295926586536 -0.1222966984224006 -0.1492701316869583 
0.04447253834650979 -0.04527915451515287 -0.02318859335182575 
0.04447253834650979 -0.04527915451515287 -0.02318859335182575 
0.04447253834650979 -0.04527915451515287 -0.02318859335182575 
0.04447253834650979 -0.04527915451515287 -0.02318859335182575 
0.04447253834650979 -0.04527915451515287 -0.02318859335182575 
0.1320888256347071 -0.1326843224588466 -0.05555492405550277 
0.1320888256347071 -0.1326843224588466 -0.05555492405550277 
0.02682166497343132 -0.02741758456113975 -0.01354714712610131 
0.04847238389869604 -0.04845348425055492 -0.04735356854772604 
0.04847238389869604 -0.04845348425055492 -0.04735356854772604 
0.04847238389869604 -0.04845348425055492 -0.04735356854772604 
0.04847238389869604 -0.04845348425055492 -0.04735356854772604 
0.04847238389869604 -0.04845348425055492 -0.04735356854772604 
0.04847238389869604 -0.04845348425055492 -0.04735356854772604 
0.1428623650538416 -0.1424165123164592 -0.1037525335218646 
0.1428623650538416 -0.1424165123164592 -0.1037525335218646 
0.1622373072015092 -0.1617454375217854 -0.1126648711139786 
0.1622373072015092 -0.1617454375217854 -0.1126648711139786 
-0.09180060010663835 0.1076766514320385 -0.02635179320897753 
0.5198043075596259 -0.5121295022391 -0.1499798209794759 
-0.1320417309519379 0.1401021789213752 -0.3612612390043788 
-0.4362437478720437 0.4532204025331071 -0.06113346334461642 
0.9905283617556768 -1.037192502811765 -0.1555462993307233 
0.3561890023646829 -0.3844820571819418 -0.4306218327109992 
0.05168629464290976 -0.04775003992018145 -0.01123544802311848 
0.05168629464290976 -0.04775003992018145 -0.01123544802311848 
0.05168629464290976 -0.04775003992018145 -0.01123544802311848 
0.05168629464290976 -0.04775003992018145 -0.01123544802311848 
0.05168629464290976 -0.04775003992018145 -0.01123544802311848 
0.03298695738485054 -0.03303312308374942 -0.000421146769325836 
0.03298695738485054 -0.03303312308374942 -0.000421146769325836 
0.03298695738485054 -0.03303312308374942 -0.000421146769325836 
0.03298695738485054 -0.03303312308374942 -0.000421146769325836 
0.03298695738485054 -0.03303312308374942 -0.000421146769325836 
0.03298695738485054 -0.03303312308374942 -0.000421146769325836 
0.03298695738485054 -0.03303312308374942 -0.000421146769325836 
0.03298695738485054 -0.03303312308374942 -0.000421146769325836 
0.03298695738485054 -0.03303312308374942 -0.000421146769325836 
0.03298695738485054 -0.03303312308374942 -0.000421146769325836 
0.03298695738485054 -0.03303312308374942 -0.000421146769325836 
0.03298695738485054 -0.03303312308374942 -0.000421146769325836 
-0.2090404775137424 0.2165951290650815 -0.285214662513406 
0.2039850842010413 -0.2039675017639458 -0.1720747627780449 
-0.3295449066360111 0.3264872425312114 -0.3085636514141475 
0.1449927738800403 -0.1478597892569528 -0.01989399316401458 
0.1449927738800403 -0.1478597892569528 -0.01989399316401458 
0.1449927738800403 -0.1478597892569528 -0.01989399316401458 
0.1449927738800403 -0.1478597892569528 -0.01989399316401458 
-0.152245597755452 0.1603046541315991 -0.3179162857510764 
0.1590653823638401 -0.1591573912286137 -0.01066215707485691 
0.2575028617520014 -0.258963105092631 -0.1577194941636602 
0.4739330673635042 -0.4716939634189262 -0.06267470702089939 
0.58061666371276 -0.5804010124621295 -0.06915136229467016 
0.2575028617520014 -0.258963105092631 -0.1577194941636602 
-0.01322323177284634 0.01347290457115728 -0.8177303994740748 
-0.01322323177284634 0.01347290457115728 -0.8177303994740748 
0.1590653823638401 -0.1591573912286137 -0.01066215707485691 
0.0008142349445232778 -0.0007889576310414685 -0.0002770151092577504 
0.01278431261954567 -0.01196612945419453 -0.0362039456555463 
0.3971708270779578 -0.3954115122654027 -0.05756720450371682 
-0.1472550585318337 0.149872411859973 -0.08263487668408934 
-0.175126890991415 0.1685229938359274 -0.1609530964968794 
0.01278431261954567 -0.01196612945419453 -0.0362039456555463 
0.3259199898097331 -0.3263684393464134 -0.3048547527858256 
-0.1472550585318337 0.149872411859973 -0.08263487668408934 
0.0008142349445232778 -0.0007889576310414685 -0.0002770151092577504 
0.0008142349445232778 -0.0007889576310414685 -0.0002770151092577504 
0.004010684805913027 -0.004073542453987391 -0.000814067756926838 
0.0008142349445232778 -0.0007889576310414685 -0.0002770151092577504 
0.2835553086676696 -0.2866570011576028 -0.5229683356450525 
0.0008142349445232778 -0.0007889576310414685 -0.0002770151092577504 
0.0008142349445232778 -0.0007889576310414685 -0.0002770151092577504 
0.4091152932844703 -0.3779275043497393 -0.05718694603126454 
0.0008142349445232778 -0.0007889576310414685 -0.0002770151092577504 
0.7910873139596936 -0.7865811359346557 -0.4262660842406806 
0.3259199898097331 -0.3263684393464134 -0.3048547527858256 
0.3971708270779578 -0.3954115122654027 -0.05756720450371682 
0.004010684805913027 -0.004073542453987391 -0.000814067756926838 
0.2390149043798285 -0.2402924121235715 -0.002754100758837288 
0.2551670376526426 -0.2588892124552669 -0.4944332650505783 
0.4091152932844703 -0.3779275043497393 -0.05718694603126454 
0.4720641454300813 -0.4683596006279659 -0.3193776818492173 
0.0008142349445232778 -0.0007889576310414685 -0.0002770151092577504 
-0.06198934189830039 0.080103000018641 -0.03574173844159028 
0.03434103757553589 -0.03404000181286498 -0.0006276924774648192 
-0.05349857005305791 0.0566961433729888 -0.01459811333266349 
-0.001210341914807449 0.001525107912086267 -0.03414570473041963 
0.03434103757553589 -0.03404000181286498 -0.0006276924774648192 
0.07630059376910249 -0.07512429832890102 -0.03102526197365262 
-0.09456760496875483 0.09576701639252572 -0.0006581158493331612 
-0.1418967105516379 0.1440598036322751 -0.02488034311015941 
-0.001210341914807449 0.001525107912086267 -0.03414570473041963 
0.04918483191497759 -0.04926376047281419 -0.005577918661395172 
0.04918483191497759 -0.04926376047281419 -0.005577918661395172 
0.004745922969016329 -0.001615298622278974 -0.5369853659318589 
0.1263306657860973 -0.1271377912022548 -0.00142620034244878 
0.002696540446183632 -0.002840335078922231 -0.0002189494197757423 
0.0199174917759134 -0.02017649754312197 -0.005494279620571247 
0.1263306657860973 -0.1271377912022548 -0.00142620034244878 
0.002696540446183632 -0.002840335078922231 -0.0002189494197757423 
0.3572182403123872 -0.3566008670736412 -0.03173154708937205 
0.6568809182365832 -0.65987050711433 -0.1021823491682026 
-0.2230804871529941 0.2395079136771926 -0.01006465119728464 
0.6568809182365832 -0.65987050711433 -0.1021823491682026 
0.002696540446183632 -0.002840335078922231 -0.0002189494197757423 
0.01507133144535114 -0.01523852252694019 -0.003423308680700577 
-0.05870878636091402 0.06497453586940795 -0.384575272589337 
0.08732209484019336 -0.08800788763764503 -0.02380187968125636 
0.08732209484019336 -0.08800788763764503 -0.02380187968125636 
0.2583576775892432 -0.2595512563475436 -0.01972094349164347 
0.05653237626117841 -0.05966723496429963 -0.0108101665706343 
0.1422086866608007 -0.1386940872815018 -0.2508406114634176 
0.05653237626117841 -0.05966723496429963 -0.0108101665706343 
0.01507133144535114 -0.01523852252694019 -0.003423308680700577 
0.00268526784405092 -0.002729288002039778 -0.0003754794307132641 
0.04125812146728175 -0.04220930719463789 -0.07031921343715497 
0.04125812146728175 -0.04220930719463789 -0.07031921343715497 
0.3719257725773921 -0.370492854327251 -0.1294937812279761 
0.09930865282933168 -0.1050805168609248 -0.2276342876171907 
1.516717249436942 -1.512315133737656 -0.7035475587866945 
0.04125812146728175 -0.04220930719463789 -0.07031921343715497 
-0.3519098967649891 0.3586026512859403 -0.1577759229958372 
0.04125812146728175 -0.04220930719463789 -0.07031921343715497 
0.04125812146728175 -0.04220930719463789 -0.07031921343715497 
0.04125812146728175 -0.04220930719463789 -0.07031921343715497 
-0.03101409616401114 0.04356213235398809 -0.1574110691117296 
1.838859754282498 -1.833252122739774 -0.6643880789688876 
0.6568012907802218 -0.6562283250640113 -0.3497444111730132 
0.04809345274980298 -0.04891389704382116 -0.003632255850197592 
-0.1101997931894515 0.1107237321377298 -0.1275529241623251 
0.0396531951393841 -0.041265005911105 -0.004433076115418069 
-0.8858056163607527 0.8822947012711998 -0.03786341515738673 
0.0396531951393841 -0.041265005911105 -0.004433076115418069 
-1.058256217914894 1.062253319252289 -0.1199698498538982 
0.008101572087676152 -0.008223254743349244 -0.00299822772886348 
-0.02562274305410376 0.02450512885503374 -0.5878160034438584 
-1.032817357626105 1.032592371554773 -0.03777528708020313 
0.2037766545748538 -0.201016550675539 -0.1546831623372866 
-0.02562274305410376 0.02450512885503374 -0.5878160034438584 
-1.580417195122534 1.585082245148618 -0.1203780965341277 
-0.01473701863240656 0.0146776307197081 -0.002926914290650475 
0.0002963950655308737 -0.0002774088774310869 -0.0001590797116126271 
0.07411513070494938 -0.07446475548209786 -0.0002287777609011863 
0.0002963950655308737 -0.0002774088774310869 -0.0001590797116126271 
0.0002963950655308737 -0.0002774088774310869 -0.0001590797116126271 
0.0002963950655308737 -0.0002774088774310869 -0.0001590797116126271 
0.0002963950655308737 -0.0002774088774310869 -0.0001590797116126271 
0.0002963950655308737 -0.0002774088774310869 -0.0001590797116126271 
0.07411513070494938 -0.07446475548209786 -0.0002287777609011863 
0.0002963950655308737 -0.0002774088774310869 -0.0001590797116126271 
0.0187758623112556 -0.01604154680905348 -0.1114796558378203 
0.5502164994211367 -0.5478688345690601 -0.06473448124332398 
0.0002963950655308737 -0.0002774088774310869 -0.0001590797116126271 
-0.1934698059457245 0.1949459775740882 -0.2404871177981343 
0.1169969452454159 -0.116118409684854 -0.03737553151487003 
0.09730951940443303 -0.09749359552842536 -0.01773087105422522 
0.09730951940443303 -0.09749359552842536 -0.01773087105422522 
0.09730951940443303 -0.09749359552842536 -0.01773087105422522 
0.5452400987682411 -0.5471814591888343 -1.303355248155313 
0.09730951940443303 -0.09749359552842536 -0.01773087105422522 
0.09730951940443303 -0.09749359552842536 -0.01773087105422522 
0.5452400987682411 -0.5471814591888343 -1.303355248155313 
0.1169969452454159 -0.116118409684854 -0.03737553151487003 
0.09730951940443303 -0.09749359552842536 -0.01773087105422522 
-0.731930943064562 0.7319380145849774 -0.01241588577615776 
0.4187560896824049 -0.4188619204808289 -0.1646887013995166 
0.1453775753436226 -0.1536043288970595 -0.4386177478425956 
-0.6692754512864612 0.6719960506257238 -0.001801596788664864 
0.2948589714623269 -0.2934740777205033 -0.5228363705337276 
0.4187560896824049 -0.4188619204808289 -0.1646887013995166 
-0.731930943064562 0.7319380145849774 -0.01241588577615776 
-0.03569319870742584 0.0365121435545936 -0.5504485210811531 
-0.6692754512864612 0.6719960506257238 -0.001801596788664864 
-0.1553230107340398 0.151389585946637 -0.3320209798146261 
-0.3655611588132195 0.3676650055722935 -0.1291043613414162 
0.2948589714623269 -0.2934740777205033 -0.5228363705337276 
-0.1553230107340398 0.151389585946637 -0.3320209798146261 
-0.03569319870742584 0.0365121435545936 -0.5504485210811531 
-0.3655611588132195 0.3676650055722935 -0.1291043613414162 
0.1453775753436226 -0.1536043288970595 -0.4386177478425956 
0.3169639545822284 -0.321075828717521 -0.1114509507929542 
-0.001616959946953303 0.00108698425246331 -0.0002033235180819577 
-0.001616959946953303 0.00108698425246331 -0.0002033235180819577 
-0.06196727497790766 0.06085057513061229 -0.02416786916601492 
0.2065343590645246 -0.2061677574314706 -0.8289739691252543 
0.2495758039393412 -0.2474777285593584 -0.8015344396566864 
0.07512463617109875 -0.0768983160654199 -0.1242716666159461 
0.3748298079090741 -0.3749284433809731 -0.04139565215357624 
0.09260506974672587 -0.09224254550199847 -0.0007131571637203951 
0.07512463617109875 -0.0768983160654199 -0.1242716666159461 
0.09260506974672587 -0.09224254550199847 -0.0007131571637203951 
0.3933682626628993 -0.3915863643288729 -0.06668241328960686 
-0.01384607072151287 0.01796919808251321 -0.04268479503818624 
0.04160954129829923 -0.03787975265088469 -0.06202169559453062 
-0.04715313391508156 0.04891097600939727 -0.21398113274532 
-0.2074777954556755 0.2068181591825196 -0.1223265839378371 
0.5356366517604706 -0.5266982887618423 -0.2441397580758567 
-0.2294185483731752 0.2354400507912681 -0.09051520195608231 
-0.3581154681749534 0.3581324386713182 -0.3806529613664615 
-0.5979141216763212 0.5986169633618363 -0.1185791034700567 
-0.3677283676835078 0.3681620167606979 -0.1221828552495533 
-0.001616959946953303 0.00108698425246331 -0.0002033235180819577 
-0.001616959946953303 0.00108698425246331 -0.0002033235180819577 
-0.2294185483731752 0.2354400507912681 -0.09051520195608231 
-0.1138206744728971 0.1131130792880308 -1.785551859535469e-05 
-0.07433919422331033 0.0750175737418972 -0.03114877595619382 
-0.8812919632934096 0.8762065065366961 -0.09885321879631517 
0.6770084730982128 -0.6784908947694304 -0.2814654297477692 
0.08569778434457577 -0.08313402944246397 -0.2539916008783138 
-0.03110250262264509 0.02359452093403637 -0.3006400935120375 
-0.02924360262484437 0.02578462898017669 -0.4353346750056584 
0.5322525690410552 -0.531684961068586 -0.2216010681290339 
0.115546332423014 -0.1076350959896519 -0.32932217177564 
0.3494297433416738 -0.3470735681628618 -0.543466457396565 
-1.073642827584043 1.071582291909104 -0.2512897165871827 
0.3132052399192592 -0.3095631328872768 -0.5431922419722608 
0.6770084730982128 -0.6784908947694304 -0.2814654297477692 
0.09679030118406429 -0.09524504350835689 -0.3208954607855896 
0.09679030118406429 -0.09524504350835689 -0.3208954607855896 
0.1122037145259438 -0.1120260950355675 -0.0001854679994866031 
-0.1631513288459673 0.157159038120974 -0.109752742113665 
0.04190380175589298 -0.04201994995564419 -7.77098387084668e-05 
0.1963962923445751 -0.195115127095528 -0.01101410328102364 
0.1134396489253692 -0.1106802660787945 -0.005897608528563657 
0.1963962923445751 -0.195115127095528 -0.01101410328102364 
0.09944541113656931 -0.09723536294417869 -0.00516040914476966 
0.4063412611021989 -0.4058499829877774 -0.4241448504927948 
0.1728104529536945 -0.1713733399629059 -0.4047947743577981 
0.04190380175589298 -0.04201994995564419 -7.77098387084668e-05 
0.03235002210158473 -0.03202182961484065 -0.0002276708505563555 
0.002282335226051813 -0.007630516362382266 -0.01856448383596155 
0.1497123944664278 -0.1548173847465325 -0.03839184969041053 
0.03235002210158473 -0.03202182961484065 -0.0002276708505563555 
0.06141788193200012 -0.0610311047726336 -0.0004330130387001071 
0.03130696782963258 -0.03225421860274483 -9.964698485315022e-05 
-0.08634802709357463 0.08504737481809953 -0.04014423174039155 
0.1542977758213016 -0.1579352923131609 -0.1804289577120149 
0.1542977758213016 -0.1579352923131609 -0.1804289577120149 
0.001751982007670215 -0.003455996576702362 -0.01260687314421752 
0.03130696782963258 -0.03225421860274483 -9.964698485315022e-05 
0.03130696782963258 -0.03225421860274483 -9.964698485315022e-05 
0.3672589173805054 -0.3663736557561865 -0.461362943587067 
0.03130696782963258 -0.03225421860274483 -9.964698485315022e-05 
-0.08634802709357463 0.08504737481809953 -0.04014423174039155 
0.001751982007670215 -0.003455996576702362 -0.01260687314421752 
-0.3611076682098326 0.3644862051617811 -0.4086117035173609 
-0.2103763788996814 0.2132301896304744 -0.09332318224662074 
-0.2103763788996814 0.2132301896304744 -0.09332318224662074 
-0.01358095495898623 0.01981638071865922 -0.05608260514041323 
-0.01358095495898623 0.01981638071865922 -0.05608260514041323 
0.2067037083727429 -0.2055708828055367 -0.01387976348072064 
-0.8482164035048132 0.8443497382097978 -0.001227789298928449 
-0.8482164035048132 0.8443497382097978 -0.001227789298928449 
-0.2747280919263951 0.2809576926314098 -0.1514975972627328 
0.1189721883470889 -0.1194413187651071 -0.2045363142952743 
-0.3061100566654165 0.3137455527992265 -0.3768657434916174 
-0.4398979672547583 0.4366879049224323 -0.01898439480696124 
0.07759166494523827 -0.07464862241493159 -0.1465904188959179 
-0.2006061184962264 0.2028109720814014 -0.09627296792269939 
-0.9266582663248858 0.9274387131936578 -0.1929332165577888 
0.2821135976516448 -0.2800104952322037 -0.3144275499386118 
0.4443753987571908 -0.4420146874379284 -0.6039213098073569 
0.4443753987571908 -0.4420146874379284 -0.6039213098073569 
-0.3208958006009779 0.3150405189319522 -0.0003648538841076057 
-0.3208958006009779 0.3150405189319522 -0.0003648538841076057 
0.1423680423413218 -0.1381530808339543 -0.1196783779937541 
0.5013081265677345 -0.4999508014298625 -0.2527321848027864 
-0.3208958006009779 0.3150405189319522 -0.0003648538841076057 
0.1423680423413218 -0.1381530808339543 -0.1196783779937541 
0.1189721883470889 -0.1194413187651071 -0.2045363142952743 
-0.2725039469135044 0.2725165939960499 -0.2366468821939633 
0.02123816660613189 -0.01814229783813184 -0.5304094021934876 
-0.2124488408101714 0.2127624148741009 -0.0003500543590505985 
0.4050584737305898 -0.3969829675406191 -0.5043454934170957 
-0.2154191834665833 0.2157477377628625 -0.0005080300592941106 
0.4050584737305898 -0.3969829675406191 -0.5043454934170957 
0.02751120736350224 -0.02046759494334501 -0.02368188743801247 
-0.5221609772076417 0.5228289258963292 -0.000408246680229549 
0.4435180857926497 -0.4363574322523462 -0.1750625670051837 
0.4166716596359516 -0.4443381208001951 -0.1604303501117126 
-0.2154191834665833 0.2157477377628625 -0.0005080300592941106 
-0.2723564694909006 0.2621532395792808 -0.01437875059470462 
0.4166716596359516 -0.4443381208001951 -0.1604303501117126 
0.4435180857926497 -0.4363574322523462 -0.1750625670051837 
-0.2124488408101714 0.2127624148741009 -0.0003500543590505985 
-0.3335313369445718 0.3306030205048839 -0.005191245255660819 
-0.3335313369445718 0.3306030205048839 -0.005191245255660819 
0.3060362246077662 -0.3050418764240583 -0.4253262395085237 
0.043694668638133 -0.04269262028214236 -0.0001170455903101936 
0.07361210749819409 -0.07084874905218823 -0.1107336067371578 
0.3060362246077662 -0.3050418764240583 -0.4253262395085237 
0.2579212923342037 -0.2587995387119004 -0.04965525159584568 
-0.3202634441079724 0.3180256254369256 -0.117098569278293 
0.043694668638133 -0.04269262028214236 -0.0001170455903101936 
-0.3202634441079724 0.3180256254369256 -0.117098569278293 
0.08739147022822713 -0.08519103184485642 -0.3107175540189147 
0.929551773786872 -0.9280460286250318 -0.5502804165386914 
0.0117257895780832 -0.007649608582534781 -0.1572579237896344 
-0.6497606689026546 0.6495279998694544 -0.07894445423799065 
0.0117257895780832 -0.007649608582534781 -0.1572579237896344 
-0.06063405338844628 0.06328255329414345 -0.2526779176378671 
0.1792465583744551 -0.1787830011149084 -0.000555352815458366 
0.07361210749819409 -0.07084874905218823 -0.1107336067371578 
0.08739147022822713 -0.08519103184485642 -0.3107175540189147 
0.3774140596157067 -0.3741175142677777 -0.3469377970208159 
0.5676728368506325 -0.5714100884613377 -0.6685791283897732 
-0.1786866898176815 0.1794719516652753 -0.5419130995020144 
0.032391734250151 -0.0312683832686167 -0.000116457910754014 
0.5676728368506325 -0.5714100884613377 -0.6685791283897732 
0.06920619634771913 -0.06587881069953148 -0.0412720481347259 
0.3190089001090817 -0.3180906448517126 -0.1237556913042351 
-0.2154063914735881 0.2138237981492953 -0.002017877369546004 
0.1220857987848633 -0.1218046129147069 -0.2683199912043108 
-0.2154063914735881 0.2138237981492953 -0.002017877369546004 
-0.1345892288848559 0.1457066598205185 -0.4878928845376567 
0.032391734250151 -0.0312683832686167 -0.000116457910754014 
0.008928511123116675 -0.008851926302583402 -0.001021565513928422 
0.3904991205133447 -0.392321616563513 -0.401960557512157 
0.06411819500275502 -0.06478225624683645 -0.002996838624487891 
0.06411819500275502 -0.06478225624683645 -0.002996838624487891 
0.008928511123116675 -0.008851926302583402 -0.001021565513928422 
0.3904991205133447 -0.392321616563513 -0.401960557512157 
0.09175977424260344 -0.09044308084872665 -0.0004706056811340883 
-0.2126333860914847 0.2073258549024307 -0.02771932520241475 
0.01091403474298755 -0.01365376027373647 -0.6908121747185547 
0.3593159435910021 -0.3537716193026896 -0.2180246716070312 
0.2464633783106984 -0.247342259540856 -0.1030568893117858 
0.4080429078838636 -0.4074671878729338 -0.01825555946738943 
0.3593159435910021 -0.3537716193026896 -0.2180246716070312 
-0.2126333860914847 0.2073258549024307 -0.02771932520241475 
0.01091403474298755 -0.01365376027373647 -0.6908121747185547 
0.2464633783106984 -0.247342259540856 -0.1030568893117858 
0.8274848100913943 -0.8246669851830449 -0.01326393678158754 
0.1445144897568789 -0.1444113700840337 -0.00259313649337172 
-0.08518115346647682 0.08732028058515487 -0.002250899910313583 
-0.09088117729268907 0.0937107502082678 -0.1280112099178475 
1.046038613196627 -1.042989532690921 -0.4326142225089802 
0.2309999546368503 -0.2343981256261298 -0.5978275793479771 
0.2309999546368503 -0.2343981256261298 -0.5978275793479771 
-0.3354705110948987 0.3330210627414853 -0.03416562731896265 
0.6884343205716011 -0.6853592476413582 -0.1092695986463717 
-0.695881853873567 0.6959464846189419 -0.0004935121022818218 
-0.09088117729268907 0.0937107502082678 -0.1280112099178475 
0.175572023219639 -0.174017989542026 -0.2197216532769202 
-0.695881853873567 0.6959464846189419 -0.0004935121022818218 
-0.1726554860120583 0.1711401495721099 -0.07644203230694707 
0.13235327407419 -0.1250280951194103 -0.0814643507610978 
-0.1581755880101345 0.1672196254442894 -0.1588663357370673 
0.2131926066982495 -0.2776015996281457 0.05574081057318654 
0.1215267975687595 -0.103789976176627 -0.3010127957490853 
0.1113013265728643 -0.1021993667014559 -0.3267751349913844 
-0.6601484419229458 0.6637845549223994 -0.06265427689335247 
0.2075416474346412 -0.1800539375201525 -0.04512763882770877 
-0.07611891335878712 0.08816607557017768 -0.5782210715371329 
0.2075416474346412 -0.1800539375201525 -0.04512763882770877 
-0.230317000730373 0.2305519831770061 -0.06458101998313416 
-0.230317000730373 0.2305519831770061 -0.06458101998313416 
0.1215267975687595 -0.103789976176627 -0.3010127957490853 
0.1733032810052033 -0.1448498680937359 -0.06365354160442924 
-0.6601484419229458 0.6637845549223994 -0.06265427689335247 
-0.1581755880101345 0.1672196254442894 -0.1588663357370673 
-0.1977649815875573 0.1554356772770316 0.02280327362394503 
0.5404967848904498 -0.536530657730003 -0.3377891863164413 
-0.293114352021512 0.2986560693743295 -0.001648183905953158 
0.245580092625893 -0.2566628332889866 -0.2806499940715627 
-0.293114352021512 0.2986560693743295 -0.001648183905953158 
-0.293114352021512 0.2986560693743295 -0.001648183905953158 
-0.293114352021512 0.2986560693743295 -0.001648183905953158 
0.245580092625893 -0.2566628332889866 -0.2806499940715627 
-0.293114352021512 0.2986560693743295 -0.001648183905953158 
0.1351253194324104 -0.1297941365591579 -0.03164788759268361 
-0.7296277612243698 0.7341650334192644 -0.01240718481321744 
0.1351253194324104 -0.1297941365591579 -0.03164788759268361 
-0.293114352021512 0.2986560693743295 -0.001648183905953158 
-0.6108226046454486 0.6150693766020281 -0.03442901925757419 
-0.2727146338214806 0.2776489559149118 -0.004049162703625663 
-0.2727146338214806 0.2776489559149118 -0.004049162703625663 
-0.207283068490156 0.2148887221648758 -0.002224741922905842 
-0.2225936734456239 0.2252853249157039 -0.0008619802626596645 
-0.2225936734456239 0.2252853249157039 -0.0008619802626596645 
-0.4445656756716759 0.445383175510264 -0.007783602519150493 
-0.2225936734456239 0.2252853249157039 -0.0008619802626596645 
-0.02604002560770598 0.02570066489462396 -0.6489750247595582 
-0.2225936734456239 0.2252853249157039 -0.0008619802626596645 
-0.4090678633326646 0.4085694074571359 -0.0009631003430890012 
-0.4090678633326646 0.4085694074571359 -0.0009631003430890012 
-0.7251366325130809 0.7300725440075186 -0.07120677586260228 
-0.2225936734456239 0.2252853249157039 -0.0008619802626596645 
-0.2225936734456239 0.2252853249157039 -0.0008619802626596645 
-0.02604002560770598 0.02570066489462396 -0.6489750247595582 
-0.2225936734456239 0.2252853249157039 -0.0008619802626596645 
-0.2225936734456239 0.2252853249157039 -0.0008619802626596645 
0.5711498709408711 -0.5329837273282961 -0.06497072958651762 
-0.3979738736644932 0.3983281351137435 -0.002299546744852761 
-0.3979738736644932 0.3983281351137435 -0.002299546744852761 
-0.3979738736644932 0.3983281351137435 -0.002299546744852761 
-0.1807678531115389 0.1775940577339901 -0.00852965778759816 
-0.02914432200117575 0.02727739917226953 -0.001666045016743925 
-0.08508091696568322 0.08457710775212041 -0.0006039297031458657 
-0.02914432200117575 0.02727739917226953 -0.001666045016743925 
-0.08508091696568322 0.08457710775212041 -0.0006039297031458657 
-0.3979738736644932 0.3983281351137435 -0.002299546744852761 
-0.07042894913492928 0.07034729027551943 -0.02549151253762612 
-0.08508091696568322 0.08457710775212041 -0.0006039297031458657 
-0.08508091696568322 0.08457710775212041 -0.0006039297031458657 
-0.1807678531115389 0.1775940577339901 -0.00852965778759816 
-0.08508091696568322 0.08457710775212041 -0.0006039297031458657 
-0.223217343675033 0.2242641366963427 -0.001222607996408819 
0.2884619157334453 -0.3079244315957837 -0.01057718661234766 
-0.223217343675033 0.2242641366963427 -0.001222607996408819 
-0.223217343675033 0.2242641366963427 -0.001222607996408819 
-0.2429433720150702 0.2441584690416222 -0.001251430007190994 
-0.223217343675033 0.2242641366963427 -0.001222607996408819 
-0.4632896356080767 0.4640516444057728 -0.02716742475871467 
-0.223217343675033 0.2242641366963427 -0.001222607996408819 
-0.223217343675033 0.2242641366963427 -0.001222607996408819 
-0.223217343675033 0.2242641366963427 -0.001222607996408819 
-0.223217343675033 0.2242641366963427 -0.001222607996408819 
0.2884619157334453 -0.3079244315957837 -0.01057718661234766 
-0.08967561302377687 0.08948689066528041 -0.000473009045298077 
-0.08967561302377687 0.08948689066528041 -0.000473009045298077 
-0.08967561302377687 0.08948689066528041 -0.000473009045298077 
-0.08967561302377687 0.08948689066528041 -0.000473009045298077 
-0.08967561302377687 0.08948689066528041 -0.000473009045298077 
-0.1752516647173719 0.2078684858496859 -0.3155650371719991 
-0.1752516647173719 0.2078684858496859 -0.3155650371719991 
-0.08967561302377687 0.08948689066528041 -0.000473009045298077 
-0.3166218452742668 0.3137614892876274 -0.4884139296793285 
-0.08361884688086804 0.08372330085340116 -0.0004774407784676719 
0.1585319665753491 -0.1549482650107375 -0.2616033095354138 
0.5740081418438573 -0.5505339479688932 -0.3131063084215907 
-0.1250760916732384 0.125224525264247 -0.0002198285602551363 
-0.1250760916732384 0.125224525264247 -0.0002198285602551363 
-0.1250760916732384 0.125224525264247 -0.0002198285602551363 
-0.1250760916732384 0.125224525264247 -0.0002198285602551363 
-0.633781214218773 0.63249091092049 -0.0245289208303844 
-0.1250760916732384 0.125224525264247 -0.0002198285602551363 
-0.633781214218773 0.63249091092049 -0.0245289208303844 
-0.1250760916732384 0.125224525264247 -0.0002198285602551363 
0.3470800126409375 -0.3453642293432608 -0.006210866912384347 
0.005150729512106933 -0.005310000736883089 -0.0004177673848383481 
0.005150729512106933 -0.005310000736883089 -0.0004177673848383481 
0.03957462223111016 -0.03955891462333649 -0.02624054671539316 
0.03957462223111016 -0.03955891462333649 -0.02624054671539316 
0.1593679557175513 -0.1520994144808562 -0.3090752057242765 
0.02078364586555645 -0.02081665665631692 -0.0009586297063940302 
0.02078364586555645 -0.02081665665631692 -0.0009586297063940302 
0.4149514126541514 -0.4156072710698642 -0.08156402522968187 
0.05458410628249541 -0.05533565342048165 -0.01540434722860078 
0.05458410628249541 -0.05533565342048165 -0.01540434722860078 
0.1441639743182169 -0.1469820128372379 -0.5106561782248459 
0.1593679557175513 -0.1520994144808562 -0.3090752057242765 
0.4149514126541514 -0.4156072710698642 -0.08156402522968187 
0.09400918683272559 -0.09117501582071477 -0.004002415700879557 
0.007212278473778077 -0.007347392053876274 -0.0002429355769666814 
0.007212278473778077 -0.007347392053876274 -0.0002429355769666814 
0.01177728269020107 -0.01193328868296609 -0.001895187346603774 
-0.4168980422383294 0.4186351149200164 -0.008652248473507484 
0.01177728269020107 -0.01193328868296609 -0.001895187346603774 
0.09400918683272559 -0.09117501582071477 -0.004002415700879557 
-0.4168980422383294 0.4186351149200164 -0.008652248473507484 
0.5668180598801792 -0.5740340993971491 -0.1636429989700814 
0.5668180598801792 -0.5740340993971491 -0.1636429989700814 
0.06064173041818031 -0.06078706161011235 -0.001447975839616341 
-0.4300492687645738 0.432748514382346 -0.1277688169158846 
-0.5021280037780205 0.506150753072511 -0.1686812814509746 
-0.09180325728943324 0.09349142066075528 -0.2577172153908019 
-0.06653559669739453 0.07214796651412617 -0.2286255981951161 
-0.06653559669739453 0.07214796651412617 -0.2286255981951161 
-0.09180325728943324 0.09349142066075528 -0.2577172153908019 
0.7851703451831437 -0.7848476233548245 -0.1538036637344573 
0.004169646751179192 -0.004261896809630317 -0.0001866439587679951 
0.00198579641083274 -0.00204183238707704 -0.0001357975450290618 
0.00198579641083274 -0.00204183238707704 -0.0001357975450290618 
0.1188698374397588 -0.1191349853319015 -0.003536801846825161 
-0.1231262060775511 0.1225919066184767 -0.002647093629079835 
0.5263439791111723 -0.5270199924082243 -0.1563210842879266 
0.0735685824625496 -0.06983849011724515 -0.03301193641276742 
0.1507627295860077 -0.1511693042313772 -0.004736127663598438 
-0.2570911593877293 0.264064796489236 -0.05502512389855577 
-0.2570911593877293 0.264064796489236 -0.05502512389855577 
-0.4171981979113994 0.417478097217878 -0.04313572573338571 
0.1103421165473742 -0.1071961763960635 -0.004985871378902411 
0.0735685824625496 -0.06983849011724515 -0.03301193641276742 
0.02276637688830322 -0.02299500930109057 -0.00177312246853138 
0.00198579641083274 -0.00204183238707704 -0.0001357975450290618 
0.495642462711645 -0.4964573092881024 -0.7208000807740735 
0.1507627295860077 -0.1511693042313772 -0.004736127663598438 
-0.05543718107354106 0.05567729359384141 -0.09761312857238051 
0.495642462711645 -0.4964573092881024 -0.7208000807740735 
0.02276637688830322 -0.02299500930109057 -0.00177312246853138 
0.00198579641083274 -0.00204183238707704 -0.0001357975450290618 
-0.0909979213715808 0.09202800928201132 -0.05102332525034983 
0.3224500918484855 -0.3284573698005108 -0.001148758251739907 
-0.04003785438749708 0.03770117293035474 -0.06271258620642411 
0.1309417210819977 -0.130243900651688 -0.3519722743134454 
0.1309417210819977 -0.130243900651688 -0.3519722743134454 
-0.02421271708911326 0.02477417774151406 -0.01025695354731069 
0.3209332149020261 -0.3204921403060726 -0.003707173190649985 
-0.04003785438749708 0.03770117293035474 -0.06271258620642411 
0.3209332149020261 -0.3204921403060726 -0.003707173190649985 
1.163190857927308 -1.169317184967636 -0.07384833043531923 
0.03573376212478634 -0.03628973176187297 -0.002032650493489944 
0.005800519686579278 -0.005856705251746076 4.045285922574807e-06 
0.01407038329136103 -0.01390770752131459 -0.0003383557528971582 
0.3248585754176989 -0.3664354784721364 -0.2908987277967513 
0.2262658381676137 -0.2526678590375972 -0.3441563119695237 
-0.05887251060228234 0.05579376063459688 -0.2093332040549591 
0.827984964693965 -0.8383976497358958 -0.4507618521653787 
0.01823389894210069 -0.01814830596175389 -0.0006824376423699963 
0.03477592772082978 -0.03435595534775723 -0.003386233517619603 
0.01823389894210069 -0.01814830596175389 -0.0006824376423699963 
0.04638115018117785 -0.03631965082883874 -0.3062016106651027 
-0.05887251060228234 0.05579376063459688 -0.2093332040549591 
0.01407038329136103 -0.01390770752131459 -0.0003383557528971582 
0.300639756211274 -0.2798918824384645 -0.3028564611714852 
0.01407038329136103 -0.01390770752131459 -0.0003383557528971582 
-0.2147952736005505 0.2366681930393134 -0.3548053959965328 
0.09685377831229931 -0.09693820930926991 -0.07385780636595836 
0.09685377831229931 -0.09693820930926991 -0.07385780636595836 
0.4606587763945431 -0.4571111462215006 -0.131409076630592 
-0.4161686343993102 0.4169198135034384 -0.02119204014844151 
-0.4154519285639829 0.4189598819764114 -0.02968195096391938 
-0.09099387868696356 0.09061062729777473 1.285940108868206e-06 
-0.2124636714361841 0.2163083444993101 -0.03051013850256619 
0.3788349128886962 -0.3776385453563771 -0.1760663502282121 
0.074597854526958 -0.07622989004181624 -0.04331498406272934 
0.074597854526958 -0.07622989004181624 -0.04331498406272934 
-0.4161686343993102 0.4169198135034384 -0.02119204014844151 
-0.09099387868696356 0.09061062729777473 1.285940108868206e-06 
-0.4652968928867877 0.4686748313832921 -0.05262262437259579 
0.1692797445295215 -0.1700734540745309 -0.04127050890837592 
-0.2127121163906441 0.2629577749161157 -0.1444061680039302 
-0.09099387868696356 0.09061062729777473 1.285940108868206e-06 
0.1692797445295215 -0.1700734540745309 -0.04127050890837592 
0.1639776139167285 -0.1671344443888682 -0.02229526795006616 
-0.09099387868696356 0.09061062729777473 1.285940108868206e-06 
-1.302082247402597 1.297089294628696 -0.03078048662960627 
-1.302082247402597 1.297089294628696 -0.03078048662960627 
0.03509267712188081 -0.02293150085922828 -0.1839336167637576 
0.03509267712188081 -0.02293150085922828 -0.1839336167637576 
-0.09666728073509516 0.09838778454284651 -0.02489747231640013 
-0.4030514374150823 0.4002094220040878 -0.000243498066544781 
-0.03385425506817597 0.03075531021814317 -0.8814192462527436 
-0.1926617508154398 0.1935644984036501 -0.001244068304921192 
-0.6225314175979844 0.6184801528534483 -0.04410085083783323 
0.2743084022112413 -0.2755226864334109 -0.8378438175481566 
-0.09666728073509516 0.09838778454284651 -0.02489747231640013 
-0.338858458675668 0.3368127317163264 -0.04119512218616558 
-0.08942185420603008 0.08823251625106937 -5.357455865735654e-05 
-0.1926617508154398 0.1935644984036501 -0.001244068304921192 
-0.4030514374150823 0.4002094220040878 -0.000243498066544781 
-0.3603280966872032 0.3586079624925941 -0.0009869896727452393 
-0.3603280966872032 0.3586079624925941 -0.0009869896727452393 
-0.3603280966872032 0.3586079624925941 -0.0009869896727452393 
0.683751115288689 -0.6834896725612674 -0.3451659102552043 
0.1943661232837715 -0.1942634219188697 -0.3683733688078891 
-0.3603280966872032 0.3586079624925941 -0.0009869896727452393 
-0.3725691371010728 0.3780968097943203 -0.06321879117061319 
-0.3725691371010728 0.3780968097943203 -0.06321879117061319 
-0.3588611055742337 0.357147263733453 -0.001512136179190276 
-0.3603280966872032 0.3586079624925941 -0.0009869896727452393 
-0.3603280966872032 0.3586079624925941 -0.0009869896727452393 
-0.3603280966872032 0.3586079624925941 -0.0009869896727452393 
-0.2552619375296337 0.2527963784467865 -0.004268431828596946 
-0.4335940727488139 0.4350642074081101 -0.00490003184305938 
0.1868603200652823 -0.1830079955784732 -0.1200497676091462 
0.1868603200652823 -0.1830079955784732 -0.1200497676091462 
-0.5808942494528783 0.5842485953410607 -0.00128852433741978 
-0.3138980449382368 0.3164911692055967 -0.00734083016943943 
-0.5808942494528783 0.5842485953410607 -0.00128852433741978 
-0.3138980449382368 0.3164911692055967 -0.00734083016943943 
0.177468133989496 -0.1756825624229838 -0.02275775152516285 
-0.5808942494528783 0.5842485953410607 -0.00128852433741978 
-0.4335940727488139 0.4350642074081101 -0.00490003184305938 
0.177468133989496 -0.1756825624229838 -0.02275775152516285 
-0.3995851919441886 0.4028260690906473 -0.06742084042755578 
-0.5808942494528783 0.5842485953410607 -0.00128852433741978 
-0.3723392301718086 0.375402722117804 -0.003526035706863308 
-0.3723392301718086 0.375402722117804 -0.003526035706863308 
0.02054848327801273 -0.02099899533504916 -0.4692918211534062 
-0.3723392301718086 0.375402722117804 -0.003526035706863308 
-0.07027602948330677 0.07527246808420282 -0.1867110714055254 
-0.2010357438243222 0.2176999594566801 -0.4641161330413608 
0.009625284799112774 -0.0004748132798628544 -0.02878997309782308 
-0.1109939724097109 0.1165685535350243 -0.03468648025875158 
0.02054848327801273 -0.02099899533504916 -0.4692918211534062 
-0.3723392301718086 0.375402722117804 -0.003526035706863308 
-0.2092405002854658 0.2111650270792764 -0.003673098571424354 
-0.1109939724097109 0.1165685535350243 -0.03468648025875158 
-0.07027602948330677 0.07527246808420282 -0.1867110714055254 
0.009625284799112774 -0.0004748132798628544 -0.02878997309782308 
-0.2092405002854658 0.2111650270792764 -0.003673098571424354 
-0.2581285820443953 0.2640912207629453 -0.01201255621798857 
-0.2772326919572157 0.2720532317743353 -0.03718228763669519 
-0.2772326919572157 0.2720532317743353 -0.03718228763669519 
-0.316845880839549 0.3304736217692516 -0.1246486029304161 
0.01664210571382957 -0.01215086152147812 -0.3265569281131653 
-0.2730208881919471 0.2730068906703894 -0.001573929880344452 
-0.3111361550783703 0.3019840798197495 -0.01833330445946035 
-0.8554845621024882 0.8669898719870645 -0.3112461862564904 
-0.3845268310005015 0.3838774266238222 -3.308498347971455e-05 
-0.3845268310005015 0.3838774266238222 -3.308498347971455e-05 
0.5202191161945626 -0.5172578430169739 -0.5227407539288828 
0.3245391594598742 -0.3289853845571169 -0.6612710594790445 
0.5202191161945626 -0.5172578430169739 -0.5227407539288828 
-0.2730208881919471 0.2730068906703894 -0.001573929880344452 
-0.6092674097333389 0.6022785562390217 -0.1118010261817327 
0.6804729942639318 -0.6863045064302823 -0.4320036761894149 
0.005817017799793395 -0.005812751029990286 -0.0003011234369455009 
0.005817017799793395 -0.005812751029990286 -0.0003011234369455009 
1.108651461839519 -1.10885935934406 -0.2207536530263715 
0.4112826055096818 -0.4133198810353976 -0.3909973782043075 
0.3943189384026545 -0.3916458965797844 -0.2476851309283724 
-0.543225387924576 0.54183889955275 -4.756762104781816e-05 
-0.543225387924576 0.54183889955275 -4.756762104781816e-05 
-0.1804479133780091 0.1794303698158984 -0.005860746599439803 
-0.1804479133780091 0.1794303698158984 -0.005860746599439803 
-0.3330080395328297 0.3291466041527313 -0.001894583018444451 
-0.6343393593909937 0.6527104456298211 -0.2750755333802759 
-0.4327347291564251 0.4351040295556381 -0.0231359673444561 
-0.3444431477654055 0.3455437511010687 -0.03478167013563888 
-0.4327347291564251 0.4351040295556381 -0.0231359673444561 
0.1730137642069992 -0.165156634701049 -0.06998061071728416 
-0.7454799569447002 0.763809761668613 -0.01061610830720393 
-0.4315362077472314 0.4310526602163474 -0.0001277181985869391 
-0.3148039920090995 0.3192272091143911 -0.001396501375992622 
-0.3148039920090995 0.3192272091143911 -0.001396501375992622 
-0.1504302120656124 0.1515191544164328 -0.1967566314265839 
-0.4315362077472314 0.4310526602163474 -0.0001277181985869391 
0.05806387093943623 -0.05591982152546864 -0.1900390603525705 
0.1803241260551558 -0.1878072235567864 -0.1297595706251853 
-0.3327877106593082 0.3274659316191058 -0.1163391596645562 
0.1803241260551558 -0.1878072235567864 -0.1297595706251853 
-0.4315362077472314 0.4310526602163474 -0.0001277181985869391 
-0.1504302120656124 0.1515191544164328 -0.1967566314265839 
-0.3915909599031618 0.3928845384499178 -0.007610898179735408 
-0.09110399517889199 0.08834757618110577 -0.0122422772393221 
0.5558924979338622 -0.5628638416510303 -0.182244830693747 
-0.09110399517889199 0.08834757618110577 -0.0122422772393221 
0.05806387093943623 -0.05591982152546864 -0.1900390603525705 
-0.5763340219432438 0.5819592710177968 -0.007223560415058742 
-0.6629638771802335 0.6606012285684428 -0.002991872326698699 
-0.7837855518766879 0.7838649795193267 -0.001479907323450615 
-0.1051053987951177 0.1048364823058652 -0.188018467374563 
0.7318229323481751 -0.71956675438053 -0.8323726475102818 
-0.4101005705381016 0.4114660419166024 -0.003856891830804261 
-0.1051053987951177 0.1048364823058652 -0.188018467374563 
-0.1586724019835332 0.1563801725660239 -0.1387952639678499 
-0.01591367243274282 0.0119208466672374 -0.2125530798518466 
-0.4101005705381016 0.4114660419166024 -0.003856891830804261 
0.02908144381546597 -0.02883513237127474 -0.002868215649209097 
0.02908144381546597 -0.02883513237127474 -0.002868215649209097 
0.5160977615208051 -0.5145064937002745 -0.04275864893579329 
0.04510686127969839 -0.03826527769386206 -0.02038254313381099 
-0.1984090966897552 0.2072907121589511 -0.02447365291541472 
0.003163856896682905 -0.003165711603506146 -0.001439316798431712 
0.003163856896682905 -0.003165711603506146 -0.001439316798431712 
0.003163856896682905 -0.003165711603506146 -0.001439316798431712 
0.4356460335464749 -0.4362868061688684 -0.04159302464753806 
-0.09045914040751099 0.08865593892194058 -0.1152379892949574 
0.2228865396669864 -0.2253474712788145 -0.1114954387383561 
0.2728040292290416 -0.2726370921315708 -0.09629256887610697 
-0.09045914040751099 0.08865593892194058 -0.1152379892949574 
-0.7594652244063796 0.7536334553161327 -0.002445853398434699 
-0.7594652244063796 0.7536334553161327 -0.002445853398434699 
-0.6242713616110735 0.6203392688182847 -0.002125008802613809 
0.005572820509907822 -0.005977402776407801 -0.02587310884686856 
-0.6242713616110735 0.6203392688182847 -0.002125008802613809 
-0.2577712871226649 0.2551043791469889 -2.769426197030661e-05 
-0.2577712871226649 0.2551043791469889 -2.769426197030661e-05 
0.005572820509907822 -0.005977402776407801 -0.02587310884686856 
-0.2425986599904024 0.2398971958302157 -0.0001552695932077008 
0.2160415821031804 -0.2162598222993339 -0.04192915000826464 
-0.1950573915714431 0.2013888875270007 -0.003054436509407018 
0.1774305360014675 -0.1765382962102074 -0.0001663957197794772 
0.1464954196113091 -0.147656698292274 -0.1867167447813056 
0.1774305360014675 -0.1765382962102074 -0.0001663957197794772 
-0.1950573915714431 0.2013888875270007 -0.003054436509407018 
0.1464954196113091 -0.147656698292274 -0.1867167447813056 
-0.1166238485180722 0.1168970276577754 -0.01546887552250138 
0.0149846848636413 -0.01505264906995023 -0.0001214439044204599 
0.0149846848636413 -0.01505264906995023 -0.0001214439044204599 
0.1877579358543179 -0.1847156476368216 -0.02416632467514971 
0.0149846848636413 -0.01505264906995023 -0.0001214439044204599 
-0.4915205730924163 0.4985987716783349 -0.5937402322625733 
0.0149846848636413 -0.01505264906995023 -0.0001214439044204599 
0.0149846848636413 -0.01505264906995023 -0.0001214439044204599 
0.3104825586214975 -0.3071165686826758 -0.01967917406498353 
0.0149846848636413 -0.01505264906995023 -0.0001214439044204599 
0.4580449571552886 -0.4490920320416021 -0.5029657184732964 
0.8561956822555872 -0.8614965657080461 -0.2051804768159173 
0.07079663647150569 -0.06867851596845731 -0.002461924922698273 
0.07079663647150569 -0.06867851596845731 -0.002461924922698273 
0.05153336834628503 -0.04937338590226285 -0.0008593200485224541 
-0.1098627692559684 0.1118386072440979 -0.02881325481272386 
0.05153336834628503 -0.04937338590226285 -0.0008593200485224541 
0.05153336834628503 -0.04937338590226285 -0.0008593200485224541 
-0.1098627692559684 0.1118386072440979 -0.02881325481272386 
0.2141660920877159 -0.2147668693073959 -0.004910511829706604 
0.2141660920877159 -0.2147668693073959 -0.004910511829706604 
0.280609857965823 -0.2814016622926491 -0.2008458806013042 
0.280609857965823 -0.2814016622926491 -0.2008458806013042 
-0.3419864282376137 0.3518580108830463 -0.06167422522600877 
0.2893146896894256 -0.2868234817074111 -0.3468162262307106 
0.2893146896894256 -0.2868234817074111 -0.3468162262307106 
0.1909373886327076 -0.1926667491645577 -0.01841054774683016 
0.0385129259346373 -0.03857006250079897 -0.13538741604146 
0.6359388095242496 -0.6413167487885554 -0.2664839846159537 
-0.0723004695255323 0.07023930054997651 -0.03659525505870759 
-0.2844523999663349 0.284934702003811 -0.143102374798078 
-0.0723004695255323 0.07023930054997651 -0.03659525505870759 
0.163324677322431 -0.1632511775297441 -0.192416046880366 
0.09979979955722698 -0.09720236462698656 -0.2878198493323326 
0.09979979955722698 -0.09720236462698656 -0.2878198493323326 
-0.1571017547473308 0.1558264653375359 -0.01716422477471293 
0.02296579300115704 -0.02208684897355009 -7.308775156646683e-05 
-0.1571017547473308 0.1558264653375359 -0.01716422477471293 
0.02296579300115704 -0.02208684897355009 -7.308775156646683e-05 
0.02296579300115704 -0.02208684897355009 -7.308775156646683e-05 
0.02296579300115704 -0.02208684897355009 -7.308775156646683e-05 
0.02296579300115704 -0.02208684897355009 -7.308775156646683e-05 
0.02296579300115704 -0.02208684897355009 -7.308775156646683e-05 
0.02296579300115704 -0.02208684897355009 -7.308775156646683e-05 
0.02296579300115704 -0.02208684897355009 -7.308775156646683e-05 
1.096720946454287 -1.105854845640042 -0.2838754016497847 
0.02927060238053889 -0.02969660098312129 -0.0007561194090741267 
0.0959164341905429 -0.09544981951441252 -0.1558539884921868 
-0.003120155138878543 0.003083826775684999 -0.1368889875415477 
0.1287004104834784 -0.12968750727438 -0.01647445995472551 
0.1287004104834784 -0.12968750727438 -0.01647445995472551 
-0.4653025308036026 0.4647271211117753 -0.05914036643603524 
-0.4653025308036026 0.4647271211117753 -0.05914036643603524 
0.02927060238053889 -0.02969660098312129 -0.0007561194090741267 
0.02927060238053889 -0.02969660098312129 -0.0007561194090741267 
0.004755501857393115 -0.004797412533680587 -0.0009941885988004834 
0.1929056222822167 -0.1932489513948862 -0.0993921601733115 
0.004755501857393115 -0.004797412533680587 -0.0009941885988004834 
0.06713370560410532 -0.06580843914044558 -0.002937601887566025 
0.1929056222822167 -0.1932489513948862 -0.0993921601733115 
0.06713370560410532 -0.06580843914044558 -0.002937601887566025 
0.004755501857393115 -0.004797412533680587 -0.0009941885988004834 
0.2328632694645412 -0.23224764298336 -0.001731428199741763 
-0.1546775178622268 0.1565001847407897 -0.08510113440142045 
-0.1636898564588423 0.1622003946071018 -0.1099608144258965 
0.01598608418286868 -0.01990861167130313 -0.2645001885153399 
0.1204867263893833 -0.1180347616644897 -0.2416204333344499 
0.0188558926792653 -0.01869917897140005 3.003185200451056e-06 
0.01598608418286868 -0.01990861167130313 -0.2645001885153399 
0.0188558926792653 -0.01869917897140005 3.003185200451056e-06 
0.8523613136563737 -0.8505670844599683 -0.1675411824041477 
-0.238564018552396 0.2374064548580952 -0.009621552696927627 
-0.238564018552396 0.2374064548580952 -0.009621552696927627 
0.8523613136563737 -0.8505670844599683 -0.1675411824041477 
0.1204867263893833 -0.1180347616644897 -0.2416204333344499 
0.2328632694645412 -0.23224764298336 -0.001731428199741763 
0.0230475699911617 -0.02287411415720779 -8.749642753904578e-07 
-1.311924507757933 1.307918048447327 -0.09289367292414336 
-0.1585812812776 0.1637327835151655 -0.4468096690962781 
-0.0720224953428651 0.07218448652723779 -0.0003622002903617507 
-0.4965465085895049 0.4964961325369596 -0.01312003402453068 
-0.1585812812776 0.1637327835151655 -0.4468096690962781 
-0.0720224953428651 0.07218448652723779 -0.0003622002903617507 
-0.0720224953428651 0.07218448652723779 -0.0003622002903617507 
-0.0720224953428651 0.07218448652723779 -0.0003622002903617507 
-0.4220246758306221 0.4216723158664564 -0.01015586709367875 
-0.6198893624204631 0.6152958070622095 -0.04152008081768337 
-0.1018860217376814 0.1024191782575263 -0.02585650666908294 
-0.1018860217376814 0.1024191782575263 -0.02585650666908294 
-0.3764718756362387 0.3759450960147052 -0.000353355036408035 
-0.1581475681445868 0.1590058071038555 -0.01170418115925927 
-0.3575910022082348 0.3501655233208461 -0.07715002565097212 
-0.3575910022082348 0.3501655233208461 -0.07715002565097212 
-0.3764718756362387 0.3759450960147052 -0.000353355036408035 
-0.4365821507236358 0.4356048671402783 -0.002373834203261262 
0.6388852560078069 -0.6328035762739719 -0.1211755220108827 
0.6023565129741782 -0.5913807015225289 -0.1531585159221114 
-0.308787437409278 0.307597366235433 -0.01102990499298218 
-0.8523934579923934 0.8525066641960064 -0.01506960696442712 
0.02296583093473261 -0.02143709777175864 -0.1340820751904012 
-0.02487205128395449 0.03073235020750438 -0.2669683294945343 
-0.8523934579923934 0.8525066641960064 -0.01506960696442712 
0.3497242711404168 -0.3491472486317149 -0.1956914177845505 
-0.06054696674735542 0.05878948855659477 -0.1587562709017435 
-0.05136752617761667 0.05149173240593782 -0.001405349110854104 
-0.06054696674735542 0.05878948855659477 -0.1587562709017435 
-0.04229619159544468 0.0423096416903621 -0.001433807162019547 
-0.08333209230217276 0.0809498339474967 -0.02995949840424651 
-0.05136752617761667 0.05149173240593782 -0.001405349110854104 
-0.04229619159544468 0.0423096416903621 -0.001433807162019547 
-0.308787437409278 0.307597366235433 -0.01102990499298218 
0.02296583093473261 -0.02143709777175864 -0.1340820751904012 
0.3497242711404168 -0.3491472486317149 -0.1956914177845505 
0.1272911999315262 -0.1340405474396526 -0.0268347512149576 
0.0378054615440564 -0.04186690003060096 -0.08939300444564327 
-0.05136752617761667 0.05149173240593782 -0.001405349110854104 
-0.05136752617761667 0.05149173240593782 -0.001405349110854104 
-0.2574199112316613 0.2561056338294952 -0.009624555882128079 
0.616400647241485 -0.6218867719183705 -0.06859245719948801 
0.616400647241485 -0.6218867719183705 -0.06859245719948801 
-0.2574199112316613 0.2561056338294952 -0.009624555882128079 
-0.2574199112316613 0.2561056338294952 -0.009624555882128079 
0.1678406560622524 -0.1649396482726746 -0.2989128805432513 
-0.2574199112316613 0.2561056338294952 -0.009624555882128079 
0.1678406560622524 -0.1649396482726746 -0.2989128805432513 
-0.5707389735623358 0.5682581721416529 -0.02766678319736679 
-0.2335111049034545 0.2405937241222139 -0.02325435556715813 
-0.2335111049034545 0.2405937241222139 -0.02325435556715813 
0.001901896017615656 0.001381452255051343 -0.1668284001289865 
0.2273086249390941 -0.2220157739506045 -0.275237287563653 
0.2273086249390941 -0.2220157739506045 -0.275237287563653 
-0.428103563174945 0.4288254355032344 -0.03153605496009554 
-0.7096692419007387 0.7029148530114021 -0.01371126631886347 
-0.4951040850994076 0.4909661010855577 -0.0458547165157613 
0.001901896017615656 0.001381452255051343 -0.1668284001289865 
-0.06254841134943241 0.06131507777068969 -0.0002239771799327665 
0.0220230063084528 -0.01473797049560016 -0.0123327633292354 
0.2183657395598878 -0.2221283421181353 -0.2489974919006747 
0.07624200781139816 -0.07593513507215099 -0.009726740477518073 
0.2183657395598878 -0.2221283421181353 -0.2489974919006747 
0.4228493620273693 -0.4170410435540862 -0.02725918094033506 
0.009517103747077222 -0.009563783656686725 -0.0008261723521631729 
0.009517103747077222 -0.009563783656686725 -0.0008261723521631729 
0.1607793137218547 -0.1627984678670257 -0.05006372975622553 
0.04634352707282421 -0.04679641107028309 -0.004717656820716763 
0.1607793137218547 -0.1627984678670257 -0.05006372975622553 
0.009517103747077222 -0.009563783656686725 -0.0008261723521631729 
-0.140398426729537 0.1353603922956139 -0.1751316964095687 
0.009517103747077222 -0.009563783656686725 -0.0008261723521631729 
0.2240313316430313 -0.2259121433018917 -0.09977789687925744 
0.009517103747077222 -0.009563783656686725 -0.0008261723521631729 
0.2240313316430313 -0.2259121433018917 -0.09977789687925744 
0.009517103747077222 -0.009563783656686725 -0.0008261723521631729 
-0.5230226514082504 0.5300097237430779 -0.005260289410219608 
0.3378301483041213 -0.339142838195968 -0.2909840562824491 
0.009517103747077222 -0.009563783656686725 -0.0008261723521631729 
-0.5230226514082504 0.5300097237430779 -0.005260289410219608 
0.1368654064692211 -0.1364942837045992 -0.0093362397984539 
-0.2337392373124866 0.2435655766294226 -0.02773270396325306 
0.119250414167262 -0.1470183367300333 -0.534116975684232 
-0.2520347154633156 0.2504478404501022 -0.1031719729375728 
0.1114095426386753 -0.1013442473518752 -0.1051564877149114 
-0.2111448086167131 0.2104413165152627 -0.0002034463406472331 
-0.2520347154633156 0.2504478404501022 -0.1031719729375728 
0.1114095426386753 -0.1013442473518752 -0.1051564877149114 
-1.306822740043374 1.305129483715102 -0.01487039010845026 
-0.2337392373124866 0.2435655766294226 -0.02773270396325306 
0.119250414167262 -0.1470183367300333 -0.534116975684232 
-0.2111448086167131 0.2104413165152627 -0.0002034463406472331 
0.009847116103841112 -0.009832856543390146 -0.0003446582373148046 
0.02620202353824456 -0.02598995580944099 -0.009701265768436393 
0.1645226866895266 -0.1645027145919535 -0.003128075447748389 
0.5614180517597248 -0.5622787597738299 -0.03685510500068365 
0.2847243103157923 -0.283573564930822 -0.001417515002774126 
0.2847243103157923 -0.283573564930822 -0.001417515002774126 
0.5614180517597248 -0.5622787597738299 -0.03685510500068365 
0.1645226866895266 -0.1645027145919535 -0.003128075447748389 
0.1599982038505792 -0.1603619350177184 -0.003020085398433463 
0.1719478915244337 -0.1732753964288707 -0.04119208912956932 
0.2792136390565896 -0.2765624904116444 -0.08923802562987967 
0.2927602496780355 -0.2898978202424239 -0.1589572550622274 
0.1101070620760792 -0.1089304229793779 -0.08030824979325185 
-0.1525397485018165 0.1513804022598001 -0.001064101291179181 
0.1101070620760792 -0.1089304229793779 -0.08030824979325185 
0.1719478915244337 -0.1732753964288707 -0.04119208912956932 
-0.1525397485018165 0.1513804022598001 -0.001064101291179181 
0.2927602496780355 -0.2898978202424239 -0.1589572550622274 
0.4996136252531372 -0.5164243199840147 -0.2431463286886458 
-0.3402062346342729 0.3376487422172238 -0.01447140979405654 
-0.3402062346342729 0.3376487422172238 -0.01447140979405654 
0.01557036693388632 -0.01617629880061509 -0.01665094222089229 
0.03307936965334819 -0.03339255054926001 -0.006186849321922985 
0.2158949367835182 -0.2151822544643184 -0.01945232883844149 
0.2158949367835182 -0.2151822544643184 -0.01945232883844149 
0.006593542332587764 -0.006523860148086939 -0.003174769428303143 
0.006593542332587764 -0.006523860148086939 -0.003174769428303143 
0.03436708295321353 -0.03457637027816102 -0.05744536308282235 
0.05886073409256305 -0.05892205677195005 -0.01040804534576061 
0.6198276229979001 -0.6192137251805331 -0.003569476783509367 
0.1431208357713057 -0.1463866921517846 -0.004024731106239684 
0.03307936965334819 -0.03339255054926001 -0.006186849321922985 
0.006593542332587764 -0.006523860148086939 -0.003174769428303143 
0.03436708295321353 -0.03457637027816102 -0.05744536308282235 
0.05886073409256305 -0.05892205677195005 -0.01040804534576061 
0.006593542332587764 -0.006523860148086939 -0.003174769428303143 
0.02397376347499193 -0.0240570164142957 -0.0001488660268587982 
0.02397376347499193 -0.0240570164142957 -0.0001488660268587982 
0.08358553160266387 -0.08388080530131063 -0.0002764004400913376 
0.02397376347499193 -0.0240570164142957 -0.0001488660268587982 
0.02397376347499193 -0.0240570164142957 -0.0001488660268587982 
-0.04324628603463452 0.04290442733657814 -0.001006293657515086 
0.1127720265693971 -0.1129520627229992 -0.0003032038036943484 
0.07071340142308644 -0.07092365815135206 -0.0001701320346000512 
0.07071340142308644 -0.07092365815135206 -0.0001701320346000512 
0.08358553160266387 -0.08388080530131063 -0.0002764004400913376 
-0.04324628603463452 0.04290442733657814 -0.001006293657515086 
0.02630004697443696 -0.02609269598075089 -0.00139289033481582 
0.3748793181558935 -0.3753366192963403 -0.01455951153692811 
0.02630004697443696 -0.02609269598075089 -0.00139289033481582 
0.2185845503474063 -0.2192434261730177 -0.004357104335227292 
-0.119006751281687 0.1175749728703838 -0.001737480209347098 
0.1367802733058781 -0.1361220119286639 -0.076129505300936 
-0.1575048989343808 0.1572221173928168 -0.1078877730831658 
-0.1575048989343808 0.1572221173928168 -0.1078877730831658 
0.1367802733058781 -0.1361220119286639 -0.076129505300936 
-0.0744868175049653 0.07363519839710844 -0.1338610608473754 
-0.119006751281687 0.1175749728703838 -0.001737480209347098 
-0.006318167138785448 0.006563304041071696 -0.0004511266966309689 
-0.006318167138785448 0.006563304041071696 -0.0004511266966309689 
-0.3584385481536297 0.361030662261712 -0.08152989712046249 
-0.118243421297724 0.1174576499022447 -0.004815307526217239 
-0.9501344448685158 0.9625825819339671 -0.08625477176949982 
0.3458786080559612 -0.3430815870227439 -0.119592595775939 
-2.10576355875272 2.107097282247325 -0.2329399811674072 
-0.9501344448685158 0.9625825819339671 -0.08625477176949982 
-0.0744868175049653 0.07363519839710844 -0.1338610608473754 
-0.06372374810281767 0.07125339204135904 -0.02030522293943812 
-0.2032373306623114 0.2069520610665678 -0.01701610307030244 
-0.0152284540127318 0.01481972082364282 -0.0009188424747984236 
-2.056485271865803 2.061116664245031 -0.2128145181534316 
-2.056485271865803 2.061116664245031 -0.2128145181534316 
-0.0152284540127318 0.01481972082364282 -0.0009188424747984236 
-0.2230064744430848 0.2225640475569767 -0.02538572546418022 
0.1912769672762235 -0.1915853465461294 -0.04450417183474796 
-0.2961213095971085 0.295081536549368 -0.0007215294366874495 
-0.2961213095971085 0.295081536549368 -0.0007215294366874495 
-0.2146210006138834 0.2183623181495268 -0.004920827268833273 
-0.1866538840090533 0.1885328890936811 -0.1951173138874219 
0.03190090958744932 -0.03220903064532536 -0.0006497519114733343 
-0.5577836906195403 0.558465240555561 -0.00515431167767768 
-0.0342730595489561 0.03397568862482321 -0.06568344126952701 
-0.3209475544156513 0.3173985935001559 -0.07495297728150443 
-0.0342730595489561 0.03397568862482321 -0.06568344126952701 
-0.1866538840090533 0.1885328890936811 -0.1951173138874219 
-0.1717920723201563 0.1776940208446974 -0.02670039218600928 
0.04594250916853045 -0.0461550611392426 0.0001133105649231913 
-0.05739962103395659 0.05820923575516553 -0.0193311000537752 
-0.2869909623782751 0.2859033001303095 -0.000933334556178626 
-0.05783482913397291 0.06057832946214042 -0.006919143894841919 
-0.2869909623782751 0.2859033001303095 -0.000933334556178626 
-0.05739962103395659 0.05820923575516553 -0.0193311000537752 
-0.05783482913397291 0.06057832946214042 -0.006919143894841919 
-0.5944573510458776 0.5954293551133473 -0.004500908107905096 
-0.5335299908370525 0.5304547442951587 -0.1364888886361026 
0.1136221170343275 -0.1122544903295749 -0.06581441240838942 
0.1136221170343275 -0.1122544903295749 -0.06581441240838942 
-0.09302018490761774 0.0993811485652541 -0.02599490218664628 
-0.1982703137203352 0.2021222662389688 -0.05506840259351439 
0.02124267073596434 -0.0216481525615094 -0.005035203652778977 
0.01875124699887141 -0.01914062896900103 -0.004838543704217463 
0.02124267073596434 -0.0216481525615094 -0.005035203652778977 
0.01875124699887141 -0.01914062896900103 -0.004838543704217463 
0.3453992178644224 -0.3420478581379662 -0.4047940334950908 
0.3453992178644224 -0.3420478581379662 -0.4047940334950908 
0.01982424410443916 -0.02001620039321257 -0.01056034180796862 
0.01982424410443916 -0.02001620039321257 -0.01056034180796862 
0.01875124699887141 -0.01914062896900103 -0.004838543704217463 
0.03076728055530411 -0.02888920766142173 -0.01646641021766126 
0.1509052804673944 -0.1500333356617747 -0.02857664845994815 
0.2900373650409009 -0.2925271453520237 -0.1898880442525067 
0.2900373650409009 -0.2925271453520237 -0.1898880442525067 
0.1509052804673944 -0.1500333356617747 -0.02857664845994815 
0.1864257157175818 -0.2300309714018573 -0.048714225047951 
0.1864257157175818 -0.2300309714018573 -0.048714225047951 
0.04818563714488926 -0.04648054240007046 -0.02152243328552832 
-0.05963771766464262 0.05802535793690401 -0.1529167447950099 
0.01455542535315052 -0.0126835352114748 -0.02349497809896223 
0.01455542535315052 -0.0126835352114748 -0.02349497809896223 
-0.05963771766464262 0.05802535793690401 -0.1529167447950099 
0.03076728055530411 -0.02888920766142173 -0.01646641021766126 
0.1790547739178839 -0.1781074620323971 -0.02361255414996206 
-0.0897986110209639 0.0890578397224206 -0.09510749934691558 
-0.0897986110209639 0.0890578397224206 -0.09510749934691558 
0.06429499023046363 -0.06646711627662523 -0.03908824408962185 
0.4483784769588254 -0.4467058486089505 -0.1035396637435498 
0 0 0 
0.06429499023046363 -0.06646711627662523 -0.03908824408962185 
0.2317971344247574 -0.2329610086361404 -0.04220526917640149 
-0.1097854010865077 0.1091523670140193 -0.01430339771430453 
0.0529444831332759 -0.05061285480093133 -0.006425981612945559 
0.2102052462647389 -0.2071194302357412 -0.008066103261599546 
0.1592814163974655 -0.1554721496599148 -0.009806946112171276 
0.3337249656496621 -0.3285390932723375 -0.1035610924626386 
0.09537280351633542 -0.09152864859019796 -0.01542509981737628 
0.0529444831332759 -0.05061285480093133 -0.006425981612945559 
0.1238460670462884 -0.1141367021308766 -0.3049971085151192 
0.04284812926490043 -0.04224411914857731 -0.002376956626462489 
0.04284812926490043 -0.04224411914857731 -0.002376956626462489 
0.08580265622902482 -0.08506964913439918 -0.245877457904573 
0.08580265622902482 -0.08506964913439918 -0.245877457904573 
-0.3357867843790633 0.3366486477822286 -0.08666993984677225 
-0.04943500289748063 0.05030259674500295 -0.02804710494298091 
0.03518189308303393 -0.03432749874535915 -0.001469826914985321 
0.03518189308303393 -0.03432749874535915 -0.001469826914985321 
0.243055983666384 -0.2420612797372058 -0.07135045143322198 
0.1418532797303178 -0.1410453878867483 -0.0004495621369919217 
0.1418532797303178 -0.1410453878867483 -0.0004495621369919217 
0.1574349159492203 -0.1562915924052956 -0.0005218061188857634 
-0.2739202496151696 0.2763000757062221 -0.03958468946169315 
0.06387847462765281 -0.06519694528829038 -0.05543909803366748 
-0.5250397129772619 0.5284238373264482 -0.1520768064524517 
0.3708977602932098 -0.3696942659793525 -0.1687681409482713 
0.132735202256997 -0.1319794934735271 -8.26381374895966e-06 
0.009118077473320808 -0.009065894413221184 -0.0004412983232429621 
0.009118077473320808 -0.009065894413221184 -0.0004412983232429621 
0.009118077473320808 -0.009065894413221184 -0.0004412983232429621 
0.009118077473320808 -0.009065894413221184 -0.0004412983232429621 
0.67285362818588 -0.6718264071676968 -0.06457172083075674 
0.2248073702701572 -0.2267198345581204 -0.002601199073657125 
0.009118077473320808 -0.009065894413221184 -0.0004412983232429621 
0.009118077473320808 -0.009065894413221184 -0.0004412983232429621 
0.009118077473320808 -0.009065894413221184 -0.0004412983232429621 
0.05499654282211128 -0.05490489805532053 -0.3797169525499156 
-0.00642511605615023 0.007025650041513978 -0.370782092239916 
0.2935001349527582 -0.2980534870498938 -0.009937484421739759 
0.05851342919937604 -0.04515747151508386 -0.09004575812066587 
0.09920591162725403 -0.1000604138035555 -0.006836215618406465 
-0.07688561367605948 0.07698933226428492 -0.01216737848298311 
-0.139038629394252 0.1470489983050268 -0.3226347704285407 
0.4954530760680574 -0.4928038059267966 -0.1005965516900782 
0.09707894894383194 -0.09794390757671204 -0.006411446760339779 
0.02061205000335924 -0.02023466485897214 -0.0007314449361522716 
0.02061205000335924 -0.02023466485897214 -0.0007314449361522716 
-0.4720046272241442 0.4717544741448161 -0.00301910249894001 
-0.2892199163095969 0.2900086857546605 -0.08354808340858422 
0.004987308067870799 -0.006846233235503176 -0.07087020006803944 
0.02061205000335924 -0.02023466485897214 -0.0007314449361522716 
0.02061205000335924 -0.02023466485897214 -0.0007314449361522716 
0.02061205000335924 -0.02023466485897214 -0.0007314449361522716 
0.2806238774369906 -0.2784638248964449 -0.05808195838991832 
0.004987308067870799 -0.006846233235503176 -0.07087020006803944 
-0.2892199163095969 0.2900086857546605 -0.08354808340858422 
0.2806238774369906 -0.2784638248964449 -0.05808195838991832 
0.05552938520301331 -0.04242203675373434 -0.02094487796948901 
0.1313317841262191 -0.1390061095534503 -0.003692891167207318 
0.03760793029404901 -0.03671028601578533 -0.006887512724848609 
0.1313317841262191 -0.1390061095534503 -0.003692891167207318 
0.03760793029404901 -0.03671028601578533 -0.006887512724848609 
-0.03164382451368433 0.03109441448667441 -0.003102745271100828 
0.01219688098958914 -0.01246337545894093 -0.01956074623849566 
0.04355912173856382 -0.04408294053818308 -0.02267333085135744 
0.06744603242830165 -0.06773486971541431 -0.07602014735554589 
0.01219688098958914 -0.01246337545894093 -0.01956074623849566 
-0.03250580972891876 0.03205514655742018 -0.01943339805263616 
0.6020173658038784 -0.6032630162642818 -0.4469313807230155 
0.04455856101713554 -0.04508256484587887 -0.001553871257491491 
0.05091467472996094 -0.05135512952580215 -0.0020694791037567 
-0.01943869125230438 0.03222539224081776 -0.1170647077680214 
0.1618254515175 -0.163952979495935 -0.0005002923176168854 
0.1618254515175 -0.163952979495935 -0.0005002923176168854 
-0.9263451068644616 0.9210603004359099 -0.01684531705309725 
0.3599032332598594 -0.3611407975085409 -0.05701389348131165 
-0.4242897247221493 0.4221540533204224 -0.005861153175945004 
0.365913843953922 -0.3669345994793898 -0.08388132322669858 
0.04390444687113311 -0.04439253607373458 -0.0001955508089089774 
0.365913843953922 -0.3669345994793898 -0.08388132322669858 
0.04455856101713554 -0.04508256484587887 -0.001553871257491491 
0.305417463643724 -0.3069157188593775 -0.5283331440434319 
0.1738948695933926 -0.1740882732637553 -0.0002851231842464924 
0.3754834182190339 -0.3759260598171081 -0.06215594641110606 
0.3754834182190339 -0.3759260598171081 -0.06215594641110606 
0.01493228949388423 -0.01511727370249432 -0.001366287418797375 
0.1066339674397235 -0.1082547336852157 -0.04612035891217232 
-0.03660812383264999 0.03826871162047996 -0.06705005385458089 
0.2402395043836201 -0.2388778906732409 -0.04403971494905035 
0.01493228949388423 -0.01511727370249432 -0.001366287418797375 
0.1066339674397235 -0.1082547336852157 -0.04612035891217232 
-0.03660812383264999 0.03826871162047996 -0.06705005385458089 
0.2762589546003886 -0.2773846658721616 -0.00059239947558633 
0.2762589546003886 -0.2773846658721616 -0.00059239947558633 
0.2762589546003886 -0.2773846658721616 -0.00059239947558633 
-0.2802861383909915 0.2830375645281739 -0.1379419154145966 
0.1075511157085646 -0.1044161682811163 -0.004052540118949941 
0.1075511157085646 -0.1044161682811163 -0.004052540118949941 
-0.1126573782337175 0.1134673198199425 -0.003809132596431892 
-0.4424418526971416 0.4401637851024224 -0.05468816617401729 
-0.4424418526971416 0.4401637851024224 -0.05468816617401729 
-0.2802861383909915 0.2830375645281739 -0.1379419154145966 
0.1016876364723363 -0.1017599539899752 -0.002456911679248664 
0.2762589546003886 -0.2773846658721616 -0.00059239947558633 
-0.1126573782337175 0.1134673198199425 -0.003809132596431892 
0.2911736631134234 -0.2923124516120552 -0.0003309223827949035 
-0.7532157635196627 0.7533436364080941 -0.1868434766799838 
0.6955629658901559 -0.6964649246323161 -0.2514120581224973 
0.3256777340433497 -0.3259262185964845 -0.005012778041660455 
-0.0329866901455928 0.02818957571127742 -0.4722654423635603 
-0.0329866901455928 0.02818957571127742 -0.4722654423635603 
0.3256777340433497 -0.3259262185964845 -0.005012778041660455 
0.2229178439838228 -0.2236140029666333 -0.000316727072424572 
-0.07116463304452493 0.07576277930727758 -0.006296760393084357 
-0.07116463304452493 0.07576277930727758 -0.006296760393084357 
0.1086041278450151 -0.1041970793514042 -0.005968959338856903 
0.1086041278450151 -0.1041970793514042 -0.005968959338856903 
0.3903122612572692 -0.386009514590161 -0.07152881906044055 
0.3903122612572692 -0.386009514590161 -0.07152881906044055 
0.1371605619267244 -0.13315634712974 -0.01021930963669653 
0.02496935094035176 -0.02558231381564346 -0.001216419167440278 
0.02995055835158788 -0.03052182522298286 -0.002830220529375368 
0.02496935094035176 -0.02558231381564346 -0.001216419167440278 
0.02496935094035176 -0.02558231381564346 -0.001216419167440278 
0.02496935094035176 -0.02558231381564346 -0.001216419167440278 
0.02995055835158788 -0.03052182522298286 -0.002830220529375368 
0.02496935094035176 -0.02558231381564346 -0.001216419167440278 
0.02496935094035176 -0.02558231381564346 -0.001216419167440278 
-0.4858692110167128 0.4847455832551268 -0.05964446726918764 
-1.000976741220488 1.017423644518076 -0.2498559770436747 
-2.483650577265707 2.497463220625407 -0.2826933540544478 
-0.002852390741666834 0.00296179914905545 -0.02577741069596185 
-0.4858692110167128 0.4847455832551268 -0.05964446726918764 
-0.002852390741666834 0.00296179914905545 -0.02577741069596185 
0.3034019508467854 -0.2931955988141914 -0.0535898895154702 
-0.1864781607190195 0.09297443822084668 -0.1973992506104271 
-0.002852390741666834 0.00296179914905545 -0.02577741069596185 
-0.1748476536389513 0.1756897164497677 -0.002647800391150922 
-0.1748476536389513 0.1756897164497677 -0.002647800391150922 
-0.07389637774373298 0.07454293216069041 -0.002785169473473715 
-0.1659992435813315 0.1669367631582132 -0.003685774617050433 
-0.1748476536389513 0.1756897164497677 -0.002647800391150922 
-0.01076219540892572 0.01069694185401303 -0.00299249064398694 
0.2625913976108186 -0.2619228189388254 -0.04128286831149738 
-0.1748476536389513 0.1756897164497677 -0.002647800391150922 
-0.01076219540892572 0.01069694185401303 -0.00299249064398694 
-0.1748476536389513 0.1756897164497677 -0.002647800391150922 
0.2625913976108186 -0.2619228189388254 -0.04128286831149738 
-0.1748476536389513 0.1756897164497677 -0.002647800391150922 
-0.1748476536389513 0.1756897164497677 -0.002647800391150922 
-0.1748476536389513 0.1756897164497677 -0.002647800391150922 
-0.1659992435813315 0.1669367631582132 -0.003685774617050433 
-0.1980666214656779 0.1975676873574419 -0.001244058232193424 
0.1737020656905831 -0.1756113067625695 -0.00727646050095175 
-0.1980666214656779 0.1975676873574419 -0.001244058232193424 
-0.1980666214656779 0.1975676873574419 -0.001244058232193424 
-0.1980666214656779 0.1975676873574419 -0.001244058232193424 
-0.1980666214656779 0.1975676873574419 -0.001244058232193424 
0.1737020656905831 -0.1756113067625695 -0.00727646050095175 
-0.1980666214656779 0.1975676873574419 -0.001244058232193424 
-0.223800894350469 0.2240913735289911 -0.01071613775022478 
-0.1980666214656779 0.1975676873574419 -0.001244058232193424 
-0.1980666214656779 0.1975676873574419 -0.001244058232193424 
-0.1980666214656779 0.1975676873574419 -0.001244058232193424 
0.02462795374319916 -0.02492784539798107 -0.0171452825307969 
0.02462795374319916 -0.02492784539798107 -0.0171452825307969 
0.01486819733108878 -0.01512479749982585 -0.01104388584240828 
