solver_type L2R_LR
nr_class 3
label 10 14 15
nr_feature 58800
bias -1
w
1.096160884042295 -1.105268035927029 -0.9591290934097551 
0.9786914268601333 -0.8695648808872387 -0.8508822241472782 
-0.4053280341449656 0.5554887548001483 -0.8430431041834305 
-0.1396927345809865 0.1701356184016323 -0.08273257159482757 
0.2818679874783372 -0.4057915502540753 -0.3758918861212412 
0.9158242489894506 -0.4016643447760642 -0.9489167092047179 
-0.1595132131941309 0.2151640931160529 0.1383825720415212 
-0.1396927345809865 0.1701356184016323 -0.08273257159482757 
0.1467296364236998 -0.1031314385964134 -0.297770435955185 
-0.3347198517256845 0.1253230701425596 0.1591735363492451 
0.3239351763923842 -0.5488014119584504 -0.4256438006633788 
0.7514582045867416 -0.5358555686307312 -0.849324476572155 
0.7930547980162308 -1.527621894571225 -0.2392686909483203 
-0.5308036956270986 0.02267091062676866 0.9187531635644052 
0.1467296364236998 -0.1031314385964134 -0.297770435955185 
0.2818679874783372 -0.4057915502540753 -0.3758918861212412 
0.00166422637986189 0.2703782669546929 -0.3284406189659856 
0.2129121084965898 -0.05527912236040303 -0.1286601928599048 
-0.1118970661864908 0.14552975314262 -0.0935214998973341 
0.1081414475823333 -0.002237255841798918 -0.1153170978579095 
-0.1118970661864908 0.14552975314262 -0.0935214998973341 
0.1449299966110172 -0.6389365795602813 0.05180956326294525 
1.105371904340616 -1.592281041708654 -1.147700845877292 
1.984531014768446 -1.856004980642271 -0.8130976755569396 
0.3463572667208583 -0.2411532513689169 -0.6266778312486008 
0.3700234012394191 -0.4074524123181387 -0.5355381786358366 
-0.1131687403936367 0.1628415760293377 -0.1811262896855285 
0.5206240199462608 -1.271651224028119 -0.3939040796915622 
-0.01568846286043806 0.3946938795683113 -1.370068426298619 
0.1931380574814633 -0.05520317578521759 -0.1349500150690837 
0.5206240199462608 -1.271651224028119 -0.3939040796915622 
-0.03405602893499911 0.1862237503091151 -0.2890328501900342 
0.3509035520578829 -0.04025994309024224 -0.4376962033373902 
0.6940168086182362 -1.628174513133801 -0.07770335262733012 
0.01574768398308033 -0.0006508866831993331 -0.01350209281038845 
0.01574768398308033 -0.0006508866831993331 -0.01350209281038845 
0.3011169868101144 -0.02607714793122243 -0.3355426614423276 
0.1992898919622087 -0.5439258111343298 -0.1154547159123438 
-0.2740162059784574 0.3996393034558596 -0.3741537963049596 
0.1992898919622087 -0.5439258111343298 -0.1154547159123438 
0.4809297187212578 -0.3978028306001544 -0.2036885383632426 
-0.1981172814063208 -0.4266417335482552 0.5025531840393958 
0.3831306453124554 -0.4621089549020896 -0.7153805947818547 
-0.1981172814063208 -0.4266417335482552 0.5025531840393958 
-0.3310475581080166 -0.09478408116037043 0.1986118734063206 
0.3036621503520417 -0.2076850248596092 -0.2811681681741175 
0.09803668055649847 -0.009206446656579666 -0.0365385784499459 
0.00776625330468546 -0.005532692169304633 -0.004613601352423041 
0.3663088190773665 -0.2855485449157299 -0.3670049356949852 
0.3663088190773665 -0.2855485449157299 -0.3670049356949852 
0.01891206248127768 -0.006894917323302299 -0.04801152955786746 
0.4850046353967485 -0.466990633522085 -0.5341213541123817 
0.00776625330468546 -0.005532692169304633 -0.004613601352423041 
0.290245004982904 -0.4792320596132035 -0.2908741294232031 
0.290245004982904 -0.4792320596132035 -0.2908741294232031 
0.2467044614210678 -0.1464058485497911 -0.1825513742290603 
0.4850046353967485 -0.466990633522085 -0.5341213541123817 
0.00776625330468546 -0.005532692169304633 -0.004613601352423041 
0.1553187842902344 -0.1639577288051334 -0.03042182967522991 
0.01891206248127768 -0.006894917323302299 -0.04801152955786746 
0.00776625330468546 -0.005532692169304633 -0.004613601352423041 
0.00776625330468546 -0.005532692169304633 -0.004613601352423041 
0.01584853286398375 -0.1904492024919535 0.08038387246840355 
0.00776625330468546 -0.005532692169304633 -0.004613601352423041 
0.1553187842902344 -0.1639577288051334 -0.03042182967522991 
1.6875902638604 -1.866379934851607 -2.124836061004532 
0.01101311764990441 -0.006867665943869665 -0.01351262112044294 
0.04854725881940439 -0.02651348126907602 -0.04206477620251176 
0.04854725881940439 -0.02651348126907602 -0.04206477620251176 
0.6793373122041215 -0.4642398057632211 -0.5772937955549745 
0.2488407230150713 -0.6605599649952981 -0.01542026386744549 
0.02317744536434237 -0.018636391930316 -0.02062898160120286 
0.6793373122041215 -0.4642398057632211 -0.5772937955549745 
0.007892764628502271 -0.004563578447004811 -0.009508707846308325 
0.5527303976144593 -0.5995921529936791 -0.7913407952910593 
0.007892764628502271 -0.004563578447004811 -0.009508707846308325 
0.2488407230150713 -0.6605599649952981 -0.01542026386744549 
0.02317744536434237 -0.018636391930316 -0.02062898160120286 
0.007892764628502271 -0.004563578447004811 -0.009508707846308325 
0.01101311764990441 -0.006867665943869665 -0.01351262112044294 
0.007892764628502271 -0.004563578447004811 -0.009508707846308325 
0.2908306414365352 -0.4469767539417303 -0.0796359590557406 
0.5527303976144593 -0.5995921529936791 -0.7913407952910593 
0.02778133963755752 -0.02381517355728303 -0.01664580014497733 
0.02778133963755752 -0.02381517355728303 -0.01664580014497733 
0.2908306414365352 -0.4469767539417303 -0.0796359590557406 
1.152742256529245 -0.950238321326473 -1.488387085695609 
1.460478440943878 -0.9460955781691841 -0.8352227112411508 
0.2254338544283298 -0.3827237046523601 -0.1647211249800117 
0.2254338544283298 -0.3827237046523601 -0.1647211249800117 
0.2391950366799172 -0.287678702742628 -0.3419923184851509 
0.2693458672300892 -0.1844619225763066 -0.436643123103019 
0.2693458672300892 -0.1844619225763066 -0.436643123103019 
0.3472910725658374 -0.863641030166499 -0.1658498903105331 
0.3472910725658374 -0.863641030166499 -0.1658498903105331 
0.06339392587685874 -0.01236623266070269 -0.06621197784014109 
0.2347754797829937 -0.02980231750458559 -0.2540442354314 
-0.1764497595965893 0.4595206933574326 -0.7685463072062252 
0.06339392587685874 -0.01236623266070269 -0.06621197784014109 
0.34785089286516 -0.9217196300411334 0.1828197752725938 
0.09815877323309233 -0.008614056830412142 -0.6198229028167785 
-0.1597310003139423 0.1032094907215898 -0.108626980756282 
-0.01288007637145233 -0.5095388573229309 0.276162954893053 
0.257284967512161 -0.1162437268979773 -0.1529921490883824 
0.366768383029607 -0.2436710088907408 -0.3909269499992444 
-0.3944974572162896 0.3224865655370834 0.1861683970616189 
0.5027478387137557 -0.619769297827538 -0.7469973112984732 
0.366768383029607 -0.2436710088907408 -0.3909269499992444 
0.257284967512161 -0.1162437268979773 -0.1529921490883824 
0.02977359589313536 -0.005519590680936916 -0.02644418594667311 
0.1979188136979141 -0.1808763394639665 -0.06360657938759411 
0.1979188136979141 -0.1808763394639665 -0.06360657938759411 
-0.05922804623723085 0.2443697539129725 -0.01252574645035593 
0.9871203130037928 -1.433732377792043 -0.6859003767413502 
0.1190947759813853 -0.07029199069878518 -0.1325332795847982 
0.3645160531084812 -0.8016113222767638 -0.3825180750929023 
0.4278525534286055 -0.08226174855442728 -0.4123376502140199 
0.1190947759813853 -0.07029199069878518 -0.1325332795847982 
0.4278525534286055 -0.08226174855442728 -0.4123376502140199 
0.7884483473985552 -1.027340076127412 -1.178671221521604 
-0.05922804623723085 0.2443697539129725 -0.01252574645035593 
0.30992254382566 -0.8590436264266196 -0.02067088692070967 
0.30992254382566 -0.8590436264266196 -0.02067088692070967 
0.3645160531084812 -0.8016113222767638 -0.3825180750929023 
0.7536009305640661 -0.1048334530767307 -0.8609948963535086 
0.05263839860733556 -0.03675449161105106 -0.05847679946230704 
0.5240055719489886 -0.7352272876832391 -0.5287158872969477 
0.3952435023425895 -0.4120730425745604 -0.179466368471563 
0.030980840789639 -0.008842051154175568 -0.04252940644867474 
0.2946792232154359 -0.7182448664203603 -0.2207317838489956 
0.05263839860733556 -0.03675449161105106 -0.05847679946230704 
0.030980840789639 -0.008842051154175568 -0.04252940644867474 
0.9810849051056306 -0.6190163859416619 -0.9401065147211807 
0.2946792232154359 -0.7182448664203603 -0.2207317838489956 
0.9810849051056306 -0.6190163859416619 -0.9401065147211807 
0.3952435023425895 -0.4120730425745604 -0.179466368471563 
0.5240055719489886 -0.7352272876832391 -0.5287158872969477 
0.00769805184555823 -0.003359030329530658 -0.01378842064699344 
0.4890364682941206 -0.3282446983828217 -0.1415003593851711 
-0.1189686925397505 0.3869109902114141 -1.170182430959696 
0.8001780508131853 -0.8872786388643898 -0.3153375033982242 
0.9187624367682445 -1.134177962465631 -0.6906087122033377 
0.01538972312313814 -0.004629014115356742 -0.019833550773164 
0.06977231522226723 0.1361244883016399 -0.4375522093508096 
0.02395108878848703 -0.02783031355193463 -0.01356638962622545 
0.2491357327844806 -0.1540333525298135 -0.2326668007414294 
0.02395108878848703 -0.02783031355193463 -0.01356638962622545 
1.388821585592343 -1.539312249755657 -0.8349976934565467 
0.4281137107441537 -0.3301964129002121 -0.5380368561666299 
0.4281137107441537 -0.3301964129002121 -0.5380368561666299 
0.2491357327844806 -0.1540333525298135 -0.2326668007414294 
0.02395108878848703 -0.02783031355193463 -0.01356638962622545 
0.1915698340634513 -0.02078542957795523 -0.3669335474090699 
0.04041288518854916 -0.004242028432139792 -0.04880080787768493 
0.04041288518854916 -0.004242028432139792 -0.04880080787768493 
0.2049932210237102 -0.1327429777766607 -0.1871225670711126 
0.2049932210237102 -0.1327429777766607 -0.1871225670711126 
0.2076007006485021 -0.204920815276508 -0.2782636828235823 
0.04041288518854916 -0.004242028432139792 -0.04880080787768493 
-0.184779016431521 -0.04922893981431716 0.1667539542979756 
0.003924254356979552 -0.2137704230926377 0.09400646021760346 
0.04041288518854916 -0.004242028432139792 -0.04880080787768493 
0.2076007006485021 -0.204920815276508 -0.2782636828235823 
-0.06686235495609034 -0.1293572654424487 -0.1424562968686139 
0.698928092616345 -0.9765107702329311 -0.02093290577201322 
-0.1097167735007722 -0.06047926891502359 0.2646833000349209 
-0.198632909612941 -0.1297445219367278 0.07636128870169336 
0.698928092616345 -0.9765107702329311 -0.02093290577201322 
-0.198632909612941 -0.1297445219367278 0.07636128870169336 
-0.09583246881541924 0.1672935317286789 0.07108919405324259 
-0.09583246881541924 0.1672935317286789 0.07108919405324259 
-0.3615219814949212 0.5098012447901149 -0.5183705483277888 
-0.3615219814949212 0.5098012447901149 -0.5183705483277888 
0.6809554659924628 -0.4661949697710543 -0.5542359605725476 
0.3827464361262333 -0.1097981583823238 -0.5891403628355318 
-0.1097167735007722 -0.06047926891502359 0.2646833000349209 
0.04293324204665371 -0.04367222223532501 -0.009440155719653721 
-0.185629030979459 0.1170118177951352 -0.3782919992868467 
0.04293324204665371 -0.04367222223532501 -0.009440155719653721 
0.2088379737337667 -0.1262607501407496 -0.1906698577432166 
0.3806446373130901 -0.3705899470406407 -0.502955839415003 
-0.03380595682138479 -0.0692020948134473 0.09887562477822205 
0.6377650276439246 -0.5504099657279338 -0.5067718483013703 
-0.03380595682138479 -0.0692020948134473 0.09887562477822205 
0.3806446373130901 -0.3705899470406407 -0.502955839415003 
-0.03569737401027939 0.0258440653053217 -0.0721790083311213 
0.1746831523192608 -0.09019456110568234 -0.4720775074814181 
0.03219337105211139 -0.06844811500857088 -0.1241370980099832 
0.1575058094271874 -0.02130663255634203 -0.1326229175704819 
0.1746831523192608 -0.09019456110568234 -0.4720775074814181 
0.1575058094271874 -0.02130663255634203 -0.1326229175704819 
0.2345062534329689 -0.3388840468056789 -0.4009164776283914 
0.2345062534329689 -0.3388840468056789 -0.4009164776283914 
0.2312187719238315 0.08395605220017435 -0.6288345444290516 
0.6377650276439246 -0.5504099657279338 -0.5067718483013703 
0.2088379737337667 -0.1262607501407496 -0.1906698577432166 
0.2365017081858848 -0.4629630201434228 -0.4780738990214886 
-0.4065972650304771 0.2065346970082935 0.4856183248502406 
0.0004997102046826619 -0.008289942498412479 -0.01752392842877513 
0.1840547244273034 -0.1970837984512456 -0.1152876031355076 
0.2014479642607444 -0.1688714639787302 -0.5446003126055198 
0.2422212339323359 -0.173425565404765 -0.2287907054780319 
0.2422212339323359 -0.173425565404765 -0.2287907054780319 
0.1364685470145027 -0.1659119626978633 -0.2016560843493036 
0.2559927310296589 -0.4885165330398997 -0.03794011025371631 
0.2559927310296589 -0.4885165330398997 -0.03794011025371631 
0.8620194348834815 -0.8131898822814678 -0.5507728986552245 
0.2014479642607444 -0.1688714639787302 -0.5446003126055198 
0.2875120799645981 -0.2407933492574723 -0.8230572845754992 
0.01638877730927122 -0.01923807857768233 -0.001949313556478082 
0.1364685470145027 -0.1659119626978633 -0.2016560843493036 
0.01638877730927122 -0.01923807857768233 -0.001949313556478082 
0.3116293655890334 -0.2081907197386884 -0.07265063552389155 
0.2875120799645981 -0.2407933492574723 -0.8230572845754992 
0.003530575910774082 -6.266857218847427e-05 -0.005733005618239887 
0.3070944238542053 -0.2164733774534682 -0.1554491817139733 
0.3534040316985294 -0.5465877525976256 -0.2764385548984598 
0.3070944238542053 -0.2164733774534682 -0.1554491817139733 
0.1770063019331605 -0.1851354949281734 -0.3799235651883534 
0.3534040316985294 -0.5465877525976256 -0.2764385548984598 
0.1770063019331605 -0.1851354949281734 -0.3799235651883534 
0.003530575910774082 -6.266857218847427e-05 -0.005733005618239887 
0.2230736123854075 -0.009577320774163444 -0.2248008310222873 
0 0 0 
0.07288948459688742 -0.02512315706109514 -0.07055073433165712 
-0.09037722843741164 -0.2166156920706728 0.3446563942020098 
-0.1373189470272297 0.1459571807599886 -0.4450090187373598 
0.9359461759370432 -0.8901098397170479 -0.3224052444296108 
-0.3584835367996136 0.2865142448136607 0.01715896197495048 
0.1730866058503038 -0.1217441533212534 -0.4429873455444935 
0.09288618884064442 -0.05065848442872358 -0.074693855024956 
-0.09037722843741164 -0.2166156920706728 0.3446563942020098 
0.5454323571194962 -0.2257874998169267 -0.7812000053094103 
-0.06698419486812465 0.004378991482622439 -0.05748102928433748 
-0.1021861909687585 0.1629125255880535 -0.06841625923127843 
0.07288948459688742 -0.02512315706109514 -0.07055073433165712 
-0.06698419486812465 0.004378991482622439 -0.05748102928433748 
0.04063762654454973 -0.0208598382990455 -0.02514190643663425 
0.008318503884938986 -0.005817782017082113 -0.000884958229365601 
0.9359461759370432 -0.8901098397170479 -0.3224052444296108 
0.07288948459688742 -0.02512315706109514 -0.07055073433165712 
0.04063762654454973 -0.0208598382990455 -0.02514190643663425 
0.1003144309463487 -0.04610147424144868 -0.08090201418310894 
0.07288948459688742 -0.02512315706109514 -0.07055073433165712 
0.008318503884938986 -0.005817782017082113 -0.000884958229365601 
-0.09913225960907381 -0.2259447444312753 0.09355885565785384 
1.063605871316849 -1.053313948258843 -0.3235604864100574 
0.3473695480160213 -0.2402513171824925 -0.2951045501488238 
0.03847541712769514 -0.01276758524848407 -0.04624060314609775 
0.03847541712769514 -0.01276758524848407 -0.04624060314609775 
0.1984649743400083 -0.1303983680755058 -0.2283589626106771 
-0.4612506532490235 -0.1498541180313386 0.4936652395453324 
0.03847541712769514 -0.01276758524848407 -0.04624060314609775 
0.04230656280700717 -0.01542605129853542 -0.05041389500384364 
0.7074276232776607 -0.6737738576943554 -0.4096577309630113 
0.3625327946723173 -0.2962448295361682 -0.1301395229263937 
0.1865687838467134 -0.4530711784777016 0.002172178152415949 
0.2042097861532504 -0.3508002645765219 0.04336395456447182 
0.1672342116615975 -0.1023256876515206 -0.3931853214714031 
-0.02152926144717092 -0.3755073943987861 0.265984706506549 
0.2798448411284926 -0.2795639152621197 -0.7825439186113829 
0.03847541712769514 -0.01276758524848407 -0.04624060314609775 
-0.1852021973777936 0.006383542531062148 0.1223393782245812 
0.02971247916216268 -0.02245657768537981 -0.01437407844373383 
0.1674734452519058 -0.1391672980213322 -0.09906376792598172 
0.02971247916216268 -0.02245657768537981 -0.01437407844373383 
0.02971247916216268 -0.02245657768537981 -0.01437407844373383 
0.02971247916216268 -0.02245657768537981 -0.01437407844373383 
0.02971247916216268 -0.02245657768537981 -0.01437407844373383 
0.02971247916216268 -0.02245657768537981 -0.01437407844373383 
0.1674734452519058 -0.1391672980213322 -0.09906376792598172 
0.02971247916216268 -0.02245657768537981 -0.01437407844373383 
0.6132691145088549 -0.6757788575851439 -0.7664294973569823 
0.02971247916216268 -0.02245657768537981 -0.01437407844373383 
0.02971247916216268 -0.02245657768537981 -0.01437407844373383 
0.08544360056273619 -0.07836287577062906 -0.02618711183419636 
0.02971247916216268 -0.02245657768537981 -0.01437407844373383 
-0.01968057617545836 -0.09061483313620215 0.0002926607633834 
-0.1791107102412854 -0.07331194322182737 0.2298109832833985 
0.02971247916216268 -0.02245657768537981 -0.01437407844373383 
0.02971247916216268 -0.02245657768537981 -0.01437407844373383 
0.02971247916216268 -0.02245657768537981 -0.01437407844373383 
0.02971247916216268 -0.02245657768537981 -0.01437407844373383 
0.02971247916216268 -0.02245657768537981 -0.01437407844373383 
0.03418049730523542 -0.1295222371114861 0.4352829596265421 
0.02971247916216268 -0.02245657768537981 -0.01437407844373383 
0.6132691145088549 -0.6757788575851439 -0.7664294973569823 
0.02971247916216268 -0.02245657768537981 -0.01437407844373383 
0.2154774005978068 -0.6267440314913577 0.3387696314623228 
0.3047197903754612 -0.3868516321936135 -0.3910582059423125 
-0.1595246494268012 0.01487247240814025 0.2047859509121164 
0.1950077482273383 -0.06758436513288438 -0.143586911275003 
-0.02074972777928371 0.01380719662435482 -0.1511419483359975 
0.0302226024473651 -0.009047573266409863 -0.03227441255312698 
0.2890930668099823 -0.4657697890987856 -0.2692422662700742 
0.2890930668099823 -0.4657697890987856 -0.2692422662700742 
-0.03974129677056652 0.03234397332759645 -0.1456247924231344 
0.0302226024473651 -0.009047573266409863 -0.03227441255312698 
0.01903827472663733 -0.1509253462149979 -0.3021455484260449 
0.0302226024473651 -0.009047573266409863 -0.03227441255312698 
0.0302226024473651 -0.009047573266409863 -0.03227441255312698 
0.0302226024473651 -0.009047573266409863 -0.03227441255312698 
0.0302226024473651 -0.009047573266409863 -0.03227441255312698 
0.0302226024473651 -0.009047573266409863 -0.03227441255312698 
0.0302226024473651 -0.009047573266409863 -0.03227441255312698 
0.0302226024473651 -0.009047573266409863 -0.03227441255312698 
0.3047843667280583 -0.2588841777827887 -0.05258852348127428 
0.03434837826458333 -0.01025780177760316 -0.03739136354916454 
0.03434837826458333 -0.01025780177760316 -0.03739136354916454 
0.03434837826458333 -0.01025780177760316 -0.03739136354916454 
0.03434837826458333 -0.01025780177760316 -0.03739136354916454 
0.1612051935398721 -0.1540952498725403 -0.3319337394326278 
0.03434837826458333 -0.01025780177760316 -0.03739136354916454 
0.03434837826458333 -0.01025780177760316 -0.03739136354916454 
-0.5669373282962098 -0.0545522223641474 0.7407059050214326 
0.03434837826458333 -0.01025780177760316 -0.03739136354916454 
0.03434837826458333 -0.01025780177760316 -0.03739136354916454 
0.1612051935398721 -0.1540952498725403 -0.3319337394326278 
0.03434837826458333 -0.01025780177760316 -0.03739136354916454 
0.053062541980183 -0.02052000114533971 -0.00771029450778162 
0.053062541980183 -0.02052000114533971 -0.00771029450778162 
0.053062541980183 -0.02052000114533971 -0.00771029450778162 
0.005104823884150124 -0.1940885045978823 0.1803360429935814 
-0.3929766788719919 0.145234042897896 0.3322497499058362 
0.1775437442395906 -0.2148799099267064 -0.03818256677757257 
-0.07752043588855147 0.1074432010442812 -0.1441331779747237 
0.1775437442395906 -0.2148799099267064 -0.03818256677757257 
0.005104823884150124 -0.1940885045978823 0.1803360429935814 
0.02098218849538443 -0.004564102533411695 -0.006243051171108058 
-0.1976936651158437 0.1827123629807183 -0.0206542726982207 
0.02098218849538443 -0.004564102533411695 -0.006243051171108058 
-0.07752043588855147 0.1074432010442812 -0.1441331779747237 
0.053062541980183 -0.02052000114533971 -0.00771029450778162 
0.02098218849538443 -0.004564102533411695 -0.006243051171108058 
0.2475651574432089 -0.4537759160416532 -0.5968232717373513 
-0.1976936651158437 0.1827123629807183 -0.0206542726982207 
0.2648551447653301 -0.4437324139914236 -0.2444997248553994 
0.02098218849538443 -0.004564102533411695 -0.006243051171108058 
0.5504492092573021 -0.4827004916947772 -0.6477112068359057 
0.9837669393670523 -0.8264162973316735 -0.5228680718210688 
0.2523617796412116 -0.1520146702006743 -0.1107584144056322 
-0.3282923193576986 -0.1052034780826312 0.6384988042503045 
0.02098218849538443 -0.004564102533411695 -0.006243051171108058 
0.03208035348479856 -0.01595589861192801 -0.001467243336673561 
0.03208035348479856 -0.01595589861192801 -0.001467243336673561 
0.3538169841004016 -0.4352422998414183 -0.5134087603305075 
0.03208035348479856 -0.01595589861192801 -0.001467243336673561 
0.3538169841004016 -0.4352422998414183 -0.5134087603305075 
0.03208035348479856 -0.01595589861192801 -0.001467243336673561 
0.5219527449433358 -0.3813254543881011 -0.6212133682930543 
-0.7108920864869819 0.7284429702681438 0.2271086924477003 
0.9572575550946473 -0.7674167451824243 -0.5050699275481123 
-0.3249425150823238 0.592955853563261 -0.8296079163912362 
-0.311345874405911 0.2628500425063987 -0.1300664346207296 
0.03208035348479856 -0.01595589861192801 -0.001467243336673561 
-0.3131451930365229 -0.03144433016066797 0.4171079248688875 
0.4233129340083611 -0.3805894105002862 -0.2440672259757846 
-0.6951946325184586 -0.3355640383712675 1.021806396178731 
0.01596556859772359 -0.0007620513864350798 -0.02492767844545503 
0.01596556859772359 -0.0007620513864350798 -0.02492767844545503 
0.4741118767925303 -0.05384085116335154 -0.5426734457650312 
0.003120353021402142 -0.002304087496864854 -0.004003913274134614 
0.003120353021402142 -0.002304087496864854 -0.004003913274134614 
0.07346070713394851 -0.1584785815506175 0.09386376166573251 
0.3098081816814356 -0.2097963238766594 -0.09927106718071589 
0.03594367587395994 -0.2935152817535487 0.2372612327483496 
1.348733357480639 -1.508906085751423 -0.5287558720439455 
-0.3797267829225376 0.5141368020454601 -1.201226382849522 
0.3098081816814356 -0.2097963238766594 -0.09927106718071589 
0.6188978311520822 -0.4345533393607919 -0.9288193121884932 
0.360795883656531 -0.1183015175488508 -0.3337609918237129 
0.360795883656531 -0.1183015175488508 -0.3337609918237129 
-0.4415100997098836 -0.01274533072286218 0.3815908947751375 
0.0134963947824228 -0.001420167128569664 -0.01265100239275713 
0.1368073153926712 -0.09992423113606171 -0.420015131926425 
0.1368073153926712 -0.09992423113606171 -0.420015131926425 
0.0134963947824228 -0.001420167128569664 -0.01265100239275713 
0.01131204634412548 -0.0006130725815349375 -0.01128140762544723 
0.01131204634412548 -0.0006130725815349375 -0.01128140762544723 
0.01131204634412548 -0.0006130725815349375 -0.01128140762544723 
0.01131204634412548 -0.0006130725815349375 -0.01128140762544723 
0.3030211598690112 -0.4771207119304 -0.4158291990219093 
0.01131204634412548 -0.0006130725815349375 -0.01128140762544723 
0.3030211598690112 -0.4771207119304 -0.4158291990219093 
-0.03497131454529419 -0.1744273345749497 0.07821673791569618 
0.005735108738750498 -0.00023185745019607 -0.005288646909919691 
0.09181542378020228 -0.1251509340047 -0.09860284671454159 
-0.06078071923162241 -0.3869733938634459 0.1049906908012538 
-0.06078071923162241 -0.3869733938634459 0.1049906908012538 
-0.03497131454529419 -0.1744273345749497 0.07821673791569618 
0.1067693837575154 -0.03909037424343987 -0.1050092965397321 
-0.3546829436915265 0.4649199156685112 -0.06292496933896423 
0.237247082545412 -0.5832207374867917 -0.1213052843831703 
0.237247082545412 -0.5832207374867917 -0.1213052843831703 
0.005735108738750498 -0.00023185745019607 -0.005288646909919691 
0.1678028993400121 -0.1360029396065193 -0.1137046929667827 
-0.08382661364965564 -0.1274266002742367 -0.1182276087047395 
0.1678028993400121 -0.1360029396065193 -0.1137046929667827 
0.1380186558285046 -0.07753674995502688 -0.1175096430533262 
0.08117741491692192 -0.06746796868024868 -0.05437629941919655 
0.08117741491692192 -0.06746796868024868 -0.05437629941919655 
0.08117741491692192 -0.06746796868024868 -0.05437629941919655 
0.1380186558285046 -0.07753674995502688 -0.1175096430533262 
0.4952457105741504 -0.2889324624767005 -0.5395652598040165 
0.2579339416824462 -0.2961090961115511 -0.3510799168792708 
0.2579339416824462 -0.2961090961115511 -0.3510799168792708 
0.1721661656313577 -0.2011918031252484 -0.1480885610311556 
0.4952457105741504 -0.2889324624767005 -0.5395652598040165 
0.1721661656313577 -0.2011918031252484 -0.1480885610311556 
0.1721661656313577 -0.2011918031252484 -0.1480885610311556 
0.1721661656313577 -0.2011918031252484 -0.1480885610311556 
0.1721661656313577 -0.2011918031252484 -0.1480885610311556 
-0.09794428721444305 -0.1244543720958461 0.1960783252787077 
0.1392962407306446 -0.1069048879659681 -0.1764121941427354 
0.1392962407306446 -0.1069048879659681 -0.1764121941427354 
-0.07789904798875505 0.1009688879084474 -0.2256809865066708 
-0.09794428721444305 -0.1244543720958461 0.1960783252787077 
0.3776964294657958 -0.2928442346931874 -0.2083550751366785 
-0.07789904798875505 0.1009688879084474 -0.2256809865066708 
0.3776964294657958 -0.2928442346931874 -0.2083550751366785 
0.03202501426455611 -0.04773268659437946 -0.02911645353942433 
0.03202501426455611 -0.04773268659437946 -0.02911645353942433 
0.03202501426455611 -0.04773268659437946 -0.02911645353942433 
0.03202501426455611 -0.04773268659437946 -0.02911645353942433 
0.06405002852911224 -0.09546537318875892 -0.05823290707884865 
0.07056120044140718 -0.09758897776662859 -0.06213101512508024 
0.2199933068497137 -0.1454543617413368 -0.1776749788180617 
0.2199933068497137 -0.1454543617413368 -0.1776749788180617 
0.5052295217169844 -0.1790661063918236 -0.6974176551009651 
0.07365371843322358 -0.09571558652188196 -0.06971831659692987 
0.3882985758825659 -0.4316157747696429 -0.2775152811218007 
0.3882985758825659 -0.4316157747696429 -0.2775152811218007 
0.03202501426455611 -0.04773268659437946 -0.02911645353942433 
0.07056120044140718 -0.09758897776662859 -0.06213101512508024 
0.03202501426455611 -0.04773268659437946 -0.02911645353942433 
0.5052295217169844 -0.1790661063918236 -0.6974176551009651 
0.07365371843322358 -0.09571558652188196 -0.06971831659692987 
0.1376715251714695 -0.1383277273148957 -0.09693812254414941 
0.1376715251714695 -0.1383277273148957 -0.09693812254414941 
0.06405002852911224 -0.09546537318875892 -0.05823290707884865 
0.1280689665407604 -0.1229024862546968 -0.1962489117839147 
0.1280689665407604 -0.1229024862546968 -0.1962489117839147 
0.06405002852911224 -0.09546537318875892 -0.05823290707884865 
0.1279800500273565 -0.1590097555984155 -0.1303519023287707 
-0.127284657327599 0.3012632943852431 -0.4991533341717543 
0.2173954345231784 -0.2453815023229253 -0.1324355451553018 
0.1279800500273565 -0.1590097555984155 -0.1303519023287707 
0.1058352679596285 -0.11243588082065 -0.06520009146310332 
-0.127284657327599 0.3012632943852431 -0.4991533341717543 
0.2479941382463838 -0.2707841146052227 -0.1709890118751548 
0.1058352679596285 -0.11243588082065 -0.06520009146310332 
0.2173954345231784 -0.2453815023229253 -0.1324355451553018 
0.2479941382463838 -0.2707841146052227 -0.1709890118751548 
0.198806077908653 -0.2421907216831257 -0.1068335493503562 
-0.007859299401382646 0.05776502116006561 -0.1960537313774674 
0.253667802804883 -0.2609292411422847 -0.1873928105275232 
0.1377976791668366 -0.1618140007313523 -0.3075478220897584 
0.253667802804883 -0.2609292411422847 -0.1873928105275232 
0.1308686668180337 -0.1326082880928511 -0.09601024200194815 
0.2521818505494003 -0.2533392760654467 -0.1865512935474331 
0.2521818505494003 -0.2533392760654467 -0.1865512935474331 
0.1308686668180337 -0.1326082880928511 -0.09601024200194815 
0.1377976791668366 -0.1618140007313523 -0.3075478220897584 
-0.007859299401382646 0.05776502116006561 -0.1960537313774674 
0.3626185665108277 -0.3755785189638888 -0.2920397550127935 
0.1743347510055124 -0.1735375859631675 -0.1700765638804882 
0.1743347510055124 -0.1735375859631675 -0.1700765638804882 
0.4922116225005075 -0.4174960593749623 -0.2965884178990061 
0.4922116225005075 -0.4174960593749623 -0.2965884178990061 
0.1743347510055124 -0.1735375859631675 -0.1700765638804882 
0.1743347510055124 -0.1735375859631675 -0.1700765638804882 
0.1017917983544432 -0.1109342836961166 -0.1282840784062368 
0.1017917983544432 -0.1109342836961166 -0.1282840784062368 
0.1017917983544432 -0.1109342836961166 -0.1282840784062368 
0.1017917983544432 -0.1109342836961166 -0.1282840784062368 
0.1017917983544432 -0.1109342836961166 -0.1282840784062368 
0.08662548442309015 -0.06853497092627062 -0.0593283935475861 
0.08662548442309015 -0.06853497092627062 -0.0593283935475861 
0.08662548442309015 -0.06853497092627062 -0.0593283935475861 
0.08662548442309015 -0.06853497092627062 -0.0593283935475861 
0.08662548442309015 -0.06853497092627062 -0.0593283935475861 
-0.0167844187614529 -0.07667212400346332 0.1702730813090134 
-0.0167844187614529 -0.07667212400346332 0.1702730813090134 
0.07896833550224749 -0.04561192983854954 -0.07259473594748944 
0.03202501426455612 -0.04773268659437946 -0.02911645353942433 
0.03202501426455612 -0.04773268659437946 -0.02911645353942433 
0.03202501426455612 -0.04773268659437946 -0.02911645353942433 
0.03202501426455612 -0.04773268659437946 -0.02911645353942433 
0.03202501426455612 -0.04773268659437946 -0.02911645353942433 
0.03202501426455612 -0.04773268659437946 -0.02911645353942433 
0.191329439685304 -0.02180928310338121 -0.3148325984876172 
0.191329439685304 -0.02180928310338121 -0.3148325984876172 
0.2553752307014896 -0.1948354885674338 -0.2186124259965178 
0.2553752307014896 -0.1948354885674338 -0.2186124259965178 
0.003242478328213821 0.1368509231885537 -0.1059608396031068 
-0.09862519051811251 0.1718301973189042 0.2637549704469577 
-0.2939224133700252 0.4287137301000095 -0.1965813014014609 
-0.2197208587547139 0.2375511895896699 -0.184978267481868 
0.3173687354460714 -0.4144199677356742 -0.30946632517526 
0.2388893610192976 -0.2501377621978721 -0.7745360187789624 
0.07254295265106921 -0.06260330226705085 -0.04179248547425141 
0.07254295265106921 -0.06260330226705085 -0.04179248547425141 
0.07254295265106921 -0.06260330226705085 -0.04179248547425141 
0.07254295265106921 -0.06260330226705085 -0.04179248547425141 
0.07254295265106921 -0.06260330226705085 -0.04179248547425141 
0.02691764977724011 -0.02564918204874512 -0.005448026494496661 
0.02691764977724011 -0.02564918204874512 -0.005448026494496661 
0.02691764977724011 -0.02564918204874512 -0.005448026494496661 
0.02691764977724011 -0.02564918204874512 -0.005448026494496661 
0.02691764977724011 -0.02564918204874512 -0.005448026494496661 
0.02691764977724011 -0.02564918204874512 -0.005448026494496661 
0.02691764977724011 -0.02564918204874512 -0.005448026494496661 
0.02691764977724011 -0.02564918204874512 -0.005448026494496661 
0.02691764977724011 -0.02564918204874512 -0.005448026494496661 
0.02691764977724011 -0.02564918204874512 -0.005448026494496661 
0.02691764977724011 -0.02564918204874512 -0.005448026494496661 
0.02691764977724011 -0.02564918204874512 -0.005448026494496661 
0.05586316069939318 -0.1330111926244024 -0.08121217732015483 
0.3348779087847897 -0.4567328961351411 -0.07462458345992287 
-0.4345431223670883 -0.2715444489692233 0.6526190942949232 
0.1228305855487537 -0.04170126997061049 -0.1378983418664832 
0.1228305855487537 -0.04170126997061049 -0.1378983418664832 
0.1228305855487537 -0.04170126997061049 -0.1378983418664832 
0.1228305855487537 -0.04170126997061049 -0.1378983418664832 
-0.1779019794171491 -0.2447593367037952 0.3412914045183853 
0.2646273146754318 -0.2235215050884349 -0.02930826031682307 
-0.5620999635685083 0.7152593473840877 -0.4588013187080361 
-0.1441757113617387 -0.01219604993807648 -0.1360801813979949 
0.04598191043597279 -0.1371867843645359 -0.19427721875022 
-0.5620999635685083 0.7152593473840877 -0.4588013187080361 
0.6998921776867963 -0.7902529885743009 -0.7744517253461467 
0.6998921776867963 -0.7902529885743009 -0.7744517253461467 
0.2646273146754318 -0.2235215050884349 -0.02930826031682307 
0.001001355123656822 -0.0005823332227274386 -0.001557951010127609 
0.1024709823522057 -0.0618921374003072 -0.05794872772271988 
0.5991272898131391 -0.5412448241918043 -0.1964240433965364 
-0.21408163852782 0.005784277733163739 0.2612489717892574 
-0.347475784094116 -0.02051646991064794 0.5096100265212582 
0.1024709823522057 -0.0618921374003072 -0.05794872772271988 
0.003510871867714574 0.02019250618129978 -0.1100062007287292 
-0.21408163852782 0.005784277733163739 0.2612489717892574 
0.001001355123656822 -0.0005823332227274386 -0.001557951010127609 
0.001001355123656822 -0.0005823332227274386 -0.001557951010127609 
0.02220774685852881 -0.002118813933549958 -0.01475645873782118 
0.001001355123656822 -0.0005823332227274386 -0.001557951010127609 
0.1325610661332439 -0.3109649979521721 -0.03129080039023917 
0.001001355123656822 -0.0005823332227274386 -0.001557951010127609 
0.001001355123656822 -0.0005823332227274386 -0.001557951010127609 
0.1535030411112953 -0.04914321997529744 -0.1536454710534843 
0.001001355123656822 -0.0005823332227274386 -0.001557951010127609 
0.1588292208268437 -0.2848497213561424 -0.3491338631147505 
0.003510871867714574 0.02019250618129978 -0.1100062007287292 
0.5991272898131391 -0.5412448241918043 -0.1964240433965364 
0.02220774685852881 -0.002118813933549958 -0.01475645873782118 
0.07280847724279983 -0.03716280754854184 -0.05428668933696008 
0.9383700535033535 -0.9368892015053059 -0.5501952176607673 
0.1535030411112953 -0.04914321997529744 -0.1536454710534843 
0.1385496115620724 0.01246941136751649 -0.2924355498011291 
0.001001355123656822 -0.0005823332227274386 -0.001557951010127609 
0.8283518332379619 -0.7066263525793512 -0.1808675096323315 
0.01801861441701145 -0.01544028405811028 -0.004411746439516785 
0.01451586883579586 -0.149443364338667 0.09248596609025143 
0.04501556864780074 -0.01553447711424369 -0.1295948044715969 
0.01801861441701145 -0.01544028405811028 -0.004411746439516785 
0.1839225059061956 0.004398995224969698 -0.1295007849806735 
-0.1225159800496484 0.1085178760873656 -0.01247725923169338 
-0.4488781894514283 0.4328924526206841 -0.0495586229008077 
0.04501556864780074 -0.01553447711424369 -0.1295948044715969 
0.0501824963675906 -0.02674399237705059 -0.02944244085924408 
0.0501824963675906 -0.02674399237705059 -0.02944244085924408 
0.04327739928250256 -0.4454659440118208 -0.006249281220977537 
-0.1845359502532318 0.1635061378401693 -0.02401122743723803 
0.02371740834058338 -0.009726353334645282 -0.004560927929025107 
0.08033143581143848 -0.05843038071060772 -0.03889966311404443 
-0.1845359502532318 0.1635061378401693 -0.02401122743723803 
0.02371740834058338 -0.009726353334645282 -0.004560927929025107 
0.3208436632040724 -0.1401595966018197 -0.2142005332485115 
0.1039197504272066 0.03656984315441611 -0.3062435298103071 
-0.4915762896622982 0.5970563863910362 -0.09816801490356269 
0.1039197504272066 0.03656984315441611 -0.3062435298103071 
0.02371740834058338 -0.009726353334645282 -0.004560927929025107 
0.06448677517888955 -0.03724385413467251 -0.02422096119756074 
0.02685475499381276 -0.7927690591657778 0.139571337109376 
0.1781398019580893 -0.07569306647756961 -0.1240599668576484 
0.1781398019580893 -0.07569306647756961 -0.1240599668576484 
-0.3902417996687066 0.4271777312425879 -0.1258372973711672 
-0.433259957343683 0.009495034621580814 0.5164641201634984 
0.7404523122457853 -0.1357261350374147 -0.9705444540384769 
-0.433259957343683 0.009495034621580814 0.5164641201634984 
0.06448677517888955 -0.03724385413467251 -0.02422096119756074 
0.009626133900883746 -0.004391892285372988 -0.002668403172793046 
0.187708632430075 -0.1673558507192483 -0.0643537750012281 
0.187708632430075 -0.1673558507192483 -0.0643537750012281 
-0.8183042441220569 0.7172886366892524 -0.1856342143635192 
-0.06919865592429504 0.1747481290702331 -0.5099094540663188 
0.6505312746082432 -0.7895166111963524 -0.8380467124479575 
0.187708632430075 -0.1673558507192483 -0.0643537750012281 
-0.4869244445222272 0.2613470819314053 0.2914727674769585 
0.187708632430075 -0.1673558507192483 -0.0643537750012281 
0.187708632430075 -0.1673558507192483 -0.0643537750012281 
0.187708632430075 -0.1673558507192483 -0.0643537750012281 
-0.4995102418467851 0.2697858004498951 0.2979748813623804 
1.028922779506998 -0.7508873276640246 -1.186581453504634 
0.6649301981973126 -0.6328534777899542 -0.5262520079578817 
0.2777048593697369 -0.02411426943375874 -0.2831363335909117 
-0.207788757321527 -0.1962154123796617 0.2281784145915313 
0.294313214976519 -0.1920230084689505 -0.1090131678267282 
0.2779307235962012 -0.6955580773549147 0.3772354987841304 
0.294313214976519 -0.1920230084689505 -0.1090131678267282 
0.161783194272506 -0.3273748395059032 -0.1113923318454856 
0.2091923768098699 -0.01825554117891089 -0.2477297027977164 
0.469603230256479 -0.3837489442296995 -0.5277481601059637 
0.1241831767311162 -0.6063677796445327 0.3963140764032763 
0.4400306797742091 -0.4994324728260235 -0.2633146468013826 
0.469603230256479 -0.3837489442296995 -0.5277481601059637 
0.1919058998762762 -0.3351200714851704 -0.1250329189047582 
0.2064792384557894 -0.11049149257067 -0.08560950911156831 
0.005247778387349913 -0.000676724435533026 -0.007937138297539963 
0.07980407005000467 -0.07610085583233792 -0.01448651190255134 
0.005247778387349913 -0.000676724435533026 -0.007937138297539963 
0.005247778387349913 -0.000676724435533026 -0.007937138297539963 
0.005247778387349913 -0.000676724435533026 -0.007937138297539963 
0.005247778387349913 -0.000676724435533026 -0.007937138297539963 
0.005247778387349913 -0.000676724435533026 -0.007937138297539963 
0.07980407005000467 -0.07610085583233792 -0.01448651190255134 
0.005247778387349913 -0.000676724435533026 -0.007937138297539963 
0.08845995742488587 -0.7472306160406808 0.4009341401249022 
0.4705453612197754 -0.3820309184916794 -0.2668680330952403 
0.005247778387349913 -0.000676724435533026 -0.007937138297539963 
0.436976970373316 -0.2303608869533707 -0.5668177690233911 
0.08695179864913499 -0.05900442947361962 -0.05948173310585788 
0.03326285184483737 -0.01565167982404665 -0.03835706032773767 
0.03326285184483737 -0.01565167982404665 -0.03835706032773767 
0.03326285184483737 -0.01565167982404665 -0.03835706032773767 
0.9903423293304087 -1.370942630206833 -0.8847386826984409 
0.03326285184483737 -0.01565167982404665 -0.03835706032773767 
0.03326285184483737 -0.01565167982404665 -0.03835706032773767 
0.9903423293304087 -1.370942630206833 -0.8847386826984409 
0.08695179864913499 -0.05900442947361962 -0.05948173310585788 
0.03326285184483737 -0.01565167982404665 -0.03835706032773767 
-0.3782633910186897 0.3103978161509157 -0.02456565348326398 
-0.600788485254912 0.6924849091197058 -0.3759633312154951 
-0.00685534281274713 0.1203897598474881 -0.5400687719705454 
0.1661994907005009 -0.1422674572700915 -0.005778635747055756 
0.08980960379654115 -0.1526139147577268 -0.08786282542489535 
-0.600788485254912 0.6924849091197058 -0.3759633312154951 
-0.3782633910186897 0.3103978161509157 -0.02456565348326398 
0.2235739445232047 -0.332056599883366 -0.2226286783402173 
0.1661994907005009 -0.1422674572700915 -0.005778635747055756 
0.3178275206339532 -0.3338935842242766 -0.4910279838401975 
-0.155834791541069 0.1877089425984228 -0.2381394549282502 
0.08980960379654115 -0.1526139147577268 -0.08786282542489535 
0.3178275206339532 -0.3338935842242766 -0.4910279838401975 
0.2235739445232047 -0.332056599883366 -0.2226286783402173 
-0.155834791541069 0.1877089425984228 -0.2381394549282502 
-0.00685534281274713 0.1203897598474881 -0.5400687719705454 
0.6929843602831651 -0.4809521682322238 -0.3181994328949559 
0.049873240363239 -0.007460063532270017 -0.06185878025011547 
0.049873240363239 -0.007460063532270017 -0.06185878025011547 
0.05997491228673409 -0.2072039483206438 0.2111390802163854 
-0.2436131932737728 0.2034981032738448 -0.3014537668291774 
0.3079590432641532 -0.1255874346369354 -0.5894790975625714 
0.1887221209241044 -0.07817791393276784 -0.5184851583645873 
-0.2006358337256452 0.09106008450667578 0.02638029682655914 
0.06614965988260534 -0.02071064818341757 -0.0673050528770919 
0.1887221209241044 -0.07817791393276784 -0.5184851583645873 
0.06614965988260534 -0.02071064818341757 -0.0673050528770919 
-0.04555819368869461 -0.2185654097731115 0.1154454277297359 
0.6094176883328807 -0.447735007435956 -0.3535329274619471 
0.7076040354152414 -0.5571560207760188 -0.3740321035641426 
0.04930931655877567 -0.03729270799876931 -0.02881876771589656 
0.3032528814189321 -0.3851139448709099 -0.1680122338473179 
-1.687031566726892 2.020929221156515 -0.7814345092452483 
-0.2808456014188654 -0.07261665887289638 0.2793226262328216 
-0.3385216844289517 0.3089111854619191 0.2435905627381958 
1.58980436138434 -1.522693003314738 -0.03852014682993922 
0.2246464436296391 -0.2978527523048796 -0.1668560259747913 
0.049873240363239 -0.007460063532270017 -0.06185878025011547 
0.049873240363239 -0.007460063532270017 -0.06185878025011547 
-0.2808456014188654 -0.07261665887289638 0.2793226262328216 
0.01815246563280354 -0.007070218713571394 -0.001431402401006679 
0.3700231519708379 -0.2227727695680367 -0.2560100148683856 
1.041113917280257 -0.8303373935871126 -0.1833174849747663 
0.4570979294737246 -0.7217223542219815 -0.09729894975055775 
-0.2374518535412562 -0.4650755876307874 0.2501703426837985 
-0.4546097414168167 0.08629854102973122 0.3819817998806438 
-0.5812972393302035 -0.5250944170502715 0.5500913093113156 
0.1045336535409678 -0.6646443219243263 0.09534002204951296 
0.4159218936351937 -0.6211376227513963 -0.1721664115880617 
0.5888578934100591 -0.5766417306334702 -0.5731295511077372 
-0.937810761737858 -1.10493970263972 1.315033512348271 
0.5791890500293485 -0.5667124368010941 -0.5722384372406116 
0.4570979294737246 -0.7217223542219815 -0.09729894975055775 
0.06939690397673869 0.08121638519704534 -0.4892241238265142 
0.06939690397673869 0.08121638519704534 -0.4892241238265142 
0.03172077473043546 -0.0003898448186986221 -0.06042737784910879 
-0.2245198088014723 0.138461513794935 0.4003775889816582 
0.02342632458010432 -0.02255564785533347 -0.007768042764871448 
0.09288241749847855 -0.06450266328548196 -0.09318528525227322 
-0.2203617984009176 0.2814783298945446 -0.02981275460765027 
0.09288241749847855 -0.06450266328548196 -0.09318528525227322 
0.06424676619916247 -0.05399561344239071 -0.02199552163342542 
0.2843258709465152 -0.2144413711076488 -0.2479700343897722 
0.3934644020786371 -0.4446552591600203 -0.07682005271766906 
0.02342632458010432 -0.02255564785533347 -0.007768042764871448 
0.01881203221317378 -0.01437893403146319 -0.00404386190019116 
-0.04134474289784242 -0.3257046395729638 0.2036466483958216 
0.3515397619248887 -0.4005639019441377 -0.05344322321597136 
0.01881203221317378 -0.01437893403146319 -0.00404386190019116 
0.02711090136199283 -0.01612063569171924 -0.01817718866293187 
0.00845815029043603 -0.007451624884494992 -0.002395381871930237 
0.3018328233828632 -0.2276935117181084 -0.1589099088513208 
0.2319409688771091 -0.1649830970527112 -0.4235056405246979 
0.2319409688771091 -0.1649830970527112 -0.4235056405246979 
0.1997750364116471 -0.1589249206971636 -0.05921082764626846 
0.00845815029043603 -0.007451624884494992 -0.002395381871930237 
0.00845815029043603 -0.007451624884494992 -0.002395381871930237 
-0.09612820767525551 -0.0637206745452812 0.02918834902035403 
0.00845815029043603 -0.007451624884494992 -0.002395381871930237 
0.3018328233828632 -0.2276935117181084 -0.1589099088513208 
0.1997750364116471 -0.1589249206971636 -0.05921082764626846 
0.1430712552915827 -0.1801619374965846 -0.1064788593756976 
0.09198030284249868 -0.04251231082318425 -0.1983130066878017 
0.09198030284249868 -0.04251231082318425 -0.1983130066878017 
-0.006088172817991991 -0.2167524612885474 -0.002536256439841672 
-0.006088172817991991 -0.2167524612885474 -0.002536256439841672 
0.07062644093580446 -0.04617319005790645 -0.1299256300369543 
0.123066249680264 -0.09658584330556233 -0.01942128844577414 
0.123066249680264 -0.09658584330556233 -0.01942128844577414 
0.05397966912168596 -0.1343028440440326 0.1012054398670234 
0.3488370959070612 -0.3274492761302881 -0.2794222915871795 
0.6559707493705469 -0.7148269939934474 -0.3467847758294535 
0.2907349403586403 -0.06525558788282469 -0.2159053023094016 
-0.1582592193986256 0.09162056388069338 0.329901273773536 
0.3773373623232703 -0.2979970048203852 -0.2537531054881365 
0.1765013758369859 -0.2048607816466505 -0.2349540221167413 
0.02579163323631801 -0.2091945269056666 0.169851901204143 
0.2939119237073391 -0.2811787091570325 -0.401696576370308 
0.2939119237073391 -0.2811787091570325 -0.401696576370308 
0.01258579732455783 -0.0084387185184899 -0.006502113885421807 
0.01258579732455783 -0.0084387185184899 -0.006502113885421807 
0.1252831666754062 -0.1759361465815412 -0.08785275226719905 
-0.09306492848905359 0.077510424257325 -0.2633749136030698 
0.01258579732455783 -0.0084387185184899 -0.006502113885421807 
0.1252831666754062 -0.1759361465815412 -0.08785275226719905 
0.3488370959070612 -0.3274492761302881 -0.2794222915871795 
-0.3299018666658078 -0.5115503408283631 0.4919837273029849 
0.08593475802027092 -0.491474108437552 0.2636086499978768 
0.0150943019553771 -0.005213478271041322 -0.006961364001721159 
0.2695281910241576 -0.2078620315510918 -0.4160752503095572 
0.0617037585058374 -0.007257210614445301 -0.05021799043265977 
0.2695281910241576 -0.2078620315510918 -0.4160752503095572 
0.3315388227023567 -0.09962696592366393 -0.2912515852616183 
0.03012270560377203 -0.00774523197926729 -0.01364058705927429 
0.6277692758773566 -0.2741211104726695 -0.817333885105157 
-0.5329732530170057 0.5739556421346426 -0.3960814264977963 
0.0617037585058374 -0.007257210614445301 -0.05021799043265977 
0.5793546944910596 -0.5647355003273785 0.2086026527269398 
-0.5329732530170057 0.5739556421346426 -0.3960814264977963 
0.6277692758773566 -0.2741211104726695 -0.817333885105157 
0.0150943019553771 -0.005213478271041322 -0.006961364001721159 
0.1200245477196485 -0.07919002085282223 -0.04715539610290589 
0.1200245477196485 -0.07919002085282223 -0.04715539610290589 
0.3849857468128103 -0.428633906908171 -0.4366266308370061 
0.03717442862220532 -0.00502710315374046 -0.01984375200619827 
-0.2109906726277536 0.2020234402723773 0.05752680946356763 
0.3849857468128103 -0.428633906908171 -0.4366266308370061 
-0.1483756249721914 0.03315685922877324 0.09992292605933464 
0.1218493932238229 -0.06344628285461271 -0.1121187443116378 
0.03717442862220532 -0.00502710315374046 -0.01984375200619827 
0.1218493932238229 -0.06344628285461271 -0.1121187443116378 
-0.0858987122720284 -0.6231706495392488 0.3071566680999036 
0.0894941260423099 -0.869142790457602 0.4895698342598834 
0.3580004143479585 -0.2458695297996388 -0.368469212087835 
0.1290511951802256 -0.3178777651649697 0.2063022963292898 
0.3580004143479585 -0.2458695297996388 -0.368469212087835 
0.04080646385397076 0.1166062268934629 -0.3508413155199802 
0.3914556791360405 -0.1678225927339289 -0.1107108790553426 
-0.2109906726277536 0.2020234402723773 0.05752680946356763 
-0.0858987122720284 -0.6231706495392488 0.3071566680999036 
-0.6067766000540801 0.689083856825393 -0.1491042074194694 
0.2369371465853892 -0.2576332555959157 -0.3403635072915934 
0.4366875571340802 -0.2207227365559393 -0.5209670605483071 
0.02451353732875555 -0.004528595744747232 -0.01117623268754868 
0.2369371465853892 -0.2576332555959157 -0.3403635072915934 
0.3390651647245473 0.003951101150996048 -0.4917246480025291 
-0.2661327063105856 0.05274865282390014 0.2033785810615327 
0.07491334711718481 -0.0563815007562499 -0.01940264426790737 
1.088615446882357 -0.8955344354322822 -0.585445133294392 
0.07491334711718481 -0.0563815007562499 -0.01940264426790737 
0.2524789942316257 -0.7714826806731417 0.02587732396666465 
0.02451353732875555 -0.004528595744747232 -0.01117623268754868 
0.02968059934388845 -0.001398229705833421 -0.03358349241977888 
0.1377627682965006 -0.6090882226705558 0.002792536672120137 
-0.228666159224179 -0.05100901071700389 0.3350079880503449 
-0.228666159224179 -0.05100901071700389 0.3350079880503449 
0.02968059934388845 -0.001398229705833421 -0.03358349241977888 
0.1377627682965006 -0.6090882226705558 0.002792536672120137 
0.08857803814561048 -0.01575980860724932 -0.0874639731468423 
-0.1597885554095584 0.01484647404591767 0.4882352245588503 
0.298904792797514 -0.2775641099557369 -0.3822604172035429 
-0.3314678569253691 0.2930065577532712 -0.167449038785919 
0.5190254536216057 -0.3469597375880412 -0.5419487761539217 
-0.04664182082995612 0.1418040182772975 -0.1130179567895196 
-0.3314678569253691 0.2930065577532712 -0.167449038785919 
-0.1597885554095584 0.01484647404591767 0.4882352245588503 
0.298904792797514 -0.2775641099557369 -0.3822604172035429 
0.5190254536216057 -0.3469597375880412 -0.5419487761539217 
-0.09249940540575284 -0.06337532795265985 0.1268471130045971 
-0.3987404146492431 0.4314807720746151 -0.04069909131605509 
-0.05289276524833325 0.07997312694588048 -0.02895836783081668 
-0.04606110679504528 0.1533351891994962 -0.1451728750734395 
-2.341570753706482 2.172998125199794 -0.2206687110609301 
0.004261801970926734 -0.02159414217193768 -0.1540078877608102 
0.004261801970926734 -0.02159414217193768 -0.1540078877608102 
0.201633756297473 -0.2045377942392377 -0.09442916351055437 
0.3142588544972894 0.03921460914701165 -0.4868393842754067 
-0.3556600530679628 0.3242205691074587 -0.08086866448391102 
-0.04606110679504528 0.1533351891994962 -0.1451728750734395 
0.1803438697030199 0.2216726367291528 -0.6898083488875424 
-0.3556600530679628 0.3242205691074587 -0.08086866448391102 
0.4039246995337127 -0.2622092661958436 -0.2375701853881897 
-1.061346328075547 1.170421750317579 -0.2595460806458676 
-0.03846732717530024 -0.2290141464713664 0.1255126168999513 
0.0863657892085746 0.09752519305432332 -0.3016908526143897 
-0.3639424587905942 0.2334129689148038 -0.009262635608053439 
-0.2870644944161666 0.1441995363560751 0.3023784386857023 
-0.1491540682077603 -0.2881780475137228 0.2642876389106363 
0.1013216121054114 -0.1347079286264531 -0.09348306657132395 
0.3304054848692285 -0.2876600588477812 -0.6233017463558908 
0.1013216121054114 -0.1347079286264531 -0.09348306657132395 
-0.386859428730207 0.3863898591523062 0.2273324398328399 
-0.386859428730207 0.3863898591523062 0.2273324398328399 
-0.3639424587905942 0.2334129689148038 -0.009262635608053439 
-1.192536104970007 0.4281828045202227 1.221524113867549 
-0.1491540682077603 -0.2881780475137228 0.2642876389106363 
-0.03846732717530024 -0.2290141464713664 0.1255126168999513 
0.1672765172309398 -0.142012975645337 -0.09656454655789351 
0.9726471941633555 -0.6154971706169717 -1.019513019806787 
0.04996727714388427 -0.03476613130017994 -0.0116110593404121 
0.04822367414078458 -0.05122604805274698 -0.28527754009735 
0.04996727714388427 -0.03476613130017994 -0.0116110593404121 
0.04996727714388427 -0.03476613130017994 -0.0116110593404121 
0.04996727714388427 -0.03476613130017994 -0.0116110593404121 
0.04822367414078458 -0.05122604805274698 -0.28527754009735 
0.04996727714388427 -0.03476613130017994 -0.0116110593404121 
0.1461303361261546 -0.1283790657204932 -0.1134846604349338 
0.2090201524023847 -0.197603388859396 -0.04937903950055342 
0.1461303361261546 -0.1283790657204932 -0.1134846604349338 
0.04996727714388427 -0.03476613130017994 -0.0116110593404121 
0.03951158528054365 0.01544410396130424 -0.08757848082334881 
0.05637929806521916 -0.03885999319971823 -0.01815144605405223 
0.05637929806521916 -0.03885999319971823 -0.01815144605405223 
0.0877261324071998 -0.06917783101621602 -0.01723671746543295 
0.03874489103022166 -0.02653115955293427 -0.02039218079179789 
0.03874489103022166 -0.02653115955293427 -0.02039218079179789 
-0.1680681653389234 0.1702020025275776 -0.03331930749057239 
0.03874489103022166 -0.02653115955293427 -0.02039218079179789 
0.08418320208153578 -0.2792905087450387 0.08665612083103078 
0.03874489103022166 -0.02653115955293427 -0.02039218079179789 
0.05174057419845843 -0.02966523253397533 -0.03183246007465936 
0.05174057419845843 -0.02966523253397533 -0.03183246007465936 
0.3762913171910773 -0.288861472043809 -0.1950368286152739 
0.03874489103022166 -0.02653115955293427 -0.02039218079179789 
0.03874489103022166 -0.02653115955293427 -0.02039218079179789 
0.08418320208153578 -0.2792905087450387 0.08665612083103078 
0.03874489103022166 -0.02653115955293427 -0.02039218079179789 
0.03874489103022166 -0.02653115955293427 -0.02039218079179789 
0.7787165412335206 -0.4508554389725691 -0.3646874073345081 
0.162297699427589 -0.09214813917440745 -0.08728137058277118 
0.162297699427589 -0.09214813917440745 -0.08728137058277118 
0.162297699427589 -0.09214813917440745 -0.08728137058277118 
-0.2326944389699951 0.1262154311959403 0.2316446576099244 
0.1287671618668425 -0.07924041465380709 -0.07406742891313649 
0.1046200282827516 -0.04625791492441045 -0.07077033624156064 
0.1287671618668425 -0.07924041465380709 -0.07406742891313649 
0.1046200282827516 -0.04625791492441045 -0.07077033624156064 
0.162297699427589 -0.09214813917440745 -0.08728137058277118 
-0.01127185819652946 -0.157635935679329 0.1013707426929833 
0.1046200282827516 -0.04625791492441045 -0.07077033624156064 
0.1046200282827516 -0.04625791492441045 -0.07077033624156064 
-0.2326944389699951 0.1262154311959403 0.2316446576099244 
0.1046200282827516 -0.04625791492441045 -0.07077033624156064 
0.01056543115341607 -0.007077835807807052 -0.004587664224269645 
0.645285128592744 -0.5860222639414779 -0.5333334184087447 
0.01056543115341607 -0.007077835807807052 -0.004587664224269645 
0.01056543115341607 -0.007077835807807052 -0.004587664224269645 
0.01249867997007582 -0.008132071083745368 -0.005732058928716756 
0.01056543115341607 -0.007077835807807052 -0.004587664224269645 
0.05843441529664879 -0.04728514584577054 -0.03442399618520784 
0.01056543115341607 -0.007077835807807052 -0.004587664224269645 
0.01056543115341607 -0.007077835807807052 -0.004587664224269645 
0.01056543115341607 -0.007077835807807052 -0.004587664224269645 
0.01056543115341607 -0.007077835807807052 -0.004587664224269645 
0.645285128592744 -0.5860222639414779 -0.5333334184087447 
0.04711223999142131 -0.03881238844218995 -0.01192337011694089 
0.04711223999142131 -0.03881238844218995 -0.01192337011694089 
0.04711223999142131 -0.03881238844218995 -0.01192337011694089 
0.04711223999142131 -0.03881238844218995 -0.01192337011694089 
0.04711223999142131 -0.03881238844218995 -0.01192337011694089 
0.3175934261236982 -0.1326764862926548 -0.6706413764490743 
0.3175934261236982 -0.1326764862926548 -0.6706413764490743 
0.04711223999142131 -0.03881238844218995 -0.01192337011694089 
0.2121840631891908 -0.143438745742596 -0.6419830613734017 
0.04925196324819322 -0.03977120348003556 -0.01244647535749498 
0.3392276164403645 -0.5400756189461653 0.07893085595530265 
0.3031491669783351 -0.1279281555786437 -0.652715797441621 
0.02959618914637333 -0.03147331192128411 -0.006960275847468871 
0.02959618914637333 -0.03147331192128411 -0.006960275847468871 
0.02959618914637333 -0.03147331192128411 -0.006960275847468871 
0.02959618914637333 -0.03147331192128411 -0.006960275847468871 
0.298684953098596 -0.2107381214996558 -0.2695051870614411 
0.02959618914637333 -0.03147331192128411 -0.006960275847468871 
0.298684953098596 -0.2107381214996558 -0.2695051870614411 
0.02959618914637333 -0.03147331192128411 -0.006960275847468871 
0.4362278928361227 -0.351489147209067 -0.1524964225108116 
0.04551178585350951 -0.0320859927944735 -0.006112280781297207 
0.04551178585350951 -0.0320859927944735 -0.006112280781297207 
0.1102517073412472 -0.1066423886276483 -0.06180847434324448 
0.1102517073412472 -0.1066423886276483 -0.06180847434324448 
-0.2077718952652736 0.38682067979306 -0.4118942025015147 
0.0828481858233774 -0.05752782180913427 -0.01394555983167728 
0.0828481858233774 -0.05752782180913427 -0.01394555983167728 
-0.1439745818002293 0.2130010179994204 -0.259954827885498 
-0.1706325980682719 0.1638116535895002 -0.02842131375574517 
-0.1706325980682719 0.1638116535895002 -0.02842131375574517 
0.5346179488139893 -0.8261472986968836 -0.2321504179114308 
-0.2077718952652736 0.38682067979306 -0.4118942025015147 
-0.1439745818002293 0.2130010179994204 -0.259954827885498 
0.02368504793254135 -0.01503827311824127 -0.0432186644706655 
0.0247398709708255 -0.008367889988775627 -0.004180520548476304 
0.0247398709708255 -0.008367889988775627 -0.004180520548476304 
0.03911536024217771 -0.02130457729626839 -0.008154316447659288 
-0.3397296605800605 0.4378373041144996 -0.1166709340473535 
0.03911536024217771 -0.02130457729626839 -0.008154316447659288 
0.02368504793254135 -0.01503827311824127 -0.0432186644706655 
-0.3397296605800605 0.4378373041144996 -0.1166709340473535 
0.3348299596992129 -0.4311329555797902 -0.2557070804999859 
0.3348299596992129 -0.4311329555797902 -0.2557070804999859 
0.1758277589822688 -0.07242302095765081 -0.04001645239067541 
0.2778110483375507 -0.101945203489504 -0.4503521206291868 
-0.07467597322181679 0.1017117321647376 -0.2512878900843133 
-0.09016833608122989 0.06892998405300227 -0.05633735049017678 
-0.149850563793938 -0.2554494715916056 0.1919099095379 
-0.149850563793938 -0.2554494715916056 0.1919099095379 
-0.09016833608122989 0.06892998405300227 -0.05633735049017678 
-0.5400649333424796 -0.3474309188757809 0.6156765352673313 
-0.02178363209149614 -0.01227449353099788 -0.002205743219993596 
0.1198441214246837 -0.1238666820355707 -0.001767869675013036 
0.1198441214246837 -0.1238666820355707 -0.001767869675013036 
-0.0320256441553035 0.006785743397699733 -0.02178117590007405 
0.1813259310600696 -0.1428121803936416 -0.06035198360674823 
0.2419290308740615 -0.293928318453252 0.02137567694750271 
0.2647561724948022 -0.2927461526846019 0.007398397585065361 
0.1719364981249561 -0.1746340592635605 -0.03103083963250224 
0.2354384564846596 -0.1940277281698946 -0.08707911539558816 
0.2354384564846596 -0.1940277281698946 -0.08707911539558816 
0.09951189926611928 -0.02718792962937071 -0.1147855608712282 
-0.1566150980550503 -0.08253645777627681 0.2548298852839564 
0.2647561724948022 -0.2927461526846019 0.007398397585065361 
-0.01842749046287737 -0.01464032040993515 -0.004238147264969102 
0.1198441214246837 -0.1238666820355707 -0.001767869675013036 
0.1399521813119775 -0.5974048279193032 0.005035267685788837 
0.1719364981249561 -0.1746340592635605 -0.03103083963250224 
-0.2072448833411781 0.2947808862826469 -0.3149631828369131 
0.1399521813119775 -0.5974048279193032 0.005035267685788837 
-0.01842749046287737 -0.01464032040993515 -0.004238147264969102 
0.1198441214246837 -0.1238666820355707 -0.001767869675013036 
0.2923197634112756 -0.279683655996269 -0.06120408770077704 
-1.24395791800791 1.250688725179977 -0.0417115090607811 
0.1934547671763653 -0.1682911536754588 -0.2301542953061557 
0.256623121842647 -0.3304047734089038 -0.3152894501267413 
0.256623121842647 -0.3304047734089038 -0.3152894501267413 
0.08540770832738874 -0.01384819940663625 -0.04706350993304592 
0.1738363131870028 -0.1653937730953739 -0.02804801819812633 
0.1934547671763653 -0.1682911536754588 -0.2301542953061557 
0.1738363131870028 -0.1653937730953739 -0.02804801819812633 
0.2080235030598917 -0.09147561856855967 -0.1322335628983962 
0.2342834625700013 -0.1123126481512168 -0.01683022743244933 
0.002130483963107563 -0.001589798924611404 -0.0002827405399447057 
0.02448666411016952 -0.05765331043074857 -0.0002084754799658972 
0.5140446404775562 -0.3759840886508029 -1.035484196951694 
0.5043826952906751 -0.4916188760592262 -0.6319696787625205 
-0.3756886979187556 0.4377430455870891 -0.3366761608196611 
0.658121541568664 -0.494214800271391 -0.8495905862349892 
0.03998823570963252 -0.05983339681159237 -0.02380354000861503 
0.07001371837182981 -0.1406748052634685 -0.000683384469232271 
0.03998823570963252 -0.05983339681159237 -0.02380354000861503 
-0.08243574962129212 0.2213926175321463 -0.6372701602934123 
-0.3756886979187556 0.4377430455870891 -0.3366761608196611 
0.02448666411016952 -0.05765331043074857 -0.0002084754799658972 
-0.2120109729658096 0.3747655970327821 -0.5756914792145841 
0.02448666411016952 -0.05765331043074857 -0.0002084754799658972 
0.2227297494194874 -0.1302641228504209 -0.3354099242572567 
-0.4454564792698719 0.01927620402295625 0.3799662017122092 
-0.4454564792698719 0.01927620402295625 0.3799662017122092 
0.4461529861273349 -0.3915846544339389 -0.3384073965993952 
-0.1558711211035106 0.2756701639386345 -0.1176261666316388 
0.1265043628123727 0.04912596861570487 -0.148037058123933 
-0.3613876799612113 0.477705848465256 -0.006903937500852934 
-0.1887087677191232 0.361424440769616 -0.1754245056274916 
0.277202910736232 -0.2014404181810813 -0.4663027210225182 
0.100500183870345 0.131876559074024 -0.2236329397068491 
0.100500183870345 0.131876559074024 -0.2236329397068491 
-0.1558711211035106 0.2756701639386345 -0.1176261666316388 
-0.3613876799612113 0.477705848465256 -0.006903937500852934 
-0.7082296683133176 -0.07230302187559591 1.056520302025388 
-0.2897421856715167 0.4100250724846766 -0.09574615894384174 
-0.4063133889460353 0.5943387446251328 0.3126423996733835 
-0.3613876799612113 0.477705848465256 -0.006903937500852934 
-0.2897421856715167 0.4100250724846766 -0.09574615894384174 
-0.3113411269907576 0.1470264764846281 0.3422272604323702 
-0.3613876799612113 0.477705848465256 -0.006903937500852934 
-0.4639719536519603 0.4464951384582042 0.3753377869712172 
-0.4639719536519603 0.4464951384582042 0.3753377869712172 
-0.6802025501739514 0.6500291609794697 -0.03198878927197088 
-0.6802025501739514 0.6500291609794697 -0.03198878927197088 
-0.4110880294124047 0.3778865387559777 -0.06654091048905192 
-0.348596095445637 0.3559685496258801 -0.04123668484076312 
0.694603547425251 -0.566712105838542 -0.7070370706743481 
-0.09923899061006096 0.1912500615890304 -0.1109922615404817 
0.1864856476659572 -0.3282692497088188 -0.2382489212881523 
-0.06974720526454001 -0.2380327057713831 -0.2273675747274361 
-0.4110880294124047 0.3778865387559777 -0.06654091048905192 
0.924624867857315 -0.7019790795600157 -0.7107432371301878 
-0.5332239264974656 0.435121480966857 -0.001046612773501936 
-0.09923899061006096 0.1912500615890304 -0.1109922615404817 
-0.348596095445637 0.3559685496258801 -0.04123668484076312 
-0.3500124547442652 -0.02153415167408294 0.4553430672760442 
-0.3500124547442652 -0.02153415167408294 0.4553430672760442 
-0.3500124547442652 -0.02153415167408294 0.4553430672760442 
0.9164706661604176 -0.9671532230931807 -0.5564167768390387 
0.5998395873751685 -0.5096167514320987 -0.6639169426252997 
-0.3500124547442652 -0.02153415167408294 0.4553430672760442 
0.5281080387761731 -0.4108471860862134 -0.3507012317422034 
0.5281080387761731 -0.4108471860862134 -0.3507012317422034 
-0.348783101672975 -0.02183995950441402 0.4542638780512078 
-0.3500124547442652 -0.02153415167408294 0.4553430672760442 
-0.3500124547442652 -0.02153415167408294 0.4553430672760442 
-0.3500124547442652 -0.02153415167408294 0.4553430672760442 
-0.2162940661757677 -0.06068454859764794 0.3943967050581407 
-0.3679967096015854 0.2342944714710063 0.3859218579220193 
-0.8192786889917272 0.8409718476426876 -0.09864525868852378 
-0.8192786889917272 0.8409718476426876 -0.09864525868852378 
-0.3436716878797523 -0.04453990403746243 0.5137762414925834 
-0.3678884095570046 -0.1318592263828818 0.5981388573131673 
-0.3436716878797523 -0.04453990403746243 0.5137762414925834 
-0.3678884095570046 -0.1318592263828818 0.5981388573131673 
-0.1079292170286847 0.08761933757881531 0.1564923378482568 
-0.3436716878797523 -0.04453990403746243 0.5137762414925834 
-0.3679967096015854 0.2342944714710063 0.3859218579220193 
-0.1079292170286847 0.08761933757881531 0.1564923378482568 
-0.1217912702496582 -0.1294812024436594 0.3249557759869594 
-0.3436716878797523 -0.04453990403746243 0.5137762414925834 
-0.296775288400124 -0.005853098967633975 0.285717711309071 
-0.296775288400124 -0.005853098967633975 0.285717711309071 
-0.03848621198658146 0.008924231633571363 -0.2233098958462692 
-0.296775288400124 -0.005853098967633975 0.285717711309071 
0.1112060115278796 -0.3506565965584708 -0.005591993951015188 
0.5442615851706164 -0.9984066450911571 0.04273166223982219 
-0.5577015481765449 -0.3342783616003833 0.8001339635368772 
-0.07119983595614716 -0.08147568432015044 0.08755509801962996 
-0.03848621198658146 0.008924231633571363 -0.2233098958462692 
-0.296775288400124 -0.005853098967633975 0.285717711309071 
-0.2204386922555723 -0.04555541057455995 0.2724851471216521 
-0.07119983595614716 -0.08147568432015044 0.08755509801962996 
0.1112060115278796 -0.3506565965584708 -0.005591993951015188 
-0.5577015481765449 -0.3342783616003833 0.8001339635368772 
-0.2204386922555723 -0.04555541057455995 0.2724851471216521 
-0.2216203013164481 -0.04867785535000374 0.2735381731704233 
-0.2602724028084349 -0.159204647106036 0.4186524787862158 
-0.2602724028084349 -0.159204647106036 0.4186524787862158 
0.2456847303284033 -0.5742442742280763 0.1281453459645411 
-0.4426703072337248 0.6252190477785197 -0.1993943557063207 
-0.4387303613020477 0.03804922500756866 0.3715523443840352 
0.2853763779737364 -0.7343526913587671 0.5234948304865291 
0.825599511530322 -1.080991759441716 0.1339326604227951 
-0.5123815380171034 -0.004950560008303272 0.4946265149011072 
-0.5123815380171034 -0.004950560008303272 0.4946265149011072 
-0.5426313841218099 0.6316654133738264 -0.5936495575882756 
0.1122078210868856 0.07457173348146066 -0.4869830596127969 
-0.5426313841218099 0.6316654133738264 -0.5936495575882756 
-0.4387303613020477 0.03804922500756866 0.3715523443840352 
1.225017004872617 -0.9362697560839417 -0.2823964928180396 
-0.5016905872922554 0.8016857839569584 -0.8711881230495007 
0.01379928157331548 -0.002483946513708435 -0.008190888456051848 
0.01379928157331548 -0.002483946513708435 -0.008190888456051848 
1.403730499116824 -0.4814591748894817 -1.388788477587052 
0.8000052608977035 -0.1068088433593523 -1.208472582731156 
-1.383111848077024 0.3547868861769779 1.398858730549853 
0.001248443079792431 -0.0005782768125983762 -0.000742303291819292 
0.001248443079792431 -0.0005782768125983762 -0.000742303291819292 
0.2269603493993502 -0.118641804094348 -0.09431284268452511 
0.2269603493993502 -0.118641804094348 -0.09431284268452511 
0.0493670127530744 -0.0196610430601846 -0.03097370627099205 
-0.07847937442677419 0.1642822055378026 -0.4650696936037019 
-0.003336940493182027 0.1661587609924514 -0.2388624740066952 
-0.2229633370829279 0.1007002664011162 -0.07901742787876119 
-0.003336940493182027 0.1661587609924514 -0.2388624740066952 
0.5512119560257432 -0.2532008321267468 -0.2093625464813886 
-0.7114033044386376 0.590125356870546 0.4887200522079781 
-0.2151570465476971 0.2786362227542949 -0.001654315986140374 
-0.1447647913642849 0.2558619734686506 -0.04387562921712683 
-0.1447647913642849 0.2558619734686506 -0.04387562921712683 
0.256339074549511 -0.2531767746103034 -0.3495991809728361 
-0.2151570465476971 0.2786362227542949 -0.001654315986140374 
0.04142149046014123 0.09216261724553448 -0.4916630185080924 
0.144493774811391 -0.1556758192047136 -0.06880999312254309 
-0.05930231094987364 -0.1495348863852774 0.1150941925353443 
0.144493774811391 -0.1556758192047136 -0.06880999312254309 
-0.2151570465476971 0.2786362227542949 -0.001654315986140374 
0.256339074549511 -0.2531767746103034 -0.3495991809728361 
-0.1946099506067214 0.2566573370931019 -0.0272090008474278 
-0.005649775463607986 0.1299248087534285 -0.09484622305074085 
-0.6777390691799225 0.5307639175264073 -0.2309946928925646 
-0.005649775463607986 0.1299248087534285 -0.09484622305074085 
0.04142149046014123 0.09216261724553448 -0.4916630185080924 
-0.508188872235155 -0.1032574593151927 0.5693203989846097 
-0.3362784751161946 -0.05018760824186667 0.2887471932798613 
-0.5339615275066724 -0.003297563457929283 0.4034264001567875 
0.03200434673659725 0.05118642963433342 -0.2506123032604707 
0.2709635287533761 -0.6111657677663551 -0.1982004375162649 
0.03469791093527812 -0.007976495978754434 -0.06095498163664937 
0.03200434673659725 0.05118642963433342 -0.2506123032604707 
-0.1288555634444167 0.1997251166215066 0.08055589533194507 
-0.1954909412308234 0.009055870982535498 0.06680394325430178 
0.03469791093527812 -0.007976495978754434 -0.06095498163664937 
0.2228015630861262 -0.0757376544514968 -0.1112065535977818 
0.2228015630861262 -0.0757376544514968 -0.1112065535977818 
-0.4060242462338292 -0.02487215069055606 0.537770294088242 
0.03268634295510951 0.0560089812282731 -0.2770398009602017 
0.05231432191771121 0.04641142207278857 -0.3581024932371976 
0.03597261112234609 -0.008592820908736911 -0.02493406174611248 
0.03597261112234609 -0.008592820908736911 -0.02493406174611248 
0.03597261112234609 -0.008592820908736911 -0.02493406174611248 
-0.2313481653740019 0.1344368596980081 0.1444956609912646 
0.5138333164980553 -0.5864415934730877 -0.2514641939587211 
0.1811561897101966 0.08335952034564284 -0.4380551805864984 
0.4858661042036079 -0.300274857167605 -0.287233346390794 
0.5138333164980553 -0.5864415934730877 -0.2514641939587211 
0.4595949673282049 -0.220936494142068 -0.305940286679225 
0.4595949673282049 -0.220936494142068 -0.305940286679225 
0.2161863624878168 -0.2293388008335327 -0.01635044835841908 
0.4242571990276812 -0.2985019047215538 -0.2552544820100061 
0.2161863624878168 -0.2293388008335327 -0.01635044835841908 
0.005267001591495117 -0.003952041863988984 -0.00306751595014182 
0.005267001591495117 -0.003952041863988984 -0.00306751595014182 
0.4242571990276812 -0.2985019047215538 -0.2552544820100061 
0.03913697129400395 -0.02257681170023362 -0.01716383827625838 
-0.3398084151663567 0.053763840240671 0.3900558259612571 
0.1312145311307393 -0.06102504631884078 -0.05296984234115067 
0.06614124326759274 -0.04721929803128023 -0.01012405172822231 
0.06587671015045371 -0.1070474551182608 -0.002330796672746299 
0.06614124326759274 -0.04721929803128023 -0.01012405172822231 
0.1312145311307393 -0.06102504631884078 -0.05296984234115067 
0.06587671015045371 -0.1070474551182608 -0.002330796672746299 
-0.1414328839315195 -0.2161346200439176 0.5324897914612921 
0.09324974646022499 -0.05676694179521948 -0.006710916427288389 
0.09324974646022499 -0.05676694179521948 -0.006710916427288389 
-0.5605984871271646 0.749245109685701 -0.1636606295875724 
0.09324974646022499 -0.05676694179521948 -0.006710916427288389 
-0.2768730294812102 0.6357818179033328 -0.7954749994107522 
0.09324974646022499 -0.05676694179521948 -0.006710916427288389 
0.09324974646022499 -0.05676694179521948 -0.006710916427288389 
-0.6485498404339147 0.8278675679726989 -0.1467455189606763 
0.09324974646022499 -0.05676694179521948 -0.006710916427288389 
0.2710566284072458 -0.4825748006594792 -0.0271085427424589 
0.9888835722045681 -0.8798333786207517 -0.5393786395427317 
0.04823567978385902 -0.03046269564175141 -0.05783822331379346 
0.04823567978385902 -0.03046269564175141 -0.05783822331379346 
0.02675329737463733 -0.001101416498970301 -0.05552998283950981 
-0.1023881465260318 -0.1337477826652618 0.1312503908002107 
0.02675329737463733 -0.001101416498970301 -0.05552998283950981 
0.02675329737463733 -0.001101416498970301 -0.05552998283950981 
-0.1023881465260318 -0.1337477826652618 0.1312503908002107 
0.1154207930206161 -0.1333727762801341 -0.03654294527642869 
0.1154207930206161 -0.1333727762801341 -0.03654294527642869 
0.2852279823075909 -0.2322405248394994 -0.2750944082270902 
0.2852279823075909 -0.2322405248394994 -0.2750944082270902 
0.1302625689298167 -0.07737344712352295 -0.1978707869533863 
0.5001039031480741 -0.4052426593252215 -0.7039496286012211 
0.5001039031480741 -0.4052426593252215 -0.7039496286012211 
-0.5781165043765344 0.6001286453510897 -0.0907968494400266 
-0.3406134130221792 0.2526106710590308 -0.1215421498087266 
0.678923305135092 -0.6479238317077943 -0.43757819376676 
-0.159611376939097 0.1472187801420342 0.04188793058679354 
0.3390570664672142 -0.2611565869603341 -0.2122060405485924 
-0.159611376939097 0.1472187801420342 0.04188793058679354 
-0.01552210815787005 -0.1281840211380896 0.1968415750414309 
0.3332218831965787 -0.3822418685223167 -0.2478586181378547 
0.3332218831965787 -0.3822418685223167 -0.2478586181378547 
-0.1530764464124527 0.2975715017298817 -0.1540308681389327 
0.02584738213317862 -0.01448044576258971 -0.002161714836199782 
-0.1530764464124527 0.2975715017298817 -0.1540308681389327 
0.02584738213317862 -0.01448044576258971 -0.002161714836199782 
0.02584738213317862 -0.01448044576258971 -0.002161714836199782 
0.02584738213317862 -0.01448044576258971 -0.002161714836199782 
0.02584738213317862 -0.01448044576258971 -0.002161714836199782 
0.02584738213317862 -0.01448044576258971 -0.002161714836199782 
0.02584738213317862 -0.01448044576258971 -0.002161714836199782 
0.02584738213317862 -0.01448044576258971 -0.002161714836199782 
1.292438798132972 -1.492147468373308 -0.2350808061628209 
0.007986275068953766 -0.004551072502201609 -0.01023857754715995 
0.3457740163522315 -0.3281469350160484 -0.3615798486028726 
0.5201571750598313 -0.2997057306756877 -0.459272019742721 
0.0477703244081658 -0.06192679162140563 -0.03828408929681246 
0.0477703244081658 -0.06192679162140563 -0.03828408929681246 
0.02430252599495828 -0.3085979408106305 0.3498440881937774 
0.02430252599495828 -0.3085979408106305 0.3498440881937774 
0.007986275068953766 -0.004551072502201609 -0.01023857754715995 
0.007986275068953766 -0.004551072502201609 -0.01023857754715995 
0.01242151445315071 -0.002318439865433761 -0.006918293468876982 
0.4796820426625545 -0.2020583328719152 -0.5401045530097197 
0.01242151445315071 -0.002318439865433761 -0.006918293468876982 
0.08179023979321039 -0.04875500381698994 -0.03538700388720083 
0.4796820426625545 -0.2020583328719152 -0.5401045530097197 
0.08179023979321039 -0.04875500381698994 -0.03538700388720083 
0.01242151445315071 -0.002318439865433761 -0.006918293468876982 
0.1096049663310127 -0.1406105007020888 -0.007529425061830308 
0.2083300962346056 -0.0928409851015254 -0.1708797854549199 
-0.2362468320514499 0.289719667894918 -0.1559719782254047 
0.07025198021843945 -0.03028968535831685 -0.4729019099439058 
0.07188821894999245 0.05261666956965975 -0.5109867720258368 
0.00926145198402312 -0.007710083936325048 -0.0008815125475823441 
0.07025198021843945 -0.03028968535831685 -0.4729019099439058 
0.00926145198402312 -0.007710083936325048 -0.0008815125475823441 
0.4242182817780821 -0.326533967351947 -0.3293232861679602 
0.09025318702652865 -0.1096513482986247 -0.009270807173644343 
0.09025318702652865 -0.1096513482986247 -0.009270807173644343 
0.4242182817780821 -0.326533967351947 -0.3293232861679602 
0.07188821894999245 0.05261666956965975 -0.5109867720258368 
0.1096049663310127 -0.1406105007020888 -0.007529425061830308 
0.07354430915456781 -0.05971739521794326 -0.002825899213349297 
0.3028128998126476 0.03186883956582767 -0.7455358694419268 
0.1021339388798906 -0.2083731407840198 -0.1953285361265136 
0.05433184762025261 -0.07166828047172884 -0.002171234831227689 
-0.2698223241489883 0.2598776789362512 -0.03074453294726383 
0.1021339388798906 -0.2083731407840198 -0.1953285361265136 
0.05433184762025261 -0.07166828047172884 -0.002171234831227689 
0.05433184762025261 -0.07166828047172884 -0.002171234831227689 
0.05433184762025261 -0.07166828047172884 -0.002171234831227689 
0.01612891651729379 -0.05568651957244411 -0.007886814365134252 
0.4479975131046473 -0.410005819570816 -0.303294938169127 
0.134891712147495 -0.1737824647066554 -0.06233520459929899 
0.134891712147495 -0.1737824647066554 -0.06233520459929899 
0.1154190055351036 -0.1303553309375854 -0.01232307900382917 
-0.7412311576717969 0.8357634447663108 0.09483761057594316 
0.06015169863592632 0.03183194013291141 -0.3722835444386163 
0.06015169863592632 0.03183194013291141 -0.3722835444386163 
0.1154190055351036 -0.1303553309375854 -0.01232307900382917 
-0.1679001611957791 0.186620408283533 0.211799103132051 
0.5880382646895449 -0.2083234976506453 -0.5764307264878666 
0.05701193542223626 -0.2588490700574044 -0.04869198974783741 
0.1163361231615021 -0.153316017878387 -0.01140019619425209 
0.1906969808194929 -0.1960486146418356 -0.03230969261240002 
-0.2245216667814263 0.4166731688261222 -0.5485783063409718 
0.2141167592914636 0.01647535968728625 -0.3380717865235018 
0.1906969808194929 -0.1960486146418356 -0.03230969261240002 
0.2162701588672222 -0.1523918919775074 -0.3158347139163694 
-0.04018370530434651 -0.2847798627382807 0.3490465682431186 
0.03534438811899659 -0.05137475351608738 -0.003010901568190096 
-0.04018370530434651 -0.2847798627382807 0.3490465682431186 
0.03686325412734227 -0.05141379825322086 -0.003865331353917884 
0.02448936504167686 -0.1406874289966619 -0.03811571748585741 
0.03534438811899659 -0.05137475351608738 -0.003010901568190096 
0.03686325412734227 -0.05141379825322086 -0.003865331353917884 
0.1163361231615021 -0.153316017878387 -0.01140019619425209 
-0.2245216667814263 0.4166731688261222 -0.5485783063409718 
0.2162701588672222 -0.1523918919775074 -0.3158347139163694 
0.390439239102391 -0.2483417836972687 -0.1787179238944481 
0.02279111424525668 0.2486696035928231 -0.6784865878411869 
0.03534438811899659 -0.05137475351608738 -0.003010901568190096 
0.03534438811899659 -0.05137475351608738 -0.003010901568190096 
0.08099173504250554 -0.1019412643622996 -0.008389294626061998 
-0.5621198768475553 0.6794761737698517 -0.1946221970180665 
-0.5621198768475553 0.6794761737698517 -0.1946221970180665 
0.08099173504250554 -0.1019412643622996 -0.008389294626061998 
0.08099173504250554 -0.1019412643622996 -0.008389294626061998 
0.7146723482615003 -0.5289500237620048 -0.5498052766834455 
0.08099173504250554 -0.1019412643622996 -0.008389294626061998 
0.7146723482615003 -0.5289500237620048 -0.5498052766834455 
0.1621256676116581 -0.1774810730581181 -0.04311663948025443 
0.2002691577040167 -0.09208048328145992 -0.1450579907973436 
0.2002691577040167 -0.09208048328145992 -0.1450579907973436 
0.005270422643761739 -0.1639675329580369 0.05676959680958335 
-0.8837682445348461 0.943934356790064 -0.5853769846759217 
-0.8837682445348461 0.943934356790064 -0.5853769846759217 
0.8338586462171292 -1.022945912787032 0.2794693483083971 
0.5523738813159178 -0.3058017615887735 -0.1495783306869534 
0.6763347763253411 -0.4493010469139221 -0.2253990891033257 
0.005270422643761739 -0.1639675329580369 0.05676959680958335 
0.05087564403998202 -0.04420155235560744 -0.005575305134268214 
0.5880862349797772 -0.429074586740915 -0.3814651729606953 
-0.9689870045704227 -0.2325176875201986 1.044760561613705 
-0.2509968111978221 -0.04756190576842349 0.2723342423779412 
-0.9689870045704227 -0.2325176875201986 1.044760561613705 
0.5347517805922213 -0.3401672042217645 -0.4988054546778526 
0.001578454531865725 -0.001053372873489572 -0.0006133980350711974 
0.001578454531865725 -0.001053372873489572 -0.0006133980350711974 
-0.01665772056441248 -0.1595256547991657 0.07678008008467732 
0.2815149284336374 -0.284403207866353 -0.009702603935424483 
-0.01665772056441248 -0.1595256547991657 0.07678008008467732 
0.001578454531865725 -0.001053372873489572 -0.0006133980350711974 
0.5040571133673303 -0.4750914878702379 -0.3651407995270338 
0.001578454531865725 -0.001053372873489572 -0.0006133980350711974 
-0.08272745164174683 0.1631541024228776 -0.3000863409686727 
0.001578454531865725 -0.001053372873489572 -0.0006133980350711974 
-0.08272745164174683 0.1631541024228776 -0.3000863409686727 
0.001578454531865725 -0.001053372873489572 -0.0006133980350711974 
0.2071089315682785 -0.1790263823206425 -0.07261084568086526 
-0.2541484366101709 0.2061587568826222 -0.2561831634720472 
0.001578454531865725 -0.001053372873489572 -0.0006133980350711974 
0.2071089315682785 -0.1790263823206425 -0.07261084568086526 
0.2372984317495888 -0.1402870201126034 -0.1078689511995729 
-0.267866471635439 -0.1635086427237869 0.4071328558111224 
0.784845016419826 -0.8757769403812848 -0.6516075603886738 
0.5610278798336827 -0.3000137882027259 -0.3794053802246612 
-0.3129717234162923 0.3862548772321842 -0.312206325431113 
0.01631997035834114 -0.0116810182356007 -0.001806428596835142 
0.5610278798336827 -0.3000137882027259 -0.3794053802246612 
-0.3129717234162923 0.3862548772321842 -0.312206325431113 
0.4739524219207129 -0.195060931426462 -0.4248065651247707 
-0.267866471635439 -0.1635086427237869 0.4071328558111224 
0.784845016419826 -0.8757769403812848 -0.6516075603886738 
0.01631997035834114 -0.0116810182356007 -0.001806428596835142 
0.06098655291580761 -0.09054583724026441 -0.004473651189999461 
0.09048925235930257 -0.1054810415151092 -0.01927572208747181 
0.1573069286394383 -0.2027997604048589 -0.03601084832837499 
-0.324928965334795 0.6688305792097923 -0.3801355422021242 
-0.2174843862237464 0.2311026526724075 -0.0332560244809518 
-0.2174843862237464 0.2311026526724075 -0.0332560244809518 
-0.324928965334795 0.6688305792097923 -0.3801355422021242 
0.1573069286394383 -0.2027997604048589 -0.03601084832837499 
0.1271566925232714 -0.1525039762414556 -0.03533627560156475 
0.1124441534012534 -0.07438239340436172 -0.1034686247893943 
-0.7931174869945639 0.9599123623655587 -0.5462201768832312 
0.3521061227036789 -0.3670350393707641 -0.2588058973333953 
0.1820751315476519 -0.1087176785637745 -0.3177304719492601 
-0.2947160196290746 0.2887577763859209 -0.01824958412653989 
0.1820751315476519 -0.1087176785637745 -0.3177304719492601 
0.1124441534012534 -0.07438239340436172 -0.1034686247893943 
-0.2947160196290746 0.2887577763859209 -0.01824958412653989 
0.3521061227036789 -0.3670350393707641 -0.2588058973333953 
-1.044152755413983 1.250419383478301 -0.9038566749757277 
-0.5354729560219963 0.2347318269992132 0.3938070428277617 
-0.5354729560219963 0.2347318269992132 0.3938070428277617 
-0.2991730897415825 -0.3572726640104908 0.4896750398298572 
-0.6458627427922959 0.614132238805929 -0.01423863246012613 
-0.7209677544244568 0.7021134237954422 -0.04336929459980577 
-0.7209677544244568 0.7021134237954422 -0.04336929459980577 
-0.3540018208457101 0.3595577645615612 -0.006659852291935102 
-0.3540018208457101 0.3595577645615612 -0.006659852291935102 
0.3386719541478135 -0.4024617926512105 -0.1512329511468214 
0.145624719656756 -0.1383507244052692 -0.03833933583776088 
-0.2274794042130446 0.3438805015760551 -0.05410394686335129 
-0.3970019719335061 0.5713900552914043 -0.06441959964022348 
-0.6458627427922959 0.614132238805929 -0.01423863246012613 
-0.3540018208457101 0.3595577645615612 -0.006659852291935102 
0.3386719541478135 -0.4024617926512105 -0.1512329511468214 
0.145624719656756 -0.1383507244052692 -0.03833933583776088 
-0.3540018208457101 0.3595577645615612 -0.006659852291935102 
-0.0506102578071868 0.08804145018990454 -0.01187847976312394 
-0.0506102578071868 0.08804145018990454 -0.01187847976312394 
0.01630543931830019 0.07557078198729676 -0.02732374176967408 
-0.0506102578071868 0.08804145018990454 -0.01187847976312394 
-0.0506102578071868 0.08804145018990454 -0.01187847976312394 
-0.07021731520954644 -0.01058601902606266 0.1249161445528867 
-0.00173217893948692 0.07717201803956074 -0.0500991417112732 
-0.04122840819037486 0.08276538735579068 -0.01616168435925739 
-0.04122840819037486 0.08276538735579068 -0.01616168435925739 
0.01630543931830019 0.07557078198729676 -0.02732374176967408 
-0.07021731520954644 -0.01058601902606266 0.1249161445528867 
-0.2828749734494702 -0.009410397012224406 0.3506030250855474 
0.09577907216147932 -0.0637601979263685 -0.06815685320802441 
-0.2828749734494702 -0.009410397012224406 0.3506030250855474 
-0.09578357632615614 0.1162601282049175 0.07417830299684687 
0.06211189869891932 -0.0436672659844403 -0.01057679416261267 
0.2493092292073769 -0.1748003738148121 -0.2657767444697761 
-0.1777115587811843 0.02028266902424134 0.1493387492587431 
-0.1777115587811843 0.02028266902424134 0.1493387492587431 
0.2493092292073769 -0.1748003738148121 -0.2657767444697761 
-0.0933861368707896 0.2737199705581854 -0.4098605539289964 
0.06211189869891932 -0.0436672659844403 -0.01057679416261267 
-0.07754852228941576 0.08933476035425175 -0.007052096376277246 
-0.07754852228941576 0.08933476035425175 -0.007052096376277246 
0.2612453450686081 -0.5673722230978874 0.122727834949006 
0.05033018412073348 -0.02693148564472743 -0.04239109391008582 
0.6207506657106298 -0.448094063755397 -0.5589032300534571 
0.9480085358252871 -1.528650472275532 0.3367777476473223 
0.625907776869105 -0.1097871240669009 -1.084180981178379 
0.6207506657106298 -0.448094063755397 -0.5589032300534571 
-0.0933861368707896 0.2737199705581854 -0.4098605539289964 
0.07540783095407085 -0.1805414008043644 0.01916056805158832 
0.3623095393562389 -0.330351010785241 -0.2442429533320041 
0.0235220260755143 -0.01735128141990703 -0.01757598790181635 
0.8762872949622005 -0.8896728787844329 -0.5506485075278903 
0.8762872949622005 -0.8896728787844329 -0.5506485075278903 
0.0235220260755143 -0.01735128141990703 -0.01757598790181635 
0.03920161761520855 -0.03832863591168326 -0.02424760560883921 
0.4137327145873927 -0.2429552378439025 -0.2734875450518039 
-0.1240666034953922 0.136808367802738 -0.01846339428932647 
-0.1240666034953922 0.136808367802738 -0.01846339428932647 
0.219837694364081 -0.1742140163996217 -0.05006152643388877 
0.09262540593564567 -0.143549740682473 0.1417215839186864 
-0.2956851661790884 0.203412563443202 -0.01569319234260253 
-0.5787616139047554 0.1252603802221515 0.5089297619960914 
0.3249364872642638 -0.2364557065018548 -0.2152026581743276 
-0.06383902828856759 -0.3807522874253062 0.3269595191911636 
0.3249364872642638 -0.2364557065018548 -0.2152026581743276 
0.09262540593564567 -0.143549740682473 0.1417215839186864 
0.08364652655774898 -0.09555155782018071 -0.0541791122196819 
0.5419474919194337 -0.5159297555197807 -0.02751296977244197 
0.2581763482246538 -0.03221307224163659 -0.3161555268829657 
-0.1699041521932733 0.1617083831362949 -0.01806222386493666 
0.1871173651884189 -0.1033571737678672 -0.08594328164238908 
-0.1699041521932733 0.1617083831362949 -0.01806222386493666 
0.2581763482246538 -0.03221307224163659 -0.3161555268829657 
0.1871173651884189 -0.1033571737678672 -0.08594328164238908 
-0.300805654060239 -0.06986147542942263 0.5251413293169519 
-0.7694210311518773 0.1851884471659172 0.727243677754846 
0.2228152914037883 -0.3486705142293763 -0.05718288273418502 
0.2228152914037883 -0.3486705142293763 -0.05718288273418502 
-0.04290512781601923 -0.1426819963981888 0.1873813783431657 
-0.6565570517110679 0.5886856759159301 0.03454197998458604 
0.04521764897181241 -0.01198286782414047 -0.03565133064127195 
0.03710828832745126 -0.01105409417421702 -0.03207218166841698 
0.04521764897181241 -0.01198286782414047 -0.03565133064127195 
0.03710828832745126 -0.01105409417421702 -0.03207218166841698 
0.05050146239144477 -0.6444452340203541 -0.006090009654462237 
0.05050146239144477 -0.6444452340203541 -0.006090009654462237 
0.09569326889443618 -0.0282778561436929 -0.08384856876162966 
0.09569326889443618 -0.0282778561436929 -0.08384856876162966 
0.03710828832745126 -0.01105409417421702 -0.03207218166841698 
0.04598824876815703 -0.05806454059487378 -0.008450966884303347 
-0.1276990609980869 0.1229643777193819 -0.05739889744771146 
0.1098615781837769 0.04476249665781942 -0.4564652934625171 
0.1098615781837769 0.04476249665781942 -0.4564652934625171 
-0.1276990609980869 0.1229643777193819 -0.05739889744771146 
0.167528184225668 -0.2784632111463483 0.00278868432015566 
0.167528184225668 -0.2784632111463483 0.00278868432015566 
0.1716238932013759 -0.2398297450178446 -0.01009000570305219 
0.07382542063260618 0.01367330635232374 -0.2419054239434305 
-0.06008098248077288 0.08906934356872785 -0.06981914313330603 
-0.06008098248077288 0.08906934356872785 -0.06981914313330603 
0.07382542063260618 0.01367330635232374 -0.2419054239434305 
0.04598824876815703 -0.05806454059487378 -0.008450966884303347 
0.2068459335505483 -0.2939905821365486 -0.01967052049912821 
0.02336180343153381 0.07064992367560313 -0.2309182204142274 
0.02336180343153381 0.07064992367560313 -0.2309182204142274 
0.08423355128413276 0.1153884227312671 -0.2606592259956528 
0.5583654144244079 -0.4024693203998975 -0.4023078918407343 
0 0 0 
0.08423355128413276 0.1153884227312671 -0.2606592259956528 
0.2568374451665589 0.0789766149229791 -0.463900285379147 
0.496553719231947 -0.1080902980029591 -0.4940071608598059 
-0.3900339783756223 0.3600117415795746 -0.02873205153133905 
-0.004285115869010063 0.09786760412584634 -0.1164709741885059 
-0.1395313365071839 0.2581063432215021 -0.1468761860654276 
0.5102857522981024 -0.2738548669885717 -0.1416046256308855 
-0.2779587957824322 0.2514809734972876 -0.07211677137431854 
-0.3900339783756223 0.3600117415795746 -0.02873205153133905 
0.270968756373413 -0.3812823105226959 0.06202402543938798 
-0.2914657391407882 0.3182729827681367 -0.01679248150154997 
-0.2914657391407882 0.3182729827681367 -0.01679248150154997 
0.448214402499712 -0.2322185544906996 -0.5433044937320524 
0.448214402499712 -0.2322185544906996 -0.5433044937320524 
-0.4595331187386849 0.6310184854234255 -0.1359792530319153 
-0.5228862169949675 0.4827606116432519 -0.02690824518472452 
-0.5812296483174515 0.5378657767164809 -0.002761530242508622 
-0.5812296483174515 0.5378657767164809 -0.002761530242508622 
-0.2801155153974187 0.2466477664471537 0.1220717163406782 
-0.5170661854174498 0.3113339397076921 0.3099721336954891 
-0.5170661854174498 0.3113339397076921 0.3099721336954891 
-0.322368882009119 0.2551155805187754 0.280635696155042 
-0.04377559261455047 0.3423221748109228 -0.3692970088601143 
-0.2617910146227456 0.1515005967043984 0.1184988220289606 
-0.1815359607348424 0.07614130834692058 -0.1789837094394074 
-0.2203814801875658 0.09100853574363656 -0.005511239722276784 
-0.3874904960358103 0.4884138922163999 -0.009226286440779477 
-0.1295756893816395 -0.1770799525087077 0.3191984201362686 
-0.1295756893816395 -0.1770799525087077 0.3191984201362686 
-0.1295756893816395 -0.1770799525087077 0.3191984201362686 
-0.1295756893816395 -0.1770799525087077 0.3191984201362686 
-0.06539264399727521 -0.0207077844987277 0.1746569851839422 
-0.2032242863528446 0.01557914056752911 0.2796259693344434 
-0.1295756893816395 -0.1770799525087077 0.3191984201362686 
-0.1295756893816395 -0.1770799525087077 0.3191984201362686 
-0.1295756893816395 -0.1770799525087077 0.3191984201362686 
0.07871687173642268 -0.1184763811328654 0.07830147390345461 
-0.4375537462863505 0.1808080682812122 0.425320655167598 
-0.08710458804178002 -0.2650244992729501 0.4238730974839949 
0.150465846049658 -0.2722546856051319 -0.4016759070460832 
-0.5351012050461522 -0.01565931907279261 0.5786306381675468 
-0.2513608565872072 -0.04399346825348512 0.277738027893501 
-0.2259091551399743 -0.6380843297209768 0.3388566814128192 
-0.306258802331661 0.2595748591699745 0.02530125548132191 
-0.6060734376158958 -0.01317817901304363 0.6336020332312348 
0.04220382843321452 -0.04474865966681099 -0.005336251377298419 
0.04220382843321452 -0.04474865966681099 -0.005336251377298419 
0.06002523909102849 -0.07299631823491234 -0.008709066499180493 
0.1844038195840658 -0.08557437865445414 -0.3440345005544198 
0.4925494200004609 -0.339833142332071 -0.4434624722108438 
0.04220382843321452 -0.04474865966681099 -0.005336251377298419 
0.04220382843321452 -0.04474865966681099 -0.005336251377298419 
0.04220382843321452 -0.04474865966681099 -0.005336251377298419 
-0.4366789180685114 0.03717232582068521 0.3654906625428139 
0.4925494200004609 -0.339833142332071 -0.4434624722108438 
0.1844038195840658 -0.08557437865445414 -0.3440345005544198 
-0.4366789180685114 0.03717232582068521 0.3654906625428139 
-0.1695642612198096 0.2901559568306649 -0.1030360344430962 
0.006073321481598918 -0.006801987450376187 -0.004478724758496733 
0.0200791929190994 0.008114878976387465 -0.07691745931046072 
0.006073321481598918 -0.006801987450376187 -0.004478724758496733 
0.0200791929190994 0.008114878976387465 -0.07691745931046072 
0.00528841477880419 -0.006393804509221248 -0.002847142901697255 
0.08664360804166016 -0.06413719087818626 -0.0166590004875394 
0.0667131827505672 -0.0612814737002655 -0.03437648215112657 
0.1565641401572078 -0.1187923050992463 -0.08528790141690626 
0.08664360804166016 -0.06413719087818626 -0.0166590004875394 
0.005844507839023839 -0.004117101432087646 -0.01451528177973511 
-0.6120393685950425 0.5437053512727855 0.0668290305916255 
-0.07477272049757608 0.05482256558612372 -0.004005131043986494 
-0.1688069700181467 0.1442508303382873 -0.02006205796155422 
-0.3476437607692053 0.3334480751759221 -0.1451977282342093 
0.06186791181249372 -0.08903775552189427 -0.01029848582853478 
0.06186791181249372 -0.08903775552189427 -0.01029848582853478 
-0.500072272341502 0.5279620943600988 -0.1085778547791206 
-0.4228714383989758 0.4938118323385331 -0.2084710056362959 
-0.03651213109825916 -0.1573204797436127 0.1411497633633653 
-1.127356725094364 1.229285889607554 -0.2378463165606098 
-0.04110373006083588 0.01824094587417806 -0.002648975636521272 
-1.127356725094364 1.229285889607554 -0.2378463165606098 
-0.07477272049757608 0.05482256558612372 -0.004005131043986494 
0.03499931858432378 -0.09627256406980043 -0.09158594121488402 
-0.1268378120065146 0.1519637313749271 -0.02393972109435118 
0.08460087235998587 0.01078020657656382 -0.2749326213196368 
0.08460087235998587 0.01078020657656382 -0.2749326213196368 
-0.02283698297208012 0.01528508346017671 -0.001361851595941263 
0.04709143184457316 -0.06540198400767017 -0.03649349305798681 
0.08247355444168449 -0.07909146203930342 -0.08515739528470403 
-0.6969778357904642 -0.008029967209129695 0.5860673228554082 
-0.02283698297208012 0.01528508346017671 -0.001361851595941263 
0.04709143184457316 -0.06540198400767017 -0.03649349305798681 
0.08247355444168449 -0.07909146203930342 -0.08515739528470403 
-0.4698600860259583 -0.00881007073234691 0.4499381685138838 
-0.4698600860259583 -0.00881007073234691 0.4499381685138838 
-0.4698600860259583 -0.00881007073234691 0.4499381685138838 
-0.04904935438611302 -0.3199607210218266 0.2264075428401424 
-0.125298053644241 -0.01426165262996588 0.1253403489528657 
-0.125298053644241 -0.01426165262996588 0.1253403489528657 
-0.1042814560662293 -0.03359887539690955 0.1288130957023295 
-0.08646503307426935 -0.2455408762178316 0.2249504793770818 
-0.08646503307426935 -0.2455408762178316 0.2249504793770818 
-0.04904935438611302 -0.3199607210218266 0.2264075428401424 
-0.4379426272331219 -0.03479606085214844 0.5396816003910831 
-0.4698600860259583 -0.00881007073234691 0.4499381685138838 
-0.1042814560662293 -0.03359887539690955 0.1288130957023295 
-0.4561949861145827 0.4301876144786089 0.155310974238779 
-0.06181988174857642 -0.2413194653271814 0.436358764256751 
-0.4556712288573467 0.2607912322940954 0.3065041682888838 
-0.1185301515294177 -0.1388604750342996 0.1919214225544416 
0.670068225956111 -0.5733233726923006 -0.7673969923026873 
0.670068225956111 -0.5733233726923006 -0.7673969923026873 
-0.1185301515294177 -0.1388604750342996 0.1919214225544416 
-0.2726344252726225 -0.004119280558335852 0.2429544802965134 
-0.4344384321764233 -0.07794911119705202 0.4224993070255598 
-0.4344384321764233 -0.07794911119705202 0.4224993070255598 
-0.5306277469532134 -0.003473007018327121 0.4338445013118162 
-0.5306277469532134 -0.003473007018327121 0.4338445013118162 
0.0265183682109618 -0.1115794916726151 -0.1656502057336824 
0.0265183682109618 -0.1115794916726151 -0.1656502057336824 
-0.4685183300653029 -0.006266703125876447 0.3307608578156387 
0.04851653469148381 -0.02361577402165843 -0.0167971288451139 
0.05657960658808837 -0.02444425812646261 -0.03240863654925949 
0.04851653469148381 -0.02361577402165843 -0.0167971288451139 
0.04851653469148381 -0.02361577402165843 -0.0167971288451139 
0.04851653469148381 -0.02361577402165843 -0.0167971288451139 
0.05657960658808837 -0.02444425812646261 -0.03240863654925949 
0.04851653469148381 -0.02361577402165843 -0.0167971288451139 
0.04851653469148381 -0.02361577402165843 -0.0167971288451139 
-0.07436757316352519 -0.1986914156795495 0.192362059492476 
0.7948072421504835 -0.6229197628911464 -0.8074986650907782 
0.7603050419056715 -0.474516481913727 -1.195990125343589 
0.05161358454705528 -0.0581651912928957 -0.02144498162408435 
-0.07436757316352519 -0.1986914156795495 0.192362059492476 
0.05161358454705528 -0.0581651912928957 -0.02144498162408435 
0.4643260154191231 -0.4570277375626928 -0.06880885709300828 
0.5813995515743131 -0.5245877077973052 -0.6730155824864061 
0.05161358454705528 -0.0581651912928957 -0.02144498162408435 
0.05131511964305868 -0.05647966216194716 -0.01968920570697966 
0.05131511964305868 -0.05647966216194716 -0.01968920570697966 
0.08754812182553516 -0.09758478535065658 -0.02378606086126579 
0.06261669109102558 -0.06869837524971308 -0.02408021179763147 
0.05131511964305868 -0.05647966216194716 -0.01968920570697966 
0.1215607312439925 -0.1191692256592409 -0.03308645303848682 
0.01073297467604317 0.1552574882897603 -0.2022907157129794 
0.05131511964305868 -0.05647966216194716 -0.01968920570697966 
0.1215607312439925 -0.1191692256592409 -0.03308645303848682 
0.05131511964305868 -0.05647966216194716 -0.01968920570697966 
0.01073297467604317 0.1552574882897603 -0.2022907157129794 
0.05131511964305868 -0.05647966216194716 -0.01968920570697966 
0.05131511964305868 -0.05647966216194716 -0.01968920570697966 
0.05131511964305868 -0.05647966216194716 -0.01968920570697966 
0.06261669109102558 -0.06869837524971308 -0.02408021179763147 
0.01221469555163397 -0.002564173449657392 -0.01244142104644753 
-0.1013397724141892 -0.02791577220642655 0.1610616586497359 
0.01221469555163397 -0.002564173449657392 -0.01244142104644753 
0.01221469555163397 -0.002564173449657392 -0.01244142104644753 
0.01221469555163397 -0.002564173449657392 -0.01244142104644753 
0.01221469555163397 -0.002564173449657392 -0.01244142104644753 
-0.1013397724141892 -0.02791577220642655 0.1610616586497359 
0.01221469555163397 -0.002564173449657392 -0.01244142104644753 
0.2483198260172498 -0.2000675716462169 -0.08469138553997188 
0.01221469555163397 -0.002564173449657392 -0.01244142104644753 
0.01221469555163397 -0.002564173449657392 -0.01244142104644753 
0.01221469555163397 -0.002564173449657392 -0.01244142104644753 
0.1266637678785209 -0.03593425334011893 -0.1149392415321123 
0.1266637678785209 -0.03593425334011893 -0.1149392415321123 
0.09092061839683846 -0.03368588203124605 -0.05996575835004711 
0.03120781373996051 -0.03577194412540869 -0.2189062344080978 
0.4039766225845706 -0.06746627260296938 -0.4244436246390612 
0.2973210735917082 -0.04421527958271948 -0.3180057487416431 
0.03120781373996051 -0.03577194412540869 -0.2189062344080978 
0.09184072816846151 -0.0351982926907945 -0.1190725201583129 
0.08551960504632447 -0.1489298176908772 -0.01373722707952577 
0.09540928262092704 -0.1585402158726253 -0.01538935901841184 
0.09540928262092704 -0.1585402158726253 -0.01538935901841184 
0.3924846035937106 -0.2379110587344502 -0.5752942917221783 
-0.05464365179244555 0.05087692539920394 -0.01203288582812441 
0.3050363480576787 -0.1807079927942041 -0.1505238146697712 
0.08343486782866358 -0.1481532909851903 -0.01210561036546404 
0.00122348342327562 0.3246231332723419 -0.5171008138292996 
0.3924846035937106 -0.2379110587344502 -0.5752942917221783 
0.08343486782866358 -0.1481532909851903 -0.01210561036546404 
