solver_type L2R_LR
nr_class 3
label 10 14 15
nr_feature 63508
bias -1
w
-0.3741782987732789 0.3751381900684135 -0.07665435248484392 
0.5801973241672661 -0.8289739965449422 -0.6088156120728047 
0.1695087348471526 -0.3895976887308605 -0.1170460594843669 
-0.3741782987732789 0.3751381900684135 -0.07665435248484392 
0.1411369071269096 0.07771513426460577 -0.5159987636498583 
0.3215999050368605 -0.4067176095399985 -0.487831689628493 
-0.224157406412449 0.2701845993004595 -0.2222139692738868 
0.1725679324146815 -0.5519433926793851 -0.237411225668401 
0.5676606376739007 -0.4893574610610916 -0.3096037161633747 
0.3215999050368605 -0.4067176095399985 -0.487831689628493 
1.491289582098961 -0.7729022490890503 -1.325907141108511 
1.159570520264987 -1.510186471548712 -0.8722311163784272 
0.326939096498186 -0.1625186098924532 -0.4165007667139559 
0.5801973241672661 -0.8289739965449422 -0.6088156120728047 
0.06117918036697822 -0.0340349634444856 -0.08021258285345755 
0.02415640717093463 -0.009421814043962369 -0.01382047289035478 
0.1574207222136622 -0.2667909701413098 -0.3935676752263437 
0.1574207222136622 -0.2667909701413098 -0.3935676752263437 
1.235341065177605 -1.305507130548789 -1.509607082887636 
0.8598947714720969 -1.481890509288427 -0.7789411400062368 
0.07281171248510046 -0.008623916651896765 -0.07472966872502769 
1.128300775918932 -0.9081632182021981 -0.8376339002042325 
0.00427908408306494 -0.002399236445007181 -0.002966714350627719 
0.8598947714720969 -1.481890509288427 -0.7789411400062368 
0.02415640717093463 -0.009421814043962369 -0.01382047289035478 
0.1644888061227228 -0.1594384615747982 -0.02604347952329987 
0.02451213109512949 0.1268111215751166 -0.2945532014106408 
0.7967353520756141 -0.2673596780043245 -0.7501875760745204 
-0.07069466576346202 -0.2679663962985685 0.04059466327585753 
0.7401540539290515 -1.470660369547295 -0.4651771331794342 
-0.1111744233233106 -0.2854996870594844 0.3451571572269822 
0.008388176951042426 -0.0003240964054162759 -0.01239879218584572 
0.5797022065532007 -0.4853468883345793 -0.3740203356131345 
-0.1111744233233106 -0.2854996870594844 0.3451571572269822 
0.3185321427440693 -0.1531172656579241 -0.6031494950579397 
0.2209873000305357 -0.605967734723807 -0.1938856056689274 
0.6651882353718632 -0.5152708441476638 -1.479583798456567 
-0.0817228786446067 -0.3117584172131757 -0.06260375002300111 
0.4400757653519256 -0.4267882096050994 -0.3016788902068619 
0.6690271591484369 -0.6403269602940073 -0.2349514271792042 
0.03178709829833505 -0.1838607044960499 -0.2014926886647505 
0.2209873000305357 -0.605967734723807 -0.1938856056689274 
0.1136876629349025 -0.01000685698823931 -0.09068498508472964 
0.008388176951042426 -0.0003240964054162759 -0.01239879218584572 
0.02817187884545658 -0.05320133688186856 -0.00959055127745947 
0.1088818648989082 -0.0921429791393165 -0.05296989485764826 
0.1088818648989082 -0.0921429791393165 -0.05296989485764826 
0.6072442505185661 -0.5394633534179955 -0.4953876992605173 
0.6072442505185661 -0.5394633534179955 -0.4953876992605173 
-0.01277397578079643 -0.4552452914612771 -0.09670732970228332 
0.5312120417155485 -0.5633458794711781 -0.338912882552716 
0.02817187884545658 -0.05320133688186856 -0.00959055127745947 
0.004992267449567496 -0.004811332071063642 -0.00318191659245193 
0.09272591805301808 -0.09712292115835949 -0.01189195532023654 
0.7268476187034942 -0.3772286449860184 -0.9179104435751382 
0.2722394178591378 -0.1452244860804122 -0.1756017191537229 
0.02430941532783102 -0.009561043870576226 -0.01922768564729438 
0.08047498499371589 -0.0795066921455211 -0.01033468961195295 
0.1175107217818724 -0.2359971931906097 0.1471301921723386 
0.02430941532783102 -0.009561043870576226 -0.01922768564729438 
0.5312120417155485 -0.5633458794711781 -0.338912882552716 
0.09272591805301808 -0.09712292115835949 -0.01189195532023654 
1.162673252604289 -1.105135039842552 -2.225900153112405 
0.005367416841287195 -0.003169354633474845 -0.004738242539473744 
0.005367416841287195 -0.003169354633474845 -0.004738242539473744 
0.3396445031550435 -0.6553434939153859 -0.2893304607266691 
0.02450530395237325 -0.01586390579137513 -0.01745233872153843 
0.005367416841287195 -0.003169354633474845 -0.004738242539473744 
0.3664130367443046 -0.2367233593095788 -0.6761434532799118 
0.01965758279957726 -0.2978220364509441 0.08072181945779935 
0.04836243874807747 -0.03059421093804722 -0.03214434544148848 
0.1038895974493407 -0.08733164706825286 -0.04978797826519633 
0.1038895974493407 -0.08733164706825286 -0.04978797826519633 
0.3664130367443046 -0.2367233593095788 -0.6761434532799118 
0.005367416841287195 -0.003169354633474845 -0.004738242539473744 
0.8053345215496976 -0.9350691788644817 0.02617223292688511 
0.42762729126466 -0.757452447040732 -0.3027886801722516 
0.2520556871008335 -0.407292148671261 -0.2890529274498191 
0.2454719582180161 -0.4054458468090519 -0.2791626138200453 
1.50441042732072 -1.002929968025854 -0.7801399746283261 
0.5505607061510587 -0.3616752803223952 -0.2616353844762373 
0.00895107745745879 -0.001041167816664173 -0.006831828428256023 
0.002899612354148531 -3.384911897346202e-07 -0.002708911773725295 
0.1926060705885388 -0.04883793016266422 -0.2934276532544004 
0.1462040990705142 -0.1802707958174139 -0.06880481404671664 
0.6960167087652043 -1.117212990969104 -0.3878762389307261 
0.7284413044834477 -1.12934335855247 -0.4112182261251718 
0.06590939170687099 -0.0315742047250335 -0.03853930175033988 
0.142565797791219 -0.008762515416178319 -0.1940981857227297 
-0.5501795836063622 1.058753006182719 -0.9345335917302866 
0.08167334513605636 -0.03273637435642555 -0.05428870142982548 
0.2697634160474205 -0.133812915030775 -0.1954536131068257 
0.2697634160474205 -0.133812915030775 -0.1954536131068257 
-0.07205849891489616 -0.09345277361841009 -0.07929634326585148 
-0.2396741882464978 -0.1952488005398587 0.1107104778386939 
-0.03634021791711227 -0.2004464990248122 0.07699711360687156 
0.9132643504987289 -1.217413080463428 -0.8406417885497817 
0.6868542403716785 -1.029223262378594 -0.4546052348278337 
0.6932754162844477 -1.030268401267031 -0.4625636131124747 
0.1109992010596196 -0.04388598370803958 -0.09419684171732937 
0.5857650088748358 -0.2408197467321055 -0.4536705942576539 
0.0195426549447039 -0.003223833000570572 -0.0430237380840144 
0.05058930653706634 -0.02157567271207438 -0.03573022419996141 
0.05058930653706634 -0.02157567271207438 -0.03573022419996141 
-0.01883699680012786 0.2222269773782357 -0.1993336041959587 
1.484600139248792 -1.579695655835832 -1.067448092493726 
0.04670295118453079 -0.002356680851452614 -0.1497758570902515 
0.3738905966579186 -1.110540912446225 -0.3621868016645822 
0.2634383789825652 -0.09781284360555167 -0.1744266891769481 
0.04670295118453079 -0.002356680851452614 -0.1497758570902515 
0.2634383789825652 -0.09781284360555167 -0.1744266891769481 
0.7483562319656168 -0.321799333374861 -1.859115288903312 
-0.01883699680012786 0.2222269773782357 -0.1993336041959587 
0.3738905966579186 -1.110540912446225 -0.3621868016645822 
0.6029345438740632 -0.07172785431869853 -0.6725723863882825 
0.006385370653924262 -0.003721704449262387 -0.00997312249489524 
0.3896269015289718 -0.6349741743354145 -0.3123535475719194 
0.006385370653924262 -0.003721704449262387 -0.00997312249489524 
0.3707235009912428 -0.3350346345310631 -0.279154985644953 
0.05069815914695014 -0.04125624908219661 -0.04095152794254361 
0.3896269015289718 -0.6349741743354145 -0.3123535475719194 
0.05069815914695014 -0.04125624908219661 -0.04095152794254361 
1.191696231814244 -0.8342912674975828 -1.074514740705142 
0.3113762363476571 -0.5770793572763461 -0.2970322657512268 
0.3707235009912428 -0.3350346345310631 -0.279154985644953 
1.191696231814244 -0.8342912674975828 -1.074514740705142 
0.3113762363476571 -0.5770793572763461 -0.2970322657512268 
0.006385370653924262 -0.003721704449262387 -0.00997312249489524 
-0.05768527155397792 -0.218627413289958 0.06232422461927397 
0.1709942031269145 0.09569424268334899 -0.1446995635752846 
0.1073665195343589 -0.06933357680786531 -0.07067757919057684 
0.7397485042145188 -0.9267078700427078 -0.4937268772968262 
0.04035345785940626 -0.03668051976280715 -0.02823188564338224 
1.584833067011109 -2.236726964653156 -0.6572353180852378 
0.01885239939674454 -0.01740625110485802 -0.0197835124326016 
0.2433107746210136 -0.1857037359769967 -0.1944138094955834 
0.01885239939674454 -0.01740625110485802 -0.0197835124326016 
1.259676483766414 -0.8835284280680022 -1.152236747223173 
0.3544967069307313 -0.2369883905404759 -0.7104789430564079 
0.3544967069307313 -0.2369883905404759 -0.7104789430564079 
0.2433107746210136 -0.1857037359769967 -0.1944138094955834 
-0.05811924277698291 0.2098981104615322 -0.2754656687978226 
0.01885239939674454 -0.01740625110485802 -0.0197835124326016 
0.05277402259857372 -0.003561588658292611 -0.09577768955763263 
0.05277402259857372 -0.003561588658292611 -0.09577768955763263 
0.3858082651810819 -0.2756139635871924 -0.2658966005319361 
0.3858082651810819 -0.2756139635871924 -0.2658966005319361 
0.05277402259857372 -0.003561588658292611 -0.09577768955763263 
0.05277402259857372 -0.003561588658292611 -0.09577768955763263 
-0.08947981998819174 -0.2339896577953668 0.2353931138570148 
-0.2703191663974532 0.0888387944100225 0.137823951489996 
0.2653732895838616 -0.3672167976094081 -0.07221757581287469 
-0.2040857469107052 -0.2781371412124788 0.1231385624741509 
0.02343320760906072 -0.09338674546265138 -0.1133479994896017 
0.2717141303280131 -0.1656804834597405 -0.1524154434300893 
0.4288898174155434 -0.4093301425262892 -0.3645232214461701 
-0.07260842428116807 0.03585100183115868 -0.3878831816251165 
-0.07260842428116807 0.03585100183115868 -0.3878831816251165 
0.1650862674606415 -0.1504484131765846 -0.04226735032098183 
0.5824441041151797 -0.5183310804011604 -0.496975392497109 
0.4288898174155434 -0.4093301425262892 -0.3645232214461701 
0.1821121088192404 -0.1075449914979901 -0.1290557156131937 
0.03901057453790815 -0.03275988221150248 -0.001695112057194346 
0.05995334823991745 -0.001332371323403012 -0.4404377180028932 
0.03901057453790815 -0.03275988221150248 -0.001695112057194346 
0.02323593857285391 0.07277710221441568 -0.2732836540500482 
0.541164055199999 -0.4884133203999226 -0.7193007208651568 
-0.07542547013884623 -0.03369902975741147 -0.004976008718582552 
0.6076509565274513 -0.5398253240339229 -0.5484432043434315 
-0.07542547013884623 -0.03369902975741147 -0.004976008718582552 
0.541164055199999 -0.4884133203999226 -0.7193007208651568 
-0.1105586608973443 0.3226515211303601 -0.2624085034775718 
0.07108336719653768 -0.003325700807136919 -0.3657220802802395 
-0.02523558482564015 0.09324250332085868 -0.4164237184689342 
0.2124733002594365 -0.06148637525945264 -0.1697114503122656 
0.07108336719653768 -0.003325700807136919 -0.3657220802802395 
0.2124733002594365 -0.06148637525945264 -0.1697114503122656 
0.2546219038941852 -0.3093668587630051 -0.5439213594667195 
0.2546219038941852 -0.3093668587630051 -0.5439213594667195 
-0.340096583515602 0.3326447729164381 -0.1493278946806375 
0.6076509565274513 -0.5398253240339229 -0.5484432043434315 
0.02323593857285391 0.07277710221441568 -0.2732836540500482 
-0.1916393718994431 -0.4093556947848776 0.3315538702194985 
-0.7342688809049517 0.8496961260790606 0.2862575767856363 
0.127859208714025 0.148242438136362 -0.3590109031878773 
0.0728218495811868 -0.2320530763182019 0.1034832819322908 
0.0638230210709147 -0.2089600449833461 -0.227049710301279 
0.1253058573749721 -0.1650553224749989 -0.2883063263185819 
-0.1621336626198636 0.008849187950790965 0.0887889994462522 
0.2034188293904232 -0.1520646021834794 -0.1641311676774191 
0.2632563974701159 -0.1762565271104322 -0.2342616678288319 
0.03613260093142059 -0.02688700218001328 -0.001711219958482309 
0.1253058573749721 -0.1650553224749989 -0.2883063263185819 
-0.1621336626198636 0.008849187950790965 0.0887889994462522 
0.6728931820870955 -0.3814647171098604 -0.6374825050079306 
0.0638230210709147 -0.2089600449833461 -0.227049710301279 
0.2382453207836855 -0.1993452841602505 -0.8591623448764956 
0.03613260093142059 -0.02688700218001328 -0.001711219958482309 
0.1724393418549282 -0.1141852863559043 -0.02284957677693921 
0.2382453207836855 -0.1993452841602505 -0.8591623448764956 
0.006903143058205432 -0.0002342404946966807 -0.008436337696719835 
0.3678143352512637 -0.2413329915577173 -0.1885557005362169 
0.2893123987116153 -0.5538566813691 -0.2730351959330798 
0.3678143352512637 -0.2413329915577173 -0.1885557005362169 
-0.09771927011938866 -0.3552569939283114 0.03914846594083775 
0.2893123987116153 -0.5538566813691 -0.2730351959330798 
0.3376077195136122 -0.2865004751940921 -0.9806939403007592 
-0.09771927011938866 -0.3552569939283114 0.03914846594083775 
0.006903143058205432 -0.0002342404946966807 -0.008436337696719835 
0.2933083200766267 -0.04609700388305576 -0.2149387904947262 
0.09574756836393512 -0.058196378203289 -0.02091854968577947 
0.09574756836393512 -0.058196378203289 -0.02091854968577947 
0.09574756836393512 -0.058196378203289 -0.02091854968577947 
0.09574756836393512 -0.058196378203289 -0.02091854968577947 
-0.1382109144099186 0.06895156622288816 0.09299072337719314 
-0.06240205130492966 0.0587943998073039 0.01962915284032994 
0.03681717905664006 -0.02502652432128092 -0.01577474088980545 
0.3868679718294079 -0.3441315223302694 -0.1319774806884981 
0.07936186873705901 -0.04206691263366649 -0.04231311208474902 
0.3414178976711527 -0.342640249545501 -0.2377416133320511 
0.07936186873705901 -0.04206691263366649 -0.04231311208474902 
-0.06240205130492966 0.0587943998073039 0.01962915284032994 
-0.01361980243510071 -0.1885793640307608 0.06620153249236925 
-0.1454823401334577 0.1899512066057493 -0.07010649738622132 
0.1070818387008842 -0.05456883556957705 -0.08624107828636898 
0.2797857287023305 -0.5639763170681231 -0.4268745425854971 
0.2797857287023305 -0.5639763170681231 -0.4268745425854971 
0.03681717905664006 -0.02502652432128092 -0.01577474088980545 
-0.01361980243510071 -0.1885793640307608 0.06620153249236925 
0.1072292912886406 -0.03946373747855746 -0.264490595105672 
1.010628730104936 -0.4675181320572365 -1.527144618688026 
-0.2246133421935146 0.3170486452746153 -0.1421481130607515 
0.1922791993740044 -0.06647461176247298 -0.2780497555396754 
-0.04543382794024679 -0.192774009857793 0.08098144303155839 
0.02286332393512017 -0.009680186266783566 -0.02084187354397558 
0.06502979918005602 -0.3224959108409104 -0.1927472710632334 
0.03660623777260519 -0.02098202747762234 -0.0290874861145797 
0.5650550256346119 -0.6338614028185864 -0.4211881561708946 
0.02286332393512017 -0.009680186266783566 -0.02084187354397558 
0.02286332393512017 -0.009680186266783566 -0.02084187354397558 
0.1419387848582772 -0.09030997707468941 -0.0924020118075053 
0.1040708367913071 -0.1932602461688648 -0.1156534966345507 
1.344295102751545 -0.9841914178231669 -1.086180139728313 
-0.04543382794024679 -0.192774009857793 0.08098144303155839 
0.1858386333845498 -0.1177743177014612 -0.6587818195751988 
0.05180691799697888 -0.470419481283292 0.3687916516296485 
0.971187165441427 -0.9697213143891763 -0.7568911158557057 
0.02286332393512017 -0.009680186266783566 -0.02084187354397558 
0.03344777266928525 -0.03693456206159449 -0.01128830297017685 
0.03344777266928525 -0.03693456206159449 -0.01128830297017685 
0.03344777266928525 -0.03693456206159449 -0.01128830297017685 
0.03344777266928525 -0.03693456206159449 -0.01128830297017685 
0.3016435026097637 -0.2549574435220023 -0.1570649343877136 
0.03344777266928525 -0.03693456206159449 -0.01128830297017685 
0.03344777266928525 -0.03693456206159449 -0.01128830297017685 
0.0767717801716593 -0.07990833437314784 -0.01729289628408349 
-0.1267470333470589 0.03130461966650568 0.1801319011866715 
0.7136670275687801 -0.7887771096806065 -0.7838079610274987 
0.03344777266928525 -0.03693456206159449 -0.01128830297017685 
0.2654291825277371 -0.3739918928079667 0.4311796822660716 
0.03344777266928525 -0.03693456206159449 -0.01128830297017685 
0.03344777266928525 -0.03693456206159449 -0.01128830297017685 
-0.03204161428814306 -0.1490624823395408 0.1603724190117979 
0.03344777266928525 -0.03693456206159449 -0.01128830297017685 
0.03344777266928525 -0.03693456206159449 -0.01128830297017685 
0.03344777266928525 -0.03693456206159449 -0.01128830297017685 
0.7136670275687801 -0.7887771096806065 -0.7838079610274987 
0.03344777266928525 -0.03693456206159449 -0.01128830297017685 
0.3016435026097637 -0.2549574435220023 -0.1570649343877136 
0.03344777266928525 -0.03693456206159449 -0.01128830297017685 
0.03344777266928525 -0.03693456206159449 -0.01128830297017685 
-0.8166035466393236 0.7048447351560693 -0.1981829236406384 
0.8034482819520075 -0.8763306898795127 -0.236395243260112 
0.4952317659805225 -0.4683506171546157 -0.6496188401295679 
0.04172243472848116 -0.01606192681962961 -0.01207278601869704 
0.1263321163918589 -0.2244187972909675 -0.4341420166607285 
0.4559151996075129 -0.2994654327866962 -0.5007239228145113 
0.3700785352566348 -0.2968955882391546 -0.4151136291761816 
0.9281741275243894 -0.7724105539931883 -0.4485424160740221 
-1.577531143454584 0.02214726747727953 1.591558564039028 
0.04172243472848116 -0.01606192681962961 -0.01207278601869704 
0.06273792460180666 -0.02335637858740911 -0.01697914455807342 
0.04172243472848116 -0.01606192681962961 -0.01207278601869704 
-0.1955780275583298 0.3558863470741522 -0.04456900230825903 
0 0 0 
0.04172243472848116 -0.01606192681962961 -0.01207278601869704 
0.2351466267560101 -0.5287627223552018 -0.3068910565434154 
0.3356423641226693 0.07880489809367447 -0.3116167619199239 
0.2031726499287202 -0.2496059213307922 -0.329037153371066 
0.8310824388714108 -1.01348896704162 -0.50376451565853 
0.04172243472848116 -0.01606192681962961 -0.01207278601869704 
0.04172243472848116 -0.01606192681962961 -0.01207278601869704 
0.04172243472848116 -0.01606192681962961 -0.01207278601869704 
0.04172243472848116 -0.01606192681962961 -0.01207278601869704 
0.3700785352566348 -0.2968955882391546 -0.4151136291761816 
0.04172243472848116 -0.01606192681962961 -0.01207278601869704 
0.2031726499287202 -0.2496059213307922 -0.329037153371066 
-0.378851912593268 0.5160708124339812 -0.2426200518705819 
-0.3077068732869865 -0.01430254604849548 0.334872365857458 
0.04172243472848116 -0.01606192681962961 -0.01207278601869704 
0.5033091099841353 -0.3059029500030405 -0.7970194976323542 
0.04172243472848116 -0.01606192681962961 -0.01207278601869704 
-0.09567271929074925 0.0756553651918323 -0.01970270833773384 
0.03141567737328339 -0.01473244711584389 -0.003465671840100382 
0.01759155011298798 0.1053843688446182 -0.1053027864808122 
0.03141567737328339 -0.01473244711584389 -0.003465671840100382 
0.5057009682567013 -0.6282723122001725 -1.144554258436946 
-0.09567271929074925 0.0756553651918323 -0.01970270833773384 
0.8509801247270847 -0.7358031718560796 -0.8396913593113842 
0.0494073213124185 -0.4388463240876455 -0.000996149701914464 
0.03141567737328339 -0.01473244711584389 -0.003465671840100382 
0.2248110442181397 -0.004276185349657596 -0.795452226769288 
0.7631132901110117 -0.7770731192888468 -0.589212234110521 
0.03141567737328339 -0.01473244711584389 -0.003465671840100382 
0.03141567737328339 -0.01473244711584389 -0.003465671840100382 
0.02751471193401167 -0.01843740676616419 -0.001678136955873636 
0.02751471193401167 -0.01843740676616419 -0.001678136955873636 
0.08758544366134581 -0.1381534293120144 -0.06059890052607574 
-0.09972559577078702 0.2608881862285775 -0.9041151888041189 
-0.04856050264970486 -0.2160231641312505 -0.3400413988961641 
0.02751471193401167 -0.01843740676616419 -0.001678136955873636 
0.02751471193401167 -0.01843740676616419 -0.001678136955873636 
0.6283177257017218 -0.4894616921228149 -0.4529476588463104 
0.02751471193401167 -0.01843740676616419 -0.001678136955873636 
0.1090972646979915 -0.09490788578732587 -0.03703688112653972 
0.3120721516726653 -0.1481284031317796 -0.2392496893853997 
0.003064333547978676 -0.0009734919981986073 -0.001522005366682028 
0.003064333547978676 -0.0009734919981986073 -0.001522005366682028 
0.2804954498611801 -0.06602629591491974 -0.2633061307918174 
-0.202280153127709 0.3482537176756216 -0.3616510561191681 
-0.202280153127709 0.3482537176756216 -0.3616510561191681 
0.3242844719375128 -0.171259385195546 -0.2209360820858667 
0.3242844719375128 -0.171259385195546 -0.2209360820858667 
0.3105602300017887 -0.2627740662352153 -0.1789603445636246 
0.01781219455460189 -0.04522065017733008 -0.001670392145533796 
0.07207328989996169 -0.1617100057370784 -0.06282129093338276 
-0.193308240137613 0.2101277418081099 -0.1597647042915689 
0.2523724724631474 -0.2357119428420608 -0.1190213500010327 
-0.193308240137613 0.2101277418081099 -0.1597647042915689 
0.003382804690625537 -0.0007317153352125745 -0.003173216522920918 
0.3410688660531739 -0.1363526999962858 -0.2356786116158362 
0.3410688660531739 -0.1363526999962858 -0.2356786116158362 
0.003382804690625537 -0.0007317153352125745 -0.003173216522920918 
0.04575650714149945 -0.005222711238849838 -0.04600577745600964 
0.002654968152732954 -0.0006797359733780643 -0.001416238087674504 
0.11054828798174 -0.0909960224287225 -0.4977966235626233 
0.11054828798174 -0.0909960224287225 -0.4977966235626233 
0.002654968152732954 -0.0006797359733780643 -0.001416238087674504 
0.08964333014814996 -0.09302626829917406 -0.05176047074220609 
0.08964333014814996 -0.09302626829917406 -0.05176047074220609 
0.08964333014814996 -0.09302626829917406 -0.05176047074220609 
0.08964333014814996 -0.09302626829917406 -0.05176047074220609 
0.5146502162621684 -0.6435380497215319 -0.5311323093482974 
0.5146502162621684 -0.6435380497215319 -0.5311323093482974 
0.002654968152732954 -0.0006797359733780643 -0.001416238087674504 
0.02089608711409978 -0.0007078957563846699 -0.02628596135188554 
0.02089608711409978 -0.0007078957563846699 -0.02628596135188554 
0.02089608711409978 -0.0007078957563846699 -0.02628596135188554 
0.0311414242596223 -0.5189441277938167 -0.0261247879572661 
0.0311414242596223 -0.5189441277938167 -0.0261247879572661 
-0.1029084013246594 0.02620060136646329 -0.03634342619608988 
0.02089608711409978 -0.0007078957563846699 -0.02628596135188554 
0.04860973711264096 -0.7713498516084436 0.2639636862781436 
0.07271286313275546 -0.6024736229723726 0.03635416457996494 
0.1682012745726287 -0.01412582389269923 -0.1688300026599917 
0.02089608711409978 -0.0007078957563846699 -0.02628596135188554 
0.281311907010831 -0.2910833909196018 -0.1728205401466423 
0.281311907010831 -0.2910833909196018 -0.1728205401466423 
0.1061843098003493 -0.103212565023741 -0.06839346353242565 
0.09005463193144131 -0.09350060478727969 -0.05123376906792749 
0.09005463193144131 -0.09350060478727969 -0.05123376906792749 
0.09005463193144131 -0.09350060478727969 -0.05123376906792749 
0.09005463193144131 -0.09350060478727969 -0.05123376906792749 
0.1061843098003493 -0.103212565023741 -0.06839346353242565 
0.3787064968374 -0.3007996944324381 -0.3722484547277504 
0.3278001038109832 -0.3394526263121437 -0.3593275515492088 
0.3278001038109832 -0.3394526263121437 -0.3593275515492088 
0.3787064968374 -0.3007996944324381 -0.3722484547277504 
0.1784964882546858 -0.1913184601285939 -0.175388166590435 
0.1784964882546858 -0.1913184601285939 -0.175388166590435 
0.1784964882546858 -0.1913184601285939 -0.175388166590435 
0.1784964882546858 -0.1913184601285939 -0.175388166590435 
0.1784964882546858 -0.1913184601285939 -0.175388166590435 
-0.001794333512857347 -0.1858840174745214 0.1732472304219088 
-0.001794333512857347 -0.1858840174745214 0.1732472304219088 
0.2616865867846198 -0.2159332061798703 -0.1529346110661876 
0.09237933293849078 -0.07877626323320377 -0.1334787802646508 
0.1945220237506755 -0.1738450000582012 -0.1263140672450241 
0.2616865867846198 -0.2159332061798703 -0.1529346110661876 
0.09237933293849078 -0.07877626323320377 -0.1334787802646508 
0.1945220237506755 -0.1738450000582012 -0.1263140672450241 
0.536903800409735 -0.4442670893738376 -0.6668457402149855 
0.1149088158342542 -0.1147418830764486 -0.1221336330425466 
0.3608854021183987 -0.3950849143980463 -0.2675076843115429 
0.3608854021183987 -0.3950849143980463 -0.2675076843115429 
0.05298656494501833 -0.05847679004451169 -0.05512318525481474 
0.1149088158342542 -0.1147418830764486 -0.1221336330425466 
0.536903800409735 -0.4442670893738376 -0.6668457402149855 
0.1845669028250567 -0.1685583935499366 -0.1456387324772717 
0.1845669028250567 -0.1685583935499366 -0.1456387324772717 
0.1582813866536349 -0.1776886813482275 -0.1370660435392722 
0.1582813866536349 -0.1776886813482275 -0.1370660435392722 
0.05298656494501833 -0.05847679004451169 -0.05512318525481474 
0.05298656494501833 -0.05847679004451169 -0.05512318525481474 
0.1880062180566022 -0.1753204420208637 -0.196504052249305 
0.01812552654181618 0.07430849432889597 -0.4125126844214285 
0.1195520757368424 -0.128423059018096 -0.06947193312289852 
0.1880062180566022 -0.1753204420208637 -0.196504052249305 
0.1195520757368424 -0.128423059018096 -0.06947193312289852 
0.1485445536948312 -0.1628333346255441 -0.2480724594415757 
0.01812552654181618 0.07430849432889597 -0.4125126844214285 
0.1485445536948312 -0.1628333346255441 -0.2480724594415757 
0.3092768013082086 -0.3388072889877784 -0.2079153661113914 
0.1666574488291361 -0.1844348588364415 -0.1523111708878127 
0.3641437669650858 -0.2742950304280257 -0.3144395657865652 
0.3641437669650858 -0.2742950304280257 -0.3144395657865652 
0.1185261082475189 -0.126956613572656 -0.1303991676329138 
0.1666574488291361 -0.1844348588364415 -0.1523111708878127 
0.1185261082475189 -0.126956613572656 -0.1303991676329138 
0.1185261082475189 -0.126956613572656 -0.1303991676329138 
0.1666574488291361 -0.1844348588364415 -0.1523111708878127 
0.1185261082475189 -0.126956613572656 -0.1303991676329138 
0.1666574488291361 -0.1844348588364415 -0.1523111708878127 
0.1185261082475189 -0.126956613572656 -0.1303991676329138 
0.130984078176616 -0.1012824132785831 -0.08308776714939392 
0.08767347159453071 -0.0938821714579388 -0.05020235061681695 
0.08767347159453071 -0.0938821714579388 -0.05020235061681695 
0.08767347159453071 -0.0938821714579388 -0.05020235061681695 
0.08767347159453071 -0.0938821714579388 -0.05020235061681695 
0.130984078176616 -0.1012824132785831 -0.08308776714939392 
0.1283089279224337 -0.1107126826830334 -0.07674022454807197 
0.1283089279224337 -0.1107126826830334 -0.07674022454807197 
0.05298656494501833 -0.05847679004451169 -0.05512318525481474 
0.05298656494501833 -0.05847679004451169 -0.05512318525481474 
0.05298656494501833 -0.05847679004451169 -0.05512318525481474 
0.1195520757368424 -0.128423059018096 -0.06947193312289852 
0.1195520757368424 -0.128423059018096 -0.06947193312289852 
0.2114356673335037 -0.2135171958019005 -0.2148255083690041 
-0.3188712948810675 0.3513333311281905 0.003199779760206058 
0.290460641109157 -0.1729672642039433 -0.3595169979318779 
0.04813134058161721 -0.05747824526378549 -0.02191200325489888 
0.04813134058161721 -0.05747824526378549 -0.02191200325489888 
0.04813134058161721 -0.05747824526378549 -0.02191200325489888 
0.6824051105434767 -0.5598916512905769 -0.7941739375706541 
0.04813134058161721 -0.05747824526378549 -0.02191200325489888 
0.04813134058161721 -0.05747824526378549 -0.02191200325489888 
0.04691826281282147 -0.03763564950266659 -0.01173495652442568 
0.04691826281282147 -0.03763564950266659 -0.01173495652442568 
0.04691826281282147 -0.03763564950266659 -0.01173495652442568 
0.04691826281282147 -0.03763564950266659 -0.01173495652442568 
0.04691826281282147 -0.03763564950266659 -0.01173495652442568 
0.711447049996723 -0.7396121550613004 -0.2764307985108901 
0.04691826281282147 -0.03763564950266659 -0.01173495652442568 
0.04691826281282147 -0.03763564950266659 -0.01173495652442568 
0.04691826281282147 -0.03763564950266659 -0.01173495652442568 
0.04691826281282147 -0.03763564950266659 -0.01173495652442568 
0.04691826281282147 -0.03763564950266659 -0.01173495652442568 
0.04691826281282147 -0.03763564950266659 -0.01173495652442568 
0.04691826281282147 -0.03763564950266659 -0.01173495652442568 
0.2042940637411938 -0.0952460895951819 -0.1387024153580727 
0.08218994387340493 -0.169485355508783 0.06696690504194844 
0.2042940637411938 -0.0952460895951819 -0.1387024153580727 
0.2042940637411938 -0.0952460895951819 -0.1387024153580727 
0.2042940637411938 -0.0952460895951819 -0.1387024153580727 
-0.605848743024627 -0.2062857902068227 0.7211550010380817 
0.1121091418696399 -0.1154571823884618 -0.0009201283896997319 
0.1121091418696399 -0.1154571823884618 -0.0009201283896997319 
0.1545028800861475 0.04359532113693526 -0.5601001570589884 
0.1545028800861475 0.04359532113693526 -0.5601001570589884 
0.1121091418696399 -0.1154571823884618 -0.0009201283896997319 
-0.3745484267648341 0.4879077421381143 -0.2352044519346182 
-0.4106214051410138 0.434359730951932 -0.3361557979617204 
0.1121091418696399 -0.1154571823884618 -0.0009201283896997319 
-0.3589901565754449 0.2323848792369598 -0.03028214944978056 
-0.1349182471577743 0.0761208359017596 -0.1252737864311901 
0.7510068189241212 -0.9441750414874153 -0.6876005209368546 
-0.4106214051410138 0.434359730951932 -0.3361557979617204 
0.7510068189241212 -0.9441750414874153 -0.6876005209368546 
-0.3745484267648341 0.4879077421381143 -0.2352044519346182 
0.02620928812667436 -0.03061578954378726 -0.00871987248680537 
0.02620928812667436 -0.03061578954378726 -0.00871987248680537 
0.02620928812667436 -0.03061578954378726 -0.00871987248680537 
0.02620928812667436 -0.03061578954378726 -0.00871987248680537 
0.02620928812667436 -0.03061578954378726 -0.00871987248680537 
0.08483005829165705 -0.04518869029404927 -0.05745831238739942 
0.02620928812667436 -0.03061578954378726 -0.00871987248680537 
0.02620928812667436 -0.03061578954378726 -0.00871987248680537 
0.1257930275443341 0.04475849746714087 -0.3342992258335313 
0.02620928812667436 -0.03061578954378726 -0.00871987248680537 
0.02620928812667436 -0.03061578954378726 -0.00871987248680537 
0.1257930275443341 0.04475849746714087 -0.3342992258335313 
0.02620928812667436 -0.03061578954378726 -0.00871987248680537 
0.02620928812667436 -0.03061578954378726 -0.00871987248680537 
0.05054553244825233 -0.02901481925776246 -0.01241656609538813 
0.05054553244825233 -0.02901481925776246 -0.01241656609538813 
0.5422273709172647 -0.4094245724614373 -0.4448708646526661 
-0.03975612397522509 -0.03326859481750688 -0.2342473479614073 
0.2190762920583912 -0.129710946707541 -0.1085313642765953 
-0.7028273552806817 0.733476789745675 -0.0583042806955192 
-0.1434581877732017 -0.08265855144831584 0.2043952754544207 
0.02422538492742867 -0.3480278132641365 0.02624727239223084 
0.07540508468080973 -0.05724788580139897 -0.05623784650017966 
-0.1670562667295031 -0.2876122501421154 0.2145157455534945 
-0.2594449641672226 0.2317866393718031 -0.02591553233457894 
0.318450433193512 -0.1377929807044826 -0.2816907358365572 
-0.1334011449130238 -0.08339489421742062 0.1896201462924146 
0.07540508468080973 -0.05724788580139897 -0.05623784650017966 
-0.1567056304283015 0.1812878829725478 -0.1023844966551716 
0.04138086509683177 -0.01133275414650751 -0.03311896267618345 
0.1474996260898256 -0.09106838158890182 -0.1272533683338327 
0.4336470531480577 -0.203458112929561 -0.3939739674387328 
0.09654068583665351 -0.01830011466491747 -0.09087663993615297 
0.5954540727761657 -0.6145343729201606 -0.7810406958606004 
0.1245273222834161 -0.04762562539893963 -0.0687088657853222 
0.1245273222834161 -0.04762562539893963 -0.0687088657853222 
-0.1567056304283015 0.1812878829725478 -0.1023844966551716 
0.04138086509683177 -0.01133275414650751 -0.03311896267618345 
0.04138086509683177 -0.01133275414650751 -0.03311896267618345 
0.5373067445963915 -0.7376062495811702 -0.6163770612699179 
0.2578684905575908 -0.3391822348446545 -0.1988271733189374 
-0.4820758789023228 0.1441647764517724 0.5029907744372363 
0.4261285195044728 -0.3114984820274043 -0.254386377589608 
-0.4820758789023228 0.1441647764517724 0.5029907744372363 
0.1579160567392723 -0.07353043736312474 -0.1440862388448156 
0.0715037843527927 -0.01016363104519767 -0.06373612008334911 
0.1647387298037035 -0.0334551615004083 -0.1686709798157282 
0.1579160567392723 -0.07353043736312474 -0.1440862388448156 
0.5373067445963915 -0.7376062495811702 -0.6163770612699179 
0.0715037843527927 -0.01016363104519767 -0.06373612008334911 
0.001434268145167371 0.03539686819704242 -0.03530930827547375 
0.001434268145167371 0.03539686819704242 -0.03530930827547375 
0.00652512591803295 -0.05336263964619439 -0.04453436156898834 
0.05590420465531389 -0.02632623812127831 -0.1207521486327896 
-0.1478294687444826 0.1304784623816323 -0.05327157798536369 
0.1698078728764306 -0.2479321318481042 0.1159611163010374 
-0.03256075942797611 -0.03441137238769306 -0.1933020685229836 
-0.1354471321103304 0.2711573859928333 -0.5814349929079392 
0.75269477426999 -0.4352309254126454 -0.919200341683073 
0.00652512591803295 -0.05336263964619439 -0.04453436156898834 
0.1698078728764306 -0.2479321318481042 0.1159611163010374 
0.7824808316926459 -1.080426505721626 -0.8218112632436012 
0.2948450242430702 -0.2524546572420956 -0.0424684566438664 
-0.2504240079880483 0.324605806549347 -0.3656388626094962 
0.2948450242430702 -0.2524546572420956 -0.0424684566438664 
-0.3122618886037589 0.1229033196247258 0.1585369788902865 
-0.2504240079880483 0.324605806549347 -0.3656388626094962 
-0.2083429802027322 0.03738106915220057 0.2139457544955544 
0.2950888637261615 -0.3596168936463296 -0.344572189405019 
-0.377325975851849 0.1679448595676046 0.1478892296476349 
0.3175769156762472 -0.2927433317613337 -0.2910759094999799 
0.2170650847523032 -0.1275716731243184 -0.1647649826956065 
-0.2395447505366867 0.2409478529900478 -0.1376955996856038 
0.2170650847523032 -0.1275716731243184 -0.1647649826956065 
0.3500177771001143 -0.5827774746908572 -0.2555864205873592 
0.1891705422773098 -0.4009171866998052 -0.300889781112838 
0.4949924144605208 -0.6701559917266504 -0.2826649328248808 
0.01192491228508964 -0.3301777719022406 -0.1568391935317213 
0.4089589959120349 -0.5942789115408599 -0.480978528672421 
-0.1658460416003963 -0.4564777985610928 0.4116483528591405 
0.4089589959120349 -0.5942789115408599 -0.480978528672421 
0.1499488945769449 -0.02360258600612359 -0.09833905224325344 
0.04155347186302041 -0.007285134813634232 -0.03216968596622886 
0.04155347186302041 -0.007285134813634232 -0.03216968596622886 
0.04155347186302041 -0.007285134813634232 -0.03216968596622886 
0.04155347186302041 -0.007285134813634232 -0.03216968596622886 
0.1809043390669095 -0.1965959817963155 -0.2438190049490615 
0.04155347186302041 -0.007285134813634232 -0.03216968596622886 
0.04155347186302041 -0.007285134813634232 -0.03216968596622886 
0.6752770094945113 -0.403445435912649 -0.3521453008083326 
0.04155347186302041 -0.007285134813634232 -0.03216968596622886 
0.04155347186302041 -0.007285134813634232 -0.03216968596622886 
0.04155347186302041 -0.007285134813634232 -0.03216968596622886 
0.3054896374384208 -0.7682527195827999 0.05600571646828747 
0.0319050029410981 -0.007438314402055606 -0.05247163410936943 
0.1968838713969644 -0.184263074743343 -0.07849358518368607 
0.0319050029410981 -0.007438314402055606 -0.05247163410936943 
0.0319050029410981 -0.007438314402055606 -0.05247163410936943 
0.0319050029410981 -0.007438314402055606 -0.05247163410936943 
0.0319050029410981 -0.007438314402055606 -0.05247163410936943 
0.0319050029410981 -0.007438314402055606 -0.05247163410936943 
0.1968838713969644 -0.184263074743343 -0.07849358518368607 
0.0319050029410981 -0.007438314402055606 -0.05247163410936943 
-0.182914521513652 0.08455237650311538 -0.0375122583829702 
-0.182914521513652 0.08455237650311538 -0.0375122583829702 
-0.4098213710294282 0.5110265242225372 -0.3500187140573167 
0.1519030808203368 -0.2402830246768192 -0.1276261192086435 
-0.4002571885039319 0.3220038472619586 -0.03192554225909295 
0.1482979977282323 -0.01315519072684098 -0.6225345473464208 
0.2740315929731709 -0.311527738037808 -0.4638948790599222 
0.2740315929731709 -0.311527738037808 -0.4638948790599222 
0.4248814795681184 -0.4723860526756765 -0.3661044885848485 
0.1482979977282323 -0.01315519072684098 -0.6225345473464208 
0.2712561760565653 -0.2652053359034905 -0.008625007726730744 
0.3120302365769896 -0.2927318172016269 -0.009798914425752581 
-0.7208003285049555 0.6922846019081583 -0.2279242485090097 
-0.7208003285049555 0.6922846019081583 -0.2279242485090097 
0.1519030808203368 -0.2402830246768192 -0.1276261192086435 
-0.4098213710294282 0.5110265242225372 -0.3500187140573167 
0.4248814795681184 -0.4723860526756765 -0.3661044885848485 
0.2008184584761912 -0.06975566330756088 -0.7180474268829239 
0.9750780116018518 -0.8253890252533671 -0.4504848762883414 
0.1272143561849865 -0.09236511332219413 -0.02193983745794268 
-0.331299424466829 0.2903998885783529 -0.01620502254779366 
0.1088836986593719 -0.02249974066108834 -0.1350249800359348 
0.1685553110834316 -0.1701812148200372 -0.2987958848158574 
0.1565052347595626 -0.0714566915503704 -0.06225572360371565 
0.1106822312558604 -0.09106889212458166 -0.002716353717156861 
-0.03801886746946504 0.04348552809777292 -0.2763190673056766 
0.1685553110834316 -0.1701812148200372 -0.2987958848158574 
0.4580652154588693 -0.3100630187254559 -0.4044989454245774 
0.7216526876393783 -0.3161205552746547 -0.872421007358603 
0.2545854035242845 -0.1491286832523972 -0.04652710468329883 
-0.001483453758026226 -0.3004287008075075 0.1239168357696236 
0.1106822312558604 -0.09106889212458166 -0.002716353717156861 
0.1272143561849865 -0.09236511332219413 -0.02193983745794268 
0.4580652154588693 -0.3100630187254559 -0.4044989454245774 
-2.470164632223272 2.493339205877758 -0.1157952021190926 
0.1272143561849865 -0.09236511332219413 -0.02193983745794268 
0.7216526876393783 -0.3161205552746547 -0.872421007358603 
-0.001483453758026226 -0.3004287008075075 0.1239168357696236 
0.1272143561849865 -0.09236511332219413 -0.02193983745794268 
0.1106822312558604 -0.09106889212458166 -0.002716353717156861 
-0.06512015516100597 0.09939447925672269 -0.001112862383159861 
-0.2849888404071608 -0.1817131276085362 0.3919025379510455 
0.2073250086013094 -0.1011148219163968 -0.5417889987155501 
0.04285018032793365 -0.6185233844522107 0.2496371667826016 
-0.3107625112738948 -0.01798974638710451 -0.08626230171240871 
-0.1184466114736367 -0.5498407533498105 0.3029259179008385 
0.7076402487113691 -0.888592360378135 -0.1326279322240028 
-0.06512015516100597 0.09939447925672269 -0.001112862383159861 
0.4108068929299694 -0.6705775057253288 -0.2716724313516438 
0.7418645980806675 -0.8592170074896541 -0.6853614261368849 
0.7076402487113691 -0.888592360378135 -0.1326279322240028 
0.2073250086013094 -0.1011148219163968 -0.5417889987155501 
0.01653212492912619 -0.001296221197612465 -0.01922348374078582 
0.3162507269572649 -0.290972568108419 -0.1518072171780696 
0.1513226710558425 -0.01934085736525695 -0.1002396810705203 
-0.2183417358669692 0.2938574400279546 -0.04580727014732679 
0.1358340620462908 -0.1225153279475719 -0.135513165441665 
0.1358340620462908 -0.1225153279475719 -0.135513165441665 
0.6214270974442433 -1.202460811559432 -0.242695058370955 
0.02105512254060767 -0.01438089731044388 -0.02324556196807599 
0.445976025891799 -0.1263350186159116 -0.5313988839792873 
0.1513226710558425 -0.01934085736525695 -0.1002396810705203 
0.07803349288638309 -0.3426715007305701 -0.04586715244133217 
1.230133520899288 -0.8728459632294658 -1.013902209768583 
0.02105512254060767 -0.01438089731044388 -0.02324556196807599 
0.224061832059457 -0.1459209079504356 -0.07717782578277686 
0.5274659373560019 -0.4821830854188406 -0.3377195092556399 
0.005906692186877987 -0.004339914855404089 -0.004286624297750749 
0.005906692186877987 -0.004339914855404089 -0.004286624297750749 
0.224061832059457 -0.1459209079504356 -0.07717782578277686 
-0.3046908209149385 0.257576644651496 -0.06531142252970705 
0.3538154665256177 -0.5687623073551907 -0.4323746294854195 
0.008892272794409508 -0.005892924624504402 -0.00771151456833667 
0.005469338360335736 -0.003404016151513456 -0.003521121456257502 
0.02152353412080743 -0.03704348389912387 -0.099997431915746 
0.4884416167508672 -0.3686440526601017 -0.1998648904094544 
0.02152353412080743 -0.03704348389912387 -0.099997431915746 
0.005469338360335736 -0.003404016151513456 -0.003521121456257502 
-0.02671390619147352 -0.008890056308784113 0.03367279476140959 
0.005469338360335736 -0.003404016151513456 -0.003521121456257502 
0.005469338360335736 -0.003404016151513456 -0.003521121456257502 
0.5285959728822709 -0.3835123564876459 -0.2081236496589458 
-0.02671390619147352 -0.008890056308784113 0.03367279476140959 
0.08182729259373019 0.09788508991175265 -0.2073731093036142 
-0.2242280848738639 -0.3647569815897135 0.5042139053887009 
0.07945460181483677 -0.09833700604552668 -0.1293588884970392 
0.2543282923844333 -0.430673867800097 -0.09420957689487262 
0.07945460181483677 -0.09833700604552668 -0.1293588884970392 
0.2543282923844333 -0.430673867800097 -0.09420957689487262 
0.009200289054766097 0.1689924864698031 0.01825836596972119 
-0.261925711182013 0.1850465841199531 0.0461157662365759 
0.06749056709059438 -0.1060624494878512 -0.2306973977085059 
0.06749056709059438 -0.1060624494878512 -0.2306973977085059 
-0.261925711182013 0.1850465841199531 0.0461157662365759 
0.1437372846591063 -0.1362088187289082 -0.04592694292469489 
-0.06952948721531789 0.1188157569326968 -0.4765819879866474 
0.5600760005115804 -0.3123236708465726 -0.3562936602022163 
-0.06952948721531789 0.1188157569326968 -0.4765819879866474 
0.216445665691424 -0.2217467477491246 -0.05568877795273798 
0.3184008515809506 -0.3647220539007355 -0.4932778572893034 
0.3184008515809506 -0.3647220539007355 -0.4932778572893034 
0.216445665691424 -0.2217467477491246 -0.05568877795273798 
0.2037336733997966 -0.1568047005029104 -0.06748057064742591 
0.1437372846591063 -0.1362088187289082 -0.04592694292469489 
0.1437372846591063 -0.1362088187289082 -0.04592694292469489 
0.1437372846591063 -0.1362088187289082 -0.04592694292469489 
0.1437372846591063 -0.1362088187289082 -0.04592694292469489 
0.7555696785442544 -1.728405805102 -0.2832045292200602 
0.07032477202800216 -0.0848056453828825 -0.01109778709278794 
-0.4470130549736099 0.4196545284572887 0.2766055647910091 
-0.4902413601096495 -0.176940621310974 0.69065826975462 
0.07967494767186413 -0.06513773881812986 0.01034777690359811 
0.3553813558525772 -0.4725777247678438 -0.2609484436990063 
0.0797860224334908 -0.01384343312602249 -0.06698765813764052 
0.07032477202800216 -0.0848056453828825 -0.01109778709278794 
0.1190539360250847 -0.06839093968233785 -0.4638560699098246 
0.1339148999085246 -0.04579577571167621 -0.07996455394878221 
0.2441894327283515 -0.4479557973306345 0.3899384634596142 
0.06722467826249481 -0.05993669117520341 -0.2831545505023928 
0.1183197569784065 -0.09572977989743071 -0.5768902732711764 
0.09417317666021627 -0.1486172481056734 -0.133736904964869 
0.09417317666021627 -0.1486172481056734 -0.133736904964869 
0.1190539360250847 -0.06839093968233785 -0.4638560699098246 
0.4202691229939372 -0.4901939250678367 -0.09360707463127875 
0.09576621099429328 -0.1061723169618654 -0.3076236305438062 
0.06722467826249481 -0.05993669117520341 -0.2831545505023928 
0.06547808174112996 -0.01150418584174621 -0.06223879595836761 
0.03137876266707435 -0.003821458662015904 -0.01391411590705202 
0.3169647429204021 0.09314067631376349 -0.6629108882447297 
0.1183197569784065 -0.09572977989743071 -0.5768902732711764 
0.1339148999085246 -0.04579577571167621 -0.07996455394878221 
0.6510945378853378 -0.5422399018292224 -0.464020638825846 
0.3169647429204021 0.09314067631376349 -0.6629108882447297 
0.01300758065940165 -0.002196140777876694 -0.004970514737010131 
0.04954011904002423 -0.02643275548695695 -0.007504090276401449 
0.3437553537528347 -0.1843949538673361 -0.3606257653911689 
-0.2223236137369002 0.07352765609172401 0.1328473590884481 
-0.7251894503235522 0.3043086193319887 0.4002727256865655 
0.3437553537528347 -0.1843949538673361 -0.3606257653911689 
-0.6968099637529042 0.5450768334261733 0.5334122500380791 
0.04954011904002423 -0.02643275548695695 -0.007504090276401449 
0.6066413634760409 -0.437339104175909 -0.7685044034625667 
-0.16485162201419 -0.5087058899387304 0.3134532810955148 
-0.2223236137369002 0.07352765609172401 0.1328473590884481 
0.1578030793545282 -0.1457703993974427 -0.02916894722824449 
0.3652532872134798 -0.4627220051810173 -0.006901652990376086 
-0.1294517899980656 0.03500788557643699 -0.02796226827334283 
0.6066413634760409 -0.437339104175909 -0.7685044034625667 
-0.5448105339084478 -0.08955403143404961 0.5634852711547206 
0.1578030793545282 -0.1457703993974427 -0.02916894722824449 
0.1426838319026554 -0.03999344064081914 -0.04346902044315572 
-0.2678051560373375 0.5498550085352975 -0.4786062320989081 
-0.16485162201419 -0.5087058899387304 0.3134532810955148 
-0.2621179124475005 0.3635533615838175 -0.2871490453415475 
0.5003865576018838 -0.7537479509495958 -0.1354983273355669 
0.683306596519312 -0.6921570307470448 -0.7114491018060861 
0.2845105936954795 -0.2668717333652045 -0.3705116650918006 
0.1357109512320807 -0.1326299304943647 -0.01917300396774448 
0.09701768230791565 -0.08422354736447966 -0.04122233510842849 
0.09701768230791565 -0.08422354736447966 -0.04122233510842849 
-0.5183201170358118 0.4422894504348462 -0.01148650052226221 
0.07357900023009556 -0.4242050869977226 0.1039318744785695 
0.2845105936954795 -0.2668717333652045 -0.3705116650918006 
0.49037187369483 -0.1107232866543198 -0.5718346917000351 
0.6901081947685468 -0.685108037501629 -0.5535507532223347 
-0.2621179124475005 0.3635533615838175 -0.2871490453415475 
0.1357109512320807 -0.1326299304943647 -0.01917300396774448 
0.2527010264834607 0.02596586953996442 -0.3725153407103458 
0.6628647496181131 -0.7703516610117386 -0.6754681282082414 
-0.3398239894574138 0.1827305614368928 0.08559328347853438 
-0.8692885653096136 0.1542005679041685 0.7399687387149605 
-0.3398239894574138 0.1827305614368928 0.08559328347853438 
-0.1652231139644424 -0.05008276093556208 0.29723409257663 
0.4673660793662696 -0.5500598745353998 -0.1493254302001168 
0.2527010264834607 0.02596586953996442 -0.3725153407103458 
0.09267402297000676 -0.02211158533888504 -0.07464753998009717 
-0.2036168348458774 0.1178968836797315 0.2449262066743939 
0.4019005614056866 -0.562222642119395 -0.3015737840424851 
0.4019005614056866 -0.562222642119395 -0.3015737840424851 
-0.07281356037945566 0.1835928746330332 -0.4632369670823777 
-0.008074148994490578 -0.01035766507107196 -0.1385616373157001 
-0.07281356037945566 0.1835928746330332 -0.4632369670823777 
-0.2036168348458774 0.1178968836797315 0.2449262066743939 
0.4895155540965537 -0.368309355876991 -0.4356685830067457 
0.4895155540965537 -0.368309355876991 -0.4356685830067457 
-0.4262385364417607 0.260928299609212 0.1536890570048115 
-0.07125351250564062 -0.002758837470015069 -0.0148161336696352 
-1.381639131898074 1.914545275363951 -1.595264130818617 
-0.07125351250564062 -0.002758837470015069 -0.0148161336696352 
-0.03717036145409396 0.1484684671790865 -0.2268091364452578 
-1.264732382670982 0.7146334824987908 0.1861611555484762 
0.03971771470286279 -0.0655447498330289 -0.2118568500506376 
0.03971771470286279 -0.0655447498330289 -0.2118568500506376 
0.2596600409248236 -0.1214850706365991 -0.1214900816706748 
0.3514379054950639 -0.03067764172088537 -0.3898833956177819 
-0.1355191321923359 0.2243685614685925 -0.167575285918838 
-0.03717036145409396 0.1484684671790865 -0.2268091364452578 
-0.05483779869164839 0.4189386176068317 -0.7979654637465018 
-0.1355191321923359 0.2243685614685925 -0.167575285918838 
0.1130945429005733 -0.3978240321642167 0.2753216837219163 
-0.7067416338743285 0.6612273956505254 -0.1295160436886526 
-0.652117314790193 0.7667997233609434 -0.698153126289734 
0.1176972083926892 0.004912919702319421 -0.286830417051882 
-0.09238014618291167 -0.1972171863581847 0.296156877131378 
0.489768005245215 -0.204100411876229 -0.5146554481958203 
-0.1485174528392382 0.02745571018124114 -0.1634405072453242 
-0.7439253866251305 -0.0535890073688175 0.8557724708075379 
-0.1297867203971456 -0.336263199931059 0.6749834972203087 
0.1176972083926892 0.004912919702319421 -0.286830417051882 
0.2858709985700533 -0.3323078733030553 -0.03838239000850474 
-0.04800311485011219 0.005385042740352156 0.09183123430242646 
0.2858709985700533 -0.3323078733030553 -0.03838239000850474 
-0.06061620115186702 -0.04174240408518083 0.09193309137319525 
-0.06061620115186702 -0.04174240408518083 0.09193309137319525 
-0.1485174528392382 0.02745571018124114 -0.1634405072453242 
-0.9734961399952404 0.3561656471712448 0.8352259274017484 
-0.1297867203971456 -0.336263199931059 0.6749834972203087 
-0.09238014618291167 -0.1972171863581847 0.296156877131378 
-0.06543791750294976 -0.1333022168717228 0.2032388127909025 
0.7897245502300583 -0.5040194343904779 -0.9964398279478571 
0.1465780637039999 -0.06381010081981529 -0.03481289342945791 
0.1465780637039999 -0.06381010081981529 -0.03481289342945791 
0.03714574314898576 -0.02353541760107165 -0.007463011114421096 
-0.1473020398741255 -0.2767908803555311 0.1898352283768398 
-0.1473020398741255 -0.2767908803555311 0.1898352283768398 
0.1921362477421658 -0.1503558148721386 -0.1483047020333055 
0.1877160345425235 -0.1260756806604558 -0.06536613668924542 
0.1465780637039999 -0.06381010081981529 -0.03481289342945791 
0.1921362477421658 -0.1503558148721386 -0.1483047020333055 
0.03714574314898576 -0.02353541760107165 -0.007463011114421096 
-0.229314874299139 0.283293492683233 -0.09181111942838865 
0.03714574314898576 -0.02353541760107165 -0.007463011114421096 
0.1465780637039999 -0.06381010081981529 -0.03481289342945791 
0.03714574314898576 -0.02353541760107165 -0.007463011114421096 
0.06303707465354418 -0.04945197014700676 -0.01295483729014298 
0.05669177357169609 -0.2484325264520824 -0.01368193619904113 
0.02741980119341586 -0.009034087070553349 -0.006935499253068289 
0.05824249251640812 -0.02484061672391744 -0.01552180084827263 
0.05824249251640812 -0.02484061672391744 -0.01552180084827263 
0.02741980119341586 -0.009034087070553349 -0.006935499253068289 
-0.02760123597722632 -0.4883144726003125 0.3156910787017509 
0.02741980119341586 -0.009034087070553349 -0.006935499253068289 
0.05669177357169609 -0.2484325264520824 -0.01368193619904113 
0.02741980119341586 -0.009034087070553349 -0.006935499253068289 
0.8963345849928976 -0.3827911707380349 -0.3581523158045717 
0.06218778220536301 -0.03176443782779904 -0.01806362075318514 
0.1538917581821938 -0.1604757628251635 -0.02154262545069322 
0.06218778220536301 -0.03176443782779904 -0.01806362075318514 
0.06218778220536301 -0.03176443782779904 -0.01806362075318514 
0.06218778220536301 -0.03176443782779904 -0.01806362075318514 
0.1538917581821938 -0.1604757628251635 -0.02154262545069322 
0.06218778220536301 -0.03176443782779904 -0.01806362075318514 
0.06218778220536301 -0.03176443782779904 -0.01806362075318514 
-0.2014276249128763 -0.1995984568116912 0.2954567502331521 
0.06218778220536301 -0.03176443782779904 -0.01806362075318514 
0.06218778220536301 -0.03176443782779904 -0.01806362075318514 
0.02080318711965772 -0.01089612002618468 -0.005978484111815667 
0.5856805982581906 -0.5395557483895542 -0.5096572222902584 
0.02080318711965772 -0.01089612002618468 -0.005978484111815667 
0.02080318711965772 -0.01089612002618468 -0.005978484111815667 
0.1377090286549045 -0.1525969491268436 -0.01061503978783059 
0.02080318711965772 -0.01089612002618468 -0.005978484111815667 
0.02080318711965772 -0.01089612002618468 -0.005978484111815667 
0.02080318711965772 -0.01089612002618468 -0.005978484111815667 
0.02080318711965772 -0.01089612002618468 -0.005978484111815667 
0.02080318711965772 -0.01089612002618468 -0.005978484111815667 
0.5856805982581906 -0.5395557483895542 -0.5096572222902584 
0.06120933224194053 -0.02034447612200561 -0.01443589895015286 
0.06282875623667337 -0.02059033321843007 -0.0196366459677413 
-0.4413661327724866 -0.09639784604319625 0.5049121210450107 
0.06120933224194053 -0.02034447612200561 -0.01443589895015286 
0.159031106270468 -0.2486374676998208 -0.06463033121806384 
0.06120933224194053 -0.02034447612200561 -0.01443589895015286 
0.06120933224194053 -0.02034447612200561 -0.01443589895015286 
0.06120933224194053 -0.02034447612200561 -0.01443589895015286 
0.3813888101478131 -0.2923034771394128 -0.6278233595179876 
0.3813888101478131 -0.2923034771394128 -0.6278233595179876 
0.06120933224194053 -0.02034447612200561 -0.01443589895015286 
0.340807791748105 -0.2850187209533187 -0.6052539841031517 
0.02461250300475855 -0.01551832301137476 -0.007356789135619802 
0.02461250300475855 -0.01551832301137476 -0.007356789135619802 
0.04913423752301854 -0.03017275608270362 -0.2902259069936054 
0.02461250300475855 -0.01551832301137476 -0.007356789135619802 
0.02461250300475855 -0.01551832301137476 -0.007356789135619802 
0.02461250300475855 -0.01551832301137476 -0.007356789135619802 
0.04913423752301854 -0.03017275608270362 -0.2902259069936054 
0.02461250300475855 -0.01551832301137476 -0.007356789135619802 
0.2654750749293142 -0.1504247006138293 -0.1061619451698856 
0.01548618314386286 -0.02448263238628752 -0.001795988070572634 
0.01548618314386286 -0.02448263238628752 -0.001795988070572634 
0.1055234232115126 -0.100155821625486 -0.03990119411795756 
0.01739366222547857 0.08295679096298841 -0.4818115159913916 
0.06337063474626599 -0.06943198569171601 -0.02218169107610809 
0.01548618314386286 -0.02448263238628752 -0.001795988070572634 
-0.2057421208835757 0.2086805656435998 0.0002519853232649059 
-0.2057421208835757 0.2086805656435998 0.0002519853232649059 
0.01548618314386286 -0.02448263238628752 -0.001795988070572634 
0.01548618314386286 -0.02448263238628752 -0.001795988070572634 
0.04674858995320594 0.03816757563662978 -0.4836248408912669 
0.3705572107213253 -0.4552035621897877 -0.2683246539067866 
0.1055234232115126 -0.100155821625486 -0.03990119411795756 
0.3705572107213253 -0.4552035621897877 -0.2683246539067866 
-0.2673838756832713 0.2907088129646588 -0.03490073656875755 
-0.4090257922661273 0.5753251655172031 -0.1270148653180205 
-0.9859861385389748 1.152533218107397 -0.1552706965670737 
-0.0174484306942085 0.1083839233411276 -0.1675582023989542 
0.07533091913209797 -0.05589944293006913 -0.006936276945674371 
-0.0174484306942085 0.1083839233411276 -0.1675582023989542 
0.08618456453065924 -0.0639823669304266 -0.0116158823216178 
0.08618456453065924 -0.0639823669304266 -0.0116158823216178 
0.5533814401806049 -0.8178585493056595 -0.1350480676728975 
0.07533091913209797 -0.05589944293006913 -0.006936276945674371 
0.5284885738918504 -0.8050343357933517 -0.1306130781414258 
-0.4904416628660677 0.5410728440940126 -0.04032659944182985 
0.1271345978391202 -0.07080115438360934 -0.03922431671920918 
0.07377957383510385 0.1457982192733507 -0.305736854914727 
0.1919239738421006 -0.6073771062619887 0.02773551598421234 
0.07317765389684555 -0.04518993841090404 -0.2389849068042571 
0.07317765389684555 -0.04518993841090404 -0.2389849068042571 
-0.5604640460262175 -0.1789708915122581 0.4937029969856587 
1.103699869656931 -1.239382371325483 -1.147630326547751 
1.103699869656931 -1.239382371325483 -1.147630326547751 
-0.152260363719678 -0.4570009333693662 0.2277197158117505 
0.9977976018444774 -1.226222340935176 -0.9510081273052954 
0.1302563776211191 -0.1492030851129905 -0.0008032307805564741 
0.3260797750366121 -0.2649990745610851 -0.06103058148277551 
0.1302563776211191 -0.1492030851129905 -0.0008032307805564741 
0.02517586432072227 -0.04983629567344782 -0.02960313323462002 
0.1357451726872003 -0.1553804824165581 -0.001373521551732233 
0.2604998112202999 -0.2220269180412081 -0.03719770732976171 
0.256876401937579 -0.241967758728179 -0.01450264110928777 
0.256876401937579 -0.241967758728179 -0.01450264110928777 
-0.02050150498666575 0.09796525682050833 -0.2695224813988507 
0.1302563776211191 -0.1492030851129905 -0.0008032307805564741 
0.2321108821200574 -0.1882019596163617 -0.04810563551138323 
0.5315400077087804 -0.7602706572176058 -0.1032046741970698 
-0.2600773892971602 0.4740677184233612 -1.017623525923275 
-0.02050150498666575 0.09796525682050833 -0.2695224813988507 
-0.113599066000539 -0.008849354318438283 0.1610832303200367 
-0.2600773892971602 0.4740677184233612 -1.017623525923275 
0.1302563776211191 -0.1492030851129905 -0.0008032307805564741 
0.1802612942022148 -0.4647783321194795 -0.231455203484479 
0.01325801628502279 -0.1295578577687006 0.1878697460632379 
0.256876401937579 -0.241967758728179 -0.01450264110928777 
0.1302563776211191 -0.1492030851129905 -0.0008032307805564741 
-0.888301298630073 0.7422947092958646 -0.03056141275792349 
0.1802612942022148 -0.4647783321194795 -0.231455203484479 
0.4356604756939763 -0.3826947377895735 -0.2259988040441491 
0.3577219002798224 -0.3148960674547169 -0.6163965563236219 
0.2774657218633246 -0.148005352945238 -0.01772680059282654 
0.3577219002798224 -0.3148960674547169 -0.6163965563236219 
0.5077130169791952 -0.3267503895468213 -0.7141138968333581 
0.4356604756939763 -0.3826947377895735 -0.2259988040441491 
0.04438010606919451 0.08939485219551843 -0.1682545266092439 
0.1371168904521422 -0.09863174521204819 -0.04299066321531544 
0.3074848703666319 -0.1916827804318534 -0.1223622473033714 
0.005137013679461198 -0.004411049514419281 -0.0009812073182621011 
0.034587125586458 -0.05012490745740639 -0.003198032320171244 
0.034587125586458 -0.05012490745740639 -0.003198032320171244 
0.04896676678893025 -0.05990909182023731 -0.01591444633481951 
0.034587125586458 -0.05012490745740639 -0.003198032320171244 
0.3092748773019757 -0.3123703945906179 -0.2296012589885978 
0.04896676678893025 -0.05990909182023731 -0.01591444633481951 
0.3092748773019757 -0.3123703945906179 -0.2296012589885978 
0.6851670310491768 -0.6703071534029984 -0.8697551924380322 
1.20067919540439 -0.7813767977491869 -1.661973554385539 
-0.0465004909531403 0.07343740790278705 -0.2585364344906731 
0.034587125586458 -0.05012490745740639 -0.003198032320171244 
0.034587125586458 -0.05012490745740639 -0.003198032320171244 
0.034587125586458 -0.05012490745740639 -0.003198032320171244 
0.1119474890264334 -0.4168367542408212 -0.7246973541569056 
-0.0465004909531403 0.07343740790278705 -0.2585364344906731 
-0.4648435818187531 0.1288001810310033 0.3363295673767757 
-0.4648435818187531 0.1288001810310033 0.3363295673767757 
-0.2126576147935499 -0.4952493526846525 0.4692654228573239 
-0.2353980521450912 0.365013975236043 -0.06164394572042505 
-0.1790809717813151 0.3006054596611697 -0.1193451980425938 
-0.2353980521450912 0.365013975236043 -0.06164394572042505 
-0.3381844620855834 0.7187180471714887 -0.3878832175472871 
-0.3353757386993913 -0.06198538257327649 0.6665873571556566 
-0.09242938425320993 0.2627954129286366 -0.270531916315569 
-0.2353980521450912 0.365013975236043 -0.06164394572042505 
-0.01227755775151177 0.1711068872819944 -0.1399185007039062 
-0.09242938425320993 0.2627954129286366 -0.270531916315569 
0.1403168594132356 -0.1785945470128283 -0.3045763856846467 
-0.1648914671712011 0.08164312807129431 0.003745036911065346 
-0.1880306648825563 0.1070411234797459 0.1568651528534818 
0.1403168594132356 -0.1785945470128283 -0.3045763856846467 
-0.5840385090633762 0.05507203968133284 0.7425369480135385 
-0.2353980521450912 0.365013975236043 -0.06164394572042505 
-0.2353980521450912 0.365013975236043 -0.06164394572042505 
-0.3617686311159436 0.3260821931989891 0.3230478635558532 
-0.1426592883505995 0.1687922190387099 -0.07780431274375683 
0.4740523189565276 -0.4240243111284762 -0.6903839670321974 
0.03684601228488666 0.04725076110242612 -0.1285778538982683 
-0.268262439890619 0.318358423979749 -0.1270614702558722 
-0.1426592883505995 0.1687922190387099 -0.07780431274375683 
0.2571118924953524 -0.3360414104486259 -0.5008919834988026 
0.04787429628463119 0.04770100956440038 -0.1412706787750076 
-0.3608861224703535 0.3369904369571742 -0.01847769314620853 
0.2507649674560103 -0.3304566522568906 -0.4899147389085786 
-0.268262439890619 0.318358423979749 -0.1270614702558722 
-0.3617686311159436 0.3260821931989891 0.3230478635558532 
-0.06777759856498262 -0.01987727453338271 0.11939871765334 
-0.06777759856498262 -0.01987727453338271 0.11939871765334 
-0.3629954588809823 0.3390969201153276 -0.01728315031388479 
0.4717974513925377 -0.6436896625686537 0.03882005183084756 
-0.361933239867096 -0.01141129536725025 0.3928036682869777 
-0.361933239867096 -0.01141129536725025 0.3928036682869777 
-0.361933239867096 -0.01141129536725025 0.3928036682869777 
-0.361933239867096 -0.01141129536725025 0.3928036682869777 
0.4104900504627049 -0.2698208756278271 -0.4363714725088324 
-0.361933239867096 -0.01141129536725025 0.3928036682869777 
-0.0696062870413517 -0.179267455109386 0.1800901882850779 
0.4104900504627049 -0.2698208756278271 -0.4363714725088324 
-0.3591341571842772 -0.01300707303237768 0.390547967014368 
-0.361933239867096 -0.01141129536725025 0.3928036682869777 
-0.361933239867096 -0.01141129536725025 0.3928036682869777 
-0.2675111637174207 -0.04335824876189691 0.3353016305765433 
-0.361933239867096 -0.01141129536725025 0.3928036682869777 
-0.3907376642903467 0.22062850885712 0.4111388639623885 
-0.3907376642903467 0.22062850885712 0.4111388639623885 
-0.553530638081132 0.6145518662853857 -0.1700579974638381 
-0.553530638081132 0.6145518662853857 -0.1700579974638381 
-0.3649895440365681 -0.03329080719161553 0.4903190332921341 
-0.1044806857436447 0.08422880592117049 0.1079918575867958 
-0.399210269713859 -0.1700214769647073 0.6907215988992073 
-0.3649895440365681 -0.03329080719161553 0.4903190332921341 
-0.3649895440365681 -0.03329080719161553 0.4903190332921341 
1.264264060431618 -1.119505401315316 -0.5700418727822657 
-0.3649895440365681 -0.03329080719161553 0.4903190332921341 
-0.1044806857436447 0.08422880592117049 0.1079918575867958 
-0.399210269713859 -0.1700214769647073 0.6907215988992073 
0.4934864861880184 -0.7385332319929776 -0.1826763937263766 
-0.3513657014710562 -0.003176422562854768 0.3002295722764401 
-0.3513657014710562 -0.003176422562854768 0.3002295722764401 
-0.1997114079171813 -0.1164795368200851 0.2600510401062501 
-0.1997114079171813 -0.1164795368200851 0.2600510401062501 
0.6565786310534918 -0.7772748850924892 -0.5239510275492855 
0.1386466147199698 -0.4742963262468847 0.08482980975456095 
-0.7655524459614881 -0.3465691079652142 1.279082689696045 
-0.1100883398110106 -0.0835364695041232 0.04540414468461692 
-0.3513657014710562 -0.003176422562854768 0.3002295722764401 
-0.1100883398110106 -0.0835364695041232 0.04540414468461692 
0.04168715564010376 -0.441191224262989 0.1460755582224417 
-0.7655524459614881 -0.3465691079652142 1.279082689696045 
-0.3513657014710562 -0.003176422562854768 0.3002295722764401 
0.6565786310534918 -0.7772748850924892 -0.5239510275492855 
-0.2955295044989701 -0.03541196682287673 0.2818665184927011 
-0.5941747923793629 0.03752960644857769 0.6477579161795882 
-0.186264215452343 -0.1090995473512598 0.2903562827883452 
0.4532262123259462 -0.6463415787408877 0.198059193523894 
-0.6788084135961874 0.8051856136483501 0.239145874067054 
-0.4575793010659398 0.02979607466692253 0.4359901850182551 
0.2415800576229821 -0.8724539523625405 0.5820949672691899 
1.060129494521483 -1.343624097078548 0.2249364762311157 
-0.525540511223077 -0.005461693092102956 0.5459314371040522 
-0.525540511223077 -0.005461693092102956 0.5459314371040522 
0.05171876253261096 -0.04947695293147917 -0.5491112599957876 
0.2733410623337059 0.02074026933421676 -0.7228193434150011 
0.05171876253261096 -0.04947695293147917 -0.5491112599957876 
0.3499309054323754 -0.9723087003314206 0.3696181481777077 
-0.4575793010659398 0.02979607466692253 0.4359901850182551 
0.9611090704935968 -1.019012012678892 0.1019686448872501 
-0.5127069009333198 0.8540994478734182 -1.110214387659088 
0.01210605821571413 -0.001442157846620669 -0.01152313128568759 
0.01210605821571413 -0.001442157846620669 -0.01152313128568759 
1.312061321401281 -0.6243639122763195 -1.081000685645424 
0.7405979015772696 -0.04490238487614697 -1.300329120466151 
-0.8102745921513003 0.160395937859935 1.031700359355314 
0.2720975633636841 -0.1850441856942194 -0.123440938280912 
0.05189505528933058 -0.03444580441939348 -0.01505947291328869 
0.2720975633636841 -0.1850441856942194 -0.123440938280912 
0.05189505528933058 -0.03444580441939348 -0.01505947291328869 
0.08799271481936778 -0.0239450812212712 -0.08165726741135587 
-0.04213124678707127 0.08950366314128209 -0.2575860367307637 
-0.4464415713393756 0.453728929665409 -0.003338150489482163 
-0.04213124678707127 0.08950366314128209 -0.2575860367307637 
-0.3652523155416788 0.3666232147335026 -0.03031831205245963 
-0.3652523155416788 0.3666232147335026 -0.03031831205245963 
0.3303860923368371 -0.4018614658804652 -0.09052617945444065 
-0.4464415713393756 0.453728929665409 -0.003338150489482163 
0.3303860923368371 -0.4018614658804652 -0.09052617945444065 
0.1477860293505286 -0.08543234784140603 -0.2022669313179371 
-0.4306570807355521 0.5031088511824547 0.02863817003908534 
0.1630357171545632 -0.09756064841748564 -0.2102970379297691 
0.3166305227202694 -0.3095255287409623 -0.3097937865973122 
-0.4306570807355521 0.5031088511824547 0.02863817003908534 
-0.2216835775215403 0.1352868499328947 -0.002415587839689795 
-0.714439085629024 0.308933673913715 0.5573109025989322 
0.1262797145041272 -0.4129495708615029 0.1743578409959899 
-0.1071004402580893 0.2768017362032038 -0.1014062384392266 
-0.2247579938178354 0.3184420797325143 -0.0009225626497923677 
-0.2247579938178354 0.3184420797325143 -0.0009225626497923677 
-0.1943985733534571 0.3029003854641967 -0.0144584295683673 
0.0468446915194845 -0.2716707257512048 0.2207597370359711 
-0.5697984829308159 -0.1008057166628425 0.6994631749322371 
-0.5697984829308159 -0.1008057166628425 0.6994631749322371 
-0.6651206184641443 -0.01554614194327441 0.6521461397291644 
-0.1862578133414775 -0.1373998325126704 0.2238118241852754 
0.04942085356216353 -0.01826841567233139 -0.05379385683391802 
-0.00267117651056819 -0.04022444557432309 0.01242476664237876 
-0.00267117651056819 -0.04022444557432309 0.01242476664237876 
0.04942085356216353 -0.01826841567233139 -0.05379385683391802 
-0.2084119200719695 0.3627146996757482 -0.1071497800465922 
0.09696786877238392 -0.3302637665010894 -0.1382616022868701 
0.03864999985141748 -0.008261342397998372 -0.04382083644436624 
0.2481289843371071 -0.1693578526018432 -0.07805047102664397 
0.290903686665174 -0.175627039166012 -0.1448561921353881 
-0.101550394771897 -0.05527680452739141 0.2430932076848096 
0.2267754440715259 -0.2395650631063409 -0.03417926010469575 
0.05619590714705348 -0.02134616919411122 -0.02495721805906842 
-0.3253772340691666 -0.0002955067761214476 0.4710169833216867 
0.04248940910644869 -0.1949676944815787 0.1205726040776079 
0.4879503966380704 -0.6767198920105254 -0.4258282865888116 
-0.4437606994742717 0.03680278700327395 0.5052897514459624 
0.1886052115915979 -0.2810873778213744 0.0829423141208234 
0.7927513442544846 -0.7785206471891907 -0.915768558383447 
0.05619590714705348 -0.02134616919411122 -0.02495721805906842 
-0.3123923993258487 0.06965117035996551 0.3122765609309717 
0.04462953722526407 0.1613087823897494 -0.459170759314305 
0.006208589694858418 -0.002416589316771077 -0.006844370995399474 
0.03675549679059181 -0.02466537261176567 -0.01297450693156981 
0.1373499211298752 -0.04254301317474801 -0.09937470678627913 
0.1179672204954961 -0.0252728140627785 -0.1029216458665768 
0.5786001875290292 -0.3435993665975957 -0.4076325663820684 
0.1179672204954961 -0.0252728140627785 -0.1029216458665768 
0.4193666281805317 -0.2738479407812465 -0.2514236969409895 
0.006208589694858418 -0.002416589316771077 -0.006844370995399474 
0.4649804597850882 -0.2659052635248204 -0.1976795904506075 
-0.1638762138024613 0.4357019016635207 -0.2329632787270935 
-0.004603693959049044 -0.223146362448484 0.1147970301381471 
0.5275614782859693 -0.3598299073932289 -0.2162512748406287 
0.002179340165211402 -0.003310333432695127 -0.0003520641033539313 
-0.004603693959049044 -0.223146362448484 0.1147970301381471 
-0.1986082123294982 0.1699371795928895 -0.05227272973695094 
0.1484892573993927 -0.05666838461377875 -0.09065354973276514 
-0.1986082123294982 0.1699371795928895 -0.05227272973695094 
0.07913286203014393 -0.09537800914863512 -0.002651231299881638 
0.1484892573993927 -0.05666838461377875 -0.09065354973276514 
-0.08775527016035847 -0.03426278364541931 0.2721121616131223 
0.07913286203014393 -0.09537800914863512 -0.002651231299881638 
0.01257946367220368 -0.02221226099495791 -0.0009518161275000273 
0.09603676938649648 -0.06334426095738897 -0.0358510532687408 
0.03928696513309955 -0.01451406314009222 -0.02667500048435438 
0.09603676938649648 -0.06334426095738897 -0.0358510532687408 
0.1685692229225818 -0.1613742950486148 -0.1067877652926051 
-0.08460808418284968 -0.2105551161487397 0.266820682019742 
0.1685692229225818 -0.1613742950486148 -0.1067877652926051 
0.03928696513309955 -0.01451406314009222 -0.02667500048435438 
-0.08460808418284968 -0.2105551161487397 0.266820682019742 
-0.3801535166669099 -0.1278461086486082 0.5599697589009991 
0.103492324211434 -0.04953298886345944 -0.01345960477406886 
0.103492324211434 -0.04953298886345944 -0.01345960477406886 
0.103492324211434 -0.04953298886345944 -0.01345960477406886 
-0.0137744934672214 -0.0476770633310976 -0.02114832987319383 
0.103492324211434 -0.04953298886345944 -0.01345960477406886 
-0.05020885697097677 -0.1167744768996932 0.1448440140453864 
-0.4756504959957987 0.6046066109780845 -0.1508970195479605 
-0.05020885697097677 -0.1167744768996932 0.1448440140453864 
-0.4790472694434444 0.6284497431170719 -0.1908918443873663 
0.2489978028823691 -0.0639354413174394 -0.8137816036878381 
-0.2353686058837895 -0.1169321086040285 0.587473831978471 
-0.0137744934672214 -0.0476770633310976 -0.02114832987319383 
0.848985286706161 -0.5595774641577235 -0.4929438674282666 
0.1738484227811612 -0.1167522356959917 -0.09455733859049009 
0.1738484227811612 -0.1167522356959917 -0.09455733859049009 
0.06511579555338178 -0.002713477573778472 -0.0898511486969146 
0.06511579555338178 -0.002713477573778472 -0.0898511486969146 
0.05250478114003001 -0.1257144033842171 -0.02099083442046576 
0.1687204566960585 -0.1716955520295651 -0.1565294868250899 
0.06511579555338178 -0.002713477573778472 -0.0898511486969146 
0.1968419362716814 -0.1959067536346014 -0.03952784975212013 
0.1087326272277794 -0.1140387581222133 -0.004706189893575494 
0.2368735083829057 -0.2055292485809071 -0.1310399745358683 
0.2368735083829057 -0.2055292485809071 -0.1310399745358683 
-0.2955192973375323 0.312169582944604 -0.03331469365729534 
-0.2043627557257977 0.2050945673470744 -0.06509161734833888 
0.472176093407471 -0.8689619004295006 0.1781518396491153 
0.1087326272277794 -0.1140387581222133 -0.004706189893575494 
-0.3857771489107921 0.1839509089744137 -0.4343570780602835 
0.1791414061647068 -0.08709038982891393 -0.1090263350126958 
0.03233450764158483 -0.01575130540533291 -0.004709888449558913 
0.4406796231624824 -0.2448940779966367 -0.2373301121070239 
0.09761434471631826 -0.09707834254254778 -0.01954255202395752 
-0.0478803105911626 0.1525869850709782 -0.1222777524316008 
-0.01693928489222465 -0.1095054363090444 -0.04080424702987231 
-0.0478803105911626 0.1525869850709782 -0.1222777524316008 
0.03233450764158483 -0.01575130540533291 -0.004709888449558913 
0.09761434471631826 -0.09707834254254778 -0.01954255202395752 
0.03233450764158483 -0.01575130540533291 -0.004709888449558913 
0.03233450764158483 -0.01575130540533291 -0.004709888449558913 
0.2138768398773064 -0.2013558845410385 -0.1536613988831949 
0.1376975812894356 -0.2753858097064004 0.01564883244133344 
0.2138768398773064 -0.2013558845410385 -0.1536613988831949 
0.3983596968301624 -0.2377574164676229 -0.4714463316708812 
0.3678304604719386 -0.2132391741233526 -0.1805013617734401 
0.05609953973791583 -0.05518453991484283 -0.04818593960162499 
0.05609953973791583 -0.05518453991484283 -0.04818593960162499 
0.3282466992048607 -0.2926764261139762 -0.3687512243945648 
0.3983596968301624 -0.2377574164676229 -0.4714463316708812 
0.01077085371074606 -0.01000707327433302 -0.009973020389551775 
0.00350616247755905 -0.0006066848339114687 -0.00317830002053695 
0.00350616247755905 -0.0006066848339114687 -0.00317830002053695 
0.04673114273534812 -0.02312910152574705 -0.019251226962494 
0.5488176548317031 -0.301432914448778 -0.550280912162326 
0.5488176548317031 -0.301432914448778 -0.550280912162326 
0.04673114273534812 -0.02312910152574705 -0.019251226962494 
0.0005643396235543589 -0.0001607673323658601 -0.002201676299566015 
0.2953601158686857 -0.2516986018013581 -0.1559805383996354 
0.2093829919513243 -0.1400172511788595 -0.1069161857246935 
0.2093829919513243 -0.1400172511788595 -0.1069161857246935 
0.0005643396235543589 -0.0001607673323658601 -0.002201676299566015 
0.2953601158686857 -0.2516986018013581 -0.1559805383996354 
0.0005643396235543589 -0.0001607673323658601 -0.002201676299566015 
0.06486160488160861 -0.02174316820448875 -0.025845836375271 
0.05298635373635104 -0.0445095222655667 -0.02260621828390306 
0.05298635373635104 -0.0445095222655667 -0.02260621828390306 
0.3906705870041439 -0.2548120467935164 -0.4242274483383499 
0.06486160488160861 -0.02174316820448875 -0.025845836375271 
0.4320722517203417 -0.1969318463342582 -0.4974233151120093 
0.0005643396235543589 -0.0001607673323658601 -0.002201676299566015 
0.009588955806939286 -0.003669887770103564 -0.007036948644424203 
0.3906705870041439 -0.2548120467935164 -0.4242274483383499 
0.8603113493094764 -0.7564445749177332 -0.6773466839670057 
0.04855906583261102 -0.04272033409061926 -0.01860474201099923 
0.04855906583261102 -0.04272033409061926 -0.01860474201099923 
-0.03814010272030061 -0.03056826567990546 -0.02118179088724375 
0.04855906583261102 -0.04272033409061926 -0.01860474201099923 
0.04855906583261102 -0.04272033409061926 -0.01860474201099923 
-0.1825411278812969 0.2248358772481824 -0.09680130539502858 
-0.03814010272030061 -0.03056826567990546 -0.02118179088724375 
0.04855906583261102 -0.04272033409061926 -0.01860474201099923 
0.04855906583261102 -0.04272033409061926 -0.01860474201099923 
-0.04778838809690029 0.1198638410452886 -0.09635223117189662 
0.04855906583261102 -0.04272033409061926 -0.01860474201099923 
-0.007395380005448603 -0.00986178374897311 -0.02806050304316779 
0.4879356168421105 -0.4679800268888999 -0.2953796287795531 
0.2073470600130585 -0.2717407515667847 0.01797666248065746 
0.2073470600130585 -0.2717407515667847 0.01797666248065746 
0.1053117754249696 -0.1021245277719476 -0.02129023029884757 
-1.041089447984426 0.9901265505490316 0.3180846090307783 
0.1053117754249696 -0.1021245277719476 -0.02129023029884757 
0.1556159723554358 -0.1405489026575883 -0.02519717947344872 
0.479047532384366 -0.3255016040416541 -0.2729000706715785 
0.5840810723387749 -0.3869490630258363 -0.3546444035721109 
0.1503752331743168 -0.3877644890805428 -0.09716398259011653 
0.002583138539167533 -0.0003282494437180271 -0.001281730164119252 
-0.4281314559765821 0.422620197321348 -0.01505596613022664 
0.473673912671168 -0.3450150221106503 -0.3106241483506042 
0.08822717544378646 -0.1007717093509527 -0.02580421877191891 
-0.8028903438866216 0.9058134282896254 -0.175402889089539 
0.2930157954259012 -0.232879357840342 -0.08198029126445001 
0.1169080095674272 -0.06138016297861008 -0.1962336350646695 
0.3928969757926928 -0.4486748205027267 -0.08090945185507761 
0.08350326006642136 -0.07193268609469652 -0.04390023141500853 
0.08822717544378646 -0.1007717093509527 -0.02580421877191891 
0.03689735118581579 -0.05647623862721311 -0.005767842079875494 
0.03580516133098978 -0.05642295441775189 -0.005399676787581863 
0.03689735118581579 -0.05647623862721311 -0.005767842079875494 
0.1458366426814428 -0.02612467021977316 -0.1339710717485547 
0.2808505935337256 -0.1193326778359337 -0.1977766932076985 
0.2930157954259012 -0.232879357840342 -0.08198029126445001 
-0.271150639036834 0.5939165602314076 -0.7596269736061114 
0.03580516133098978 -0.05642295441775189 -0.005399676787581863 
0.05242201411279667 -0.04434875493320084 -0.02040454198433705 
-0.56527088157115 0.5799646190639152 -0.07277249264616464 
-0.56527088157115 0.5799646190639152 -0.07277249264616464 
0.05242201411279667 -0.04434875493320084 -0.02040454198433705 
0.05242201411279667 -0.04434875493320084 -0.02040454198433705 
0.7623647539094138 -0.7362040504903885 -0.4576698565481532 
0.05242201411279667 -0.04434875493320084 -0.02040454198433705 
0.7623647539094138 -0.7362040504903885 -0.4576698565481532 
0.2850967527359634 -0.3014229935185309 -0.08474927237149672 
0.2059977049093542 -0.7984992474796051 0.2372490100526533 
0.1513630980275679 -0.03824187375598061 -0.1577786308059825 
0.3519885828904687 -0.1662169842813115 -0.3586408137419566 
-0.1447200290694725 -0.138394997407069 0.3724732707250519 
-0.1447200290694725 -0.138394997407069 0.3724732707250519 
0.1513630980275679 -0.03824187375598061 -0.1577786308059825 
-0.8144540749992591 0.9666858251566055 -0.09103374636214234 
0.2457108578590222 -0.09047594378517031 -0.2957447678526473 
0.03851318681829836 -0.01909560697376485 -0.01506400578078282 
-0.03658330204786914 -0.3522848077783901 0.2630103416540879 
-0.03658330204786914 -0.3522848077783901 0.2630103416540879 
-0.8121644630126346 -0.04774671723071103 0.8553766835796732 
0.4391503072818856 -0.1764209740728327 -0.3156046049131133 
-0.2014538171527477 0.1109992586869742 0.02097800457015015 
0.0007112812821831995 -0.001307070207773796 -0.0002145561316248074 
0.04330120176615415 -0.04082974800323044 -0.009446989556601155 
0.04330120176615415 -0.04082974800323044 -0.009446989556601155 
-0.576064592219434 0.471488755429795 0.1708227956387609 
0.07808987705181833 -0.04804098310801323 -0.01188167229489709 
0.1647405264477899 -0.01982904211690473 -0.125323483123168 
-0.2035701238567111 0.2189741543937309 -0.007537875036703731 
-0.2035701238567111 0.2189741543937309 -0.007537875036703731 
0.0910729422999077 -0.03978427355453955 -0.07871284816012122 
0.07808987705181833 -0.04804098310801323 -0.01188167229489709 
0.0910729422999077 -0.03978427355453955 -0.07871284816012122 
0.0007112812821831995 -0.001307070207773796 -0.0002145561316248074 
0.1647405264477899 -0.01982904211690473 -0.125323483123168 
0.04763374576122374 -0.02521684918497466 -0.03553358231521726 
-0.3387291307676303 -0.07276427941724878 0.3197900572611011 
0.5545912804520108 -0.318363077471199 -0.4761816614993578 
0.4353264150502197 -0.2523693020785859 -0.4349347538617296 
-0.10039427422734 0.2084521241759144 -0.3391896889646399 
0.5545912804520108 -0.318363077471199 -0.4761816614993578 
-0.10039427422734 0.2084521241759144 -0.3391896889646399 
-0.3387291307676303 -0.07276427941724878 0.3197900572611011 
0.01868753212063359 -0.005930095136892203 -0.007907734149567348 
0.01868753212063359 -0.005930095136892203 -0.007907734149567348 
-0.1388306121224828 -0.09090595965697706 0.2501139708498279 
0.4353264150502197 -0.2523693020785859 -0.4349347538617296 
0.1691448848594983 -0.1338420009231716 -0.08194677570802464 
-0.06655923121366697 0.3618422730886731 -0.4076657005932057 
-0.06655923121366697 0.3618422730886731 -0.4076657005932057 
-0.2674445674185491 0.2320971852744868 -0.04053271332920329 
-0.2674445674185491 0.2320971852744868 -0.04053271332920329 
0.1709676019806817 -0.1164069396115144 -0.1139909982199643 
0.04643084654030143 -0.02590630588403585 -0.01530911410865827 
0.1709676019806817 -0.1164069396115144 -0.1139909982199643 
0.1320367284041435 -0.06141598002631173 -0.1127709418764251 
0.2181279004974473 -0.1482843150255046 -0.3414944671956819 
-0.02401552393453835 0.04939798913905476 -0.0629439044147358 
0.5483380564331046 -0.4541916701233491 -0.1593734639227433 
0.2115172454702323 -0.1473981902368665 -0.3296126892217034 
-0.6325278702393325 0.7564708393462363 -0.01389575759723376 
0.5483380564331046 -0.4541916701233491 -0.1593734639227433 
-2.650600327152431 2.577767213165649 -0.1431943265531842 
-0.8781452820945104 0.9469127294543819 -0.01417618251722995 
-0.02401552393453835 0.04939798913905476 -0.0629439044147358 
-0.274321859995077 -0.03513553289331796 0.2560054705562349 
-0.1323776282245331 -0.03083252407473434 0.1050635909710822 
-0.9828684408195943 -0.2668399686518664 1.240421651655294 
-0.1323776282245331 -0.03083252407473434 0.1050635909710822 
-0.274321859995077 -0.03513553289331796 0.2560054705562349 
-0.4336321114037908 0.4881696115110675 -0.08052166699403733 
-0.4336321114037908 0.4881696115110675 -0.08052166699403733 
-0.3740503132481818 0.357091063227589 -0.008965576088849445 
-0.3740503132481818 0.357091063227589 -0.008965576088849445 
-0.3740503132481818 0.357091063227589 -0.008965576088849445 
-0.3740503132481818 0.357091063227589 -0.008965576088849445 
-0.3439527729512829 0.4900670773014632 -0.1426743025643908 
0.176510430745065 -0.1620974884114602 -0.1427974722178948 
-0.3740503132481818 0.357091063227589 -0.008965576088849445 
-0.9153344864395733 0.789691746568681 0.3251762351496479 
0.3679740154854641 -0.2726550180100447 -0.3075781631873214 
0.3679740154854641 -0.2726550180100447 -0.3075781631873214 
-0.9153344864395733 0.789691746568681 0.3251762351496479 
0.176510430745065 -0.1620974884114602 -0.1427974722178948 
-0.4628407975242229 0.498585614137644 -0.00369697649067275 
-0.06160166309037562 0.4354942558299232 -0.901263099158891 
-0.03661796094686673 0.1118413420069434 -0.08127901030330022 
-0.06237988806612097 0.1634976885770065 -0.1714074947724072 
-0.05947861600761029 0.2075542737297078 -0.2151975215123479 
-0.4628407975242229 0.498585614137644 -0.00369697649067275 
-0.05947861600761029 0.2075542737297078 -0.2151975215123479 
-0.4055104040488933 0.4381564155791186 -0.009806129774076439 
-0.4628407975242229 0.498585614137644 -0.00369697649067275 
0.2873269494311125 -0.3213887019272033 -0.06545032154004717 
0.1838636228527487 0.1917808955227068 -0.4091452871180217 
-0.3248290520238419 0.3355475137741426 -0.006643683888663676 
-0.4628407975242229 0.498585614137644 -0.00369697649067275 
-0.4628407975242229 0.498585614137644 -0.00369697649067275 
-0.3080301096290546 -0.02130573053811552 0.3416888221507024 
-0.5391034294247862 -0.01257009553401221 0.6755855446409176 
-0.5391034294247862 -0.01257009553401221 0.6755855446409176 
0.2011189135926761 -0.1385293744723602 -0.1323025249274994 
-0.5391034294247862 -0.01257009553401221 0.6755855446409176 
0.5987983461613279 -0.7259394498630516 -0.8327697899670375 
-0.5391034294247862 -0.01257009553401221 0.6755855446409176 
0.1798980961304323 -0.1044091001832591 0.04629561574731392 
-0.5447783375946306 -0.00380777917206486 0.4870135640271701 
-0.5447783375946306 -0.00380777917206486 0.4870135640271701 
-0.6044237924910958 -0.0356600689788183 0.4492330274730642 
0.2998285400671381 -0.1365764296122637 -0.1836776499520266 
-0.2188031809160146 -0.2021217269050896 0.1336306314210301 
-0.06300993512800004 -0.2900536575315585 0.2457845021363448 
0.1150191774662612 -0.0525815570505463 -0.04653324720223267 
0.4210687307309115 -0.3557460091815347 -0.1242050514158396 
0.2752107322947148 -0.2448240488083891 -0.06404346850116963 
0.3076105715046895 -0.2559377973348233 -0.1418439143426686 
0.07402878303753667 -0.02919977906408806 -0.02316278814567834 
0.0977345155656927 -0.4027613317345182 0.3097750708521576 
-0.06476760244032564 0.06337052798169002 -0.008275757899058456 
-0.06476760244032564 0.06337052798169002 -0.008275757899058456 
0.8114109784285457 -0.6451071899584071 -0.7341036662601013 
0.1854376690421234 -0.2870962447013021 0.07237460770649153 
-0.3143620644212156 0.2855712438637598 -0.008832173610393608 
0.05588488088801585 0.02836858992006538 -0.07844370077058775 
-0.4796856985663581 0.4123261943343261 0.2239277938575354 
0.03802197771091715 -0.01050892148103185 -0.0193468975968553 
-0.07128745986820717 -0.2186004243473398 0.1246677279972221 
-0.02408389185916049 0.3401426901624277 -0.5258061667839362 
-0.3143620644212156 0.2855712438637598 -0.008832173610393608 
0.2444025772817862 -0.1678796814048953 -0.0632758986080422 
1.044754009552833 -0.86471795750345 -0.4951218573051794 
-0.4796856985663581 0.4123261943343261 0.2239277938575354 
0.1196556440407011 -0.0879310254196904 -0.01671126603392172 
0.1236565417010073 0.1251959488648774 -0.2947833447933209 
-0.8102323480969637 0.4269108972928568 0.4816156813238493 
0.8022012194784953 -0.3156592058701008 -0.9255454748365372 
-0.3824159573286147 0.3272489944894753 -0.009194370275578085 
-0.3824159573286147 0.3272489944894753 -0.009194370275578085 
-0.1550920014392663 0.2383646782694459 -0.0586751836572724 
-0.3908635968758636 0.4926939678140126 -0.06302866281860063 
0.1236565417010073 0.1251959488648774 -0.2947833447933209 
0.3824165290625127 -0.6513060199037272 -0.1043106383949247 
0.2125429575551652 -0.3641486795711329 -0.1330065020861222 
0.2125429575551652 -0.3641486795711329 -0.1330065020861222 
-0.4140842251692098 0.3432966867097986 0.006944929786011954 
-0.698520645369015 -0.002942554169823875 0.6358066707650639 
-0.2782342900119564 0.02472760697522344 0.3247773043799478 
0.04354406313149557 -0.01955410327510104 -0.03870876724695451 
0.03910471476315151 -0.01928307947273632 -0.03262525647158889 
0.04354406313149557 -0.01955410327510104 -0.03870876724695451 
0.03910471476315151 -0.01928307947273632 -0.03262525647158889 
0.2032952547219158 -0.0929565472724324 -0.1343030746008196 
0.03910471476315151 -0.01928307947273632 -0.03262525647158889 
0.04175709973733781 -0.04866354347692673 -0.005767770498979737 
-0.1419082220197602 0.209485892955269 -0.0644138834609693 
0.1644162393097057 -0.2687971178512191 -0.1179156843345597 
0.1644162393097057 -0.2687971178512191 -0.1179156843345597 
-0.1419082220197602 0.209485892955269 -0.0644138834609693 
0.3593064511633683 -0.4446530837698948 -0.3136458734421225 
0.3593064511633683 -0.4446530837698948 -0.3136458734421225 
0.2150442462189455 -0.2150741845187958 -0.07179893916985805 
0.07221971776398396 0.04595097274459293 -0.4771072968544654 
-0.1198739020954418 0.1323947680493949 -0.07049930779131625 
-0.1198739020954418 0.1323947680493949 -0.07049930779131625 
0.07221971776398396 0.04595097274459293 -0.4771072968544654 
0.04175709973733781 -0.04866354347692673 -0.005767770498979737 
0.2598464143586464 -0.2574076884392558 -0.07729544810898314 
-0.05707731568949046 -0.001220930336122779 -0.02220364637871999 
-0.05707731568949046 -0.001220930336122779 -0.02220364637871999 
0.247878245813697 -0.008015052019155703 -0.3669024592272209 
0 0 0 
0.247878245813697 -0.008015052019155703 -0.3669024592272209 
0.3094540820319848 -0.07379770107599858 -0.4317243963521443 
0.2361743503210915 0.01145384695537686 -0.427926170771267 
0.1053149712506408 -0.1362348808237165 -0.3280071912852204 
0.1053149712506408 -0.1362348808237165 -0.3280071912852204 
-0.409495219918395 0.5241964791685654 -0.05356081391291661 
0.09698060673483665 0.1746409741725157 -0.1687609557864168 
-0.2467811643583258 0.4111497798307413 -0.08499295169520726 
-0.5685114700216556 0.3389530651542045 0.3668174477546879 
0.1408095540467399 -0.04510280612773405 -0.07514591289630723 
-0.0535536563793791 0.2383829191988519 -0.1267008704836426 
0.3903185223998206 -0.8136104763160128 0.5708417926617557 
-0.2931751223024855 0.4200512297183603 -0.04856956734237335 
-0.2931751223024855 0.4200512297183603 -0.04856956734237335 
0.3543308427991917 -0.2293621902689795 -0.4495143870590483 
0.3543308427991917 -0.2293621902689795 -0.4495143870590483 
-0.5480864230330558 0.5283419042272887 -0.002945325572814916 
-0.2594321081991597 0.4471287063914451 -0.238875107185844 
-0.5480864230330558 0.5283419042272887 -0.002945325572814916 
-0.5480864230330558 0.5283419042272887 -0.002945325572814916 
-0.1738144172269886 0.1282503077576169 0.1240430422817821 
-0.5545865209004716 0.3884658757839639 0.2758132726391126 
-0.4795865834925135 0.5011164215194135 -0.2958395903216463 
0.1947000956605968 -0.3054597193734696 0.03511318980966747 
-0.4271900271683932 0.2621703772905893 0.1870761147209689 
0.1264993622159479 0.092726777366599 -0.3857656550587067 
-0.2215790459093 0.04514162410671905 -0.1816014513706628 
-0.01665443952252835 0.09753470108116556 -0.05271351579838216 
-0.4271900271683932 0.2621703772905893 0.1870761147209689 
-0.3833689073294029 0.4932508820978187 -0.01238755975090268 
-0.2375696526697177 0.1330439973397159 0.07726814197731947 
-0.1639217495214746 0.07397575210493886 0.06212543175018392 
-0.1212611257830922 -0.1154968553115497 0.2192594097945836 
-0.4896601651238219 0.5920911596334335 -0.1420137126156972 
-0.1212611257830922 -0.1154968553115497 0.2192594097945836 
-0.1212611257830922 -0.1154968553115497 0.2192594097945836 
-0.5425483601979482 0.323733805249398 0.1576724266059003 
-0.04475565557074873 -0.0002182259287072479 0.05685873013962216 
-0.1212611257830922 -0.1154968553115497 0.2192594097945836 
-0.1212611257830922 -0.1154968553115497 0.2192594097945836 
-0.04475565557074873 -0.0002182259287072479 0.05685873013962216 
-0.1212611257830922 -0.1154968553115497 0.2192594097945836 
0.09837267846863491 -0.2990949846319634 0.1188588129868598 
-0.1212611257830922 -0.1154968553115497 0.2192594097945836 
-0.1212611257830922 -0.1154968553115497 0.2192594097945836 
0.1018465014372245 -0.3069629568937428 0.1483165459957207 
-0.1212611257830922 -0.1154968553115497 0.2192594097945836 
-0.3148315433566504 -0.2410102606614647 0.4457622960855316 
-0.3148315433566504 -0.2410102606614647 0.4457622960855316 
-0.2688044775730174 -0.2665582430728348 0.4449382553897101 
-0.2688044775730174 -0.2665582430728348 0.4449382553897101 
-0.3379739328142345 0.1060649953342922 0.08575632031158008 
-0.01818496608166505 -0.2434154463805759 0.1827902934315348 
0.4809990583805066 -0.2359505681925661 -0.625352025406564 
-0.4432701816646822 0.1561572126864407 0.1933764419066319 
-0.1667050081383319 -0.07779862336585228 0.1755921438770357 
0.4809990583805066 -0.2359505681925661 -0.625352025406564 
-0.122120991151884 -0.3519498435447154 0.4599993199421725 
0.02358467220763716 -0.04732003264447071 -0.1300468052117168 
-0.04382111983899019 -0.2310805048072294 0.1994636744718715 
0.01277046160727445 -0.1230294342298539 -0.01996660654747939 
-0.4147012189300568 -0.03107432417268034 0.4850237719488831 
0.2330438736924199 -0.251034444653283 -0.2348693606396829 
0.04981004618290961 -0.2396788897984389 0.3367200387416787 
-0.3592039346831077 0.3639933479498186 -0.06723817309469543 
0.2330438736924199 -0.251034444653283 -0.2348693606396829 
-0.4888979318196202 -0.02232769179517061 0.5308071098054558 
-0.161880429950622 0.2908755507858917 -0.09749755843034563 
-0.3796933873417888 -0.4126577531336826 0.2169173522282813 
0.01277046160727445 -0.1230294342298539 -0.01996660654747939 
-0.4888979318196202 -0.02232769179517061 0.5308071098054558 
0.1257665706270815 -0.1531418608414438 -0.003657625750872503 
0.1257665706270815 -0.1531418608414438 -0.003657625750872503 
0.166190733686458 -0.1808727904541282 -0.04737021696865722 
0.05155846852967976 -0.04766411661878439 -0.003099053966409384 
0.05155846852967976 -0.04766411661878439 -0.003099053966409384 
-0.1967416091287012 -0.01168690187224639 0.2671855012615796 
0.166190733686458 -0.1808727904541282 -0.04737021696865722 
-0.1967416091287012 -0.01168690187224639 0.2671855012615796 
0.08089149011824989 0.07376557654230743 -0.09808225569815632 
0.220624559456422 -0.1839878174083831 -0.093861437950538 
-0.01786835083609347 0.07731357788502646 -0.06183182810958246 
0.220624559456422 -0.1839878174083831 -0.093861437950538 
-0.01786835083609347 0.07731357788502646 -0.06183182810958246 
-0.6401724822047214 0.6651715015235252 -0.1643103077420197 
-0.1983078697106281 0.1892880443823212 -0.0516900866226833 
-0.1983078697106281 0.1892880443823212 -0.0516900866226833 
-0.07770071427641115 0.1588206464755981 -0.370131783283135 
0.07638949638399146 -0.05774044616660536 -0.04891593632964656 
0.4026418087217724 -0.1950426150658377 -0.7417974361971647 
-0.4074323113720951 0.5551763916312977 -0.2703306754180596 
-0.06806368216817521 0.04015107612570159 -0.04027649457215182 
-0.3149961069131125 0.2719238535814602 -0.05867545787000565 
-0.3054105956096171 0.3934936514774356 -0.1216378441208295 
-0.3850749284840123 0.3370594110450851 -0.1219850837044806 
-0.02945156471099786 0.01686263638922243 -0.05538949483137485 
-0.007146603800551538 0.0080962801232289 -0.09678121069407784 
-0.007146603800551538 0.0080962801232289 -0.09678121069407784 
-0.02945156471099786 0.01686263638922243 -0.05538949483137485 
-0.3449715297263738 0.434769142205353 -0.1094538126415383 
0.07638949638399146 -0.05774044616660536 -0.04891593632964656 
-0.06510227503369447 0.07717393339023892 -0.03047912180287087 
-0.06510227503369447 0.07717393339023892 -0.03047912180287087 
-0.06311403196979629 0.04045981220802911 -0.01534084628788167 
-0.1069297008836875 0.1103596545150434 -0.01384809019414899 
-0.1069297008836875 0.1103596545150434 -0.01384809019414899 
-0.08155047631474788 0.09792531981760567 -0.01808812594688334 
-0.1069297008836875 0.1103596545150434 -0.01384809019414899 
-0.06311403196979629 0.04045981220802911 -0.01534084628788167 
-0.1069297008836875 0.1103596545150434 -0.01384809019414899 
0.266870156181474 -0.1552404533692216 -0.3219866626038105 
-0.2433898875456791 -0.09981340334620742 0.2329471755526523 
-0.2433898875456791 -0.09981340334620742 0.2329471755526523 
-0.636066761193164 -0.03634741857536021 0.7061281388140008 
0.01830193523882095 -0.09614065304613276 0.006024143021889347 
-0.008783216505476258 0.3323834731590289 -0.4536412815082828 
-0.357439672296921 -0.01864941016181481 0.4141664661840321 
-0.7465317299487568 0.5213390086201816 0.2768567463268118 
-0.4230203690244293 -0.01214971615639649 0.5952722763051143 
-0.2866516634873653 -0.09522438139886984 0.5631774449181473 
-0.2866516634873653 -0.09522438139886984 0.5631774449181473 
-0.1156716321193906 0.08233830429571853 -0.06743337681656174 
-0.1156716321193906 0.08233830429571853 -0.06743337681656174 
-0.3392499617567818 0.1216841651579479 0.3610431113282541 
0.2312814419893487 -0.3142442414623183 -0.1543100719736274 
-0.3928883423982841 -0.155764640548421 0.7850971791385196 
0.2162148762198795 -0.2958226199893813 -0.1307450282831537 
-0.4230203690244293 -0.01214971615639649 0.5952722763051143 
-0.2757151050982 -0.1008369606018385 0.5586849878338563 
-0.2757151050982 -0.1008369606018385 0.5586849878338563 
-0.6308153069689793 0.1661902987425805 0.4642011825095633 
-0.6889043331423685 -0.06607465208515394 1.062161151681932 
0.6096100438891926 -0.5621454488027593 -0.5379324384266201 
-0.488416508012222 -0.1125348994227406 0.4192430738883228 
-0.488416508012222 -0.1125348994227406 0.4192430738883228 
-0.603230108626959 -0.0009156444206794359 0.3737487007670296 
0.06978419088792299 -0.03298230896931702 -0.07625743702784239 
0.078058818290383 -0.0351455438621304 -0.08743590772025069 
0.06978419088792299 -0.03298230896931702 -0.07625743702784239 
0.078058818290383 -0.0351455438621304 -0.08743590772025069 
0.06978419088792299 -0.03298230896931702 -0.07625743702784239 
0.06978419088792299 -0.03298230896931702 -0.07625743702784239 
0.06978419088792299 -0.03298230896931702 -0.07625743702784239 
0.2893595576272146 -0.1500547171008597 -0.3014997348980705 
0.06978419088792299 -0.03298230896931702 -0.07625743702784239 
-0.02513580930432046 -0.1721962360493233 0.04768715327630737 
0.6319034168243204 -0.5139112945897282 -0.7790788366591203 
0.2892050543921439 -0.3479512511475329 0.07647863628309952 
-0.006564304878699917 -0.203001678600667 0.04542287947873322 
0.02321132039875505 -0.01965297649714317 -0.00991459340907188 
0.6816482970112598 -0.494174777051894 -0.5474970896941163 
1.060325913929859 -0.7264451895814937 -1.320638516391384 
0.02321132039875505 -0.01965297649714317 -0.00991459340907188 
-0.358725398236908 0.6575937835802976 0.06733762264602891 
0.0456850857479771 -0.06052246736510433 -0.01495914971682867 
0.0456850857479771 -0.06052246736510433 -0.01495914971682867 
0.06926339491893067 -0.07544936167700973 -0.02493816800873013 
0.0456850857479771 -0.06052246736510433 -0.01495914971682867 
0.05770218218453352 0.1001833327506664 -0.2298221385836531 
0.0456850857479771 -0.06052246736510433 -0.01495914971682867 
0.0924105242487811 -0.07667403696583644 -0.01939237507015684 
0.1028976213682138 -0.0833641249669636 -0.02313233658838432 
0.05053553023993095 -0.06841668220838303 -0.02042511876951632 
0.0456850857479771 -0.06052246736510433 -0.01495914971682867 
0.05770218218453352 0.1001833327506664 -0.2298221385836531 
0.0456850857479771 -0.06052246736510433 -0.01495914971682867 
0.0456850857479771 -0.06052246736510433 -0.01495914971682867 
0.0456850857479771 -0.06052246736510433 -0.01495914971682867 
0.06926339491893067 -0.07544936167700973 -0.02493816800873013 
0.2826706828216899 -0.1718659674701243 -0.2008625999042629 
-0.1491203717619752 0.01529921438067787 0.05807821057016278 
0.2826706828216899 -0.1718659674701243 -0.2008625999042629 
0.03823231162326902 -0.01300403419111605 -0.005980439679660076 
0.03823231162326902 -0.01300403419111605 -0.005980439679660076 
0.03823231162326902 -0.01300403419111605 -0.005980439679660076 
0.03823231162326902 -0.01300403419111605 -0.005980439679660076 
-0.1491203717619752 0.01529921438067787 0.05807821057016278 
0.03823231162326902 -0.01300403419111605 -0.005980439679660076 
0.24140139204202 -0.1796867197018566 -0.1427714228981792 
0.03823231162326902 -0.01300403419111605 -0.005980439679660076 
0.05293501410941376 -0.02594347630104241 -0.01025932737488166 
0.03823231162326902 -0.01300403419111605 -0.005980439679660076 
0.03823231162326902 -0.01300403419111605 -0.005980439679660076 
0.09727260487770741 -0.04195297095243636 -0.09141235116689797 
0.1239898711277088 -0.08214974452636643 -0.09500610498775547 
0.09727260487770741 -0.04195297095243636 -0.09141235116689797 
0.07321550363325167 -0.03933577672156942 -0.07159953851461498 
0.04773278918182663 -0.002369805795742241 -0.05965093564272184 
0.04773278918182663 -0.002369805795742241 -0.05965093564272184 
0.3409095147675359 -0.05649760267878825 -0.3938855672954202 
0.2808841011422969 -0.04965901462643226 -0.2934865019605384 
0.1750066126799069 -0.1263623635321518 -0.1201748495581806 
0.09967267808758506 -0.1104030540637572 -0.05092636811231253 
-0.06693105955830235 0.05812645689840385 -0.02893553430268565 
0.1928579419921607 -0.2005112851960571 -0.1054838987208287 
0.3902654988789536 -0.2637068843649817 -0.2054548334500098 
-0.06693105955830235 0.05812645689840385 -0.02893553430268565 
0.09967267808758506 -0.1104030540637572 -0.05092636811231253 
0.1768385000438286 -0.1944609802746505 -0.09897594497586992 
0.1928579419921607 -0.2005112851960571 -0.1054838987208287 
0.1768385000438286 -0.1944609802746505 -0.09897594497586992 
0.1545532474694531 -0.2285709049188354 -0.04353674149822356 
0.06141148042962363 0.2212236927556673 -0.5902990101049699 
0.3122862179840246 -0.2028169985002237 -0.5690213512516741 
0.02761062018137894 -0.01670717032171001 -0.01662597813552225 
0.02761062018137894 -0.01670717032171001 -0.01662597813552225 
0.02761062018137894 -0.01670717032171001 -0.01662597813552225 
0.02761062018137894 -0.01670717032171001 -0.01662597813552225 
0.05782851090101795 -0.02613706119930126 -0.01604942075620963 
-0.2327330397797113 0.273493156711089 0.03762122416158155 
-0.549295866331081 0.409607640004993 0.1977853343995057 
0.04184044780837554 -0.0229698537210714 -0.03681039915453342 
0.1377995722087884 -0.02735954301288149 -0.1722829733073718 
0.8704818771011185 -0.5010083839334162 -0.8284170799309113 
0.04184044780837554 -0.0229698537210714 -0.03681039915453342 
0.05782851090101795 -0.02613706119930126 -0.01604942075620963 
0.01878336095299019 -0.009054636865069307 -0.01114117640192197 
-0.4314790717352925 0.5554317982722435 -0.01010648665970225 
0.4526247481566648 -0.3354006428249676 -0.1274316480793256 
