solver_type L2R_LR
nr_class 3
label 10 24 25
nr_feature 63528
bias -1
w
0.2613557112496039 -0.02095703069634433 -0.2324136489748934 
0.1030261747867718 -0.6110097860906685 -0.1854896311240904 
-0.3766288919075748 -0.5208292160336807 0.3491823367768956 
0.2613557112496039 -0.02095703069634433 -0.2324136489748934 
0.5500644800598091 -0.5311751024342716 -0.4252015181299447 
0.01510063786761701 -0.6457938277256999 -0.02488845888803536 
-1.053611676052149 0.233661915644255 0.8252344885910499 
0.9540268666714905 -0.9784009538214956 -0.7800186081986779 
0.4241921819462636 -0.4027062282845419 -0.2078135690267606 
0.01510063786761701 -0.6457938277256999 -0.02488845888803536 
1.836316242736456 -0.1615210038700644 -2.125352178812979 
0.5705170456149634 -1.324677709277988 -0.4753598323496313 
0.4555760365846397 -0.1554642490565606 -0.4162670248174462 
0.1030261747867718 -0.6110097860906685 -0.1854896311240904 
0.2156527320817727 -0.08694169011650323 -0.1609521224716216 
0.01340459041695967 -0.001592749253276612 -0.01340814172064776 
0.1725604857066441 -0.6366173460880077 -0.1491143343026479 
0.1725604857066441 -0.6366173460880077 -0.1491143343026479 
0.9484019386038242 -1.945496510289799 -0.9068958539666448 
0.4251042618950408 -1.526830382215522 -0.3748077211893197 
0.06019649190283469 -0.04342903322985818 -0.0229261455770564 
2.187433485805237 -0.584560530386388 -2.076960685381351 
0.005173307122266528 -0.0008169564720511228 -0.007754830169088038 
0.4251042618950408 -1.526830382215522 -0.3748077211893197 
0.01340459041695967 -0.001592749253276612 -0.01340814172064776 
-0.397532077171461 -0.006384532149412564 0.3696969174147892 
0.2774843256231065 -0.1540838384672756 -0.1792449480984907 
1.022583325881275 -0.1495759663958635 -1.046284331264288 
0.1814764332665628 -0.2620883260163826 -0.06458911288110172 
0.3199718111788766 0.1125695497016954 -1.103446105087621 
-0.1140588901866111 -0.09839814778143527 0.1112647341934679 
0.02462353653257063 -0.005707565476788465 -0.01017232671151175 
-0.402349422386409 -0.1273862446606407 0.3161505600386705 
-0.1140588901866111 -0.09839814778143527 0.1112647341934679 
-0.04162673610774449 -0.351197675205698 0.1381650197810084 
0.3810302929103072 -0.2133240744672252 -0.6484278817442128 
1.709246161393459 -1.463436423886505 -1.587066356447128 
0.3750569210817533 -0.3118735590057148 -0.207931030580125 
0.09810158566694807 -0.4477129020904099 0.1113797928848286 
0.1609898342800279 -0.06447773503086439 -0.2877108421942026 
-0.004938354122126303 -0.2366693616693678 -0.03260462735780421 
0.3810302929103072 -0.2133240744672252 -0.6484278817442128 
0.1273271702778737 -0.02645579396561223 -0.09223107879386161 
0.02462353653257063 -0.005707565476788465 -0.01017232671151175 
0.05709762481033556 -0.02999410261741292 -0.05683245837139739 
0.06948964503738594 -0.0372255571638474 -0.06960984000360218 
0.06948964503738594 -0.0372255571638474 -0.06960984000360218 
0.3093258248257884 -0.3236396365868076 -0.3044762658315308 
0.3093258248257884 -0.3236396365868076 -0.3044762658315308 
-0.08172080307908507 -0.4045488251017818 0.03172483569693677 
0.2951605793258397 -0.1895752354700495 -0.3638821846074177 
0.05709762481033556 -0.02999410261741292 -0.05683245837139739 
0.040012865318104 -0.003696018838485204 -0.04324224620018848 
-0.1424365482706585 -0.02501453679588131 0.1684633774180219 
0.1441497932594682 -0.3280638482428175 -0.2855714212074456 
-0.04246407352501354 -0.08264265540344531 0.1618535620920831 
0.06444276530882354 -0.008996182115495684 -0.06660265086352657 
0.1040381011821373 -0.01546456531267923 -0.1005888102648086 
-0.239515094909412 -0.1183414036260227 0.4255841692355499 
0.06444276530882354 -0.008996182115495684 -0.06660265086352657 
0.2951605793258397 -0.1895752354700495 -0.3638821846074177 
-0.1424365482706585 -0.02501453679588131 0.1684633774180219 
1.749178955737533 -2.360528368214491 -1.780688549178018 
0.01107713116104718 -0.003770445621605977 -0.01061550927934901 
0.01107713116104718 -0.003770445621605977 -0.01061550927934901 
0.1424128485731651 -0.5813681437456286 -0.02593712669645037 
0.04348663715782349 -0.008272891684791811 -0.05324880437430906 
0.01107713116104718 -0.003770445621605977 -0.01061550927934901 
0.3771500278108293 -0.2068271759955652 -0.6072695764279878 
0.7521600533270494 -0.6668948912359783 -0.5364095452991494 
0.08656904224747179 -0.02326736658428235 -0.07069244855674607 
0.02947677971928193 -0.0335295383253622 -0.02636759380341369 
0.02947677971928193 -0.0335295383253622 -0.02636759380341369 
0.3771500278108293 -0.2068271759955652 -0.6072695764279878 
0.01107713116104718 -0.003770445621605977 -0.01061550927934901 
0.09672837787632529 -0.4281002725184282 0.1295349793782271 
-0.09459355688837381 -0.3352688575094304 -0.06396754002526352 
0.4223803637367138 -0.2961094417314779 -0.5765890587983926 
0.4164369269412167 -0.2916093422150465 -0.5711943491640443 
0.7616707973155521 -0.7572005516413191 -0.5911377978142056 
-0.04332430737681691 0.8020495933833148 -0.9251566834817329 
0.003260937528058671 -0.006135408964164999 -0.001150283199584834 
0.002757398646145153 -0.005967609665652898 -0.0003607563267300452 
0.3020767389788953 0.02916637752611326 -0.5987208597447591 
0.2866099805282775 0.1343702913270696 -0.7241424753188302 
0.8659426914632182 -0.607979964000615 -1.010986644151313 
0.3287423121605714 -0.6496204884581257 -0.3455943816784262 
-0.2293737910879453 -0.01488211166726356 0.2573449722536146 
0.2482791384963857 -0.3694872251840404 -0.02357182869302512 
1.328148933679124 -0.9955091261414849 -1.184417628263748 
-0.2277859717748688 -0.0150620555259123 0.25617580188934 
0.1463544223648372 -0.05213058333455613 -0.1555453190643891 
0.1463544223648372 -0.05213058333455613 -0.1555453190643891 
0.7283340126608679 -0.4231398090041145 -0.6755767431479096 
0.3554299277000154 -0.1908363794582228 -0.2913447016821364 
0.9198340153977389 -0.5112943353173417 -0.8742341645069219 
1.469719370882308 -1.046124178360487 -1.502169484846479 
0.784296789563537 -0.9444699024860616 -0.8480232940331042 
0.8006069734829852 -0.9464834814679084 -0.8607945849446297 
0.0445005829939087 -0.04894025465706661 -0.0149259518779715 
0.1367180351393484 -0.1514546675030656 -0.09409306889955107 
0.003252887356617826 -0.01394221746907293 -0.001835126360194207 
-0.008695882518494315 -0.01028023661495636 -0.0005307863657600738 
-0.008695882518494315 -0.01028023661495636 -0.0005307863657600738 
-0.2746044791281757 0.01638884939144504 0.3258324675790286 
1.662928525698434 -1.18171877864875 -1.611201691375898 
-0.03823668491310514 -0.130200951036103 0.08185569824740441 
0.332417330920231 -0.827548398095152 -0.3163769579918181 
0.1667915550756159 -0.05973901742983904 -0.1282618824557858 
-0.03823668491310514 -0.130200951036103 0.08185569824740441 
0.1667915550756159 -0.05973901742983904 -0.1282618824557858 
2.435895271183771 -2.050790212655097 -2.415157989183536 
-0.2746044791281757 0.01638884939144504 0.3258324675790286 
0.332417330920231 -0.827548398095152 -0.3163769579918181 
-0.1156426040037739 -0.06715761475935346 0.09009882082607545 
0.04888959393896046 -0.01732733555790133 -0.03698180370888562 
-0.006395731177743507 -0.3396074582409375 -0.08515850323279776 
0.04888959393896046 -0.01732733555790133 -0.03698180370888562 
-0.2846025590853717 -0.1819066982282672 0.3544226249693154 
0.07092837076052742 -0.07648758199328921 -0.04419610521122844 
-0.006395731177743507 -0.3396074582409375 -0.08515850323279776 
0.07092837076052742 -0.07648758199328921 -0.04419610521122844 
0.7870485297692971 -0.7469672790778048 -0.7186672907544959 
0.420535500814706 -0.3574587656670004 -0.4905210094829625 
-0.2846025590853717 -0.1819066982282672 0.3544226249693154 
0.7870485297692971 -0.7469672790778048 -0.7186672907544959 
0.420535500814706 -0.3574587656670004 -0.4905210094829625 
0.04888959393896046 -0.01732733555790133 -0.03698180370888562 
0.09318348334316891 0.09575330340843355 -0.4532626215630559 
-0.100020857345622 0.2897110177524019 -0.3219867400836679 
0.0371676414904107 -0.06815431203316891 -0.0201676996025647 
0.7253936399886477 -0.7593791355252052 -0.6160610897154296 
0.02145672303006422 -0.05860869652957818 -0.006558535253345653 
0.4884913062983811 -1.734477702564026 -0.2843734753448756 
0.08841019134087999 -0.02047471085429338 -0.1106671520734521 
0.2948460681970099 -0.1260045861296053 -0.284508458592545 
0.08841019134087999 -0.02047471085429338 -0.1106671520734521 
0.002013580456593451 -0.9975458958452628 0.118357963759024 
0.3073217473011969 -0.1694105857927644 -0.4386933796479787 
0.3073217473011969 -0.1694105857927644 -0.4386933796479787 
0.2948460681970099 -0.1260045861296053 -0.284508458592545 
0.189673971563045 -0.2530240303802302 -0.06851158701668469 
0.08841019134087999 -0.02047471085429338 -0.1106671520734521 
0.006270607625107899 -0.004034806771662566 -0.0122509258758252 
0.006270607625107899 -0.004034806771662566 -0.0122509258758252 
0.3161403500679426 -0.35636867138218 -0.07590853867897558 
0.3161403500679426 -0.35636867138218 -0.07590853867897558 
0.006270607625107899 -0.004034806771662566 -0.0122509258758252 
0.006270607625107899 -0.004034806771662566 -0.0122509258758252 
0.2517379880412237 -0.2724810775966175 -0.1888359456413777 
0.3512225881484485 -0.3143848781361274 -0.2677991993054565 
0.4345359523758556 -0.331375703339528 -0.4344328262108251 
0.9948133179096541 -0.3940069854060274 -0.9247132589118353 
0.1232086072166615 -0.06390472992809157 -0.138977046622035 
0.3266264475948535 -0.2721313541429053 -0.1279543568114538 
0.3777334758125663 -0.4946930100134204 -0.3613124647300261 
0.3882601561464259 -0.03744364945988297 -0.6825147527889627 
0.3882601561464259 -0.03744364945988297 -0.6825147527889627 
-0.2530266766577837 -0.04711403363936457 0.3815545844505761 
-0.2108455507938747 0.7069886476229338 -0.3815990808480635 
0.3777334758125663 -0.4946930100134204 -0.3613124647300261 
0.09294174396899339 -0.156287845362433 -0.05740347783584932 
0.001501620986511656 0.0001921848438409487 -0.0009989178121346544 
0.05565707776918934 -0.1520541541504546 -0.0728996345623366 
0.001501620986511656 0.0001921848438409487 -0.0009989178121346544 
0.3409200658048627 -0.2003412455282823 -0.4364748378322525 
0.03135559011769914 0.00881280706201161 -0.2243928604144475 
0.1071989100253145 -0.4417692968772269 -0.05771696108233672 
0.3502820770516729 -0.06030759391944721 -0.4412123983518803 
0.1071989100253145 -0.4417692968772269 -0.05771696108233672 
0.03135559011769914 0.00881280706201161 -0.2243928604144475 
0.356663863338715 0.02267017639466074 -0.5280767191328791 
0.3735707661289416 -0.7725349813175685 -0.3192711933620154 
-0.1561175421420008 -0.3635710918749445 0.1910661571255885 
0.01578353346422768 -0.01241359129456614 -0.01181213375258782 
0.3735707661289416 -0.7725349813175685 -0.3192711933620154 
0.01578353346422768 -0.01241359129456614 -0.01181213375258782 
0.7771086866023809 -0.9997062321312623 -0.809777330393001 
0.7771086866023809 -0.9997062321312623 -0.809777330393001 
-0.004147909073959517 -0.5221990486631132 0.269766955858244 
0.3502820770516729 -0.06030759391944721 -0.4412123983518803 
0.3409200658048627 -0.2003412455282823 -0.4364748378322525 
1.313591615874411 -1.095517084964403 -1.202832102660043 
0.1702671626361845 0.006536428449959032 -0.1580663090494877 
0.09664415179111156 0.2212507515213405 -0.3218569362995429 
0.3963978081416028 -0.05064419364367067 -0.494540941119073 
0.6433509217153514 -0.6730145927791632 -0.6468740233738884 
0.2558323180701575 -0.511774432213192 -0.2773708217062782 
-0.01035990171185378 -0.1890163092608373 0.01734639724308085 
0.2363926381851228 -0.0455643516910871 -0.2186618480099835 
0.4012184227801588 -0.1021759682653265 -0.3923465345814551 
0.001633401082626675 -8.703919641917917e-05 -0.001385877214267551 
0.2558323180701575 -0.511774432213192 -0.2773708217062782 
-0.01035990171185378 -0.1890163092608373 0.01734639724308085 
0.2681218864756769 -0.4320332927076801 -0.2731656104414034 
0.6433509217153514 -0.6730145927791632 -0.6468740233738884 
0.9603534785224889 -0.9807643237431155 -1.045597235190221 
0.001633401082626675 -8.703919641917917e-05 -0.001385877214267551 
-0.3234118865848481 -0.005550027164208994 0.3481957218350446 
0.9603534785224889 -0.9807643237431155 -1.045597235190221 
0.01660901599297563 -0.007225741131619427 -0.008663381493935279 
-0.4772430593453199 0.3889680679826524 0.2543276483186035 
0.095865569209884 -0.08255841336824045 -0.2384849519291661 
-0.4772430593453199 0.3889680679826524 0.2543276483186035 
0.1375746545467131 -0.6812221630710349 0.2635458995094556 
0.095865569209884 -0.08255841336824045 -0.2384849519291661 
0.2912737520499715 -0.5261883345214875 -0.2825894067996661 
0.1375746545467131 -0.6812221630710349 0.2635458995094556 
0.01660901599297563 -0.007225741131619427 -0.008663381493935279 
0.205196637297009 -0.07721366822408816 -0.206919291925677 
-0.1890421838269767 0.4691231104311278 -0.03987868421761852 
-0.1890421838269767 0.4691231104311278 -0.03987868421761852 
-0.1890421838269767 0.4691231104311278 -0.03987868421761852 
-0.1890421838269767 0.4691231104311278 -0.03987868421761852 
-0.441453393222453 0.2157380094268589 0.281204758866385 
0.05558265553960104 -0.06923032094592445 -0.1108411808539111 
0.04646240030422812 -0.01358946875184202 -0.01753667634357047 
0.1914495176342333 0.08229874725404085 -0.3227976783945374 
0.2789284022142314 -0.01881022506470169 -0.2534045742323753 
0.442040101879395 -0.7140923913238725 -0.361766453900685 
0.2789284022142314 -0.01881022506470169 -0.2534045742323753 
0.05558265553960104 -0.06923032094592445 -0.1108411808539111 
-0.06189771264486971 -0.4564579127357481 0.1123065134142235 
0.1138784738025829 -0.03805320773645684 -0.08966254804376893 
0.04798206541588735 -0.01960743172631724 -0.01912852424223403 
0.6898122786662835 -0.9747304241646843 -0.6574819632867462 
0.6898122786662835 -0.9747304241646843 -0.6574819632867462 
0.04646240030422812 -0.01358946875184202 -0.01753667634357047 
-0.06189771264486971 -0.4564579127357481 0.1123065134142235 
0.2783890522853023 0.04457049453692109 -0.4292615898000267 
0.8556338998718428 -0.9080784881056196 -0.7909330021103945 
0.1259707212163318 -0.09113522890928673 -0.12737796495588 
0.5952557546856478 -0.199595675582095 -0.5911803000510562 
-0.1612359681645147 -0.01870585733708727 0.1292659365398177 
0.001283735055498205 -0.003549943268213221 -0.001575364422595961 
0.04399817862600582 0.2599889340600267 -0.5317851235133364 
0.01928505943675855 -0.007939801347331937 -0.0184676015040429 
1.06885656834815 -0.7313092666792012 -0.9457150393796698 
0.001283735055498205 -0.003549943268213221 -0.001575364422595961 
0.001283735055498205 -0.003549943268213221 -0.001575364422595961 
0.1587544911084633 -0.08466632317328225 -0.1052010719245927 
0.539700278050277 -0.3860436897052372 -0.4333867592418076 
1.258718941628605 -1.034869446291856 -1.029362015293766 
-0.1612359681645147 -0.01870585733708727 0.1292659365398177 
0.5644967799069703 -0.6057889805178988 -0.4818331873958289 
0.6371826862177058 -0.1984932771122806 -0.6042170153031303 
0.9192342054768825 -0.8517121535121102 -1.098607737469884 
0.001283735055498205 -0.003549943268213221 -0.001575364422595961 
0.003191732308823551 -0.003841964822287074 -0.003244666916471769 
0.003191732308823551 -0.003841964822287074 -0.003244666916471769 
0.003191732308823551 -0.003841964822287074 -0.003244666916471769 
0.003191732308823551 -0.003841964822287074 -0.003244666916471769 
0.1551939661602639 -0.108011511031493 -0.1528720912944023 
0.003191732308823551 -0.003841964822287074 -0.003244666916471769 
0.003191732308823551 -0.003841964822287074 -0.003244666916471769 
0.005093617043396086 -0.004094469038805453 -0.008004622867103113 
0.3007630357989578 0.02670416257154353 -0.4053485347502085 
0.5777089358895857 -0.8024876552287957 -0.5807946132156024 
0.003191732308823551 -0.003841964822287074 -0.003244666916471769 
0.4305282634836771 -0.374939369288792 -0.3842508916888981 
0.003191732308823551 -0.003841964822287074 -0.003244666916471769 
0.003191732308823551 -0.003841964822287074 -0.003244666916471769 
0.4650784060171041 0.004932256852021975 -0.5821786066563436 
0.003191732308823551 -0.003841964822287074 -0.003244666916471769 
0.003191732308823551 -0.003841964822287074 -0.003244666916471769 
0.003191732308823551 -0.003841964822287074 -0.003244666916471769 
0.5777089358895857 -0.8024876552287957 -0.5807946132156024 
0.003191732308823551 -0.003841964822287074 -0.003244666916471769 
0.1551939661602639 -0.108011511031493 -0.1528720912944023 
0.003191732308823551 -0.003841964822287074 -0.003244666916471769 
0.003191732308823551 -0.003841964822287074 -0.003244666916471769 
-0.5532438115483074 -0.1615559901484023 0.3994524474821504 
0.5510106384901147 -0.5505364345278615 -0.28048293166236 
-0.02994657244790996 -0.3101152846489193 -0.2015215299536654 
0.02824311615063259 -0.001890474858228384 -0.03439693175549824 
0.0200148561270541 -0.01152127596179095 -0.2603818038416977 
-0.03527519119856336 -0.452985972187692 0.226082691312885 
-0.02277154628265005 -0.07459475691674307 -0.0530247668844727 
0.03042715494385465 -0.4054672340192336 0.1648416677471286 
-0.0870212429835555 -0.2908823198650437 0.2272009558610228 
0.02824311615063259 -0.001890474858228384 -0.03439693175549824 
0.03596132168644927 -0.002507837538487055 -0.04253035789370985 
0.02824311615063259 -0.001890474858228384 -0.03439693175549824 
-0.3201811530078991 0.07440527904289797 0.3135251950559259 
0 0 0 
0.02824311615063259 -0.001890474858228384 -0.03439693175549824 
0.5944706246881425 -0.8063562545877078 -0.5173187511069909 
0.3926837224792479 -0.121074176365922 -0.3166431936047818 
0.2975558842649162 -0.2097059116090635 -0.4032826319682001 
0.3980740305741737 -0.6396099104030495 -0.4207609532236007 
0.02824311615063259 -0.001890474858228384 -0.03439693175549824 
0.02824311615063259 -0.001890474858228384 -0.03439693175549824 
0.02824311615063259 -0.001890474858228384 -0.03439693175549824 
0.02824311615063259 -0.001890474858228384 -0.03439693175549824 
-0.02277154628265005 -0.07459475691674307 -0.0530247668844727 
0.02824311615063259 -0.001890474858228384 -0.03439693175549824 
0.2975558842649162 -0.2097059116090635 -0.4032826319682001 
0.3757318335439361 -0.09959463736261193 -0.3537738507576797 
-0.6631583718487306 0.1230063077553682 0.692522689958271 
0.02824311615063259 -0.001890474858228384 -0.03439693175549824 
0.06291801099973138 -0.7296861191857092 0.1822368986560028 
0.02824311615063259 -0.001890474858228384 -0.03439693175549824 
-0.5114559966091166 0.7628389531265418 -0.06123886485651859 
-0.2790213805428521 0.4969472685141563 -0.01854585412230068 
-0.08781971100975342 0.4886757430736682 -0.2096549071127381 
-0.2790213805428521 0.4969472685141563 -0.01854585412230068 
0.2591311901490049 -1.410518839232705 -0.262662499630004 
-0.5114559966091166 0.7628389531265418 -0.06123886485651859 
0.4787891746416122 -0.8573157521366332 -0.3278786185174934 
0.07200558261653041 0.9455531168126122 -0.8925162158986935 
-0.2790213805428521 0.4969472685141563 -0.01854585412230068 
-0.07754372912029708 -0.4170802272828406 -0.03804025074975735 
0.6738826979503088 -0.5425809978677079 -0.6310825785363295 
-0.2790213805428521 0.4969472685141563 -0.01854585412230068 
-0.2790213805428521 0.4969472685141563 -0.01854585412230068 
0.04351679641164725 -0.01423468933118642 -0.003796153751747366 
0.04351679641164725 -0.01423468933118642 -0.003796153751747366 
0.5675783613461645 -0.3099682946220823 -0.3551687574666172 
-0.3259271032537956 -0.4723054163200486 0.2779671925097364 
-0.1249029059985442 1.206198740365852 -1.31248239086068 
0.04351679641164725 -0.01423468933118642 -0.003796153751747366 
0.04351679641164725 -0.01423468933118642 -0.003796153751747366 
0.3591517954262241 -1.13868571230264 -0.1516205917146819 
0.04351679641164725 -0.01423468933118642 -0.003796153751747366 
-0.03556695581816127 -0.05455728294330839 0.04962979680264293 
-0.437780222777319 -0.08172789363618846 0.4733921116879495 
0.00100994719762641 -6.406971593933773e-05 -0.0007888916811707804 
0.00100994719762641 -6.406971593933773e-05 -0.0007888916811707804 
0.0545086066810264 -0.02283038711053013 -0.04661539307081902 
-0.2185861540365045 0.4704759103396354 -0.2705309450261831 
-0.2185861540365045 0.4704759103396354 -0.2705309450261831 
0.3738251953302986 -0.1572875474667475 -0.2619943341751828 
0.3738251953302986 -0.1572875474667475 -0.2619943341751828 
0.1944191493242941 -0.1270692982592411 -0.1807208441892264 
0.006007628331184375 -0.02252763815732173 -0.002974702891859896 
0.2383634518715031 -0.1571302619355261 -0.1900865771620854 
0.3980398516436059 -0.1151760512370989 -0.4043716854056228 
0.1456928305968276 -0.1045896930206103 -0.1385024535855633 
0.3980398516436059 -0.1151760512370989 -0.4043716854056228 
0.0006927789939592531 -0.0005411235980097535 -0.0008013220953016029 
0.1707059843989569 -0.1056123950440869 -0.1336900619713207 
0.1707059843989569 -0.1056123950440869 -0.1336900619713207 
0.0006927789939592531 -0.0005411235980097535 -0.0008013220953016029 
0.004986528546857494 -0.003487312412492974 -0.00602280464504608 
0.0007324903769975583 -0.0007351293927486787 -0.0004939770118562094 
0.3324695209770825 -0.5259742277129901 -0.3469859965818836 
0.3324695209770825 -0.5259742277129901 -0.3469859965818836 
0.0007324903769975583 -0.0007351293927486787 -0.0004939770118562094 
0.06767581352571858 -0.04925040209284216 -0.06465920183909282 
0.06767581352571858 -0.04925040209284216 -0.06465920183909282 
0.06767581352571858 -0.04925040209284216 -0.06465920183909282 
0.06767581352571858 -0.04925040209284216 -0.06465920183909282 
0.1690171892484925 -0.5163343740354466 0.02781705717312632 
0.1690171892484925 -0.5163343740354466 0.02781705717312632 
0.0007324903769975583 -0.0007351293927486787 -0.0004939770118562094 
0.002744294214213643 -0.003878515271796078 -0.001816643324532114 
0.002744294214213643 -0.003878515271796078 -0.001816643324532114 
0.002744294214213643 -0.003878515271796078 -0.001816643324532114 
0.7465181348914437 -0.6174155713515146 -0.9498582197330733 
0.7465181348914437 -0.6174155713515146 -0.9498582197330733 
0.5536666158279052 -0.1500426314901896 -0.4655050270020406 
0.002744294214213643 -0.003878515271796078 -0.001816643324532114 
0.3882434577323863 -0.5775964231255329 -0.3224816319070209 
0.6506886265599873 -0.633354882880112 -0.6426779465979661 
0.03525857022109292 -0.0403242807266414 -0.03098102580635664 
0.002744294214213643 -0.003878515271796078 -0.001816643324532114 
0.229781193095105 -0.1572380447980029 -0.2300686318124713 
0.229781193095105 -0.1572380447980029 -0.2300686318124713 
0.07980310034491181 -0.0570413844238365 -0.07787486721115396 
0.06679618314524249 -0.04810001519487957 -0.06460338754357667 
0.06679618314524249 -0.04810001519487957 -0.06460338754357667 
0.06679618314524249 -0.04810001519487957 -0.06460338754357667 
0.06679618314524249 -0.04810001519487957 -0.06460338754357667 
0.07980310034491181 -0.0570413844238365 -0.07787486721115396 
0.4959732373988754 -0.2868052604647465 -0.4565239082185618 
0.4506054102890548 -0.3599462868209781 -0.4362785364056718 
0.4506054102890548 -0.3599462868209781 -0.4362785364056718 
0.4959732373988754 -0.2868052604647465 -0.4565239082185618 
0.1394173442445294 -0.1905025632755062 -0.1451717578581674 
0.1394173442445294 -0.1905025632755062 -0.1451717578581674 
0.1394173442445294 -0.1905025632755062 -0.1451717578581674 
0.1394173442445294 -0.1905025632755062 -0.1451717578581674 
0.1394173442445294 -0.1905025632755062 -0.1451717578581674 
-0.2659964145798638 -0.09959322395146776 0.2782754100405834 
-0.2659964145798638 -0.09959322395146776 0.2782754100405834 
0.1911368593666782 -0.09445720931699766 -0.1946716035284086 
0.2153764075195835 -0.0960127955631514 -0.1964376693741769 
0.1750275770252605 -0.08666331352965675 -0.1785097214854498 
0.1911368593666782 -0.09445720931699766 -0.1946716035284086 
0.2153764075195835 -0.0960127955631514 -0.1964376693741769 
0.1750275770252605 -0.08666331352965675 -0.1785097214854498 
0.6875059671398318 -0.6274803812749901 -0.6597565683055149 
0.1383971961517927 -0.171640110111999 -0.1107598953734125 
0.3119317832345118 -0.3071707972412852 -0.3073770452420983 
0.3119317832345118 -0.3071707972412852 -0.3073770452420983 
0.05010754139734654 -0.05409967249335745 -0.05471175300509565 
0.1383971961517927 -0.171640110111999 -0.1107598953734125 
0.6875059671398318 -0.6274803812749901 -0.6597565683055149 
0.1311875051920311 -0.132952687170092 -0.1265610469144486 
0.1311875051920311 -0.132952687170092 -0.1265610469144486 
0.1241289869603037 -0.1140755941662971 -0.1388274441394011 
0.1241289869603037 -0.1140755941662971 -0.1388274441394011 
0.05010754139734654 -0.05409967249335745 -0.05471175300509565 
0.05010754139734654 -0.05409967249335745 -0.05471175300509565 
-0.2255095965381418 -0.1793829827350664 0.2095754382242919 
0.4160328813898773 -0.2192748500831121 -0.4889098363572565 
0.08753836035753426 -0.080161813503121 -0.0824283156651098 
-0.2255095965381418 -0.1793829827350664 0.2095754382242919 
0.08753836035753426 -0.080161813503121 -0.0824283156651098 
0.4451892795966256 -0.2966252110704748 -0.4134310261651518 
0.4160328813898773 -0.2192748500831121 -0.4889098363572565 
0.4451892795966256 -0.2966252110704748 -0.4134310261651518 
0.2769177019323949 -0.2781763355141973 -0.2619936614620452 
0.1455624387499228 -0.1530271153044748 -0.1627528118082678 
0.4318608977993654 -0.2888765159757959 -0.3059540650319039 
0.4318608977993654 -0.2888765159757959 -0.3059540650319039 
0.1162237843674907 -0.1340316206819076 -0.129332006117918 
0.1455624387499228 -0.1530271153044748 -0.1627528118082678 
0.1162237843674907 -0.1340316206819076 -0.129332006117918 
0.1162237843674907 -0.1340316206819076 -0.129332006117918 
0.1455624387499228 -0.1530271153044748 -0.1627528118082678 
0.1162237843674907 -0.1340316206819076 -0.129332006117918 
0.1455624387499228 -0.1530271153044748 -0.1627528118082678 
0.1162237843674907 -0.1340316206819076 -0.129332006117918 
0.07098907222136158 -0.05273470003261145 -0.06797437290014308 
0.0677642277954103 -0.04850283026433507 -0.06573054008651039 
0.0677642277954103 -0.04850283026433507 -0.06573054008651039 
0.0677642277954103 -0.04850283026433507 -0.06573054008651039 
0.0677642277954103 -0.04850283026433507 -0.06573054008651039 
0.07098907222136158 -0.05273470003261145 -0.06797437290014308 
0.07680466074911343 -0.05044409864909815 -0.08160653216576728 
0.07680466074911343 -0.05044409864909815 -0.08160653216576728 
0.05010754139734654 -0.05409967249335745 -0.05471175300509565 
0.05010754139734654 -0.05409967249335745 -0.05471175300509565 
0.05010754139734654 -0.05409967249335745 -0.05471175300509565 
0.08753836035753426 -0.080161813503121 -0.0824283156651098 
0.08753836035753426 -0.080161813503121 -0.0824283156651098 
-0.1675613795216416 0.03639556764619966 0.1720248828839619 
-0.3808181070409016 -0.2407398848057338 0.4565712748883157 
0.4367482310359558 -0.2578212982968048 -0.2585342999870209 
0.02933865438243206 -0.01899549462256717 -0.03342080569034987 
0.02933865438243206 -0.01899549462256717 -0.03342080569034987 
0.02933865438243206 -0.01899549462256717 -0.03342080569034987 
0.145775771138711 0.1347545433907717 -0.4165416408365393 
0.02933865438243206 -0.01899549462256717 -0.03342080569034987 
0.02933865438243206 -0.01899549462256717 -0.03342080569034987 
0.07192637213299065 -0.007024816193756697 -0.06825848639673443 
0.07192637213299065 -0.007024816193756697 -0.06825848639673443 
0.07192637213299065 -0.007024816193756697 -0.06825848639673443 
0.07192637213299065 -0.007024816193756697 -0.06825848639673443 
0.07192637213299065 -0.007024816193756697 -0.06825848639673443 
0.3280176001059549 -0.3711927001948538 -0.2720297244952499 
0.07192637213299065 -0.007024816193756697 -0.06825848639673443 
0.07192637213299065 -0.007024816193756697 -0.06825848639673443 
0.07192637213299065 -0.007024816193756697 -0.06825848639673443 
0.07192637213299065 -0.007024816193756697 -0.06825848639673443 
0.07192637213299065 -0.007024816193756697 -0.06825848639673443 
0.07192637213299065 -0.007024816193756697 -0.06825848639673443 
0.07192637213299065 -0.007024816193756697 -0.06825848639673443 
0.1346296366633463 -0.04656168470023381 -0.1305129056592558 
-0.1457189262603537 -0.113509121899887 0.2252199178631808 
0.1346296366633463 -0.04656168470023381 -0.1305129056592558 
0.1346296366633463 -0.04656168470023381 -0.1305129056592558 
0.1346296366633463 -0.04656168470023381 -0.1305129056592558 
0.04095063650795146 -0.3087391076868979 -0.04844207408903994 
0.06890080055814501 -0.002983693748991197 -0.07069105559331716 
0.06890080055814501 -0.002983693748991197 -0.07069105559331716 
-0.2357971674873127 0.03937468513619877 0.09308982413014598 
-0.2357971674873127 0.03937468513619877 0.09308982413014598 
0.06890080055814501 -0.002983693748991197 -0.07069105559331716 
0.2821066565954214 -0.2760379216062522 -0.1264525987186944 
0.02641833230135859 -0.4874271605681441 0.1646614417181046 
0.06890080055814501 -0.002983693748991197 -0.07069105559331716 
0.1580843907744178 -0.02048792633333693 -0.2087126963959031 
0.3367238256713173 -0.1471124604201784 -0.3057384648936874 
-0.06589208491684827 -0.5772613455369805 -0.00852068487844624 
0.02641833230135859 -0.4874271605681441 0.1646614417181046 
-0.06589208491684827 -0.5772613455369805 -0.00852068487844624 
0.2821066565954214 -0.2760379216062522 -0.1264525987186944 
0.001281178648350412 -0.00178692224836575 -0.002509896583897814 
0.001281178648350412 -0.00178692224836575 -0.002509896583897814 
0.001281178648350412 -0.00178692224836575 -0.002509896583897814 
0.001281178648350412 -0.00178692224836575 -0.002509896583897814 
0.001281178648350412 -0.00178692224836575 -0.002509896583897814 
0.01963662036078555 -0.005730130714933496 -0.02384027518258736 
0.001281178648350412 -0.00178692224836575 -0.002509896583897814 
0.001281178648350412 -0.00178692224836575 -0.002509896583897814 
0.7660052553705304 -0.3360982038627958 -0.5274010403871225 
0.001281178648350412 -0.00178692224836575 -0.002509896583897814 
0.001281178648350412 -0.00178692224836575 -0.002509896583897814 
0.7660052553705304 -0.3360982038627958 -0.5274010403871225 
0.001281178648350412 -0.00178692224836575 -0.002509896583897814 
0.001281178648350412 -0.00178692224836575 -0.002509896583897814 
0.005441727550692096 -0.003522504050384386 -0.006210264205912593 
0.005441727550692096 -0.003522504050384386 -0.006210264205912593 
0.2616648554960682 -0.02062902403403062 -0.4596050216725741 
0.1296686742155896 -0.3348430662676097 -0.1548680238489173 
0.05918977148522625 -0.05071171882745473 -0.06766371344293938 
0.4115509729744988 -0.08454354053699425 -0.211331089961421 
0.02175982550598031 -0.02473745223416388 -0.03720867584299054 
0.419851562058148 -0.4031013456757174 -0.2396327770108456 
0.06807646647566264 -0.03290826158998873 -0.08299388269107738 
0.2904409808738049 -0.710107625906174 -0.1114893292661106 
0.2320062106265406 -0.05348584296031467 -0.1197003870188444 
0.06953057756091315 -0.6667816238640221 -0.006145638345554571 
0.02470388662505008 -0.02506599094688989 -0.04039129724080722 
0.06807646647566264 -0.03290826158998873 -0.08299388269107738 
-0.1108601565679513 -0.04238784269337519 0.1144622112950296 
0.04535596188038762 -0.01199105976688175 -0.04774214292411973 
0.0958566681095072 -0.04222086616982403 -0.1126972911302772 
-0.1209807733822344 -0.1883120871416453 0.1878766850243234 
0.07745084810076747 -0.0425320592237006 -0.06881640209171348 
1.253443012524025 -0.8286373882461021 -1.30578775201074 
0.07693971192785327 -0.03200101145689196 -0.07484694885970312 
0.07693971192785327 -0.03200101145689196 -0.07484694885970312 
-0.1108601565679513 -0.04238784269337519 0.1144622112950296 
0.04535596188038762 -0.01199105976688175 -0.04774214292411973 
0.04535596188038762 -0.01199105976688175 -0.04774214292411973 
0.6643868757028205 -0.7919870042534646 -0.7553903883871299 
0.2053626224720141 -0.2395708110311418 -0.2045938356911645 
0.008556275018189967 -0.05899671140926582 -0.00950719583235678 
0.007276790190125383 -0.175463394342713 0.01148808814438475 
0.008556275018189967 -0.05899671140926582 -0.00950719583235678 
0.1302282638419964 -0.07483855619278962 -0.112471736675241 
0.0537951704325912 -0.006732991082848441 -0.05269246550873584 
0.09556372940486284 -0.02370212646484654 -0.1021450737023876 
0.1302282638419964 -0.07483855619278962 -0.112471736675241 
0.6643868757028205 -0.7919870042534646 -0.7553903883871299 
0.0537951704325912 -0.006732991082848441 -0.05269246550873584 
0.08364090063698092 -0.003269746184822292 -0.1024026113405357 
0.08364090063698092 -0.003269746184822292 -0.1024026113405357 
0.05896874896124793 -0.3349058107147647 0.03495229904100986 
-0.1900676966330597 -0.2214078643474948 0.01500808758461505 
-0.02527569641309381 -0.4917135105250186 0.1318828721281245 
0.07518920646224987 -0.1324242753590007 -0.1065773921874379 
0.374392617227642 -0.1208660800029056 -0.4117564178183751 
-0.04531320114640291 -0.6337747248803857 0.2064538153773221 
1.391609261067241 -0.8382465837904961 -1.270880888916681 
0.05896874896124793 -0.3349058107147647 0.03495229904100986 
0.07518920646224987 -0.1324242753590007 -0.1065773921874379 
1.441142560962416 -1.288486768511808 -1.274217089956306 
0.1112752387154766 -0.008178650642597034 -0.08284735114951283 
0.09095340587667625 -0.3583547988372713 -0.01131206783498345 
0.1112752387154766 -0.008178650642597034 -0.08284735114951283 
-0.06912694781828534 -0.2483426488952519 0.06146832800834 
0.09095340587667625 -0.3583547988372713 -0.01131206783498345 
-0.2264059615253912 -0.1904643388685867 0.18809685921721 
0.3722479734724594 -0.3856029955520824 -0.4062303403675936 
0.2781552341444579 -0.1279690533382508 -0.223896302097917 
-0.06167328268014449 -0.1705188456493492 0.07238098347454963 
0.1573280489163076 -0.0562113080990741 -0.09364949642010637 
0.148910658869517 -0.1156183042125334 -0.09955072139684673 
0.1573280489163076 -0.0562113080990741 -0.09364949642010637 
-1.227822458781415 -0.523242296384398 1.20934615705975 
-1.457114482249274 -0.7011758591977646 1.610805080541512 
-1.217356150745656 -0.5292804960887866 1.171268483763109 
-1.408379815054849 -0.5041617551922091 1.32302769841735 
-0.01720338283040915 -0.4467083813216889 -0.04728551298465104 
0.2719629261673138 -0.3780300324624269 -0.192438134662811 
-0.01720338283040915 -0.4467083813216889 -0.04728551298465104 
-0.018620607034885 -0.01870468089909683 0.02018051700055277 
0.003897104747280007 -0.00283386233862035 -0.002225146101859646 
0.003897104747280007 -0.00283386233862035 -0.002225146101859646 
0.003897104747280007 -0.00283386233862035 -0.002225146101859646 
0.003897104747280007 -0.00283386233862035 -0.002225146101859646 
0.3691898166325426 -0.22891871389134 -0.4756756584056415 
0.003897104747280007 -0.00283386233862035 -0.002225146101859646 
0.003897104747280007 -0.00283386233862035 -0.002225146101859646 
0.2962689568763611 -0.1384912139991439 -0.3319731396708981 
0.003897104747280007 -0.00283386233862035 -0.002225146101859646 
0.003897104747280007 -0.00283386233862035 -0.002225146101859646 
0.003897104747280007 -0.00283386233862035 -0.002225146101859646 
-0.1687663974281432 -0.4614674859989606 0.317957139363147 
0.07304707526421872 -0.009556158910861734 -0.07966992045954346 
0.09360820001140735 -0.02923452484671504 -0.1023159041725707 
0.07304707526421872 -0.009556158910861734 -0.07966992045954346 
0.07304707526421872 -0.009556158910861734 -0.07966992045954346 
0.07304707526421872 -0.009556158910861734 -0.07966992045954346 
0.07304707526421872 -0.009556158910861734 -0.07966992045954346 
0.07304707526421872 -0.009556158910861734 -0.07966992045954346 
0.09360820001140735 -0.02923452484671504 -0.1023159041725707 
0.07304707526421872 -0.009556158910861734 -0.07966992045954346 
-0.2029400731529761 -0.02993021136710374 0.1432032380356983 
-0.2029400731529761 -0.02993021136710374 0.1432032380356983 
0.2012819858259225 -0.4304662981116456 -0.02249264724642849 
0.5522746180598119 -0.4168984182470669 -0.5994145043496857 
0.2517547304540317 -0.08003792489926156 -0.1471809306646299 
0.527600145079552 -0.7187734754521915 -0.438688990816633 
-0.09351678998729938 -0.2146585403933207 -0.0007466342045968162 
-0.09351678998729938 -0.2146585403933207 -0.0007466342045968162 
0.07013158377096934 -0.156129546379625 -0.2001694496516211 
0.527600145079552 -0.7187734754521915 -0.438688990816633 
0.01941680876816395 -0.004301212018624676 -0.01538094030406335 
0.02985122681132028 -0.01864997864910816 -0.01739714130660596 
0.1600008107948218 -0.2473452097044214 -0.1162833127631946 
0.1600008107948218 -0.2473452097044214 -0.1162833127631946 
0.5522746180598119 -0.4168984182470669 -0.5994145043496857 
0.2012819858259225 -0.4304662981116456 -0.02249264724642849 
0.07013158377096934 -0.156129546379625 -0.2001694496516211 
0.1415360198132389 -0.003312633942426913 -0.3879467786131053 
0.4138278465524948 -0.2095926221610488 -0.3798139325522827 
0.1071769760842178 -0.001106339568326272 -0.1533681375537364 
0.7768350643045875 -0.3625293639461794 -0.7638189421969513 
0.367393511782525 -0.08635319766034052 -0.3600675240486569 
0.08099325974915583 -0.4384697846823906 0.004429813304960879 
0.1635167973111378 -0.0281664829652711 -0.1936632109829681 
0.1052827579122859 -0.0005416881182325236 -0.1500453413141961 
0.2301034993010696 -0.4136501591182237 -0.21474090438065 
0.08099325974915583 -0.4384697846823906 0.004429813304960879 
-0.02272581264636998 -0.5096586331085633 0.2637567976778491 
-0.6069797667948414 -0.4901033247248967 0.641404869800638 
0.1471578661827054 -0.03927290428046035 -0.1632799315988135 
-0.1324483502471401 -0.4225815381517652 0.2627525485755689 
0.1052827579122859 -0.0005416881182325236 -0.1500453413141961 
0.1071769760842178 -0.001106339568326272 -0.1533681375537364 
-0.02272581264636998 -0.5096586331085633 0.2637567976778491 
0.4414125274361296 -0.1703833809625458 -0.3843286357837991 
0.1071769760842178 -0.001106339568326272 -0.1533681375537364 
-0.6069797667948414 -0.4901033247248967 0.641404869800638 
-0.1324483502471401 -0.4225815381517652 0.2627525485755689 
0.1071769760842178 -0.001106339568326272 -0.1533681375537364 
0.1052827579122859 -0.0005416881182325236 -0.1500453413141961 
0.07068066829902825 -0.1494357924903237 -0.04559705107617065 
0.2822834158766268 -0.1880421451294185 -0.2820942647824596 
0.1451455797429347 -0.433744934828122 -0.06095690022478136 
1.064698791365097 -0.5365816268431561 -0.8121975530167121 
0.5812767402149478 -0.5985613277579651 -0.624165665874266 
0.5988815281258349 -0.4804782316065825 -0.5937776938802526 
0.2419744360605036 -0.2479603228151843 -0.2092192398251415 
0.07068066829902825 -0.1494357924903237 -0.04559705107617065 
0.1826820108856676 -0.5285631411532258 -0.1078339691688305 
0.8189295664248606 -0.760578110327494 -0.8119306875453732 
0.2419744360605036 -0.2479603228151843 -0.2092192398251415 
0.1451455797429347 -0.433744934828122 -0.06095690022478136 
0.00189421817193184 -0.0005646514500937483 -0.003322796239540323 
-0.1372232818566408 -0.1412060216355429 0.1060337617433268 
0.02302657617293918 -0.01263965198731426 -0.02764209723520559 
0.08993270398230674 -0.01730835361836036 -0.09648347528336884 
0.2342548962873517 -0.07737002506351853 -0.2162349450125965 
0.2342548962873517 -0.07737002506351853 -0.2162349450125965 
0.548844328232226 -0.9558657637786786 -0.7209080870272357 
0.01804574103622829 -0.01188918793722173 -0.0196110552000047 
0.2843878923220949 -0.2412162133972149 -0.2138290563164048 
0.02302657617293918 -0.01263965198731426 -0.02764209723520559 
0.7373479926337752 -0.3253421664577402 -0.6917382993321937 
0.9612074258695963 -0.3190688569826095 -1.017799958191244 
0.01804574103622829 -0.01188918793722173 -0.0196110552000047 
-0.2814224442442176 -0.02907039238986414 0.3359296873776899 
-0.257638373730577 0.04702078266116858 0.240652393866376 
0.06723324999031983 -0.008419001421328237 -0.05687141507941906 
0.06723324999031983 -0.008419001421328237 -0.05687141507941906 
-0.2814224442442176 -0.02907039238986414 0.3359296873776899 
0.1102818508104493 -0.04169693416955761 -0.09290692052560635 
0.5703595166494051 -0.5700779035846082 -0.5612732755363805 
-0.6516460073915364 -0.01341794875348079 0.6828766008670387 
0.158709408295262 -0.0001112785507952043 -0.247229345453004 
-0.3287851924496824 -0.167318617602821 0.3340558670986472 
-0.7696158614694388 -0.2009363859024444 0.8345813270742339 
-0.3287851924496824 -0.167318617602821 0.3340558670986472 
0.158709408295262 -0.0001112785507952043 -0.247229345453004 
-0.3004215730911109 -0.05634297657825216 0.341236525607954 
0.158709408295262 -0.0001112785507952043 -0.247229345453004 
0.158709408295262 -0.0001112785507952043 -0.247229345453004 
-0.695028242022884 -0.2025138868413766 0.7652027232606748 
-0.3004215730911109 -0.05634297657825216 0.341236525607954 
0.3201364831050141 -0.0164109852847743 -0.3474430507391748 
0.375824857135113 -0.7290832863957778 -0.3137214974319485 
-0.3065893286970777 0.4770624159337013 0.07266136547433798 
0.1216102768680984 0.03739095214999226 -0.3413657351624609 
-0.3065893286970777 0.4770624159337013 0.07266136547433798 
0.1216102768680984 0.03739095214999226 -0.3413657351624609 
-0.1438880345078981 0.596891910469595 -0.3049212907381363 
0.08126294719758818 -0.1812861048288332 -0.1479999042164516 
0.5022118142558804 -0.6127486770691524 -0.4001980710401606 
0.5022118142558804 -0.6127486770691524 -0.4001980710401606 
0.08126294719758818 -0.1812861048288332 -0.1479999042164516 
0.1445695953138892 -0.05199288457995873 -0.1038994944233838 
-0.02631036044202287 -0.3046471131469312 0.08498113172661234 
-0.3363914989925977 0.2255258133873428 0.2912205410865447 
-0.02631036044202287 -0.3046471131469312 0.08498113172661234 
0.2974344254510657 -0.06316501496952441 -0.2350335158434307 
0.05907729583902598 -0.15111721061485 -0.2528375781169891 
0.05907729583902598 -0.15111721061485 -0.2528375781169891 
0.2974344254510657 -0.06316501496952441 -0.2350335158434307 
-0.1647920002199653 0.2703056461775238 -0.1168747845435106 
0.1445695953138892 -0.05199288457995873 -0.1038994944233838 
0.1445695953138892 -0.05199288457995873 -0.1038994944233838 
0.1445695953138892 -0.05199288457995873 -0.1038994944233838 
0.1445695953138892 -0.05199288457995873 -0.1038994944233838 
0.820962757697571 -0.7117951099506764 -1.082553018170084 
0.266435661252212 -0.0192300072319638 -0.21120716494275 
0.1048210289600519 -0.1669475931072113 -0.1290512323583766 
-0.2266356278328071 -0.3842166328693606 0.3391142053822097 
0.1150924919702472 -0.1324748808808102 -0.1287187714705303 
-0.4333957213293891 -0.05235032179750803 0.3742043392109879 
0.03220813366792172 -0.007571954997395255 -0.02774103319723227 
0.266435661252212 -0.0192300072319638 -0.21120716494275 
0.1492318696218057 -0.434266258336739 -0.182553111579936 
0.0607836114727538 -0.004990813832218527 -0.0597240401690123 
0.8062127247498777 -0.08834884415752037 -0.6814176891841962 
0.2063111405176092 -0.3624878721754496 -0.1411967075856441 
0.4274539959438041 -0.7845428701288413 -0.3198103657415478 
-0.1487361443862081 0.1707774676429505 0.0384770397557604 
-0.1487361443862081 0.1707774676429505 0.0384770397557604 
0.1492318696218057 -0.434266258336739 -0.182553111579936 
-0.5038014887740101 0.3641788177699756 0.3641725462842326 
0.1168370225132284 -0.2514250787568131 -0.1661030838594411 
0.2063111405176092 -0.3624878721754496 -0.1411967075856441 
0.03059896214658967 -0.007319904746588756 -0.0265540909100936 
-0.280789954426379 -0.002678147875549834 0.3669706484899473 
0.558669837625327 -0.6082838197730932 -0.3703581715781322 
0.4274539959438041 -0.7845428701288413 -0.3198103657415478 
0.0607836114727538 -0.004990813832218527 -0.0597240401690123 
0.2878518551921228 -0.5897992530448724 -0.2671155992248939 
0.558669837625327 -0.6082838197730932 -0.3703581715781322 
0.03679008133487758 -0.0007070878432994075 -0.03403715539157975 
0.007012539848483404 -0.0004961932859645418 -0.005238846653653293 
0.1262536298101415 -0.4159865725532476 -0.04932704611212698 
-0.171993094843615 0.09417988055592474 0.05054330731153819 
0.3783582504130509 0.2254656705844209 -0.7511966268178916 
0.1262536298101415 -0.4159865725532476 -0.04932704611212698 
0.2632842396577816 0.09168620253732203 -0.3479011862631459 
0.007012539848483404 -0.0004961932859645418 -0.005238846653653293 
-0.07953333871975755 -0.2270050609483855 0.02978840476546283 
0.3618818332379515 -0.6533371959413684 -0.3360855429507955 
-0.171993094843615 0.09417988055592474 0.05054330731153819 
-0.3280999581163306 -0.04696009393745927 0.3823535693697941 
-0.4909719115043356 -0.1640650630945569 0.683013262365834 
-0.02777308690454336 0.1498657055343886 -0.1418385674764738 
-0.07953333871975755 -0.2270050609483855 0.02978840476546283 
1.150683793106618 -0.5506506578474295 -1.150883808198299 
-0.3280999581163306 -0.04696009393745927 0.3823535693697941 
0.07207548627899997 -0.004155248689836577 -0.04651766518019691 
-0.1025099127209549 0.2043434661604416 -0.2925678654036696 
0.3618818332379515 -0.6533371959413684 -0.3360855429507955 
0.09337766570312289 -0.1415392931943082 -0.055576285892151 
0.2916401629615378 0.006499749618316562 -0.4883372088126321 
0.7197344717575462 -1.25586666260741 -0.6009779571771189 
0.1522369406638366 -0.6317491094060383 -0.04852038150617703 
-0.1326710436178228 -0.02173043015815862 0.1669325953383395 
0.1450041231242708 -0.1110126702890712 -0.08860138779061207 
0.1450041231242708 -0.1110126702890712 -0.08860138779061207 
0.5119099281998988 -0.2921009343882264 -0.4543240172573306 
0.6602290701519151 -0.3818873540609745 -0.6000572365808471 
0.1522369406638366 -0.6317491094060383 -0.04852038150617703 
0.3292058716243018 -0.1521394591209613 -0.2813323521465432 
0.4318337822009172 -0.8978791674033886 -0.2513706051178347 
0.09337766570312289 -0.1415392931943082 -0.055576285892151 
-0.1326710436178228 -0.02173043015815862 0.1669325953383395 
-0.02720171642299624 -0.02664535456936001 -0.03534873324356697 
0.3530068724876272 -0.9762403084324053 -0.09307120962634749 
0.3096945298481633 -0.3758177838455115 -0.2092440284865531 
0.08387721634979968 -0.05225397937311195 -0.08011888759078067 
0.3096945298481633 -0.3758177838455115 -0.2092440284865531 
0.0438465057635954 -0.0167494017904118 -0.0467903121591095 
0.8114524601743482 -0.65845085168411 -0.5329361610774871 
-0.02720171642299624 -0.02664535456936001 -0.03534873324356697 
0.02655276844114391 -0.03313197780731098 -0.01013261247092655 
0.5158659803857735 -0.2058695248679056 -0.4928218570654737 
0.0826737060326351 -0.3562564902378876 -0.1879825868726403 
0.0826737060326351 -0.3562564902378876 -0.1879825868726403 
0.8188570108880032 -0.6593363498904585 -0.7545856209334868 
0.6516608414312568 -0.3815367736812509 -0.631995827485278 
0.8188570108880032 -0.6593363498904585 -0.7545856209334868 
0.5158659803857735 -0.2058695248679056 -0.4928218570654737 
0.3842189678119797 -0.2885564100753767 -0.4038364062331405 
0.3842189678119797 -0.2885564100753767 -0.4038364062331405 
0.4792203386547771 -0.2009196208731613 -0.4401350860283241 
-0.0280901906602088 -0.1739602165793841 0.1823317144791463 
0.5410097716186023 -0.5552327661799581 -0.6352638932057404 
-0.0280901906602088 -0.1739602165793841 0.1823317144791463 
-0.1045132708510234 -0.1228967763827683 0.1047836755825751 
1.031126172442725 -0.7094745530473067 -0.8781758419796938 
-0.01630114332318365 0.04379570391698293 -0.1103690086028651 
-0.01630114332318365 0.04379570391698293 -0.1103690086028651 
-0.1970304763687453 0.3530817303179863 -0.2003202590833424 
0.6259076648608658 -0.2378803284225089 -0.4976631337819606 
0.01943891321010685 -0.01697585781396089 -0.02365240950591467 
-0.1045132708510234 -0.1228967763827683 0.1047836755825751 
0.2971753889388577 -0.2436692209811024 -0.3495898464275092 
0.01943891321010685 -0.01697585781396089 -0.02365240950591467 
-0.03835982622389751 0.2983688188950706 -0.3245637278754017 
0.1484724019330653 -0.0972079170568884 -0.09373511309517535 
0.9732122859422284 -0.6488922336603659 -0.8581992870799298 
0.3480405060669811 -0.2336907502700824 -0.4916402900813281 
-0.358458834036956 -0.2118692466263914 0.482002433782312 
0.2398782595577114 -0.05843506303110409 -0.3302050037248065 
0.2075490137044099 -0.00456675357832256 -0.4720282349733586 
-0.2483771299427063 0.3119421220391723 0.02987033512315833 
-0.9809564975391784 1.025425753184601 0.4312532621870708 
0.3480405060669811 -0.2336907502700824 -0.4916402900813281 
-0.1767321656300996 0.2109604416465179 0.1629624414690105 
-0.2016673634356254 0.3311674931599686 0.09199048517635315 
-0.1767321656300996 0.2109604416465179 0.1629624414690105 
-0.2709664466998978 0.3164524114827156 0.1831097940526115 
-0.2709664466998978 0.3164524114827156 0.1831097940526115 
0.2075490137044099 -0.00456675357832256 -0.4720282349733586 
-0.2302860612312416 0.3106301737710118 0.008278467921223314 
-0.9809564975391784 1.025425753184601 0.4312532621870708 
-0.358458834036956 -0.2118692466263914 0.482002433782312 
0.103652795111756 -0.4761748734487494 0.0254720038562438 
0.5534497797649325 -0.6241710764214279 -0.3581882671478071 
-0.6217740729519519 -0.01204853277650515 0.6153265638976695 
-0.6217740729519519 -0.01204853277650515 0.6153265638976695 
-0.1555453742413101 -0.0008840404834808075 0.1441385785001727 
0.03185695962775228 -0.03335248134949385 -0.06108103723007688 
0.03185695962775228 -0.03335248134949385 -0.06108103723007688 
-0.1623185208845145 -0.07641782088779411 0.1747353962240752 
-0.5947423903071531 -0.06887408295660802 0.6534906468441456 
-0.6217740729519519 -0.01204853277650515 0.6153265638976695 
-0.1623185208845145 -0.07641782088779411 0.1747353962240752 
-0.1555453742413101 -0.0008840404834808075 0.1441385785001727 
-0.5309144924450129 -0.03223874821747542 0.5259930229393065 
-0.1555453742413101 -0.0008840404834808075 0.1441385785001727 
-0.6217740729519519 -0.01204853277650515 0.6153265638976695 
-0.1555453742413101 -0.0008840404834808075 0.1441385785001727 
-0.07409859849203689 -0.004690111352550425 0.07303470486849546 
0.06897479554618959 -0.1772034009127355 -0.1252641282317922 
-0.2103515417318217 -0.001086092685829594 0.2077213330767022 
-0.3465651489984096 -0.01405079372652959 0.4205418532131097 
-0.3465651489984096 -0.01405079372652959 0.4205418532131097 
-0.2103515417318217 -0.001086092685829594 0.2077213330767022 
-0.3547744575442396 0.2400721601947219 0.3538601487847649 
-0.2103515417318217 -0.001086092685829594 0.2077213330767022 
0.06897479554618959 -0.1772034009127355 -0.1252641282317922 
-0.2103515417318217 -0.001086092685829594 0.2077213330767022 
0.3491585412960571 -0.2207318490845074 -0.1752539783490473 
-0.2429090369705016 -0.01168741199031124 0.2799452651425816 
-0.1622472749478433 -0.02098261054342043 0.1989677555396262 
-0.2429090369705016 -0.01168741199031124 0.2799452651425816 
-0.2429090369705016 -0.01168741199031124 0.2799452651425816 
-0.2429090369705016 -0.01168741199031124 0.2799452651425816 
-0.1622472749478433 -0.02098261054342043 0.1989677555396262 
-0.2429090369705016 -0.01168741199031124 0.2799452651425816 
-0.2429090369705016 -0.01168741199031124 0.2799452651425816 
-0.3232395367578929 -0.0782683781525734 0.3603517299698717 
-0.2429090369705016 -0.01168741199031124 0.2799452651425816 
-0.2429090369705016 -0.01168741199031124 0.2799452651425816 
-0.1521555385008544 -0.001945996850655749 0.1567587644232554 
0.1689090188508977 -0.4245098386138842 -0.1976248752140624 
-0.1521555385008544 -0.001945996850655749 0.1567587644232554 
-0.1521555385008544 -0.001945996850655749 0.1567587644232554 
-0.4079755808627579 -0.004582950126071115 0.3844105017645134 
-0.1521555385008544 -0.001945996850655749 0.1567587644232554 
-0.1521555385008544 -0.001945996850655749 0.1567587644232554 
-0.1521555385008544 -0.001945996850655749 0.1567587644232554 
-0.1521555385008544 -0.001945996850655749 0.1567587644232554 
-0.1521555385008544 -0.001945996850655749 0.1567587644232554 
0.1689090188508977 -0.4245098386138842 -0.1976248752140624 
-0.1037216184779657 -0.008132402756539002 0.1067078878975392 
-0.09231358852894664 -0.008868382677274899 0.09418187206364402 
-0.01091124413521125 -0.04773606708674966 0.008427813543867242 
-0.1037216184779657 -0.008132402756539002 0.1067078878975392 
0.2447365476270654 -0.7036488288128168 0.06670251220447629 
-0.1037216184779657 -0.008132402756539002 0.1067078878975392 
-0.1037216184779657 -0.008132402756539002 0.1067078878975392 
-0.1037216184779657 -0.008132402756539002 0.1067078878975392 
-0.03167247039329864 -0.1191334097397555 0.003482574984788996 
-0.03167247039329864 -0.1191334097397555 0.003482574984788996 
-0.1037216184779657 -0.008132402756539002 0.1067078878975392 
0.531826518346654 -0.1052344981480915 -0.6160925812506768 
-0.05371145755469871 -0.004023253419988298 0.05839800216733904 
-0.05371145755469871 -0.004023253419988298 0.05839800216733904 
-1.410407677818094 -0.323476698976148 1.361182584895578 
-0.05371145755469871 -0.004023253419988298 0.05839800216733904 
-0.05371145755469871 -0.004023253419988298 0.05839800216733904 
-0.05371145755469871 -0.004023253419988298 0.05839800216733904 
-1.410407677818094 -0.323476698976148 1.361182584895578 
-0.05371145755469871 -0.004023253419988298 0.05839800216733904 
-0.7025738910504481 -0.06627801926826556 0.7352849890984515 
0.01008241399258635 -0.001288407975956888 -0.009720014884929289 
0.01008241399258635 -0.001288407975956888 -0.009720014884929289 
0.05540077233607177 -0.01931947511237965 -0.05546570023586353 
0.2558180683027279 -0.2053468889885107 -0.2436897577307932 
0.06246901641592218 -0.01560587615895097 -0.07007285468922006 
0.01008241399258635 -0.001288407975956888 -0.009720014884929289 
0.2088006682327028 -0.1414480368554834 -0.194283245933513 
0.2088006682327028 -0.1414480368554834 -0.194283245933513 
0.01008241399258635 -0.001288407975956888 -0.009720014884929289 
0.01008241399258635 -0.001288407975956888 -0.009720014884929289 
0.272052131514075 -0.2158016045736434 -0.2513482936005768 
0.3264571996321624 -0.1352698848833291 -0.520999358470899 
0.05540077233607177 -0.01931947511237965 -0.05546570023586353 
0.3264571996321624 -0.1352698848833291 -0.520999358470899 
-0.1041269725916985 -0.03372034767935467 0.1466969077957714 
0.08610479259286323 -0.126947641371636 0.00366608515674996 
0.1272553224312115 -0.142793384750122 -0.02253355260773136 
-0.04056558226919838 0.1963319009319285 -0.1884400195411051 
0.002196359432818542 -0.002731241871310121 -0.001438623123355776 
-0.04056558226919838 0.1963319009319285 -0.1884400195411051 
0.003254210880798368 -0.005852858228053741 -0.00228386729368054 
0.003254210880798368 -0.005852858228053741 -0.00228386729368054 
0.3276479695823057 -0.2719564130122539 -0.414917655436404 
0.002196359432818542 -0.002731241871310121 -0.001438623123355776 
0.2097208875329033 -0.259438708406276 -0.3459358476584571 
-0.07818783349883891 -0.03849980507885713 0.1358369111318812 
0.01130836221399023 -0.008347903965841308 -0.00719152590742014 
-0.8721048966028853 -0.1840080125238429 0.8861492151486752 
0.0799573072942755 -0.2801792235162202 -0.1141368641588152 
-0.1184007070948363 -0.05828625070389665 0.1041364247364764 
-0.1184007070948363 -0.05828625070389665 0.1041364247364764 
0.5655157399213028 -0.1479715226830257 -0.5700553522329828 
0.8051201612797563 -1.378997244456016 -0.7673718827209608 
0.8051201612797563 -1.378997244456016 -0.7673718827209608 
0.8530662767586694 -0.3877007200427443 -0.8253589410136741 
0.5164408659137785 -1.348212502316281 -0.4805357976570316 
0.0004258565909688387 -0.0003371881086897618 -0.0009140158766972113 
0.197411578217692 -0.01458142661351775 -0.1892983453987419 
0.0004258565909688387 -0.0003371881086897618 -0.0009140158766972113 
0.05900793419445503 -0.03517507023135761 -0.04140944616337108 
0.0003469342776309562 -9.246930497011272e-05 -0.0006809694971133508 
0.07288636855355606 -0.006972443586561882 -0.07795544299038673 
0.02951409976143041 -0.016879038138095 -0.02020837371657025 
0.02951409976143041 -0.016879038138095 -0.02020837371657025 
0.08779253244522496 -0.07116360776029472 -0.09169540307086009 
0.0004258565909688387 -0.0003371881086897618 -0.0009140158766972113 
0.02765264504624039 -0.01850585186842686 -0.02803109622533134 
-0.09503229596357243 -0.1421011431095569 0.1254736921090958 
0.7702776660894811 -0.9325200159968037 -0.672466734924181 
0.08779253244522496 -0.07116360776029472 -0.09169540307086009 
0.466042498333535 -0.5027241156391798 -0.3661975925050359 
0.7702776660894811 -0.9325200159968037 -0.672466734924181 
0.0004258565909688387 -0.0003371881086897618 -0.0009140158766972113 
0.640863331600017 -0.8737772367312148 -0.583914771738451 
0.245832124625869 -0.09504580136368437 -0.1735069820439775 
0.02951409976143041 -0.016879038138095 -0.02020837371657025 
0.0004258565909688387 -0.0003371881086897618 -0.0009140158766972113 
0.1525101388319156 -0.08336926365416586 -0.07835760515536432 
0.640863331600017 -0.8737772367312148 -0.583914771738451 
-0.1636426883639137 0.05575513363016957 0.1170580343235383 
0.07899295231191933 -0.4487391330169511 -0.141286109339895 
0.03666977573407231 -0.01853790817907091 -0.02026874779219484 
0.07899295231191933 -0.4487391330169511 -0.141286109339895 
1.428138657476882 -0.7948213962166575 -1.335806915444749 
-0.1636426883639137 0.05575513363016957 0.1170580343235383 
-0.1765127665393333 0.2373879967307322 -0.08754611419457943 
0.1206408874508338 -0.06343415560618533 -0.05808895158268587 
0.03151727534946324 -0.1446040517366999 0.0819892176913293 
0.02010774702314725 -0.01610478604837504 -0.006193013838183254 
0.0393101998420884 -0.007852281292495962 -0.03995273127153236 
0.0393101998420884 -0.007852281292495962 -0.03995273127153236 
0.04166529565359188 -0.008869714043224269 -0.04272721655260864 
0.0393101998420884 -0.007852281292495962 -0.03995273127153236 
0.1490729061036101 -0.3005734935444804 -0.0919762208438271 
0.04166529565359188 -0.008869714043224269 -0.04272721655260864 
0.1490729061036101 -0.3005734935444804 -0.0919762208438271 
0.1903122261395899 -0.3902924085810266 -0.4536645418393738 
0.9664823599102162 -0.6797879998243831 -0.9064472067807766 
-0.01327505901256012 -0.1642237369315876 0.07265260784630719 
0.0393101998420884 -0.007852281292495962 -0.03995273127153236 
0.0393101998420884 -0.007852281292495962 -0.03995273127153236 
0.0393101998420884 -0.007852281292495962 -0.03995273127153236 
0.45113695276155 -0.8678881273191801 -0.4460356465170133 
-0.01327505901256012 -0.1642237369315876 0.07265260784630719 
-0.08552148883787798 -0.204554238397208 0.1288534390261165 
-0.08552148883787798 -0.204554238397208 0.1288534390261165 
0.1600860781772281 -0.20637122028064 -0.2600845269837843 
-0.1433788982797509 0.3690694214236926 -0.06892092516355794 
-0.4120308907338138 0.284971408617041 0.2356356690718623 
-0.1433788982797509 0.3690694214236926 -0.06892092516355794 
-0.8043836471629108 0.3473531103960051 0.6080399178987125 
0.04933511692752609 0.1454976649454646 -0.1463509046843138 
0.1301616314233994 0.1976610629655209 -0.3662748058559442 
-0.1433788982797509 0.3690694214236926 -0.06892092516355794 
-0.6091064419325837 0.2699513347507144 0.4692155894409746 
0.1301616314233994 0.1976610629655209 -0.3662748058559442 
0.1158565694270251 -0.1696285405208301 -0.2374167741791247 
0.007223181310212877 0.05564418553956872 -0.1922683099306212 
-0.05996713946620504 0.3131178707952639 -0.2392579930765941 
0.1158565694270251 -0.1696285405208301 -0.2374167741791247 
0.2750289182917021 -0.073348067923035 -0.1952633223508377 
-0.1433788982797509 0.3690694214236926 -0.06892092516355794 
-0.1433788982797509 0.3690694214236926 -0.06892092516355794 
-1.039742529346447 0.640037119267677 0.8491395513555268 
-0.1974583798487529 -0.08318343968191937 0.2513897112737868 
-0.7306459007618399 -0.8146519319991298 0.9119428688445511 
-0.01184989229525431 -0.09423071786761805 0.04571432520581076 
0.08215605442107668 -0.2617648416273141 0.01681879219373314 
-0.1974583798487529 -0.08318343968191937 0.2513897112737868 
0.250753345673892 -0.6369825601635181 -0.2743479939580331 
0.03807484589873261 -0.1315124146676937 0.03319168477890268 
-0.03613702949125569 -0.05961572446954149 0.03614975944503634 
0.2261428917496381 -0.6298484367989214 -0.2464557691813208 
0.08215605442107668 -0.2617648416273141 0.01681879219373314 
-1.039742529346447 0.640037119267677 0.8491395513555268 
-0.5875819108430574 0.3363934847311598 0.3845231127058183 
-0.5875819108430574 0.3363934847311598 0.3845231127058183 
-0.07625687051796967 -0.05870638294494489 0.1051709247188592 
0.2332254522014158 0.5361922022482453 -0.6319694838007821 
0.03284644542822574 -0.01044961242495195 -0.01610915694134399 
0.03284644542822574 -0.01044961242495195 -0.01610915694134399 
0.03284644542822574 -0.01044961242495195 -0.01610915694134399 
0.03284644542822574 -0.01044961242495195 -0.01610915694134399 
-0.1729375091051446 -0.3013033268287502 0.2113304458608785 
0.03284644542822574 -0.01044961242495195 -0.01610915694134399 
0.2817576756312846 -0.1415574592663792 -0.2454811928986529 
-0.1729375091051446 -0.3013033268287502 0.2113304458608785 
0.03451632700874897 -0.01067812431089869 -0.01971681904107671 
0.03284644542822574 -0.01044961242495195 -0.01610915694134399 
0.03284644542822574 -0.01044961242495195 -0.01610915694134399 
0.1157290557144411 -0.0426724791254643 -0.05004930354763639 
0.03284644542822574 -0.01044961242495195 -0.01610915694134399 
0.05983188482306608 -0.03967688575383443 -0.04499534679176645 
0.05983188482306608 -0.03967688575383443 -0.04499534679176645 
0.3039824229549055 -0.318546419753449 -0.2469020949446672 
0.3039824229549055 -0.318546419753449 -0.2469020949446672 
0.001476515519227701 -0.002468072170793879 -0.001527858031953185 
0.3975122920350896 -0.1668216976233467 -0.3493133903651133 
0.06805392060300929 -0.01968064425413883 -0.06425825485961636 
0.001476515519227701 -0.002468072170793879 -0.001527858031953185 
0.001476515519227701 -0.002468072170793879 -0.001527858031953185 
1.530384709755474 -0.5564275197652634 -1.360715016672378 
0.001476515519227701 -0.002468072170793879 -0.001527858031953185 
0.3975122920350896 -0.1668216976233467 -0.3493133903651133 
0.06805392060300929 -0.01968064425413883 -0.06425825485961636 
0.6949384626999101 -0.4201413540335555 -0.5116063724721882 
0.004988917315388777 -0.001665834114298996 -0.006228235312971958 
0.004988917315388777 -0.001665834114298996 -0.006228235312971958 
0.1473179776160526 -0.03204039945563893 -0.1538270221915893 
0.1473179776160526 -0.03204039945563893 -0.1538270221915893 
0.1995991627110202 -0.5995585531018838 -0.1592645823817404 
0.05414449784190103 -0.2920341876464174 0.008508832668905238 
0.1028502144036257 -0.1237342887185523 -0.03534117625563046 
0.1602354286474607 -0.06812737543698597 -0.147166537400185 
0.004988917315388777 -0.001665834114298996 -0.006228235312971958 
0.1602354286474607 -0.06812737543698597 -0.147166537400185 
0.2529943339036126 -0.2786128102061939 -0.1973110604100077 
0.1028502144036257 -0.1237342887185523 -0.03534117625563046 
0.004988917315388777 -0.001665834114298996 -0.006228235312971958 
0.1995991627110202 -0.5995585531018838 -0.1592645823817404 
0.03991322910182652 -0.01087063448300958 -0.03385772561237031 
-0.05850934416823557 0.2529383588532529 0.0251648475430374 
-0.02955293359012779 0.06665307771719169 0.1005350944442727 
-0.1452544172460686 0.1759138817203886 0.161609691601458 
-0.08231578560207468 -0.02896700321171773 0.07720955300959795 
-0.3467958434811457 -0.01349541438631411 0.3533864605453304 
0.04056748023564014 -0.06382729410194166 -0.09175420455523653 
-1.080437602366441 0.3373885885526628 0.8678119877053061 
-0.4182145787216163 -0.0008193924684497917 0.4270008613690621 
-0.4182145787216163 -0.0008193924684497917 0.4270008613690621 
-0.03998062949379708 -0.9790920321771687 0.2020077460981639 
0.2016305293621977 -0.6646038393208431 -0.09465652658265251 
-0.03998062949379708 -0.9790920321771687 0.2020077460981639 
0.9390956804519903 -0.957315937514391 -0.7798215778011933 
-0.3467958434811457 -0.01349541438631411 0.3533864605453304 
-0.1923611359214837 -0.2833726333580572 0.4014325981317747 
1.56003469540139 -0.8388921775684811 -1.506110774833426 
0.004583189887647501 1.103087480209422e-05 -0.006534726829511298 
0.004583189887647501 1.103087480209422e-05 -0.006534726829511298 
0.6002017216947654 -0.380020293838317 -0.4394648397321694 
0.3041253797417953 -0.1488816095372132 -0.5469312490518923 
0.2050048045528768 -0.206568835865469 -0.249273874618255 
0.1450507291745184 -0.02510090920822019 -0.1508637279275494 
0.04268390426922616 -0.01866083847899738 -0.02363654003221679 
0.1450507291745184 -0.02510090920822019 -0.1508637279275494 
0.04268390426922616 -0.01866083847899738 -0.02363654003221679 
0.02855529370977547 -0.07069816829542597 -0.007873019794947762 
0.1559430170310395 0.2308389498183043 -0.3385442273455966 
0.004745387419698784 -0.001206427503235514 -0.003412028950163181 
0.1559430170310395 0.2308389498183043 -0.3385442273455966 
0.06483971614008616 -0.01714091365850007 -0.05670732795299454 
0.06483971614008616 -0.01714091365850007 -0.05670732795299454 
-0.2216396497904074 0.141208110226177 0.06467326584634406 
0.004745387419698784 -0.001206427503235514 -0.003412028950163181 
-0.2216396497904074 0.141208110226177 0.06467326584634406 
0.08790796828707591 -0.09616040197205573 -0.08744630577553261 
0.1225714589891968 -0.3212603830600176 0.03285674020586367 
0.09028043880513607 -0.09915461063171302 -0.09062657095412574 
0.6879989423872263 -0.3846882951216072 -0.6123331006653063 
0.1225714589891968 -0.3212603830600176 0.03285674020586367 
0.001800141549047174 -0.001200633087784315 -0.00181625537022282 
0.1399655701170947 -0.1243988957071323 -0.01914508492813396 
-0.5847562081499533 0.7406429073606534 -0.09007300712860353 
-0.08393248188383962 -0.01842792493195108 0.0834156035648668 
0.00294524587065161 -5.794415451199368e-06 -0.001595773579940362 
0.00294524587065161 -5.794415451199368e-06 -0.001595773579940362 
0.02363039034473725 -0.001670384688542794 -0.03139321963919583 
-0.3038648008155891 0.2776763316777045 0.05012125717481961 
0.1377818002630922 -0.06942591352662622 -0.1178958438794237 
0.1377818002630922 -0.06942591352662622 -0.1178958438794237 
0.01478209852673515 -0.01593839400913019 -0.00801652075723143 
0.8701915921486396 -0.6447857229418248 -0.5651932175110839 
0.06783627989070601 -0.007959858961236341 -0.09202758571893037 
-0.1005862248322819 -0.2198277852735795 0.1262208788034647 
-0.1005862248322819 -0.2198277852735795 0.1262208788034647 
0.06783627989070601 -0.007959858961236341 -0.09202758571893037 
0.4766463124791998 0.003200186246125373 -0.5499185971148302 
0.4913096979651662 -0.8311206020915154 -0.3533593518028981 
0.003015159221158922 -0.0007159854032897417 -0.006072402282157827 
-0.3169962642941564 -0.01600569322868354 0.3238718340701257 
-0.2381131448020959 -0.041139699435486 0.2907001486139934 
0.2689682239925484 -0.251861807327197 -0.1324752114890403 
-0.3791384186626033 -0.01533078335520272 0.3779502953771459 
-0.4867071103844388 -0.004854145011851482 0.4843118532855367 
-0.4240653389469646 0.1071026374084443 0.2993031521358647 
-0.2076960828094552 -0.09149173336743927 0.2486927539849584 
0.03099965664198386 -0.2479520392002658 -0.3704267209124906 
-0.4368769864081475 0.1078337511956199 0.307511290217644 
-0.1954912863348084 -0.0974070610350108 0.2373187797604199 
0.8331421867258798 -1.080035088046312 -0.5828280936729281 
-0.4867071103844388 -0.004854145011851482 0.4843118532855367 
0.09441708916895959 -0.1410992582133307 -0.05821574248992335 
-0.1171827353082098 -0.2393313149609243 0.2705846660060877 
0.004180647947240828 -0.00111890597381089 -0.00468915442968393 
0.008691556775316921 -0.002334602777873195 -0.008718025038040055 
0.03006521215129744 -0.02045088422992738 -0.01501076525961788 
-0.01691244317397727 -0.01002291391090562 -0.02180583772920515 
0.1449419439707726 -0.2230120870734683 -0.009225897936785896 
-0.01691244317397727 -0.01002291391090562 -0.02180583772920515 
0.2182228444426085 -0.07241521494138679 -0.2569058007679481 
0.004180647947240828 -0.00111890597381089 -0.00468915442968393 
-0.7537713751858613 0.4345202632873543 0.6504868111721157 
-0.751618278186271 0.3619489889186905 0.7577531051402645 
-0.02579763594561791 -0.1483435325609355 0.04324657781750125 
0.519338187320971 -0.2943934654675704 -0.2237624483755385 
0.01666595730423422 -0.001823230416968071 -0.009495155067525393 
-0.02579763594561791 -0.1483435325609355 0.04324657781750125 
0.2708793717769106 -0.03524507435938721 -0.2501215973058324 
-0.3344070948362263 -0.009595004287681582 0.39280056917304 
0.2708793717769106 -0.03524507435938721 -0.2501215973058324 
0.2035837706117354 -0.008585728249127299 -0.1857669338404298 
-0.3344070948362263 -0.009595004287681582 0.39280056917304 
0.1263314786788501 -0.310778808809818 -0.06227908565832159 
0.2035837706117354 -0.008585728249127299 -0.1857669338404298 
0.1945210156825038 -0.007558069134936181 -0.1790090223766528 
0.1808567903432451 -0.01836197521086372 -0.1550436821237556 
0.1472155652889701 -0.009225359552855904 -0.121953950679033 
0.1808567903432451 -0.01836197521086372 -0.1550436821237556 
0.3396390786724999 -0.07891863740009522 -0.3279942648034816 
-0.02336628601585716 0.200298121006324 -0.1451457151976044 
0.3396390786724999 -0.07891863740009522 -0.3279942648034816 
0.1472155652889701 -0.009225359552855904 -0.121953950679033 
-0.02336628601585716 0.200298121006324 -0.1451457151976044 
-0.03381700152254238 -0.02317276977710761 0.02678894287851808 
0.005494504190532406 -0.001564555656491042 -0.0003846142217793707 
0.005494504190532406 -0.001564555656491042 -0.0003846142217793707 
0.005494504190532406 -0.001564555656491042 -0.0003846142217793707 
0.2021820788854664 -0.2341830615489458 -0.2065317621395955 
0.005494504190532406 -0.001564555656491042 -0.0003846142217793707 
0.124153705077745 -0.2005657123686423 -0.05989666409280041 
0.346963609880722 -0.3105829830122309 -0.1460220045570316 
0.124153705077745 -0.2005657123686423 -0.05989666409280041 
0.07390766500413427 -0.3444266642911276 0.1285326715036061 
0.05370447341265821 0.1641120352693879 -0.6120084166947211 
0.6023747597279059 -0.09080804388375166 -0.7628510761073202 
0.2021820788854664 -0.2341830615489458 -0.2065317621395955 
0.5255496638675983 0.04177068251246689 -1.487823834848257 
0.06642928300684772 -0.01780135317959919 -0.04219492013572075 
0.06642928300684772 -0.01780135317959919 -0.04219492013572075 
0.06375400274099842 -0.01211729495543956 -0.03888354651796945 
0.06375400274099842 -0.01211729495543956 -0.03888354651796945 
-0.1327221337265989 -0.0575431823686483 0.1613420977155585 
0.05393070437911944 -0.1765119836716698 -0.01039106677329753 
0.06375400274099842 -0.01211729495543956 -0.03888354651796945 
0.05990612490334309 -0.04924593777991909 -0.04933601077059659 
0.002675280265849313 -0.00568405822415963 -0.003311373617751298 
0.1067593401731447 -0.06885919161655882 -0.09724508521906849 
0.1067593401731447 -0.06885919161655882 -0.09724508521906849 
0.04376559683387251 -0.03082362853100952 -0.03247460427582442 
0.1602698536813072 -0.07331570295492321 -0.1414506086415123 
0.3026418737773191 0.04963390941017952 -0.5142778245854314 
0.002675280265849313 -0.00568405822415963 -0.003311373617751298 
1.297191633802625 -0.6448222234556243 -1.356501785057761 
0.1520804269576916 -0.04579301489466611 -0.1342383772996722 
0.0032068526881468 -0.001162636257376734 -0.001392540609526594 
-0.3422533208260715 0.3052072370588578 0.02570414385087287 
0.07394666332421813 -0.02132969759378854 -0.08769084440078941 
0.1157230639604098 -0.07559052012712429 -0.09879060461698883 
0.2638951708252915 -0.1771047680082936 -0.2260127743676053 
0.1157230639604098 -0.07559052012712429 -0.09879060461698883 
0.0032068526881468 -0.001162636257376734 -0.001392540609526594 
0.07394666332421813 -0.02132969759378854 -0.08769084440078941 
0.0032068526881468 -0.001162636257376734 -0.001392540609526594 
0.0032068526881468 -0.001162636257376734 -0.001392540609526594 
-0.006055581025369019 -0.1369079418495674 -0.01401405549470775 
0.1762199001955295 -0.131041368763741 -0.1372396878791888 
-0.006055581025369019 -0.1369079418495674 -0.01401405549470775 
-0.008245355656598126 -0.3325748668842027 -0.003325080459886861 
0.5877840946405586 -0.1889178227637281 -0.4181460147650538 
0.1116691472228211 -0.02304248316819407 -0.1466309099938974 
0.1116691472228211 -0.02304248316819407 -0.1466309099938974 
-0.1193137398407496 -0.447036085451612 0.3930805006388252 
-0.008245355656598126 -0.3325748668842027 -0.003325080459886861 
0.06482112066954708 -0.0072438735579466 -0.08595518343677255 
0.005207534470518033 -0.0007187634287000325 -0.00425960693592568 
0.005207534470518033 -0.0007187634287000325 -0.00425960693592568 
0.0438633788113517 -0.002336417368570758 -0.05158352816195762 
-0.0006654859863499279 0.08595090176551409 -0.110550765907783 
-0.0006654859863499279 0.08595090176551409 -0.110550765907783 
0.0438633788113517 -0.002336417368570758 -0.05158352816195762 
0.02091903314994575 -0.0009797459022845691 -0.01461163030146973 
0.05664866091910678 -0.1754864926071616 -0.02894585819255329 
0.1408083960977973 -0.05567353538239905 -0.1269478328648376 
0.1408083960977973 -0.05567353538239905 -0.1269478328648376 
0.02091903314994575 -0.0009797459022845691 -0.01461163030146973 
0.05664866091910678 -0.1754864926071616 -0.02894585819255329 
0.02091903314994575 -0.0009797459022845691 -0.01461163030146973 
0.08407628227050916 -0.01351735568711876 -0.04426493676457796 
-0.1567848269408146 -0.01452263711532406 0.1631287006456468 
-0.1567848269408146 -0.01452263711532406 0.1631287006456468 
0.7149117634365223 -0.3176838125918675 -0.70593002599204 
0.08407628227050916 -0.01351735568711876 -0.04426493676457796 
-0.4435443643390931 -0.3833963199270324 0.5245336942931097 
0.02091903314994575 -0.0009797459022845691 -0.01461163030146973 
0.0239806166215061 -0.001208136617887694 -0.01691663223038039 
0.7149117634365223 -0.3176838125918675 -0.70593002599204 
-1.171668254782166 0.05776725457207144 1.012653665629546 
-0.05832617778911632 -0.03550824717964545 0.07279365714132731 
-0.05832617778911632 -0.03550824717964545 0.07279365714132731 
-0.4782072817091989 -0.03229718810011045 0.5220949180020252 
-0.05832617778911632 -0.03550824717964545 0.07279365714132731 
-0.05832617778911632 -0.03550824717964545 0.07279365714132731 
-0.5105135240839637 -0.06006441083008519 0.4553100152867072 
-0.4782072817091989 -0.03229718810011045 0.5220949180020252 
-0.05832617778911632 -0.03550824717964545 0.07279365714132731 
-0.05832617778911632 -0.03550824717964545 0.07279365714132731 
-0.004480496721563746 -0.05345970067308079 0.01539344934340353 
-0.05832617778911632 -0.03550824717964545 0.07279365714132731 
-0.4280079501716907 -0.0392173914407497 0.4332347616174516 
0.3687173302615469 -0.227613651101159 -0.2889126004899868 
0.06395915683728773 -0.1102525467999173 0.05068491926362509 
0.06395915683728773 -0.1102525467999173 0.05068491926362509 
0.2197646616389716 -0.03187358369862806 -0.1965182372495516 
0.4840854396905557 -0.1490915807406214 -0.4339145890854703 
0.2197646616389716 -0.03187358369862806 -0.1965182372495516 
0.3049260065428286 -0.04280106485914557 -0.2887412876690111 
-0.6112366229431901 0.3770866573471469 0.4482599497865776 
-0.430644035804537 0.3100248488046599 0.2838078186864942 
0.1792944431012083 -0.3965682025097615 -0.04173920415698573 
0.002458057909458653 -0.0001360529477947949 -0.003051358754234798 
0.02760242286948524 -0.002715216429452345 -0.03048399467273065 
0.1072445502077422 -0.1461073375062387 -0.1640053663163176 
-0.1898715233144402 -0.04407697142993248 0.1965336609550941 
0.2067313647742862 -0.2093518468381157 -0.1942388165944004 
-0.8726738835388861 -0.08459741954551343 0.8587362035311336 
-0.1683218542271871 -0.1516297471378252 0.294886574878663 
-0.687105446224198 0.1728989832844355 0.6974251368804902 
-0.01348239609668601 -0.03883492132722133 0.02014135985062007 
-0.1898715233144402 -0.04407697142993248 0.1965336609550941 
-0.01056802938588484 -0.03109701554203643 0.01779196450150236 
-0.01216766322367984 -0.03053408021689298 0.01879333000797758 
-0.01056802938588484 -0.03109701554203643 0.01779196450150236 
-0.3015483950406982 -0.05184176619821067 0.3024208345276324 
0.5317596842868033 -0.195721486013738 -0.379231659987144 
-0.8726738835388861 -0.08459741954551343 0.8587362035311336 
0.2260949472592499 0.1220455530948988 -0.4712370564624025 
-0.01216766322367984 -0.03053408021689298 0.01879333000797758 
-0.1777038600907604 -0.0135428912130395 0.1777403309471165 
0.1517580346062858 -0.04262285121072006 -0.1770915923288973 
0.1517580346062858 -0.04262285121072006 -0.1770915923288973 
-0.1777038600907604 -0.0135428912130395 0.1777403309471165 
-0.1777038600907604 -0.0135428912130395 0.1777403309471165 
0.4640354583656458 -0.4480115284453386 -0.4051937288487286 
-0.1777038600907604 -0.0135428912130395 0.1777403309471165 
0.4640354583656458 -0.4480115284453386 -0.4051937288487286 
-0.0541790337453051 -0.0492643457656295 0.03525362346903707 
0.1900662653371788 -0.8683535103527666 0.07975407521042516 
0.06411088553152536 -0.06873756079916776 -0.03134765882164837 
-0.5995491603462544 0.1801748783296189 0.4310321558126988 
0.5425439825078385 -0.1943854204523789 -0.5015186592683109 
0.5425439825078385 -0.1943854204523789 -0.5015186592683109 
0.06411088553152536 -0.06873756079916776 -0.03134765882164837 
0.2413873634809132 -0.2660970545303361 -0.1632077059200988 
-0.2862974689957418 0.2645290373503009 0.05490574312638683 
0.1226039138450786 -0.004013548360532731 -0.1371113406624732 
0.4011537950990555 -0.1830284918989515 -0.3307871957010213 
0.4011537950990555 -0.1830284918989515 -0.3307871957010213 
0.04760147836567279 -0.05154680847305553 -0.06346422161334436 
-0.2058404094241851 -0.1669913813265856 0.2789498662910719 
0.3399084888945974 -0.2416512531073816 -0.1988025849169689 
0.002841438466232482 -0.0006680067195561401 -0.00324880974662412 
-0.3398092016619136 0.09439247195776429 0.3223120355720375 
-0.3398092016619136 0.09439247195776429 0.3223120355720375 
-0.0924400157041867 -0.1458544942816557 0.08672869541687102 
0.07015747483994313 -0.001123057495603676 -0.06722143786122224 
0.04446543413679108 -0.00324725806794112 -0.03999724617876554 
0.08589885904467368 -0.003400541261700487 -0.07211058985792736 
0.08589885904467368 -0.003400541261700487 -0.07211058985792736 
0.09850382295045239 -0.04149943730851806 -0.08020135237267338 
0.07015747483994313 -0.001123057495603676 -0.06722143786122224 
0.09850382295045239 -0.04149943730851806 -0.08020135237267338 
0.002841438466232482 -0.0006680067195561401 -0.00324880974662412 
0.04446543413679108 -0.00324725806794112 -0.03999724617876554 
0.06938433938707289 -0.01698213395668282 -0.07151457579736836 
-0.3811910607493117 -0.1111818890984875 0.5492469218583785 
0.3940424814162506 -0.2848060563735925 -0.2943804997540673 
-0.2358159015324449 0.1544037524788339 0.1310241956150607 
-0.05106982298515691 -0.309650315698465 0.1416821261525911 
0.3940424814162506 -0.2848060563735925 -0.2943804997540673 
-0.05106982298515691 -0.309650315698465 0.1416821261525911 
-0.3811910607493117 -0.1111818890984875 0.5492469218583785 
-0.1724341885218461 -0.001247538741420957 0.1029788552195627 
-0.1724341885218461 -0.001247538741420957 0.1029788552195627 
-1.577185498198482 -0.07769974232736755 1.439391636007797 
-0.2358159015324449 0.1544037524788339 0.1310241956150607 
0.1693784179087117 -0.06593090587564199 -0.1823213120140917 
0.05983396174968728 -0.2721156265818801 0.06878215371935914 
0.05983396174968728 -0.2721156265818801 0.06878215371935914 
0.282170333997432 -0.05939363654779269 -0.2284321490253624 
0.282170333997432 -0.05939363654779269 -0.2284321490253624 
0.1617951495845963 -0.01364346759104334 -0.1947829723093013 
0.02605528193150827 -0.002230202936163983 -0.03603680983036791 
0.1617951495845963 -0.01364346759104334 -0.1947829723093013 
0.155706286193438 -0.01344128166535944 -0.1868720415979265 
0.07996360652846693 -0.2076983249273829 -0.04861095156111282 
0.01113364242402982 -0.001411448578022208 -0.01483044486136777 
0.1354230914370933 -0.1554104193339843 -0.1046849234365105 
0.07648303432648 -0.2064826638755769 -0.04469433987720882 
0.0722995995221636 -0.004918176249450295 -0.06413243593609436 
0.1354230914370933 -0.1554104193339843 -0.1046849234365105 
0.4470489805934033 -0.05148866366935337 -0.4162457519654433 
0.08015640717681694 -0.004981913888272191 -0.07195300192806836 
0.01113364242402982 -0.001411448578022208 -0.01483044486136777 
0.05235069427879425 -0.01295221215256504 -0.06426687245661342 
0.4466751681381722 -0.1996117271407689 -0.3498130829483483 
-0.483644816227443 -0.06437292666957961 0.5573873165229775 
0.4466751681381722 -0.1996117271407689 -0.3498130829483483 
0.05235069427879425 -0.01295221215256504 -0.06426687245661342 
0.07531836433209174 -0.02639421753998062 -0.08732817386190583 
0.07531836433209174 -0.02639421753998062 -0.08732817386190583 
0.01453449669096959 -0.005426724206763833 -0.01356683234638351 
0.01453449669096959 -0.005426724206763833 -0.01356683234638351 
0.01453449669096959 -0.005426724206763833 -0.01356683234638351 
0.01453449669096959 -0.005426724206763833 -0.01356683234638351 
0.1070438007627189 -0.09620684725518219 -0.1214310806456251 
0.133176516056229 -0.1036183568746339 -0.1172987092059408 
0.01453449669096959 -0.005426724206763833 -0.01356683234638351 
0.2058175191793062 -0.04957050081649184 -0.213385944049336 
0.2520325039883254 -0.1045641574489936 -0.3529874950400796 
0.2520325039883254 -0.1045641574489936 -0.3529874950400796 
0.2058175191793062 -0.04957050081649184 -0.213385944049336 
0.133176516056229 -0.1036183568746339 -0.1172987092059408 
0.006404742302920676 2.555361800752145e-05 -0.01177799955192317 
0.6027011682509071 -0.6307851889454346 -0.4345848560574772 
-0.5177864289014208 -0.04384287143394278 0.5389175220115794 
0.02304309002688011 -0.1376247415012995 0.0559156835399941 
-0.1320167117654157 -0.2170378378963889 0.2552492556141837 
0.006404742302920676 2.555361800752145e-05 -0.01177799955192317 
-0.1320167117654157 -0.2170378378963889 0.2552492556141837 
0.07068466933878913 -0.01600344661089928 -0.05969162724039134 
0.006404742302920676 2.555361800752145e-05 -0.01177799955192317 
0.4173639818337415 -0.3959181038627614 -0.288812576541484 
0.0814194147122696 0.04360073315138092 -0.1017614957570518 
-0.2418156370083942 -0.001400440967351506 0.2258490601500525 
0.006404742302920676 2.555361800752145e-05 -0.01177799955192317 
0.006404742302920676 2.555361800752145e-05 -0.01177799955192317 
0.5882886716904655 -0.3062698537978722 -0.7297212771921013 
0.01015613715035971 -0.004261359462455199 -0.004281179118545078 
0.01015613715035971 -0.004261359462455199 -0.004281179118545078 
-0.4747389420959265 0.3705050004051241 -0.06215725974082932 
0.01015613715035971 -0.004261359462455199 -0.004281179118545078 
0.9783637528252362 -0.586012319485564 -1.360538573943311 
0.01015613715035971 -0.004261359462455199 -0.004281179118545078 
0.1046436238565961 -0.05241378868387936 -0.06793998360794729 
0.02059388829387945 -0.0006083054341371151 -0.03346091807914644 
0.02059388829387945 -0.0006083054341371151 -0.03346091807914644 
0.2871271725625885 -0.1787195163776207 -0.1100503628118955 
0.1806602433897838 -0.1636133173783834 -0.06977364118448622 
0.4831307099944231 -0.2890062313914432 -0.355451242679146 
-0.3040885427599809 0.226369768630677 0.09903617550084176 
-0.2014604100872662 -0.0249089247067937 0.2225632630038493 
-0.3176726333960677 -0.100121538875149 0.5209963893738252 
-0.6266645803378645 -0.03302961614152834 0.7031705748419175 
-0.222320748376023 0.285404879089298 0.02336220040158125 
-0.2968107053948491 -0.01851538913073232 0.324280327319301 
-0.514172200788604 0.5767559905173417 0.0817096062066566 
-0.07153376701229146 -0.004725853304474907 0.09260968808627504 
-0.07153376701229146 -0.004725853304474907 0.09260968808627504 
0.3405422551107118 -0.4484118246582065 -0.3066217090141748 
0.01133324266630038 -0.09464646942986002 0.131606227885765 
0.03199944075559003 -0.001191082021024477 -0.04021364741553028 
0.2461385753958316 -0.05377014175983345 -0.1961677409163302 
0.3586913920005467 -0.4561552019614064 -0.3015959288088131 
0.01662127826167429 -0.001236852815654194 -0.01330129734402182 
-0.5759668889811789 -0.2453445592191004 0.7856086721695412 
0.3797453343834878 -0.1875028173253154 -0.3250958873388174 
0.03199944075559003 -0.001191082021024477 -0.04021364741553028 
0.0660642779329967 -0.01675382555572069 -0.07287745204413054 
0.3307479370717122 -0.5725877531183516 -0.183688885660954 
0.3586913920005467 -0.4561552019614064 -0.3015959288088131 
0.06182084638556079 -0.001905935840564327 -0.08367616715256466 
0.260879781889582 -0.1691784858122165 -0.1799222396413488 
-0.06329251172018607 -0.009284975674086862 0.1028238726064409 
0.1020519629011512 -0.7982248499899195 0.1561450026785494 
0.03245675629230296 -0.002326653274673065 -0.0413018798626453 
0.03245675629230296 -0.002326653274673065 -0.0413018798626453 
0.03564912263642701 -0.007796478121148054 -0.04191074193916725 
0.1923912095937604 -0.01207360393434743 -0.1519444396007399 
0.260879781889582 -0.1691784858122165 -0.1799222396413488 
0.134269471379162 -0.7769692254573064 0.1305043580579681 
0.2635270249730671 -0.1797212497467749 -0.2486173570970759 
0.2635270249730671 -0.1797212497467749 -0.2486173570970759 
-0.2340452542981295 -0.2175052165439244 0.3364895635858797 
0.01095049393751933 -0.001836174824891135 -0.01701011633013538 
0.05544525080335028 -0.08673513358390873 0.01610786913632702 
0.004313454405500091 -0.002102635575244177 -0.007849002727060442 
0.003643997328193165 -0.001953821738183671 -0.005964080094694638 
0.004313454405500091 -0.002102635575244177 -0.007849002727060442 
0.003643997328193165 -0.001953821738183671 -0.005964080094694638 
0.008864132862060219 -0.0103094021622226 -0.01122138854227913 
0.003643997328193165 -0.001953821738183671 -0.005964080094694638 
0.04207627948338559 -0.01149323283463475 -0.04648678655476633 
0.2404730540738683 -0.07174889245980086 -0.1794518053100749 
-0.02397615285059997 -0.3005648173134643 0.0660134297795886 
-0.02397615285059997 -0.3005648173134643 0.0660134297795886 
0.2404730540738683 -0.07174889245980086 -0.1794518053100749 
0.1599812401312417 -0.4215693956332299 -0.186306818887463 
0.1599812401312417 -0.4215693956332299 -0.186306818887463 
0.1112973009849454 -0.1221853676896314 -0.08551545516667156 
0.4552609971587019 -0.3230305814862572 -0.4196148786644521 
-0.07401765635041803 -0.04069182196461495 0.04341073106054798 
-0.07401765635041803 -0.04069182196461495 0.04341073106054798 
0.4552609971587019 -0.3230305814862572 -0.4196148786644521 
0.04207627948338559 -0.01149323283463475 -0.04648678655476633 
0.1247534880558154 -0.1248281509719422 -0.1017808420727511 
0.1151988814734975 -0.08527882952627715 -0.1491089421050089 
0.1151988814734975 -0.08527882952627715 -0.1491089421050089 
0.1704449088975423 0.1361701983575026 -0.2789861255225315 
0 0 0 
0.1704449088975423 0.1361701983575026 -0.2789861255225315 
0.2930183558473605 -0.2460248424403829 -0.2221663298182891 
0.4393643190352902 -0.2458766366852709 -0.3402429047533952 
0.2186266912939615 -0.7148929401417081 -0.1568125364976357 
0.2186266912939615 -0.7148929401417081 -0.1568125364976357 
0.0473235838287665 -0.004113883599682249 -0.06054934735175949 
0.1152564494271609 -0.02322887181892887 -0.1281782771129722 
0.07848512882809472 -0.009822514483211413 -0.09027903012557981 
0.06225811567495083 -0.01224968134196389 -0.06532336412949792 
-0.1091101615765185 -0.198172864334955 0.204007613956981 
0.130273297028322 -0.02403924842735277 -0.1168295842628852 
0.2012827389175295 0.1229327912407417 -0.443117342400348 
0.1223712737930478 -0.03696902929248971 -0.06160123137241327 
0.1223712737930478 -0.03696902929248971 -0.06160123137241327 
-0.1294825370131181 -0.000859832404784443 0.07320926113210323 
-0.1294825370131181 -0.000859832404784443 0.07320926113210323 
0.03823676886103945 -0.009864535205418964 -0.03237431667241236 
0.01760336028361132 0.1284651508279401 -0.1718013089010815 
0.03823676886103945 -0.009864535205418964 -0.03237431667241236 
0.03823676886103945 -0.009864535205418964 -0.03237431667241236 
-0.4539046656846034 0.3813338601521264 -0.04019773574435083 
-0.1181916641539245 0.2151019854281431 -0.2468100952311204 
1.001145278630901 -0.245682391019995 -1.157410766562455 
0.125785625685909 0.1690201458601549 -0.4737752217319531 
-0.5065124645552344 0.4000843000845131 -0.01782914695925991 
-0.09776999635606 -0.09972240406773257 0.0570456698402185 
-0.5006731871791916 -0.167094279104039 0.4590672283915016 
-0.7083700677561062 0.671867612009974 -0.07087036190448837 
-0.5065124645552344 0.4000843000845131 -0.01782914695925991 
-0.3221074500586415 0.2988729760668966 -0.006194980289554244 
-0.06970499930288705 0.1113249249903475 -0.1013830891862194 
0.01413250417166224 0.08270181704769422 -0.1663225846406207 
-0.2023221794592212 0.1904743071144112 -0.02931081852495914 
0.5253689963224628 -0.1283080914432189 -0.6069636565320256 
-0.2023221794592212 0.1904743071144112 -0.02931081852495914 
-0.2023221794592212 0.1904743071144112 -0.02931081852495914 
-0.0930288395988077 0.1684002705434752 -0.1451467156204309 
-0.2166681977885268 0.2811634775878094 -0.1484725089453773 
-0.2023221794592212 0.1904743071144112 -0.02931081852495914 
-0.2023221794592212 0.1904743071144112 -0.02931081852495914 
-0.2166681977885268 0.2811634775878094 -0.1484725089453773 
-0.2023221794592212 0.1904743071144112 -0.02931081852495914 
-0.04396237182781914 0.06002316744234953 -0.1036704754432186 
-0.2023221794592212 0.1904743071144112 -0.02931081852495914 
-0.2023221794592212 0.1904743071144112 -0.02931081852495914 
-0.4200322449526254 0.08011134879919078 0.2904176009948667 
-0.2023221794592212 0.1904743071144112 -0.02931081852495914 
-0.1326689685663647 0.08617100224904278 -0.02887036255746207 
-0.1326689685663647 0.08617100224904278 -0.02887036255746207 
-0.4048160149015665 0.07572249459315893 0.2730342986762564 
-0.4048160149015665 0.07572249459315893 0.2730342986762564 
-0.05079976397764926 0.08953862332930505 -0.1328864192985587 
-0.1426019211427385 0.08906078243676943 -0.03130574488626785 
0.143057245277213 -0.5413009496460267 -0.1177976081233309 
-0.07491803910139676 0.09496217076358049 -0.1117272006441345 
-0.0157121214928964 0.07470790018781065 -0.1125095411624716 
0.143057245277213 -0.5413009496460267 -0.1177976081233309 
0.4706062658113374 -0.6163853460498154 -0.1647162955835528 
0.6098981792118786 -0.1632871766827804 -0.6946349427177089 
-0.1844050144965929 0.1012113240176165 -0.01163416666970567 
0.1395008822086952 -0.09061454116023256 -0.1363791058348015 
0.06979290014781167 -0.009862782211950043 -0.08261772787931747 
0.006558174938682989 -0.2518714266957258 0.02837835772123102 
0.09267992033563807 -0.03107073514540565 -0.09241018539859798 
0.5474697348315908 -0.2127208965266666 -0.4993636567070088 
0.006558174938682989 -0.2518714266957258 0.02837835772123102 
0.05869315826680773 -0.008368264740714096 -0.06863816661221359 
0.2018655468777847 -0.2400077665272197 -0.04958799239676753 
0.5893744227228559 -0.5171309159550571 -0.7495633346413427 
0.1395008822086952 -0.09061454116023256 -0.1363791058348015 
0.05869315826680773 -0.008368264740714096 -0.06863816661221359 
-0.1863244883830967 -0.006225357915628046 0.2312237073517402 
-0.1863244883830967 -0.006225357915628046 0.2312237073517402 
-0.1027615841035168 -0.05034879342489959 0.1478264215131411 
0.00148211251915909 -0.0005027879732513535 -0.001121795230529336 
0.00148211251915909 -0.0005027879732513535 -0.001121795230529336 
0.08002977164954353 0.01469221622174692 -0.1693039844749261 
-0.1027615841035168 -0.05034879342489959 0.1478264215131411 
0.08002977164954353 0.01469221622174692 -0.1693039844749261 
0.09932227913323226 -0.02257279264899271 -0.08145622106576021 
-0.06461165582400755 -0.09163898567308232 0.1296232369293273 
-0.0154893228934325 -0.02092843195100094 0.1175071364303397 
-0.06461165582400755 -0.09163898567308232 0.1296232369293273 
-0.0154893228934325 -0.02092843195100094 0.1175071364303397 
0.2762146512019505 0.06478041197513347 -0.6995653193112545 
0.03500381956444305 -0.01587703142273005 -0.04577070673638373 
0.03500381956444305 -0.01587703142273005 -0.04577070673638373 
0.9464815377744836 -0.5083312264168222 -0.9651768274713253 
0.1897831049309831 -0.06909831395989204 -0.1050446993528026 
-0.1064294542613155 -0.8858031788716511 0.4363028881214247 
0.2045175692483772 -0.09929510730321588 -0.088820570131321 
0.03911641691893486 -0.01568628913340988 -0.0510835784884282 
0.0398289983125262 -0.01851821602351444 -0.05103629004893763 
0.0216118862824088 -0.07317448151526521 0.05435773880515148 
0.4081222216958397 -0.2992455561587839 -0.3237035353798358 
0.1538808148255743 -0.06519025898927475 -0.1661758254608488 
-0.09031944218067207 -0.09171679158694586 0.1000064924265303 
-0.09031944218067207 -0.09171679158694586 0.1000064924265303 
0.1538808148255743 -0.06519025898927475 -0.1661758254608488 
0.2084338321106591 -0.06773343090344321 -0.1167690269210027 
0.1897831049309831 -0.06909831395989204 -0.1050446993528026 
-0.1518802023626152 -0.03914214637968174 0.2249711934524108 
-0.1518802023626152 -0.03914214637968174 0.2249711934524108 
0.01181125806659499 -0.006023851378049981 -0.01090239457462242 
0.007741626168996952 -0.00381107502414446 -0.007039892344934751 
0.007741626168996952 -0.00381107502414446 -0.007039892344934751 
0.009008258193581298 -0.004594012951323322 -0.007879498792677219 
0.007741626168996952 -0.00381107502414446 -0.007039892344934751 
0.01181125806659499 -0.006023851378049981 -0.01090239457462242 
0.007741626168996952 -0.00381107502414446 -0.007039892344934751 
0.1615181220973798 -0.2305844916608462 -0.04849171833182131 
-0.08771721951630945 -0.06392306085621986 0.1172872068706464 
-0.08771721951630945 -0.06392306085621986 0.1172872068706464 
0.05059128958826128 -0.0317407218885245 -0.004159746795517455 
0.3866398121932346 -0.2165032932544853 -0.2927145403979424 
-0.6868772678328838 0.3273410233583097 0.6769671618742017 
-0.5691250766738266 0.3042803595740576 0.5974930786017355 
0.1451735430756718 -0.1254745263087474 -0.006779169352969149 
0.002152759675807219 -0.001424523017475932 -0.0007585495058136484 
0.04255799004517576 -0.02451540362191293 -0.03195545064804092 
0.04255799004517576 -0.02451540362191293 -0.03195545064804092 
0.09486513457077403 -0.08886653487417646 -0.2545228939981598 
0.09486513457077403 -0.08886653487417646 -0.2545228939981598 
0.1724134531490971 0.4844632733558547 -0.6191512247715851 
0.1648702310639734 -0.3999287433975429 -0.06794883673450715 
-0.2127237503074962 0.1378237347684842 -0.02023856031524321 
0.04974192974636786 -0.358480025185773 0.05771591834387782 
0.002152759675807219 -0.001424523017475932 -0.0007585495058136484 
0.06971276685354293 -0.02534246350375397 -0.04659645685629073 
0.06971276685354293 -0.02534246350375397 -0.04659645685629073 
-0.09195057379058999 -0.01228723994262042 -0.0714589698292655 
0.1173180092058985 -0.6751538823557255 0.1876190114342661 
0.6614196837164265 -0.4050837264885269 -0.527832819193885 
-0.2834430403755615 -0.01509560900155537 0.2661710130213806 
-0.2834430403755615 -0.01509560900155537 0.2661710130213806 
0.1754039413607316 -0.02057959471411768 -0.1433563140646874 
0.1001364759485209 -0.03044111709695335 -0.1042438074598234 
0.1097230743207434 -0.03173799359035286 -0.1145846241353597 
0.1001364759485209 -0.03044111709695335 -0.1042438074598234 
0.1097230743207434 -0.03173799359035286 -0.1145846241353597 
0.1001364759485209 -0.03044111709695335 -0.1042438074598234 
0.1001364759485209 -0.03044111709695335 -0.1042438074598234 
0.1001364759485209 -0.03044111709695335 -0.1042438074598234 
0.5280431317709087 -0.1416750547860839 -0.5562381039490806 
0.1001364759485209 -0.03044111709695335 -0.1042438074598234 
-0.5944563124602151 -0.2689672509986524 0.7421293392800673 
-1.42514546713228 -1.105635488348938 1.991385138621336 
-0.4725283842889204 0.7667399565113857 0.2174916053569007 
-0.549752928627135 -0.2756347412856195 0.6923962102619293 
-0.002651313797429482 -0.06594809479157018 0.003651876521105477 
-0.01850055620635148 0.05295598116518453 -0.3196519863288301 
-2.92923792261592 0.02275826046772835 2.466996253536155 
-0.002651313797429482 -0.06594809479157018 0.003651876521105477 
0.2956272089483274 -0.138906439874725 -0.03799161287843178 
0.01213155839395962 -0.007078246459719019 -0.01068774554982531 
0.01213155839395962 -0.007078246459719019 -0.01068774554982531 
0.02121338442638574 -0.0106320694903811 -0.01787358342129852 
0.01213155839395962 -0.007078246459719019 -0.01068774554982531 
0.1017592949483801 -0.06227707070553947 -0.05088783984163822 
0.01213155839395962 -0.007078246459719019 -0.01068774554982531 
0.03598218885731045 -0.00961145060062406 -0.02650233625347098 
0.0560096557479771 -0.01262102088158358 -0.04248036964475524 
0.1357681923250781 -0.01712379378121922 -0.1404433599127275 
0.01213155839395962 -0.007078246459719019 -0.01068774554982531 
0.1017592949483801 -0.06227707070553947 -0.05088783984163822 
0.01213155839395962 -0.007078246459719019 -0.01068774554982531 
0.01213155839395962 -0.007078246459719019 -0.01068774554982531 
0.01213155839395962 -0.007078246459719019 -0.01068774554982531 
0.02121338442638574 -0.0106320694903811 -0.01787358342129852 
-0.4015904502881966 0.05405073070745745 0.2364333634739233 
0.03094993289872604 -0.08876361571580574 0.01360823519649199 
-0.4015904502881966 0.05405073070745745 0.2364333634739233 
-0.2692260353903859 -0.001510998453021121 0.2471965892185923 
-0.2692260353903859 -0.001510998453021121 0.2471965892185923 
-0.2692260353903859 -0.001510998453021121 0.2471965892185923 
-0.2692260353903859 -0.001510998453021121 0.2471965892185923 
0.03094993289872604 -0.08876361571580574 0.01360823519649199 
-0.2692260353903859 -0.001510998453021121 0.2471965892185923 
-0.2013403835848123 -0.1528717259336249 0.2147149062735577 
-0.2692260353903859 -0.001510998453021121 0.2471965892185923 
-0.2682635562112193 -0.003085029070289424 0.2463496805558629 
-0.2692260353903859 -0.001510998453021121 0.2471965892185923 
-0.2692260353903859 -0.001510998453021121 0.2471965892185923 
0.007628405241714571 -0.007333150380300392 -0.011213445944583 
0.0267134878197129 -0.04170203856903586 -0.02199391490159844 
0.007628405241714571 -0.007333150380300392 -0.011213445944583 
0.005811288102439222 -0.006802220464114709 -0.007981773209684666 
0.008036732717575977 -0.001313977004759488 -0.00570914086019586 
0.008036732717575977 -0.001313977004759488 -0.00570914086019586 
0.06525605919140874 -0.01319379080707713 -0.07078856862922693 
0.05164468135719045 -0.008863240816363943 -0.05422934649591827 
0.3430881424470026 -0.0483142583897567 -0.3470562452562798 
-0.2204979275275206 0.104396552025994 0.1119761020323699 
-0.1069313526671155 -0.1834781093240045 0.2629906789421572 
-0.1046959251581728 0.0238097530592834 0.02561176091959226 
0.2681759678217402 -0.4679048185872682 0.07287667391302666 
-0.1069313526671155 -0.1834781093240045 0.2629906789421572 
-0.2204979275275206 0.104396552025994 0.1119761020323699 
-0.1392047504600682 0.04663106120551178 0.03817460610045346 
-0.1046959251581728 0.0238097530592834 0.02561176091959226 
-0.1392047504600682 0.04663106120551178 0.03817460610045346 
-0.4531373579974123 -0.1995100046228531 0.6714536888258371 
0.3142802756191731 -0.5100178237916704 -0.02612543588037948 
-0.6488059568098754 0.1827321954888693 0.5212291683355648 
-0.1737228876575455 -0.0388295534959648 0.2683805857360873 
-0.1737228876575455 -0.0388295534959648 0.2683805857360873 
-0.1737228876575455 -0.0388295534959648 0.2683805857360873 
-0.1737228876575455 -0.0388295534959648 0.2683805857360873 
0.1745048578293083 -0.003843999966913473 -0.2217170985980164 
