solver_type L2R_LR
nr_class 3
label 12 13 10
nr_feature 63508
bias -1
w
0.2491344233807218 -0.2475602623026132 -0.002005984882099357 
0.2258478998939679 -0.229019350872033 -1.281100423274182 
-0.5062237723875282 0.5103017645637752 -0.6315903999782767 
0.2491344233807218 -0.2475602623026132 -0.002005984882099357 
0.7012532623046849 -0.7045501916525618 -0.7010563799768689 
0.01145611245138086 -0.01048440565037989 -1.326679559227434 
-0.9579456454989792 0.956550703463096 -0.2212008965351734 
0.09709278586221184 -0.09083115709928727 -0.4055657046940853 
0.4102570311239012 -0.4070839549522784 -0.08199590464941538 
0.01145611245138086 -0.01048440565037989 -1.326679559227434 
2.289001219684084 -2.288376582545455 -0.3013510457033435 
0.6575934031874807 -0.6642438530850774 -1.068495502520911 
0.001806138033853388 -0.000330385410591761 -0.05239445510506218 
0.2258478998939679 -0.229019350872033 -1.281100423274182 
0.2805628511932222 -0.2823916091227103 -0.02303289665941999 
0.01251498061316593 -0.01259912539539863 -0.001656327068700522 
0.2759647540363723 -0.2757547795222965 -0.8056484128435478 
0.2759647540363723 -0.2757547795222965 -0.8056484128435478 
0.8638059858384914 -0.8625268696898695 -1.511037506979708 
0.4349246821726935 -0.4374021132015271 -1.600838951732319 
0.09325762853810782 -0.09335676986406603 -0.005129642852786184 
2.401934656447901 -2.400041286424248 -0.3973106741951974 
0.005105801990028574 -0.005085961186890688 -0.001026907963478163 
0.4349246821726935 -0.4374021132015271 -1.600838951732319 
0.01251498061316593 -0.01259912539539863 -0.001656327068700522 
-0.4132047462684392 0.4113132776174843 -0.00389178738738528 
-0.08350114290117328 0.08257529680846966 -0.05171962282144194 
1.093185098778129 -1.094338317093528 -0.09496453173740765 
0.2005669127251414 -0.1909012088720735 -1.000693244093547 
0.4082810997379173 -0.4110645805299537 -1.782735643340241 
-0.06630445028968569 0.06593447348177912 -0.3366355096235432 
0.008541305655034553 -0.008653759533224732 -0.0001927918174090621 
-0.1194953125633787 0.1205223023977365 -0.1578603944697534 
-0.06630445028968569 0.06593447348177912 -0.3366355096235432 
0.1425572992655233 -0.1437572262505372 -0.2054021375060031 
0.2282479407076591 -0.2259250260972773 -0.958454828345484 
1.920631584771802 -1.908139251650657 -1.04704261650801 
0.592483289063646 -0.5930474988313512 -0.1266955377167069 
-0.3598206176340754 0.3584635484733025 -0.1483977222060733 
0.7188490989878376 -0.7198729816712943 -0.2704141006954153 
0.1161652481119019 -0.1168991516117366 -0.1430748153316166 
0.2282479407076591 -0.2259250260972773 -0.958454828345484 
0.07889753114439547 -0.07870332356912127 -0.004183097913597008 
0.008541305655034553 -0.008653759533224732 -0.0001927918174090621 
0.1047804827800981 -0.1055307582716342 -0.009647335981350001 
0.1488263717192074 -0.1490490364572814 -0.01144568494194878 
0.1488263717192074 -0.1490490364572814 -0.01144568494194878 
0.2096093099439431 -0.2133997014939235 -0.2094810802242583 
0.2096093099439431 -0.2133997014939235 -0.2094810802242583 
-0.05272633869461018 0.05274725423966561 -1.192318349822011 
0.1243311710526281 -0.1263288516637878 -0.1631676618174651 
0.1047804827800981 -0.1055307582716342 -0.009647335981350001 
0.05592956396543936 -0.0562434735119291 -0.0003820614405500948 
-0.09889433614218346 0.09817236443763036 -0.001453774722311744 
0.08087783492703406 -0.08091914546676172 -1.191969795786642 
-0.215424356921189 0.216723237516104 -0.006730063831827316 
0.08172760360202461 -0.08203637639710912 -0.001006305398855529 
0.1310008661573833 -0.1315618014183245 -0.001272488494941902 
-0.2976104982573743 0.3093545894149021 -0.009736007466506507 
0.08172760360202461 -0.08203637639710912 -0.001006305398855529 
0.1243311710526281 -0.1263288516637878 -0.1631676618174651 
-0.09889433614218346 0.09817236443763036 -0.001453774722311744 
1.759158866010637 -1.751435839873341 -3.331060356881723 
0.01215831786996088 -0.01210976034820261 -0.002441498361487073 
0.01215831786996088 -0.01210976034820261 -0.002441498361487073 
0.1065653076176429 -0.1096204454521541 -0.5927218082643861 
0.07388459115998042 -0.07404475430407821 -0.005477811513822768 
0.01215831786996088 -0.01210976034820261 -0.002441498361487073 
0.374092523843028 -0.3732402983163308 -0.3157070219965668 
0.616062501829754 -0.6163975627855499 -0.1948490687549688 
0.06478774620377158 -0.06516617819363514 -0.01978315842188826 
0.092896807753768 -0.0928055629453523 -0.01106362350139868 
0.092896807753768 -0.0928055629453523 -0.01106362350139868 
0.374092523843028 -0.3732402983163308 -0.3157070219965668 
0.01215831786996088 -0.01210976034820261 -0.002441498361487073 
0.06450241334403209 -0.06194823226590059 -0.1405332506333284 
-0.1313813244352835 0.1279179426260089 -0.6041247977425644 
0.6065495363007588 -0.6070064529088335 -0.4328574506776146 
0.6003249391141915 -0.6008203973347817 -0.4252877806560528 
0.6337871196086042 -0.6302417165792198 -0.3369040356116557 
-0.1481042497370225 0.1472384902297381 -0.1893088330948235 
0.003572875306156497 -0.003591454835952672 -0.000846055908476129 
0.002481337408936212 -0.002496951301570538 -0.0002743401100668827 
0.2742680059507972 -0.2774738767316089 -0.1141130497353682 
0.3993779852123533 -0.4044398120260504 -0.1064429505669556 
0.7745666574472488 -0.7753040430998963 -0.8789471193916158 
0.3227173157614576 -0.3264758367815394 -0.879597838493415 
-0.1969408821164766 0.1964347434746528 -0.002984559752944854 
0.2932305037921064 -0.2947899199135663 -0.00782092801660581 
1.166183885406277 -1.158191474071592 -0.5419707885921724 
-0.1949168216460578 0.1943765768698313 -0.003121081499598256 
-0.1296240129714026 0.1305628708253914 -0.02526923467871105 
-0.1296240129714026 0.1305628708253914 -0.02526923467871105 
0.9294944744047908 -0.9307018673900017 -0.2043905267552257 
0.9013162232939298 -0.9003672516551771 -0.1144634807217258 
1.112759008589427 -1.108473846204274 -0.2896858461805916 
1.394499666776684 -1.387818674858241 -0.7781676042232585 
0.5373421734891795 -0.5453698436790969 -0.8628395850046537 
0.5488969166407781 -0.5570183379463882 -0.8629086112401136 
0.08547300884768762 -0.08705835814636478 -0.01320807667192771 
0.2527974938406186 -0.2554628580108186 -0.0617810097106193 
0.003668275594208585 -0.003645973259710853 -0.006511302942481285 
-0.004540624858980178 0.003839004175262538 -0.007852450598485881 
-0.004540624858980178 0.003839004175262538 -0.007852450598485881 
-0.08050059777114138 0.08707916448416335 -0.1132357266989391 
1.236461694084935 -1.235366703565407 -0.8714401406585732 
-0.005181916006956512 0.004469948027807647 -0.04768732747335353 
0.2045642423622968 -0.204055410505694 -0.8213589657640663 
0.2096640470468161 -0.2089943398637555 -0.02179474706761155 
-0.005181916006956512 0.004469948027807647 -0.04768732747335353 
0.2096640470468161 -0.2089943398637555 -0.02179474706761155 
2.519334839584257 -2.516112905770649 -1.678742010828726 
-0.08050059777114138 0.08707916448416335 -0.1132357266989391 
0.2045642423622968 -0.204055410505694 -0.8213589657640663 
-0.2666231031671166 0.2682824591917465 -0.0856137366783712 
0.01871664058688181 -0.01875532327140435 -0.006683205814897569 
0.1111573086299062 -0.1120043773877804 -0.6471031040018694 
0.01871664058688181 -0.01875532327140435 -0.006683205814897569 
-0.07527049134667671 0.07496431859433737 -0.2155869038094409 
0.04956361857626195 -0.04967413956279653 -0.01965987543368408 
0.1111573086299062 -0.1120043773877804 -0.6471031040018694 
0.04956361857626195 -0.04967413956279653 -0.01965987543368408 
0.9105912887586211 -0.9086447601889271 -0.5630471510486561 
0.3532575849155666 -0.3527526359436253 -0.615860215957391 
-0.07527049134667671 0.07496431859433737 -0.2155869038094409 
0.9105912887586211 -0.9086447601889271 -0.5630471510486561 
0.3532575849155666 -0.3527526359436253 -0.615860215957391 
0.01871664058688181 -0.01875532327140435 -0.006683205814897569 
-0.078493097301641 0.07693970112350777 -0.1327771418745722 
-0.3047241454465001 0.3166219595831931 -0.1336622903523477 
0.04877734426170883 -0.04891939388813991 -0.02335214604011586 
0.4500601069433421 -0.4552464542552099 -0.5481088806673143 
0.02942277180645741 -0.02950796458869876 -0.01197352026387617 
0.5643507915922543 -0.5782239418675337 -1.068455687897988 
0.08244901113945442 -0.08311257832237719 -0.01197407061578622 
0.3108625376613469 -0.3088212353104479 -0.07725746134091553 
0.08244901113945442 -0.08311257832237719 -0.01197407061578622 
0.1678056857465345 -0.1701118579936363 -0.6224568950972486 
0.1600621085863889 -0.151263812903669 -0.6881011717755208 
0.1600621085863889 -0.151263812903669 -0.6881011717755208 
0.3108625376613469 -0.3088212353104479 -0.07725746134091553 
0.2902524423237612 -0.296144387486024 -0.1574662314134926 
0.08244901113945442 -0.08311257832237719 -0.01197407061578622 
0.06970196393555202 -0.06996871745397167 -0.01298030557649787 
0.06970196393555202 -0.06996871745397167 -0.01298030557649787 
-0.180137328147442 0.181342454007833 -0.05424435814253131 
-0.180137328147442 0.181342454007833 -0.05424435814253131 
0.06970196393555202 -0.06996871745397167 -0.01298030557649787 
0.06970196393555202 -0.06996871745397167 -0.01298030557649787 
0.4724233210057873 -0.4709230652391359 -0.08296994918464913 
0.6679260902950021 -0.6624717833750561 -0.1268162376907988 
0.2111746487303154 -0.2081652681551274 -0.2528457692834555 
0.3158451387513386 -0.3103970619032754 -0.2570960120032776 
-0.502638237031324 0.5026520044582591 -0.08064754751148938 
0.4537290054870454 -0.450124200994119 -0.0263121432781778 
0.5407708939489569 -0.5468416192909173 -0.2563101268110977 
0.3250764146108348 -0.3293379255017377 -0.5489957817768601 
0.3250764146108348 -0.3293379255017377 -0.5489957817768601 
-0.3770207702284916 0.3757966373419794 -0.3114778224630257 
-0.2799180272874109 0.273604876328235 -0.4517653995523196 
0.5407708939489569 -0.5468416192909173 -0.2563101268110977 
0.05415276913285615 -0.05390091726283418 -0.02567655896859493 
0.001621796031171172 -0.001481763740396146 -8.559272207041384e-05 
0.280543832450065 -0.2808832582357745 -0.2327672753047789 
0.001621796031171172 -0.001481763740396146 -8.559272207041384e-05 
0.3342774690899379 -0.3327319791364627 -0.1171249073601306 
-0.1325738197568447 0.1324147292452682 -0.5445504392883015 
0.1073445848335255 -0.1029045933561386 -0.7638253680389253 
0.3795343724734049 -0.3698362335566827 -0.4717853960561812 
0.1073445848335255 -0.1029045933561386 -0.7638253680389253 
-0.1325738197568447 0.1324147292452682 -0.5445504392883015 
0.4725213439141823 -0.4896439413516924 -0.1744353059865291 
0.4591217002477178 -0.4767171300925994 -0.5211144829001149 
-0.6485926121702467 0.6691066270972362 -0.4549523500202624 
0.09155300850679313 -0.09119277746384648 -0.02749925012750327 
0.4591217002477178 -0.4767171300925994 -0.5211144829001149 
0.09155300850679313 -0.09119277746384648 -0.02749925012750327 
0.5966432322008172 -0.5974605281414549 -1.289326184251515 
0.5966432322008172 -0.5974605281414549 -1.289326184251515 
0.1687844881734462 -0.1725085109182364 -0.1494709115607203 
0.3795343724734049 -0.3698362335566827 -0.4717853960561812 
0.3342774690899379 -0.3327319791364627 -0.1171249073601306 
1.122987871764545 -1.118805903750942 -0.7693552921289877 
0.2599571994710719 -0.2553766039762856 -0.006913713566110078 
-0.1409430572527263 0.144381946225544 -0.04913445462566123 
0.02530211843426535 -0.02447569105607286 -0.09158562984060037 
0.6101343681614892 -0.6072476952950928 -0.8067117243723836 
0.1767989479777363 -0.1886183572312369 -0.7175636464584683 
0.1853213279125334 -0.1824082964105048 -0.159583007903706 
-0.09094642058940505 0.09676564407836923 -0.05007227881324289 
0.1467389537000202 -0.1409726205885896 -0.06227149278559229 
0.00208608920100086 -0.001948144138473394 -9.150122410290716e-05 
0.1767989479777363 -0.1886183572312369 -0.7175636464584683 
0.1853213279125334 -0.1824082964105048 -0.159583007903706 
0.8104085724131916 -0.8044317659163061 -0.3098349469029823 
0.6101343681614892 -0.6072476952950928 -0.8067117243723836 
0.8374411633938573 -0.8727340893578235 -0.757655844761016 
0.00208608920100086 -0.001948144138473394 -9.150122410290716e-05 
0.1167041754891302 -0.1121435829846594 -0.001237553405779276 
0.8374411633938573 -0.8727340893578235 -0.757655844761016 
0.01549151779063667 -0.01589578420661771 -0.0001569900466469803 
-0.6420861675979604 0.644153923678046 -0.02832073616583414 
-0.06391662338954024 0.06494812144679406 -0.7236628019325562 
-0.6420861675979604 0.644153923678046 -0.02832073616583414 
0.2284751803965148 -0.2220912913014397 -0.15190199924098 
-0.06391662338954024 0.06494812144679406 -0.7236628019325562 
0.431314716387049 -0.4282696963619606 -0.2157201781701806 
0.2284751803965148 -0.2220912913014397 -0.15190199924098 
0.01549151779063667 -0.01589578420661771 -0.0001569900466469803 
0.1841533001090317 -0.1865463353054649 -0.01351967228769838 
0.06082836189740649 -0.05797255283769041 -0.0002192390054561299 
0.06082836189740649 -0.05797255283769041 -0.0002192390054561299 
0.06082836189740649 -0.05797255283769041 -0.0002192390054561299 
0.06082836189740649 -0.05797255283769041 -0.0002192390054561299 
-0.2993768571215522 0.30915264901234 -0.1135631583228321 
0.2017684592787662 -0.2013947024716685 -0.3101726290179447 
0.03549811834024002 -0.03298292719431546 -0.0002241379682078794 
-0.06257976321263323 0.06142636177226815 -0.05587174180362804 
0.2450227384611576 -0.2443524001314621 -0.001853267803016295 
0.1061471490701051 -0.1489713381895043 -0.5277624652380922 
0.2450227384611576 -0.2443524001314621 -0.001853267803016295 
0.2017684592787662 -0.2013947024716685 -0.3101726290179447 
-0.03961965399454514 0.03964190445297831 -0.5888145789474242 
0.13423535494152 -0.1319345411316978 -0.01954090759943304 
0.04955310441409053 -0.04727567375776612 -0.004624293215368109 
0.6756479075873985 -0.693885102610592 -0.6396624849496254 
0.6756479075873985 -0.693885102610592 -0.6396624849496254 
0.03549811834024002 -0.03298292719431546 -0.0002241379682078794 
-0.03961965399454514 0.03964190445297831 -0.5888145789474242 
-0.2365311901974476 0.2319732823914287 -0.08657062606125956 
0.8747665048427619 -0.9101982425372507 -0.5940608935845392 
0.3922820894994264 -0.3937635600405679 -0.03910146784284119 
0.9348313182149182 -0.9401516706676907 -0.09157640671282757 
-0.03010338426250181 0.03076652634944111 -0.6363980723477073 
0.005319477742952453 -0.005070091373047067 -0.001306693300242727 
0.1955221246336507 -0.2167190240236883 -0.6240595672137894 
0.02934823569813255 -0.02752456447526452 -0.005708810845230633 
0.8660199132669508 -0.8639661176147512 -0.4649007811596326 
0.005319477742952453 -0.005070091373047067 -0.001306693300242727 
0.005319477742952453 -0.005070091373047067 -0.001306693300242727 
0.1751386260578349 -0.1734673997915106 -0.02280521116819259 
-0.1031711668398789 0.1071273357023519 -0.1452078245217087 
1.442835175156792 -1.474660649806884 -0.5977961532356939 
-0.03010338426250181 0.03076652634944111 -0.6363980723477073 
-0.0463611688687501 0.05049389864300657 -0.3544892152788017 
0.3207367458290596 -0.3191490440566635 -0.04620195382513807 
0.2585273321108758 -0.2451591510519272 -1.33779597786802 
0.005319477742952453 -0.005070091373047067 -0.001306693300242727 
0.007185661983919837 -0.007303274108945812 -0.001950110043435167 
0.007185661983919837 -0.007303274108945812 -0.001950110043435167 
0.007185661983919837 -0.007303274108945812 -0.001950110043435167 
0.007185661983919837 -0.007303274108945812 -0.001950110043435167 
0.338182289648729 -0.3390802349149792 -0.06664858839329993 
0.007185661983919837 -0.007303274108945812 -0.001950110043435167 
0.007185661983919837 -0.007303274108945812 -0.001950110043435167 
0.00970540427750954 -0.009791769784433193 -0.00215058762259676 
0.05700785098879843 -0.06109534024931479 -0.02834501005529942 
0.287154416290358 -0.2846050383225641 -0.9603962019951023 
0.007185661983919837 -0.007303274108945812 -0.001950110043435167 
0.3270447845338461 -0.3193233203391373 -0.2061898440238667 
0.007185661983919837 -0.007303274108945812 -0.001950110043435167 
0.007185661983919837 -0.007303274108945812 -0.001950110043435167 
0.2743619366859172 -0.2777621829133581 -0.04669847249056697 
0.007185661983919837 -0.007303274108945812 -0.001950110043435167 
0.007185661983919837 -0.007303274108945812 -0.001950110043435167 
0.007185661983919837 -0.007303274108945812 -0.001950110043435167 
0.287154416290358 -0.2846050383225641 -0.9603962019951023 
0.007185661983919837 -0.007303274108945812 -0.001950110043435167 
0.338182289648729 -0.3390802349149792 -0.06664858839329993 
0.007185661983919837 -0.007303274108945812 -0.001950110043435167 
0.007185661983919837 -0.007303274108945812 -0.001950110043435167 
-0.07290590101021699 0.05004677040611153 -1.412648939314717 
0.4836949642379025 -0.5094670032136474 -0.3704132041460561 
0.0579394017659784 -0.1011575997341532 -0.6544871117661898 
0.03839404873455746 -0.03665074731492261 -0.001034622448538219 
0.3819747528638053 -0.3761556444388773 -0.7512693546884461 
0.1860010508573404 -0.1882610796760139 -0.2167486329105199 
-0.04122527644684579 0.04226614784278387 -0.1698381944941342 
0.2230195817267402 -0.2245434898151845 -0.1966299624315629 
-0.2805064442185715 0.2787670479636739 -0.1493194965705041 
0.03839404873455746 -0.03665074731492261 -0.001034622448538219 
0.07549468204937149 -0.07418249977846221 -0.001647309984216892 
0.03839404873455746 -0.03665074731492261 -0.001034622448538219 
-0.3107145302221148 0.3084939708725742 -0.07664808493417413 
0 0 0 
0.03839404873455746 -0.03665074731492261 -0.001034622448538219 
0.6794478688839051 -0.6744754822975001 -0.6852870341222308 
0.4624095387818161 -0.459870277849605 -0.04330280739651145 
0.268403891489819 -0.2623328677139119 -0.4908021748567691 
0.08470513835007464 -0.0866870374717533 -0.5853710773542502 
0.03839404873455746 -0.03665074731492261 -0.001034622448538219 
0.03839404873455746 -0.03665074731492261 -0.001034622448538219 
0.03839404873455746 -0.03665074731492261 -0.001034622448538219 
0.03839404873455746 -0.03665074731492261 -0.001034622448538219 
-0.04122527644684579 0.04226614784278387 -0.1698381944941342 
0.03839404873455746 -0.03665074731492261 -0.001034622448538219 
0.268403891489819 -0.2623328677139119 -0.4908021748567691 
0.50562161089945 -0.504187216683279 -0.02917104572653095 
-0.1485180558326057 0.1454666544487773 -0.04198133187219318 
0.03839404873455746 -0.03665074731492261 -0.001034622448538219 
0.01819639285113878 -0.01041271865748713 -0.3250599839720605 
0.03839404873455746 -0.03665074731492261 -0.001034622448538219 
0.150362022838319 -0.1491233691002881 -0.00773196867896165 
0.01590552138919703 -0.01579681418272369 3.099595805621703e-06 
0.4057893986838289 -0.4061627939093115 -0.02422677179844506 
0.01590552138919703 -0.01579681418272369 3.099595805621703e-06 
0.111707438969395 -0.1059554836956321 -2.20531697374378 
0.150362022838319 -0.1491233691002881 -0.00773196867896165 
0.8771038818795968 -0.8752913643337117 -0.7424840856538427 
0.7800336402643908 -0.7817692579993389 -0.2594115603373671 
0.01590552138919703 -0.01579681418272369 3.099595805621703e-06 
0.05442994573024679 -0.05982314319765648 -0.6150224343943872 
0.5341557100991466 -0.5333394018198206 -0.5922135268650173 
0.01590552138919703 -0.01579681418272369 3.099595805621703e-06 
0.01590552138919703 -0.01579681418272369 3.099595805621703e-06 
0.009424722167969435 -0.009192811460651254 1.799366946127768e-06 
0.009424722167969435 -0.009192811460651254 1.799366946127768e-06 
0.2488504294441315 -0.2426964908285554 -0.1300905115892223 
-0.6405318204966016 0.6488466019307065 -1.446284252144573 
0.7418577913824682 -0.7312197629182893 -0.4209483820841157 
0.009424722167969435 -0.009192811460651254 1.799366946127768e-06 
0.009424722167969435 -0.009192811460651254 1.799366946127768e-06 
0.7167007095504684 -0.7209150406546216 -0.5268622018707342 
0.009424722167969435 -0.009192811460651254 1.799366946127768e-06 
0.006850926675179256 -0.002203314077522724 -0.006659220225136299 
0.2629139536596035 -0.2602434000419057 -0.01237130725981225 
0.0007389196789286535 -0.0007294962474782166 -3.909666042339487e-05 
0.0007389196789286535 -0.0007294962474782166 -3.909666042339487e-05 
0.1609672162294111 -0.1605640446850344 -0.009838040947862788 
-0.06133949480761037 0.06259953559436439 -0.1391171042261745 
-0.06133949480761037 0.06259953559436439 -0.1391171042261745 
-0.2707097666491008 0.2663725781706439 -0.01857196093165926 
-0.2707097666491008 0.2663725781706439 -0.01857196093165926 
0.2606073061154038 -0.2594017691036393 -0.05440282779115087 
0.03669260094469789 -0.03717752441150247 -0.006823776179312834 
-0.4226979435862598 0.4292553481760192 -0.03228676010388773 
0.08253141882574584 -0.07656874390855342 -0.04117567314435715 
0.1998405375679894 -0.2012628158858666 -0.04446182806646743 
0.08253141882574584 -0.07656874390855342 -0.04117567314435715 
0.001049746218573248 -0.001035209846646392 -0.001034822666946124 
0.2782393451826725 -0.2794510230356659 -0.04117717995308549 
0.2782393451826725 -0.2794510230356659 -0.04117717995308549 
0.001049746218573248 -0.001035209846646392 -0.001034822666946124 
0.01203802179835367 -0.01201609938395885 -0.005097480199280439 
0.001515631087476685 -0.001514359309050347 -0.0002900176618981891 
0.1595809919149322 -0.1586014923854606 -0.7489475441934768 
0.1595809919149322 -0.1586014923854606 -0.7489475441934768 
0.001515631087476685 -0.001514359309050347 -0.0002900176618981891 
0.05972645314076128 -0.05998292949042792 -0.02500611625338031 
0.05972645314076128 -0.05998292949042792 -0.02500611625338031 
0.05972645314076128 -0.05998292949042792 -0.02500611625338031 
0.05972645314076128 -0.05998292949042792 -0.02500611625338031 
0.2669121754215143 -0.26529599609985 -0.2434336479714979 
0.2669121754215143 -0.26529599609985 -0.2434336479714979 
0.001515631087476685 -0.001514359309050347 -0.0002900176618981891 
0.0143408940854304 -0.01358698924668352 -0.001687245591880728 
0.0143408940854304 -0.01358698924668352 -0.001687245591880728 
0.0143408940854304 -0.01358698924668352 -0.001687245591880728 
0.2318422174305425 -0.2702363862951731 -0.4649080733422142 
0.2318422174305425 -0.2702363862951731 -0.4649080733422142 
0.4678531630418429 -0.4683851756383017 -0.04219213550097139 
0.0143408940854304 -0.01358698924668352 -0.001687245591880728 
-0.04884219217897119 0.05196793815209551 -0.475087703841758 
0.3413003322235544 -0.3398813810397229 -0.5543730997841394 
0.09327786404404229 -0.0937956167379507 -0.01605299045773715 
0.0143408940854304 -0.01358698924668352 -0.001687245591880728 
0.3291906417381246 -0.3300093896962801 -0.09528684952452626 
0.3291906417381246 -0.3300093896962801 -0.09528684952452626 
-0.21348569475722 0.2121428422758162 -0.0372715060140001 
0.08777121946393379 -0.08799895814895176 -0.02429566585025506 
0.08777121946393379 -0.08799895814895176 -0.02429566585025506 
0.08777121946393379 -0.08799895814895176 -0.02429566585025506 
0.08777121946393379 -0.08799895814895176 -0.02429566585025506 
-0.21348569475722 0.2121428422758162 -0.0372715060140001 
-0.7630920005071704 0.7624121096000952 -0.2509402583857975 
0.3311565050299082 -0.3291597132268851 -0.3294930662209493 
0.3311565050299082 -0.3291597132268851 -0.3294930662209493 
-0.7630920005071704 0.7624121096000952 -0.2509402583857975 
0.4281120668415131 -0.4283604936984392 -0.2035357795932627 
0.4281120668415131 -0.4283604936984392 -0.2035357795932627 
0.4281120668415131 -0.4283604936984392 -0.2035357795932627 
0.4281120668415131 -0.4283604936984392 -0.2035357795932627 
0.4281120668415131 -0.4283604936984392 -0.2035357795932627 
0.1196542493722537 -0.1216126482477601 -0.05348861845939925 
0.1196542493722537 -0.1216126482477601 -0.05348861845939925 
0.1144075811189172 -0.1145139366737186 -0.04838423025599449 
0.2256882153883221 -0.2259218315335359 -0.04801123430515931 
0.1076443497900465 -0.1080589976236958 -0.04809461899905176 
0.1144075811189172 -0.1145139366737186 -0.04838423025599449 
0.2256882153883221 -0.2259218315335359 -0.04801123430515931 
0.1076443497900465 -0.1080589976236958 -0.04809461899905176 
0.7969052130053819 -0.7960272265965647 -0.5296443353896508 
0.1151833585779892 -0.1152725098649101 -0.1281803006277528 
0.3239779965118206 -0.3238622951046261 -0.3222740726040613 
0.3239779965118206 -0.3238622951046261 -0.3222740726040613 
0.04125115141142907 -0.04127067602322302 -0.06405368787606017 
0.1151833585779892 -0.1152725098649101 -0.1281803006277528 
0.7969052130053819 -0.7960272265965647 -0.5296443353896508 
0.1864888133105983 -0.186500382561619 -0.1317208306314613 
0.1864888133105983 -0.186500382561619 -0.1317208306314613 
0.1014721098192108 -0.1019630673124404 -0.1330666238416533 
0.1014721098192108 -0.1019630673124404 -0.1330666238416533 
0.04125115141142907 -0.04127067602322302 -0.06405368787606017 
0.04125115141142907 -0.04127067602322302 -0.06405368787606017 
-0.182522732370251 0.1837492883348102 -0.16407547724854 
0.1904977528436665 -0.1899780637717678 -0.2824942941464475 
0.1075619932079234 -0.1075363851786452 -0.07763293574111568 
-0.182522732370251 0.1837492883348102 -0.16407547724854 
0.1075619932079234 -0.1075363851786452 -0.07763293574111568 
0.4550915113732797 -0.4567501345178745 -0.2632259038335373 
0.1904977528436665 -0.1899780637717678 -0.2824942941464475 
0.4550915113732797 -0.4567501345178745 -0.2632259038335373 
0.3378830697913083 -0.3386665479476699 -0.2559726142533649 
0.1718791773678122 -0.1690889752335215 -0.1609940658470191 
0.4781524974284245 -0.4770502590353816 -0.1710398562304558 
0.4781524974284245 -0.4770502590353816 -0.1710398562304558 
0.1030566587292883 -0.1039106276977007 -0.149952117848978 
0.1718791773678122 -0.1690889752335215 -0.1609940658470191 
0.1030566587292883 -0.1039106276977007 -0.149952117848978 
0.1030566587292883 -0.1039106276977007 -0.149952117848978 
0.1718791773678122 -0.1690889752335215 -0.1609940658470191 
0.1030566587292883 -0.1039106276977007 -0.149952117848978 
0.1718791773678122 -0.1690889752335215 -0.1609940658470191 
0.1030566587292883 -0.1039106276977007 -0.149952117848978 
0.06536367134543164 -0.06453946606676711 -0.02713679941256332 
0.0592188456824853 -0.05956022546513898 -0.02473257111894376 
0.0592188456824853 -0.05956022546513898 -0.02473257111894376 
0.0592188456824853 -0.05956022546513898 -0.02473257111894376 
0.0592188456824853 -0.05956022546513898 -0.02473257111894376 
0.06536367134543164 -0.06453946606676711 -0.02713679941256332 
0.07275672175715478 -0.07299890783292604 -0.02688228481364744 
0.07275672175715478 -0.07299890783292604 -0.02688228481364744 
0.04125115141142907 -0.04127067602322302 -0.06405368787606017 
0.04125115141142907 -0.04127067602322302 -0.06405368787606017 
0.04125115141142907 -0.04127067602322302 -0.06405368787606017 
0.1075619932079234 -0.1075363851786452 -0.07763293574111568 
0.1075619932079234 -0.1075363851786452 -0.07763293574111568 
-0.452888848263954 0.4551273044188209 -0.08188236699067532 
0.1546930530906396 -0.1545355326264621 -0.5919304209407548 
0.257580089149434 -0.2577508404324578 -0.1051638340094807 
0.06882251863852391 -0.06517834753582077 -0.01104194799804111 
0.06882251863852391 -0.06517834753582077 -0.01104194799804111 
0.06882251863852391 -0.06517834753582077 -0.01104194799804111 
0.1625831605409601 -0.1631925847103085 -0.2389530995448019 
0.06882251863852391 -0.06517834753582077 -0.01104194799804111 
0.06882251863852391 -0.06517834753582077 -0.01104194799804111 
0.0616948894290483 -0.06211408169084198 -0.0002217141466322871 
0.0616948894290483 -0.06211408169084198 -0.0002217141466322871 
0.0616948894290483 -0.06211408169084198 -0.0002217141466322871 
0.0616948894290483 -0.06211408169084198 -0.0002217141466322871 
0.0616948894290483 -0.06211408169084198 -0.0002217141466322871 
0.908082541635621 -0.912714024811473 -0.06306627615260788 
0.0616948894290483 -0.06211408169084198 -0.0002217141466322871 
0.0616948894290483 -0.06211408169084198 -0.0002217141466322871 
0.0616948894290483 -0.06211408169084198 -0.0002217141466322871 
0.0616948894290483 -0.06211408169084198 -0.0002217141466322871 
0.0616948894290483 -0.06211408169084198 -0.0002217141466322871 
0.0616948894290483 -0.06211408169084198 -0.0002217141466322871 
0.0616948894290483 -0.06211408169084198 -0.0002217141466322871 
0.1469808609127736 -0.1477104171435027 -0.00613103084452544 
-0.2121531741994468 0.2089759027842584 -0.01933167529787121 
0.1469808609127736 -0.1477104171435027 -0.00613103084452544 
0.1469808609127736 -0.1477104171435027 -0.00613103084452544 
0.1469808609127736 -0.1477104171435027 -0.00613103084452544 
-0.3354445758423008 0.3386821630712809 -0.4430387112636683 
0.07352845069719369 -0.07426249484022485 -0.0001703314122327432 
0.07352845069719369 -0.07426249484022485 -0.0001703314122327432 
-0.08100284998599395 0.08028385106346383 -0.223914746389415 
-0.08100284998599395 0.08028385106346383 -0.223914746389415 
0.07352845069719369 -0.07426249484022485 -0.0001703314122327432 
0.3047973906104463 -0.2901765570074674 -0.2381539259396585 
-0.1109215419146016 0.1060220202699589 -0.1007291150201795 
0.07352845069719369 -0.07426249484022485 -0.0001703314122327432 
0.2057852912334087 -0.2084403313183996 -0.02056339214829832 
0.36139197341488 -0.3656752293309578 -0.03740619653335925 
-0.1494443297322818 0.147445409674754 -0.8870828113626064 
-0.1109215419146016 0.1060220202699589 -0.1007291150201795 
-0.1494443297322818 0.147445409674754 -0.8870828113626064 
0.3047973906104463 -0.2901765570074674 -0.2381539259396585 
0.02188691639523759 -0.02154096885072995 -0.01588384124486145 
0.02188691639523759 -0.02154096885072995 -0.01588384124486145 
0.02188691639523759 -0.02154096885072995 -0.01588384124486145 
0.02188691639523759 -0.02154096885072995 -0.01588384124486145 
0.02188691639523759 -0.02154096885072995 -0.01588384124486145 
0.04239472018453903 -0.04227623703211374 -0.02023317732921292 
0.02188691639523759 -0.02154096885072995 -0.01588384124486145 
0.02188691639523759 -0.02154096885072995 -0.01588384124486145 
0.349711429678866 -0.3282819190576626 -0.06780300313556566 
0.02188691639523759 -0.02154096885072995 -0.01588384124486145 
0.02188691639523759 -0.02154096885072995 -0.01588384124486145 
0.349711429678866 -0.3282819190576626 -0.06780300313556566 
0.02188691639523759 -0.02154096885072995 -0.01588384124486145 
0.02188691639523759 -0.02154096885072995 -0.01588384124486145 
0.02564438513388887 -0.02505853946531097 -0.001133289659105095 
0.02564438513388887 -0.02505853946531097 -0.001133289659105095 
-0.3388060281540878 0.3460982494939662 -0.4938258161614432 
0.1032075643276002 -0.09873787215445409 -0.4842536312275565 
0.1505238924324649 -0.1519524345533405 -0.01629817772760642 
-0.3393918843348419 0.3430794625911964 -0.006647943077185843 
0.07077706328946774 -0.06975275926536212 -0.0324857122426055 
0.1161320644671285 -0.1187055381629009 -0.1337603831596764 
-0.01181573912029998 0.0137219856031184 -0.03508379391872358 
0.1617033146235253 -0.1597153996400058 -0.4674119248840821 
-0.167311222304937 0.1679318252774685 -0.001398086736646125 
-0.09531095175714341 0.09762484311455999 -0.4459475672193414 
0.07613971601510734 -0.07516259619698425 -0.03260678784484284 
-0.01181573912029998 0.0137219856031184 -0.03508379391872358 
0.2439259734128405 -0.2452180035066957 -0.0420877203988043 
0.02817066599764783 -0.028290547643073 -0.02018521946180683 
0.2032096419249792 -0.2020617979044037 -0.07209053994828138 
0.02603665211289063 -0.02647548510576923 -0.06637994505593324 
0.09998915852614577 -0.1010907730114108 -0.0287895409181921 
1.39005685603629 -1.385526500628996 -0.5830037634340556 
0.07096261437971237 -0.07150299302192586 -0.03721615347602615 
0.07096261437971237 -0.07150299302192586 -0.03721615347602615 
0.2439259734128405 -0.2452180035066957 -0.0420877203988043 
0.02817066599764783 -0.028290547643073 -0.02018521946180683 
0.02817066599764783 -0.028290547643073 -0.02018521946180683 
0.6387761568070141 -0.6410848381392203 -0.7707759970009203 
0.07295599560031882 -0.0763716505004034 -0.1423990253581303 
0.1419256248861988 -0.1420403373323374 -0.02889514211929793 
0.07560080965753957 -0.07614319910846631 -0.09106754341422972 
0.1419256248861988 -0.1420403373323374 -0.02889514211929793 
0.139334471858194 -0.1390151168700901 -0.03618942934678394 
0.05384343375081462 -0.05356744852098356 -0.007230836701111707 
0.1610498607670261 -0.1611728492815645 -0.02708660292951583 
0.139334471858194 -0.1390151168700901 -0.03618942934678394 
0.6387761568070141 -0.6410848381392203 -0.7707759970009203 
0.05384343375081462 -0.05356744852098356 -0.007230836701111707 
0.1278090530892738 -0.1280847100043854 -0.01644783070771233 
0.1278090530892738 -0.1280847100043854 -0.01644783070771233 
-0.4273102821466182 0.4258289708413427 -0.1450851307620291 
-0.1650720978761529 0.1640624915106788 -0.2610182252107227 
0.2451186238647064 -0.2449137663198545 -0.2433242255548762 
-0.03651668797192178 0.03775870584444232 -0.120940141601608 
0.5170909617782279 -0.5180214689219464 -0.1327483287646748 
0.256106932866821 -0.2591081263165425 -0.2510691954036436 
1.437400502628031 -1.437177894136296 -0.5925075463245527 
-0.4273102821466182 0.4258289708413427 -0.1450851307620291 
-0.03651668797192178 0.03775870584444232 -0.120940141601608 
2.009218137384311 -2.004011524584598 -0.8751825718743211 
0.06170141994606032 -0.063743925084716 -0.01652628715039895 
0.05732801753612828 -0.05508876985683987 -0.2425954969176528 
0.06170141994606032 -0.063743925084716 -0.01652628715039895 
-0.3500845390788406 0.3589831632465613 -0.1570479374662191 
0.05732801753612828 -0.05508876985683987 -0.2425954969176528 
-0.2389874365057204 0.2485467167547934 -0.1313117063217253 
0.5816803372937404 -0.5837686383408435 -0.369613455806826 
0.00837273859797023 -0.006010933091727361 -0.05046176938161039 
-0.1607372149874081 0.1601387090408865 -0.100023715480075 
0.02527056226121253 -0.02521423111751874 -0.05463507295479104 
0.1532165422999728 -0.1539575720388025 -0.04756528731249817 
0.02527056226121253 -0.02521423111751874 -0.05463507295479104 
-1.366845139773948 1.368439819762565 -0.3245676314669586 
-1.336637584382415 1.340464405074285 -0.6206128483620534 
-1.213233160048391 1.215532198154796 -0.3253356993066061 
-1.088869359174189 1.095981920540108 -0.6061254161697127 
0.1028117852771014 -0.1033973430888123 -0.6158670901596048 
0.3594677105470596 -0.3603249331034436 -0.1661638074166396 
0.1028117852771014 -0.1033973430888123 -0.6158670901596048 
-0.02320961284249891 0.02299902347838905 -0.01181508315905734 
0.007649756100230062 -0.006778571339344726 -0.003931132128244455 
0.007649756100230062 -0.006778571339344726 -0.003931132128244455 
0.007649756100230062 -0.006778571339344726 -0.003931132128244455 
0.007649756100230062 -0.006778571339344726 -0.003931132128244455 
0.8353050328390496 -0.832607507922511 -0.1818880125554639 
0.007649756100230062 -0.006778571339344726 -0.003931132128244455 
0.007649756100230062 -0.006778571339344726 -0.003931132128244455 
0.2631344338220353 -0.2631655178037429 -0.05946093767858215 
0.007649756100230062 -0.006778571339344726 -0.003931132128244455 
0.007649756100230062 -0.006778571339344726 -0.003931132128244455 
0.007649756100230062 -0.006778571339344726 -0.003931132128244455 
-0.04060008517662638 0.04247807309629986 -0.2854109651812428 
0.07993627727946102 -0.07986516402381151 -0.009879121936441531 
0.1267536283591295 -0.1267263791981725 -0.03302217841301412 
0.07993627727946102 -0.07986516402381151 -0.009879121936441531 
0.07993627727946102 -0.07986516402381151 -0.009879121936441531 
0.07993627727946102 -0.07986516402381151 -0.009879121936441531 
0.07993627727946102 -0.07986516402381151 -0.009879121936441531 
0.07993627727946102 -0.07986516402381151 -0.009879121936441531 
0.1267536283591295 -0.1267263791981725 -0.03302217841301412 
0.07993627727946102 -0.07986516402381151 -0.009879121936441531 
-0.6538399825799051 0.6535412920969843 -0.01647982278676716 
-0.6538399825799051 0.6535412920969843 -0.01647982278676716 
0.3876018312090953 -0.3835369220821664 -0.1434093009228122 
0.275686656165731 -0.2876219578308014 -0.5088608783086375 
-0.6543325976176286 0.6587689747639345 -0.00362654746808043 
0.3723025478579755 -0.3791222696291137 -0.5384887021336396 
-0.04290933672207554 0.0470895610069617 -0.5120030905451837 
-0.04290933672207554 0.0470895610069617 -0.5120030905451837 
-0.2098218048287429 0.2110899204509273 -0.3579923455841424 
0.3723025478579755 -0.3791222696291137 -0.5384887021336396 
-0.6291088028270457 0.6327736497469467 -0.004183456221908942 
-0.6088071798508113 0.6124353455661996 -0.004511016609802053 
0.1858035765993525 -0.1862315787258038 -0.06133938941500883 
0.1858035765993525 -0.1862315787258038 -0.06133938941500883 
0.275686656165731 -0.2876219578308014 -0.5088608783086375 
0.3876018312090953 -0.3835369220821664 -0.1434093009228122 
-0.2098218048287429 0.2110899204509273 -0.3579923455841424 
0.01603074543047858 -0.01744630856865687 -0.5574556286002713 
0.5671598349473774 -0.5682826425421377 -0.1013240205418337 
-0.1072518662226191 0.108757864091681 -0.0004267461356321638 
0.5691191485534202 -0.5712692591104622 -0.212315169612022 
-0.2262780125757796 0.2297999402512114 -0.02699039919411865 
-0.02226181045131049 0.02283435644477669 -0.4665002520402004 
0.04774321883705846 -0.04817982438108539 -0.01354756593945465 
-0.1306394434253986 0.1315398806617287 -9.988936079049879e-05 
0.2875115268019237 -0.2904706356467436 -0.4470308850486885 
-0.02226181045131049 0.02283435644477669 -0.4665002520402004 
-0.1461279514273131 0.1424907822383281 -0.1923657733894709 
-0.9328630736754419 0.935790694149801 -0.2841339420471775 
0.0283094227225425 -0.02835670544152423 -0.002252831461124933 
0.0895943883143212 -0.089449836656441 -0.09372230354731398 
-0.1306394434253986 0.1315398806617287 -9.988936079049879e-05 
-0.1072518662226191 0.108757864091681 -0.0004267461356321638 
-0.1461279514273131 0.1424907822383281 -0.1923657733894709 
0.07411897572879268 -0.07552415924082559 -0.03961366118167554 
-0.1072518662226191 0.108757864091681 -0.0004267461356321638 
-0.9328630736754419 0.935790694149801 -0.2841339420471775 
0.0895943883143212 -0.089449836656441 -0.09372230354731398 
-0.1072518662226191 0.108757864091681 -0.0004267461356321638 
-0.1306394434253986 0.1315398806617287 -9.988936079049879e-05 
0.01443663104825984 -0.01338413004180378 -0.04855782429156788 
-0.4449114139745461 0.4432712783646128 -0.0796457824649783 
0.0657017716687323 -0.06331030168055224 -0.3965521045868109 
0.579031217813006 -0.578273266740799 -0.2130291403527259 
0.4557128998545297 -0.4546767520704746 -0.5493987242246652 
0.1356245344059214 -0.1352497788315996 -0.2141827128219921 
0.2099628434202295 -0.2150336057697674 -0.3114266245936312 
0.01443663104825984 -0.01338413004180378 -0.04855782429156788 
0.6440851940974351 -0.6428858558419572 -0.4314726235894744 
0.9088965427649663 -0.9071028123656988 -0.6815671542016852 
0.2099628434202295 -0.2150336057697674 -0.3114266245936312 
0.0657017716687323 -0.06331030168055224 -0.3965521045868109 
0.02338757720277953 -0.02278201657004765 -0.000326856774841665 
0.1802707025252151 -0.1811432287165153 -0.09528442195529631 
0.03711284795685367 -0.03732058734551926 -0.008782014200464655 
0.1233795540332089 -0.1193625502151278 -0.0102059452008415 
0.2693767676214939 -0.2686975039986054 -0.02759925741379269 
0.2693767676214939 -0.2686975039986054 -0.02759925741379269 
0.3739190449539204 -0.3811094955719032 -1.068030739360718 
0.03542632825979339 -0.03562041886471144 -0.007326019926757213 
0.09994673564458736 -0.1007558548726832 -0.1012348051386147 
0.03711284795685367 -0.03732058734551926 -0.008782014200464655 
0.2097562415406878 -0.2105196928000357 -0.1255128011108849 
1.524010638796977 -1.522791407958106 -0.3658566423394539 
0.03542632825979339 -0.03562041886471144 -0.007326019926757213 
-0.2137109213338845 0.2144587951185183 -0.01008908383053381 
-0.2420668363648106 0.2429069968120039 -0.08425446457345798 
0.01427345642982491 -0.01419942742301378 -0.002160207145542561 
0.01427345642982491 -0.01419942742301378 -0.002160207145542561 
-0.2137109213338845 0.2144587951185183 -0.01008908383053381 
0.111187371276574 -0.110447272332388 -0.02952911056720374 
0.9133185588719871 -0.9098356507294357 -0.3999599703150705 
0.02302359778881108 -0.02292520350668256 -0.002826149331270162 
0.07418737856698171 -0.07542081090217685 -3.646289413984468e-05 
-0.1682245077564574 0.1635448752446415 -0.06586909660520945 
-0.6145661115605106 0.6108724708760075 -0.03218609396536142 
-0.1682245077564574 0.1635448752446415 -0.06586909660520945 
0.07418737856698171 -0.07542081090217685 -3.646289413984468e-05 
-0.1760817213911355 0.1902407980452844 -0.3200102251367321 
0.07418737856698171 -0.07542081090217685 -3.646289413984468e-05 
0.07418737856698171 -0.07542081090217685 -3.646289413984468e-05 
-0.4224244633829127 0.4180112330508106 -0.03228465543446594 
-0.1760817213911355 0.1902407980452844 -0.3200102251367321 
-0.3628327384689652 0.366789755506864 -0.03622491961756993 
-0.3400338148549402 0.3388675697167937 -0.4557909799698857 
-0.2338562249191312 0.2360700376525348 -0.1568522224653282 
0.1943967581443245 -0.1851555734882951 -0.1002848134599267 
-0.2338562249191312 0.2360700376525348 -0.1568522224653282 
0.1943967581443245 -0.1851555734882951 -0.1002848134599267 
0.04705821238617326 -0.0412766137856133 -0.01221020397310996 
-0.05361788142302499 0.05527757177015275 -0.4191220150573641 
0.2407979522845461 -0.2380315497667862 -0.3121673174245925 
0.2407979522845461 -0.2380315497667862 -0.3121673174245925 
-0.05361788142302499 0.05527757177015275 -0.4191220150573641 
-0.146531283861969 0.1460448493845148 -0.01739704646071356 
-0.1590683514909723 0.157774947013214 -0.2205183167859352 
-0.112372195716362 0.1113574076008879 -0.05493903917366159 
-0.1590683514909723 0.157774947013214 -0.2205183167859352 
-0.05160032752866457 0.05113216572591244 -0.02225647905151272 
0.009140709471586406 -0.01177169325478058 -0.7540555219016633 
0.009140709471586406 -0.01177169325478058 -0.7540555219016633 
-0.05160032752866457 0.05113216572591244 -0.02225647905151272 
-0.4101907217408596 0.408976257830533 -0.01769399965584651 
-0.146531283861969 0.1460448493845148 -0.01739704646071356 
-0.146531283861969 0.1460448493845148 -0.01739704646071356 
-0.146531283861969 0.1460448493845148 -0.01739704646071356 
-0.146531283861969 0.1460448493845148 -0.01739704646071356 
0.9751023871117082 -0.9714970785877758 -0.9224986839419406 
-0.6691852968574558 0.6701565724766194 -0.003206633527195926 
-0.1628594613778826 0.1644204455936708 -0.2550485108917167 
-0.2420684932260529 0.2394092661090226 -0.1291524764729879 
0.145012548814658 -0.1380538009348921 -0.1842029962282998 
-0.1544107387872192 0.1610022514275804 -0.4959217688602367 
-0.2423035183478552 0.2429698315359111 -0.01680772885023778 
-0.6691852968574558 0.6701565724766194 -0.003206633527195926 
0.1520402948096528 -0.1539523177821432 -0.5866859763585847 
-0.0950150559398274 0.09350456788560702 -0.001816862785017314 
0.4480225198984957 -0.4553808592159035 -0.0282909988870526 
-0.002643975794897018 0.004647333866912712 -0.2612592050098104 
0.2181434408367017 -0.2313054288050712 -0.320877146945469 
0.0587107280184648 -0.05847625377714231 -0.2053228931418684 
0.0587107280184648 -0.05847625377714231 -0.2053228931418684 
0.1520402948096528 -0.1539523177821432 -0.5866859763585847 
-0.3518293610157798 0.3543190850745847 -0.081916169343406 
-0.0227191939376341 0.02242663259481832 -0.4332776375932617 
-0.002643975794897018 0.004647333866912712 -0.2612592050098104 
-0.2432699303256177 0.2439725685396646 -0.01674828404745499 
-0.5778521830710492 0.5767285330517322 -0.0001365617179498909 
0.320361502019783 -0.3191190201906456 -0.2930090350749753 
0.2181434408367017 -0.2313054288050712 -0.320877146945469 
-0.0950150559398274 0.09350456788560702 -0.001816862785017314 
0.4095353988425978 -0.4090408073368965 -0.4630692344147864 
0.320361502019783 -0.3191190201906456 -0.2930090350749753 
-0.2409502104373437 0.2415249985466024 -0.0001350930216919627 
0.01193422680977915 -0.0106485589005807 -0.0001867556175626249 
0.3387098539675212 -0.3318361735154187 -0.3142929299653474 
-0.2513725777219606 0.2472518763238247 -0.2704385249926734 
0.1612073089432724 -0.3057703228248872 0.1064456735811638 
0.3387098539675212 -0.3318361735154187 -0.3142929299653474 
-0.06854766745807225 0.07841451810554378 -0.03482168049269501 
0.01193422680977915 -0.0106485589005807 -0.0001867556175626249 
0.06105277213289088 -0.06153459061016937 -0.2604684165716244 
0.1437339845812962 -0.1417807240415156 -0.5414126402934066 
-0.2513725777219606 0.2472518763238247 -0.2704385249926734 
-0.2964591685164391 0.2959212729901186 -0.003044713604240008 
-0.3047623331010577 0.3055053687104417 -0.1756234862445481 
0.2151288284631603 -0.1982714199712824 -0.389901338155121 
0.06105277213289088 -0.06153459061016937 -0.2604684165716244 
0.6434563358829286 -0.6428920078858481 -0.5637244569455813 
-0.2964591685164391 0.2959212729901186 -0.003044713604240008 
0.09642864331901921 -0.09580876337934836 -0.001378547992834043 
-0.01536141636523168 0.01861096673797389 -0.4948125780298293 
0.1437339845812962 -0.1417807240415156 -0.5414126402934066 
0.2902664228236249 -0.2899092157459081 -0.1488001466365374 
0.1482095818796881 -0.1332991972089481 -0.212772568393914 
0.6373196878997563 -0.6138826031583189 -0.832758160597371 
0.1189330966172111 -0.1210796990224499 -0.4298179537306279 
-0.1185825299947184 0.1177999530059958 -0.001538371731503998 
0.09801383480515151 -0.0985048650077583 -0.06358253547153163 
0.09801383480515151 -0.0985048650077583 -0.06358253547153163 
0.2968329058141124 -0.2961726943053719 -0.1939090801047358 
0.5811980951681394 -0.5802384121712499 -0.1712384435954059 
0.1189330966172111 -0.1210796990224499 -0.4298179537306279 
0.1622379345395044 -0.1614728207513027 -0.08438573648962118 
0.39532622343088 -0.3938311993660983 -0.485726205892313 
0.2902664228236249 -0.2899092157459081 -0.1488001466365374 
-0.1185825299947184 0.1177999530059958 -0.001538371731503998 
-0.05407311498095649 -0.1078578001089276 0.1866384577719712 
0.5226929940905922 -0.5238984864172327 -0.7087429615684236 
0.296351751403035 -0.2980308129222735 -0.1802829697169435 
0.06647173819094304 -0.06549988259868025 -0.03745815284909595 
0.296351751403035 -0.2980308129222735 -0.1802829697169435 
0.05725103176937062 -0.05641523688885362 -0.01042043155731121 
0.3617704193276823 -0.3656935305844178 -0.1507224203578566 
-0.05407311498095649 -0.1078578001089276 0.1866384577719712 
0.04004382226973053 -0.03906458142713626 -0.003955157468643175 
-0.3054570451415111 0.3122737423937873 -0.07736523112193523 
0.209286610318494 -0.2399591816767935 -0.5991006121183153 
0.209286610318494 -0.2399591816767935 -0.5991006121183153 
0.4176413735185339 -0.4103485144483306 -0.290425780056092 
-0.3967438716886536 0.4030107765180766 -0.1675822979852067 
0.4176413735185339 -0.4103485144483306 -0.290425780056092 
-0.3054570451415111 0.3122737423937873 -0.07736523112193523 
0.2474700506681533 -0.2456710928367936 -0.1330600387365605 
0.2474700506681533 -0.2456710928367936 -0.1330600387365605 
0.4688532689274003 -0.4688723913554321 -0.1106223837982327 
-0.01453010729737862 0.01461044935595197 -0.005009525157170587 
0.7624553292989772 -0.7727255068099879 -0.8314210878064641 
-0.01453010729737862 0.01461044935595197 -0.005009525157170587 
-0.2010896735261281 0.2048270674789282 -0.2060209781028488 
0.8787945635307224 -0.876508278628242 -0.4039548824092059 
0.1507432023019049 -0.1443937998099186 -0.8338774707225184 
0.1507432023019049 -0.1443937998099186 -0.8338774707225184 
-0.3987399908453114 0.3974658313783754 -0.008329858020108523 
0.6398138103000806 -0.6393732726051077 -0.08986012042256725 
-0.5489010288225693 0.5504597444395191 -0.03956055857073023 
-0.2010896735261281 0.2048270674789282 -0.2060209781028488 
0.2451553934847159 -0.2393500576268975 -0.2242408276232331 
-0.5489010288225693 0.5504597444395191 -0.03956055857073023 
-0.1805052483947109 0.1797211093281553 -0.02279078983288333 
0.1602708409499237 -0.1543150693539381 -0.072622533333369 
1.02630759383098 -1.022177565835733 -0.4010840528853561 
0.1249201673665708 -0.1288708809786352 -0.4518942505092307 
-0.3510900852012994 0.362355008240113 -0.1063383358359594 
-0.1948188260355397 0.1291847302606421 0.010992477433152 
0.06074485380829121 -0.0541551136311249 -0.408262973025703 
0.02676249193706276 -0.008050130512699285 -0.1940205128299115 
-0.8744940496721532 0.8747916550116449 -0.06074106404455711 
0.1249201673665708 -0.1288708809786352 -0.4518942505092307 
0.171548799793686 -0.1775341906110527 -0.01378883334442109 
-0.4876010288155629 0.4963582800938047 -0.3464205226279439 
0.171548799793686 -0.1775341906110527 -0.01378883334442109 
-0.3130653133380664 0.3144802109660935 -0.05903966155239521 
-0.3130653133380664 0.3144802109660935 -0.05903966155239521 
0.06074485380829121 -0.0541551136311249 -0.408262973025703 
0.03690339221050166 -0.01784329781492122 -0.1969342890263834 
-0.8744940496721532 0.8747916550116449 -0.06074106404455711 
-0.3510900852012994 0.362355008240113 -0.1063383358359594 
0.2070605979280673 -0.2355508796449381 -0.1022404056170543 
0.5608827814527916 -0.553515515697004 -0.2261678675334228 
-0.600464182308171 0.6010306217586316 -0.0008988771589385848 
-0.600464182308171 0.6010306217586316 -0.0008988771589385848 
-0.1841745212901176 0.1865596675045493 -0.0002325113141509367 
-0.2269163289042939 0.2286189345704769 -0.1336112301202155 
-0.2269163289042939 0.2286189345704769 -0.1336112301202155 
0.05851338445652249 -0.05633499879907541 -0.03255010031153875 
-0.6370258034338511 0.6368228425849058 -0.01582964788020493 
-0.600464182308171 0.6010306217586316 -0.0008988771589385848 
0.05851338445652249 -0.05633499879907541 -0.03255010031153875 
-0.1841745212901176 0.1865596675045493 -0.0002325113141509367 
-0.4860728858676008 0.4852511546456298 -0.006452312844259466 
-0.1841745212901176 0.1865596675045493 -0.0002325113141509367 
-0.600464182308171 0.6010306217586316 -0.0008988771589385848 
-0.1841745212901176 0.1865596675045493 -0.0002325113141509367 
-0.1261407628866289 0.1297923043571704 -0.001082778568901097 
-0.0406216382349311 0.04213486335186509 -0.8153425186724746 
-0.1754120523195999 0.1760481720476103 -7.67137169332609e-06 
-0.3933447407656779 0.3917679181512064 -2.510836172247152e-05 
-0.3933447407656779 0.3917679181512064 -2.510836172247152e-05 
-0.1754120523195999 0.1760481720476103 -7.67137169332609e-06 
-0.2172877563364414 0.2211128006105805 -0.4009827335258115 
-0.1754120523195999 0.1760481720476103 -7.67137169332609e-06 
-0.0406216382349311 0.04213486335186509 -0.8153425186724746 
-0.1754120523195999 0.1760481720476103 -7.67137169332609e-06 
0.6326636311225463 -0.6070762709727693 -0.09553693357024272 
-0.2380284709346733 0.2366406822343279 -0.0001401035624731668 
-0.1144884319217819 0.1131487495781967 -0.0007799235025853102 
-0.2380284709346733 0.2366406822343279 -0.0001401035624731668 
-0.2380284709346733 0.2366406822343279 -0.0001401035624731668 
-0.2380284709346733 0.2366406822343279 -0.0001401035624731668 
-0.1144884319217819 0.1131487495781967 -0.0007799235025853102 
-0.2380284709346733 0.2366406822343279 -0.0001401035624731668 
-0.2380284709346733 0.2366406822343279 -0.0001401035624731668 
-0.3020305464071088 0.2991072882968678 -0.02509117391059375 
-0.2380284709346733 0.2366406822343279 -0.0001401035624731668 
-0.2380284709346733 0.2366406822343279 -0.0001401035624731668 
-0.1584164944796127 0.1573209684217309 -0.0004267307571087138 
0.1718038115847923 -0.1791687304644572 0.03477645590514863 
-0.1584164944796127 0.1573209684217309 -0.0004267307571087138 
-0.1584164944796127 0.1573209684217309 -0.0004267307571087138 
-0.4315921575472998 0.4295865767170451 -0.001546697103687839 
-0.1584164944796127 0.1573209684217309 -0.0004267307571087138 
-0.1584164944796127 0.1573209684217309 -0.0004267307571087138 
-0.1584164944796127 0.1573209684217309 -0.0004267307571087138 
-0.1584164944796127 0.1573209684217309 -0.0004267307571087138 
-0.1584164944796127 0.1573209684217309 -0.0004267307571087138 
0.1718038115847923 -0.1791687304644572 0.03477645590514863 
-0.08246111421884075 0.08110181378474113 -0.0002319637159856082 
-0.07594560870851767 0.07491836333508682 -0.0004581796805341806 
-0.6492433857955776 0.6464295041452229 -0.01517132511481237 
-0.08246111421884075 0.08110181378474113 -0.0002319637159856082 
0.3970648493762202 -0.3943893749336588 -0.2375420450762913 
-0.08246111421884075 0.08110181378474113 -0.0002319637159856082 
-0.08246111421884075 0.08110181378474113 -0.0002319637159856082 
-0.08246111421884075 0.08110181378474113 -0.0002319637159856082 
-0.2188896105856439 0.252890211763794 -0.354723569208175 
-0.2188896105856439 0.252890211763794 -0.354723569208175 
-0.08246111421884075 0.08110181378474113 -0.0002319637159856082 
0.6320470350463211 -0.6072248888815266 -0.3540530166152512 
-0.1579155148172984 0.1581668906534176 -0.0001809620355850283 
-0.1579155148172984 0.1581668906534176 -0.0001809620355850283 
-1.049226746834697 1.045669741473679 -0.2118218324746369 
-0.1579155148172984 0.1581668906534176 -0.0001809620355850283 
-0.1579155148172984 0.1581668906534176 -0.0001809620355850283 
-0.1579155148172984 0.1581668906534176 -0.0001809620355850283 
-1.049226746834697 1.045669741473679 -0.2118218324746369 
-0.1579155148172984 0.1581668906534176 -0.0001809620355850283 
-0.1019968798145818 0.1026733813242255 -0.008398571540995818 
0.01218698906955586 -0.01241913323204942 -0.0006770230009295333 
0.01218698906955586 -0.01241913323204942 -0.0006770230009295333 
0.05908841571798416 -0.05535800844678199 -0.02442986762290091 
0.4730747055807026 -0.4736285064481844 -0.122523463493319 
0.09569066918349339 -0.09639626883139162 -0.01048792761464411 
0.01218698906955586 -0.01241913323204942 -0.0006770230009295333 
0.2984707010797488 -0.295497341359127 -0.3735973775522548 
0.2984707010797488 -0.295497341359127 -0.3735973775522548 
0.01218698906955586 -0.01241913323204942 -0.0006770230009295333 
0.01218698906955586 -0.01241913323204942 -0.0006770230009295333 
0.2188094527024407 -0.2188495117714074 -0.1231656679075549 
0.3786638666687937 -0.3780332234492579 -0.2381480094790298 
0.05908841571798416 -0.05535800844678199 -0.02442986762290091 
0.3786638666687937 -0.3780332234492579 -0.2381480094790298 
0.08748209592791611 -0.08795632304314269 -0.005250621055410512 
-0.5935972678820223 0.5893466949759525 -0.02935145924216979 
-0.4626337697880974 0.462489047022437 -0.05750639151246877 
-0.001839800574835798 0.003410663782613102 -0.4880384623835267 
0.005525791982294587 -0.00537568836026304 -0.002025640161775268 
-0.001839800574835798 0.003410663782613102 -0.4880384623835267 
0.008815698228329899 -0.008677981083128583 -0.003286309661436816 
0.008815698228329899 -0.008677981083128583 -0.003286309661436816 
0.1753287739620746 -0.175319713928716 -0.2982492290316965 
0.005525791982294587 -0.00537568836026304 -0.002025640161775268 
0.08609154969627972 -0.08658993280238084 -0.2981778709856763 
0.1226844963215846 -0.1227826023459266 -0.00529343458722482 
0.02814546880018391 -0.02752312431255015 -0.006864060685354852 
-0.1643930355843113 0.1627242068700943 -0.0484376997491523 
-0.295737550147283 0.2930903062685587 -0.2825106449717111 
-0.01061156081311555 0.01563777044804511 -0.3378028727181645 
-0.01061156081311555 0.01563777044804511 -0.3378028727181645 
0.06531390484149691 -0.06305728743683342 -0.1713239173262735 
0.9392297387181334 -0.9369442748428258 -1.254020909405185 
0.9392297387181334 -0.9369442748428258 -1.254020909405185 
0.5015924185765653 -0.4943704938138819 -0.4082626895928574 
0.709108155183265 -0.7082095471954408 -1.221243314668812 
0.002629018227039676 -0.00250239564226043 -0.001198046671791003 
0.2391572356254628 -0.24045110918796 -0.003968474308589944 
0.002629018227039676 -0.00250239564226043 -0.001198046671791003 
0.101328113497962 -0.1012004137833198 -0.01331773438844584 
0.002299343980118782 -0.00217235335512074 -0.001249120219727438 
0.1868778352588068 -0.1877648177255674 -0.003275322679973655 
0.0522843154915086 -0.05310320213963393 -0.0028717878854704 
0.0522843154915086 -0.05310320213963393 -0.0028717878854704 
0.06464255577088214 -0.06516531110042259 -0.07948096466640482 
0.002629018227039676 -0.00250239564226043 -0.001198046671791003 
0.03479306729255927 -0.03474384617009593 -0.01211295605588569 
-0.265053788064182 0.271424480720117 -0.0675467794343427 
0.4235745879753142 -0.4198314958121885 -0.6873562441526638 
0.06464255577088214 -0.06516531110042259 -0.07948096466640482 
0.4094629741871963 -0.4174140240903923 -0.2765388805962845 
0.4235745879753142 -0.4198314958121885 -0.6873562441526638 
0.002629018227039676 -0.00250239564226043 -0.001198046671791003 
0.5611666313148775 -0.5609357336926483 -0.8959232318645988 
0.02934405870275651 -0.02557889201390825 -0.01687419879334201 
0.0522843154915086 -0.05310320213963393 -0.0028717878854704 
0.002629018227039676 -0.00250239564226043 -0.001198046671791003 
-0.09820089422235437 0.1114059557399253 -0.005068416790679507 
0.5611666313148775 -0.5609357336926483 -0.8959232318645988 
-0.1860539590162737 0.1851988803762677 -0.05850631294836459 
0.1484483886392694 -0.1492991651484395 -0.4792252840833822 
0.05573371259013362 -0.05361439923306238 -0.006026874415819089 
0.1484483886392694 -0.1492991651484395 -0.4792252840833822 
1.227258935388822 -1.222470574118719 -0.5051129766849208 
-0.1860539590162737 0.1851988803762677 -0.05850631294836459 
-0.08966854061736898 0.09307613661537815 -0.01191409815953118 
0.2437287946358718 -0.2454749692581427 -0.003971019343423803 
0.2417864693093438 -0.246594083452481 -0.01719269337753338 
0.01492671080142403 -0.0151156626713177 -0.0004470381242743579 
0.04367072295476097 -0.04404312181116545 -0.001869062780053447 
0.04367072295476097 -0.04404312181116545 -0.001869062780053447 
0.05280362245330247 -0.05319037571606552 -0.003899520467908638 
0.04367072295476097 -0.04404312181116545 -0.001869062780053447 
0.1461087285304442 -0.146813316134132 -0.1664338306024684 
0.05280362245330247 -0.05319037571606552 -0.003899520467908638 
0.1461087285304442 -0.146813316134132 -0.1664338306024684 
0.008108493194259964 -0.01243812387975493 -1.038099097964999 
1.1096713855046 -1.106066614507402 -0.9791894966271014 
-0.08509881221893309 0.08059982150230904 -0.1141036618890913 
0.04367072295476097 -0.04404312181116545 -0.001869062780053447 
0.04367072295476097 -0.04404312181116545 -0.001869062780053447 
0.04367072295476097 -0.04404312181116545 -0.001869062780053447 
0.4192646323709882 -0.4073574714711101 -0.882974464043688 
-0.08509881221893309 0.08059982150230904 -0.1141036618890913 
0.0768223190384895 -0.07716044389473931 -0.08455519335921695 
0.0768223190384895 -0.07716044389473931 -0.08455519335921695 
0.9832834767729499 -0.982102963969304 -0.1992226562342914 
-0.03120610482639917 0.03072964258786882 -0.001609872877194502 
-0.290856058807701 0.2896532067579522 -0.03661367629477327 
-0.03120610482639917 0.03072964258786882 -0.001609872877194502 
-0.6384944069745567 0.6429283640525856 -0.1153093182740378 
-0.0803423772125207 0.07901584471810445 -0.05289880797100983 
0.2649235926598236 -0.2658786847980838 -0.07266184088717562 
-0.03120610482639917 0.03072964258786882 -0.001609872877194502 
-0.4300402424309219 0.430972804081669 -0.03728884794004994 
0.2649235926598236 -0.2658786847980838 -0.07266184088717562 
-0.07248042240495486 0.07321915457697868 -0.5500437527036822 
0.1460373712989491 -0.1399086712402584 -0.1547067951905959 
-0.2473393609222376 0.2511029172689152 -0.03905368936044585 
-0.07248042240495486 0.07321915457697868 -0.5500437527036822 
-0.3410344601767396 0.3412304925542888 -0.04501402884882499 
-0.03120610482639917 0.03072964258786882 -0.001609872877194502 
-0.03120610482639917 0.03072964258786882 -0.001609872877194502 
-1.175816163271344 1.184700522683493 -0.04525958253669303 
-0.3187473579075196 0.3168361517975949 -0.006704466809971718 
-0.8445263127709849 0.850779165019791 -0.3570692770977926 
-0.1274303754817264 0.1268237869904277 -0.02148431206889893 
-0.009545067958605519 0.01297364860475037 -0.05426953974878833 
-0.3187473579075196 0.3168361517975949 -0.006704466809971718 
0.1471029692346668 -0.1458837513923296 -1.022227748838075 
-0.06623740057234259 0.06504231730017464 -0.0216946753438147 
-0.02527681806964272 0.02502432064603298 -0.002855605549089992 
0.1353910271994094 -0.1343184417439264 -1.013234429721397 
-0.009545067958605519 0.01297364860475037 -0.05426953974878833 
-1.175816163271344 1.184700522683493 -0.04525958253669303 
-0.2054962082604037 0.1986668767838805 -0.149715438633337 
-0.2054962082604037 0.1986668767838805 -0.149715438633337 
-0.05208854641346159 0.05211021707937037 -0.002465552058744286 
0.100981227136013 -0.09476853845672992 -0.05593669496743425 
-0.3293995014988881 0.3298382866443206 -0.002085192060043379 
-0.3293995014988881 0.3298382866443206 -0.002085192060043379 
-0.3293995014988881 0.3298382866443206 -0.002085192060043379 
-0.3293995014988881 0.3298382866443206 -0.002085192060043379 
-0.357271063722923 0.3594334186092824 -0.118168697514775 
-0.3293995014988881 0.3298382866443206 -0.002085192060043379 
-0.01696973222794704 0.01686449588104817 -0.03843883701995725 
-0.357271063722923 0.3594334186092824 -0.118168697514775 
-0.3258642889041828 0.3263128652872167 -0.002833356199730504 
-0.3293995014988881 0.3298382866443206 -0.002085192060043379 
-0.3293995014988881 0.3298382866443206 -0.002085192060043379 
-0.2765363308547338 0.2771785821533297 -0.007294655035471265 
-0.3293995014988881 0.3298382866443206 -0.002085192060043379 
-0.3926417156074015 0.3973419557681802 -0.006647952688023352 
-0.3926417156074015 0.3973419557681802 -0.006647952688023352 
0.3013390891056506 -0.2994009407647656 -0.1326929398947733 
0.3013390891056506 -0.2994009407647656 -0.1326929398947733 
-0.5381250768984378 0.5431056793487138 -0.001901058928225357 
0.1107308828197565 -0.1095118310146215 -0.07686401368785646 
-0.3686307200128824 0.3724627136554324 -0.005531718295412495 
-0.5381250768984378 0.5431056793487138 -0.001901058928225357 
-0.5381250768984378 0.5431056793487138 -0.001901058928225357 
1.421231143186937 -1.421402297115658 -0.2548857784197545 
-0.5381250768984378 0.5431056793487138 -0.001901058928225357 
0.1107308828197565 -0.1095118310146215 -0.07686401368785646 
-0.3686307200128824 0.3724627136554324 -0.005531718295412495 
0.6725206129474673 -0.6693916807394701 -0.2357369462716814 
-0.3970578134291441 0.404123841212648 -0.004109542886048556 
-0.3970578134291441 0.404123841212648 -0.004109542886048556 
-0.1393155875548774 0.1448098298461655 -0.01212807374537398 
-0.1393155875548774 0.1448098298461655 -0.01212807374537398 
0.2111414094123618 -0.2394309936619178 -0.5327117189678509 
-0.1434773796207931 0.1485877792366125 -0.1720216138063625 
0.05888406156691725 -0.05070909177242281 -0.02338676298110473 
-0.1361450694081517 0.1408268749055207 -0.02416172822831925 
-0.3970578134291441 0.404123841212648 -0.004109542886048556 
-0.1361450694081517 0.1408268749055207 -0.02416172822831925 
0.1159268477689831 -0.1079616109930636 -0.1709401762629958 
0.05888406156691725 -0.05070909177242281 -0.02338676298110473 
-0.3970578134291441 0.404123841212648 -0.004109542886048556 
0.2111414094123618 -0.2394309936619178 -0.5327117189678509 
-0.302003761019927 0.3154112090600347 -0.01779084360474346 
-0.3977936601755426 0.4001525861729974 -0.02173949908175346 
0.1978217096089417 -0.1966724126481089 -0.028309693224959 
-0.3128181746318835 0.3175997492002581 -0.1113114931766715 
0.1979255700866954 -0.1980196304507836 -0.3145357320954954 
-0.2225283274046914 0.2213200612839565 -0.003676448805877125 
0.1146480183200408 -0.1165792199281266 -0.008545526383164082 
-0.9754669195174358 0.9862114629686781 -0.3642085917658044 
-0.3802704344171093 0.3789760858956169 7.659248103294259e-06 
-0.3802704344171093 0.3789760858956169 7.659248103294259e-06 
0.01021344950818589 -9.323169164334941e-05 -0.5811445967246863 
0.2189940094251124 -0.2217692309395837 -0.6738380247933176 
0.01021344950818589 -9.323169164334941e-05 -0.5811445967246863 
0.3485875049195017 -0.3503401294885382 -0.5734147127207095 
-0.2225283274046914 0.2213200612839565 -0.003676448805877125 
-0.5655844220599129 0.5597675458447027 -0.05739253541607722 
1.349495550108038 -1.352951982762955 -0.4016089196152894 
0.004241000062322081 -0.004257149953650411 -9.711728998870704e-05 
0.004241000062322081 -0.004257149953650411 -9.711728998870704e-05 
0.8117764583293747 -0.8087943752799408 -0.1912090286321605 
0.3555254167101973 -0.3552870685958061 -0.4167601836382398 
0.3698338430714351 -0.3699040350532872 -0.1625871394018868 
-0.2731732148561204 0.2737053236759329 -0.006800589800404144 
-0.6098452971444316 0.6085077530946561 -0.001228787780326017 
-0.2731732148561204 0.2737053236759329 -0.006800589800404144 
-0.6098452971444316 0.6085077530946561 -0.001228787780326017 
-0.6125945905852043 0.6119745135813607 -0.006256764606642515 
0.06138463860876432 -0.06056061364571202 -0.1496658505201721 
-0.6261393143496757 0.6275307380803098 -0.001077387981796041 
0.06138463860876432 -0.06056061364571202 -0.1496658505201721 
-0.5126582226337232 0.5187932465885228 -0.007091091132412716 
-0.5126582226337232 0.5187932465885228 -0.007091091132412716 
-0.06943484342507517 0.07038997522921511 -0.2361111488785501 
-0.6261393143496757 0.6275307380803098 -0.001077387981796041 
-0.06943484342507517 0.07038997522921511 -0.2361111488785501 
-0.160600544939751 0.1645263308468184 -0.086844458468466 
-0.07350774426471897 0.07548840258182334 -0.1581797930888813 
-0.1541052814134409 0.1579539713607395 -0.09565825968980834 
0.762058860439367 -0.7550391144335099 -0.275388857054488 
-0.07350774426471897 0.07548840258182334 -0.1581797930888813 
-0.3547366883935364 0.359851178911444 -0.001072407130405799 
-0.1403345757826623 0.1361451158084236 -0.08480892680664789 
-0.1143541770938558 0.1200990773398451 -0.3470187967146207 
-0.3346462335718553 0.329586487249963 -0.005831869782169517 
-0.2714026259561393 0.2676795591688657 -4.980851390241751e-06 
-0.2714026259561393 0.2676795591688657 -4.980851390241751e-06 
-0.2208239154799878 0.2168565064743663 -0.00154614771341044 
-0.926562384595904 0.9209588825677062 -0.03402327563459401 
-0.3701424575619022 0.3799956298714641 -0.0454160326997344 
-0.3701424575619022 0.3799956298714641 -0.0454160326997344 
-0.8209094360318729 0.8199022525967176 -0.003448872187077486 
0.8465938093313151 -0.8446570897614637 -0.1467084813911428 
-0.3767756046265282 0.3774886215837868 -0.004468563700849726 
0.232419377702423 -0.2307475904545215 -0.06705673257925999 
0.232419377702423 -0.2307475904545215 -0.06705673257925999 
-0.3767756046265282 0.3774886215837868 -0.004468563700849726 
-0.5633168054293384 0.5607772192085481 -0.09384876506606467 
-0.0353466909044558 0.03248617158860943 -0.4140793233599444 
-0.4739464300132229 0.4747148076204484 -0.001545604460968932 
0.1359297498445362 -0.1360691722883139 -0.001573603749401771 
0.1605963840273965 -0.1605351521242352 -0.001882034952122571 
0.2691057497213363 -0.2623757866335384 -0.08103795258550553 
0.2055385948134352 -0.2025523241842441 -0.003180571927745301 
0.01547939426443091 -0.01573509393694573 -0.0004674616281893443 
0.2323741257292222 -0.2324174096668163 -0.0235547238003879 
0.1741903798004748 -0.1753815479969773 -0.02153477238555304 
0.5100626521036196 -0.5217165262246346 -0.6773405521922573 
0.2280347187016898 -0.2280630809738941 -0.02354136241234046 
0.1808998336106693 -0.1821145974357323 -0.02751569734798929 
0.7041148133457754 -0.6954327858995073 -0.7058130634629514 
0.01547939426443091 -0.01573509393694573 -0.0004674616281893443 
0.1659152339080977 -0.1584051480780192 -0.07331088149098085 
-0.2760325820703574 0.2834163722115823 -0.0481354566510914 
0.002234014108564898 -0.002248269249751772 -0.002153368656863084 
0.01917304218499575 -0.01885328912116434 -0.002507196067159166 
0.04834294345504877 -0.04727702201209427 -0.005481620226331774 
0.03028766375086962 -0.02819853917989886 -0.007974619263576914 
0.2385540647183049 -0.2375276129086334 -0.08463889409617693 
0.03028766375086962 -0.02819853917989886 -0.007974619263576914 
0.3122364203401934 -0.3116510370375513 -0.0736208948906841 
0.002234014108564898 -0.002248269249751772 -0.002153368656863084 
-0.7548976594941781 0.7538313407646268 -0.005028585189245894 
-1.159639161501886 1.152407626744646 -0.005403758308089564 
-0.1118558972764656 0.1095412242062644 -0.09203052989699897 
-0.05687150957604183 0.06062551517949182 -0.0414962902749637 
-0.2589046376049944 0.2614019546284385 -2.223869398932359e-05 
-0.1118558972764656 0.1095412242062644 -0.09203052989699897 
0.3780996761973293 -0.3780167549871685 -0.02458745429105569 
-0.04374857746757014 0.04915973260329306 -0.0005354338483978215 
0.3780996761973293 -0.3780167549871685 -0.02458745429105569 
0.3199871199313357 -0.3188282103018829 -0.0004838147700699084 
-0.04374857746757014 0.04915973260329306 -0.0005354338483978215 
0.3691325560323378 -0.3648710833852314 -0.1139557145029011 
0.3199871199313357 -0.3188282103018829 -0.0004838147700699084 
0.3081351251438803 -0.30810813659534 -0.0002427464894766691 
0.2306666140924422 -0.231018785800411 -0.003163688765734413 
0.1353015576136612 -0.1342365916273019 -0.0005612400096214018 
0.2306666140924422 -0.231018785800411 -0.003163688765734413 
0.4148005646337023 -0.4149542724406889 -0.03782709489977344 
0.03460657705539626 -0.03393419314634866 -0.1611737644390394 
0.4148005646337023 -0.4149542724406889 -0.03782709489977344 
0.1353015576136612 -0.1342365916273019 -0.0005612400096214018 
0.03460657705539626 -0.03393419314634866 -0.1611737644390394 
-0.06999719131159031 0.07605189620200446 -0.01773611569282347 
0.01456968350548049 -0.01504130657682442 -1.385684287879467e-05 
0.01456968350548049 -0.01504130657682442 -1.385684287879467e-05 
0.01456968350548049 -0.01504130657682442 -1.385684287879467e-05 
0.09683912287179022 -0.08526799248769941 -0.4405499925183372 
0.01456968350548049 -0.01504130657682442 -1.385684287879467e-05 
0.2011734975020957 -0.2079840913534538 -0.2261332985009585 
0.2892573415666447 -0.2902522092991426 -0.06936278493535795 
0.2011734975020957 -0.2079840913534538 -0.2261332985009585 
0.09820467897504456 -0.09726469146623364 -0.1038394568663339 
0.4011942558444413 -0.3908456568231772 -0.8972052347026068 
0.2542781392134917 -0.2499772760995622 -0.442112420186122 
0.09683912287179022 -0.08526799248769941 -0.4405499925183372 
0.6561345127571218 -0.6606789743727455 -0.1182362076656882 
0.1503154486574234 -0.1459641607223956 -0.01052971481895982 
0.1503154486574234 -0.1459641607223956 -0.01052971481895982 
0.1269094591112471 -0.1224754435711393 -0.0006403477110439308 
0.1269094591112471 -0.1224754435711393 -0.0006403477110439308 
-0.3598799552402877 0.3636681753709169 -0.03909882669619729 
-0.1021183870429891 0.1072862146198005 -0.08405330842127529 
0.1269094591112471 -0.1224754435711393 -0.0006403477110439308 
0.1424292544709533 -0.1434722815936202 -0.02078966102636125 
0.02340598954617633 -0.02348871715125625 -0.009889367107915891 
0.1397171443513338 -0.1405768827205741 -0.03660810975912509 
0.1397171443513338 -0.1405768827205741 -0.03660810975912509 
-0.3097755590425956 0.3091262224311076 -0.01370025084678171 
-0.1120302890818519 0.1081098462554933 -0.02546678449825299 
0.2356349606504039 -0.2363475318599595 -0.1692861076247879 
0.02340598954617633 -0.02348871715125625 -0.009889367107915891 
0.8413311388463115 -0.8494117138894894 -0.5184744098082343 
0.2481140294100443 -0.2489940627385288 -0.007289207231988593 
0.006548843429064487 -0.006378233681483778 -0.0001124039030929129 
-0.02210337022755674 0.02552735388947504 -0.06330294000889918 
0.09569567135319784 -0.09634161052198603 -0.003168563399251139 
-0.1117460651712955 0.1132275117855962 -0.01306884642541067 
0.3537262477239821 -0.3503591569974066 -0.1231500640873428 
-0.1117460651712955 0.1132275117855962 -0.01306884642541067 
0.006548843429064487 -0.006378233681483778 -0.0001124039030929129 
0.09569567135319784 -0.09634161052198603 -0.003168563399251139 
0.006548843429064487 -0.006378233681483778 -0.0001124039030929129 
0.006548843429064487 -0.006378233681483778 -0.0001124039030929129 
0.1219293358202987 -0.123739094886992 -0.09611464852616591 
0.2877764548225563 -0.2842272145436371 -0.1028585897245301 
0.1219293358202987 -0.123739094886992 -0.09611464852616591 
-0.07399030324107056 0.07483614991647319 -0.1630528318957868 
0.5440155151462446 -0.5470838818324348 -0.01457383004322822 
0.1543617403203966 -0.1549849200018758 -0.007968171049976672 
0.1543617403203966 -0.1549849200018758 -0.007968171049976672 
-0.3160615783511985 0.3134312586265585 -0.3068160995327224 
-0.07399030324107056 0.07483614991647319 -0.1630528318957868 
0.09717082538669466 -0.09722618603666168 -0.002922959239880793 
0.002006258631945958 -0.002001217130177674 -0.0005648795323728172 
0.002006258631945958 -0.002001217130177674 -0.0005648795323728172 
0.06043659461840827 -0.05710447442106851 -0.002411706525248766 
0.2429472277499078 -0.2447124609410145 -0.1622335791381329 
0.2429472277499078 -0.2447124609410145 -0.1622335791381329 
0.06043659461840827 -0.05710447442106851 -0.002411706525248766 
0.01897035315062821 -0.02006356457470322 -0.0001188451716396989 
0.05040534976937629 -0.02443053116564038 -0.09884438719789762 
0.1498871110131827 -0.1481120933487201 -0.0465293355881843 
0.1498871110131827 -0.1481120933487201 -0.0465293355881843 
0.01897035315062821 -0.02006356457470322 -0.0001188451716396989 
0.05040534976937629 -0.02443053116564038 -0.09884438719789762 
0.01897035315062821 -0.02006356457470322 -0.0001188451716396989 
-0.130287519089157 0.1283445348797676 -0.0004285863981884021 
-0.1157355275804161 0.1132745933536073 -0.007049814373429709 
-0.1157355275804161 0.1132745933536073 -0.007049814373429709 
0.8318897913076531 -0.8323373882140734 -0.2535989397056875 
-0.130287519089157 0.1283445348797676 -0.0004285863981884021 
-0.1892203367927325 0.1859356880311593 -0.09283437285304313 
0.01897035315062821 -0.02006356457470322 -0.0001188451716396989 
0.02905047539107531 -0.02999665727506702 -0.0002652254375481264 
0.8318897913076531 -0.8323373882140734 -0.2535989397056875 
-1.043542121209817 1.037055360158924 -0.1325144379028217 
-0.05191583542800564 0.05173925943286979 -0.002272259377313862 
-0.05191583542800564 0.05173925943286979 -0.002272259377313862 
-0.3727687627585616 0.3867681325279262 -0.1807650101711603 
-0.05191583542800564 0.05173925943286979 -0.002272259377313862 
-0.05191583542800564 0.05173925943286979 -0.002272259377313862 
-0.6431861855337994 0.6426625196856622 -0.01804978388491731 
-0.3727687627585616 0.3867681325279262 -0.1807650101711603 
-0.05191583542800564 0.05173925943286979 -0.002272259377313862 
-0.05191583542800564 0.05173925943286979 -0.002272259377313862 
0.1213785162009909 -0.1207188679593153 -0.02094428279470761 
-0.05191583542800564 0.05173925943286979 -0.002272259377313862 
-0.376538498516489 0.3753313897781152 -0.005625994750686127 
-0.102773280877179 0.09261800919886921 -0.04223628737921547 
-0.2835899798190811 0.283834158545253 -0.03486596895734848 
-0.2835899798190811 0.283834158545253 -0.03486596895734848 
-0.1272714984349131 0.1261215215294426 -0.004889656076648459 
0.2306383683205643 -0.2300868123803326 -0.01838361862163171 
-0.1272714984349131 0.1261215215294426 -0.004889656076648459 
-0.06405874027096654 0.06352013672625155 -0.001908005583742267 
-0.830906318437142 0.8316562456307978 -0.09567884665272991 
-0.5767816768844535 0.5757717884464432 -0.1440392737102265 
0.5108540565033044 -0.5107362058182909 -0.1610037891866154 
0.008403378172190111 -0.008469814852407189 -0.0001783072853115954 
0.0493646943921584 -0.05001814174203354 -0.001424469578554262 
0.4425629965839018 -0.4389235151957321 -0.1052342962246227 
-0.1500829947694156 0.1484608309277619 -0.007788613987990266 
-0.2478518640081014 0.244254120682285 -0.02258901118645875 
-0.8090285928625671 0.8107629566914275 -0.01523600445903725 
-0.09483795112596786 0.09533588698704482 -0.1849343106939493 
-0.536116478835456 0.5356479081459742 -0.08303843510507397 
-0.01801504834319191 0.01772055845869503 -0.004507529716967927 
-0.1500829947694156 0.1484608309277619 -0.007788613987990266 
-0.01232285806043324 0.01203048542835935 -0.000891341691624909 
-0.01537711403837131 0.01512267299945133 -0.0008576447862002556 
-0.01232285806043324 0.01203048542835935 -0.000891341691624909 
-0.4049094944793363 0.4052937401175825 -0.007982108694624936 
0.1957868963828289 -0.1901088869705639 -0.01662174577141586 
-0.8090285928625671 0.8107629566914275 -0.01523600445903725 
0.2470957916015587 -0.241862935978138 -0.2358505653100604 
-0.01537711403837131 0.01512267299945133 -0.0008576447862002556 
-0.1347058807310443 0.1333381579283105 -0.00693096920179001 
0.3018377340818382 -0.3040937061796704 -0.01966614028423718 
0.3018377340818382 -0.3040937061796704 -0.01966614028423718 
-0.1347058807310443 0.1333381579283105 -0.00693096920179001 
-0.1347058807310443 0.1333381579283105 -0.00693096920179001 
0.02861302817794955 -0.02459458387528333 -0.2507488368389682 
-0.1347058807310443 0.1333381579283105 -0.00693096920179001 
0.02861302817794955 -0.02459458387528333 -0.2507488368389682 
-0.5725551754495077 0.5691050894801969 -0.03273400834927116 
0.2104391916646167 -0.2088557137923271 -0.4793543582462211 
-0.3789677927509134 0.3852754087721683 -0.02924191219294226 
-0.5950191524568387 0.5990424054584543 -0.05811381279696479 
0.1134507090294709 -0.1159811005407527 -0.08211347907729716 
0.1134507090294709 -0.1159811005407527 -0.08211347907729716 
-0.3789677927509134 0.3852754087721683 -0.02924191219294226 
-0.5469107341092788 0.5441413435033041 -0.0767075989407803 
-0.5671242517765525 0.5699137732901285 -0.04443180361402371 
-0.2055648534104214 0.2038389503829356 -0.0005427042540450318 
0.06045935487223979 -0.05425159798003067 -0.08690428497071222 
0.06045935487223979 -0.05425159798003067 -0.08690428497071222 
0.1092409422181518 -0.1099164722085927 -0.008719671198855928 
-0.02162168456613333 0.03270719647149602 -0.007590806551210519 
0.6358234637381724 -0.6279622988600392 -0.03436243116873573 
0.004240654940488663 -0.004355582657347657 -0.0004107044899782563 
-0.3253041064363268 0.3241643134240884 -0.005012868128260891 
-0.3253041064363268 0.3241643134240884 -0.005012868128260891 
-0.4451368346713317 0.4503769124759645 -0.1790477027408549 
0.1801305261074534 -0.1768633534444206 -0.001081767547137845 
0.09996116640865445 -0.09954017935186146 -0.001772276947781006 
-0.1594263148203832 0.1607539686693104 -0.00227016229452838 
-0.1594263148203832 0.1607539686693104 -0.00227016229452838 
-0.1556415008587294 0.1557432498861472 -0.009502340565997693 
0.1801305261074534 -0.1768633534444206 -0.001081767547137845 
-0.1556415008587294 0.1557432498861472 -0.009502340565997693 
0.004240654940488663 -0.004355582657347657 -0.0004107044899782563 
0.09996116640865445 -0.09954017935186146 -0.001772276947781006 
0.04984423190376382 -0.05083375006876858 -0.005749599422256379 
-0.304482247831554 0.3148204714968025 -0.009410142490186702 
0.1000370825590231 -0.09880305085805564 -0.06636200793619748 
-0.0260807395814187 0.02510381805337625 -0.1128573707407819 
0.1013405723342652 -0.08642170041435727 -0.09733175015827961 
0.1000370825590231 -0.09880305085805564 -0.06636200793619748 
0.1013405723342652 -0.08642170041435727 -0.09733175015827961 
-0.304482247831554 0.3148204714968025 -0.009410142490186702 
-0.2534277870079596 0.2500828091316801 -0.001105817444835501 
-0.2534277870079596 0.2500828091316801 -0.001105817444835501 
-1.786591723848995 1.785692374867723 -0.06057782124262912 
-0.0260807395814187 0.02510381805337625 -0.1128573707407819 
0.1524592484747659 -0.1525253128219498 -0.06925097547087389 
0.3446478824793781 -0.3449875345389258 -0.04393303863206693 
0.3446478824793781 -0.3449875345389258 -0.04393303863206693 
0.2338461723773065 -0.2337262321851908 -0.002126394821897588 
0.2338461723773065 -0.2337262321851908 -0.002126394821897588 
0.2381334367421438 -0.2377172470259644 -0.006715713253653538 
0.02321896941064595 -0.02324680531066174 -0.0006000309393372485 
0.2381334367421438 -0.2377172470259644 -0.006715713253653538 
0.2288620834475725 -0.2290775662748172 -0.006557437348411683 
0.07432938857905279 -0.074900666965276 -0.1537935670962002 
0.03231777495109994 -0.03247111647487107 -0.0007948523794581304 
0.1616534633534197 -0.162523349581564 -0.06298083243886524 
0.05853760192125573 -0.05910658932961665 -0.1513399949357387 
-0.2468521986233758 0.2452234667046884 -0.0001979778132552928 
0.1616534633534197 -0.162523349581564 -0.06298083243886524 
0.6808377055310197 -0.6791799205080628 -0.01898484258882848 
-0.2028141825391704 0.2050179459334878 -0.0002308780492717665 
0.03231777495109994 -0.03247111647487107 -0.0007948523794581304 
0.05621592706723669 -0.05677575622546178 -0.0130719943186259 
0.3700370262709618 -0.3690106434892415 -0.08872812319263983 
-0.4983371884850278 0.4971732540502554 -0.03542490310611979 
0.3700370262709618 -0.3690106434892415 -0.08872812319263983 
0.05621592706723669 -0.05677575622546178 -0.0130719943186259 
0.1260950008756507 -0.1283677620468149 -0.0096602206592262 
0.1260950008756507 -0.1283677620468149 -0.0096602206592262 
0.04707700219399401 -0.04766822254344795 -0.001141422455944977 
0.04707700219399401 -0.04766822254344795 -0.001141422455944977 
0.04707700219399401 -0.04766822254344795 -0.001141422455944977 
0.04707700219399401 -0.04766822254344795 -0.001141422455944977 
0.1673073902558077 -0.1697861755955664 -0.03778048979069865 
-0.0503305288819503 0.0522700303473548 -0.03989221112111947 
0.04707700219399401 -0.04766822254344795 -0.001141422455944977 
0.3540618155222337 -0.3532372527762093 -0.01509363155752724 
-0.06266053822296302 0.06172637443147767 -0.05924804459623668 
-0.06266053822296302 0.06172637443147767 -0.05924804459623668 
0.3540618155222337 -0.3532372527762093 -0.01509363155752724 
-0.0503305288819503 0.0522700303473548 -0.03989221112111947 
0.08626986471370905 -0.08625059272588027 -9.654475784088925e-06 
0.6584210289546876 -0.6609480270952224 -0.3369130047698475 
-0.3305361106124925 0.32712560896882 -0.01126784233711538 
-0.2788595252905001 0.2822621821210309 -0.05301654865010233 
-0.3292027602903054 0.3287498697955469 -0.04840353726742745 
0.08626986471370905 -0.08625059272588027 -9.654475784088925e-06 
-0.3292027602903054 0.3287498697955469 -0.04840353726742745 
0.1607842185739511 -0.1611320299536587 -0.0005735955158768818 
0.08626986471370905 -0.08625059272588027 -9.654475784088925e-06 
0.2425283465561492 -0.2440337310559013 -0.1599326192241358 
-0.113465073375342 0.1137570232449872 -0.02862932133984717 
-0.119937706606579 0.1197264247579912 -0.0003651927716557779 
0.08626986471370905 -0.08625059272588027 -9.654475784088925e-06 
0.08626986471370905 -0.08625059272588027 -9.654475784088925e-06 
0.4400824584434893 -0.4393456891055578 -0.1489774227263317 
0.008072495604409724 -0.008122376515044256 -0.000592301835501164 
0.008072495604409724 -0.008122376515044256 -0.000592301835501164 
-0.1625745523445593 0.1607823461266205 -0.1378659854996234 
0.008072495604409724 -0.008122376515044256 -0.000592301835501164 
0.9632269755842938 -0.9540769867993459 -0.9452038317174875 
0.008072495604409724 -0.008122376515044256 -0.000592301835501164 
0.2114690410086786 -0.210318170168053 -0.00828038661632844 
0.02342288433904593 -0.02340537002771295 -0.0008968178557205011 
0.02342288433904593 -0.02340537002771295 -0.0008968178557205011 
0.5016717426215745 -0.5014943944534531 -0.01139631451656988 
0.2355589558931075 -0.2361643700313764 -0.03205751175202549 
0.1984965862310455 -0.1995512201587331 -0.07244415474200804 
-0.3327786618344235 0.3330729910354649 -0.08127711126348665 
-0.2785752188728009 0.2759002323237777 -0.00495412300389503 
0.1277875683071441 -0.1254895336164624 -0.05158788143446034 
-0.6604541589967968 0.6583409322947344 -0.003801657100923313 
-0.08438284816347963 0.08904807458493483 -0.1591858519599829 
-0.4639912774206095 0.4623462367491016 -0.001826874494264949 
-0.1731534518382283 0.1693162410047057 -0.1137252854629269 
-0.1564555809030914 0.1556478714084802 -0.0001787093862880905 
-0.1564555809030914 0.1556478714084802 -0.0001787093862880905 
0.5751091129185134 -0.5766651486475697 -0.3649069016986614 
-0.04959082312573843 0.04577439816676258 -0.01687211253999659 
-0.2552586658646813 0.2538634823136011 -0.0001752737030024506 
0.01963855767699532 -0.01794598992401397 -0.01785458061544495 
0.02855604097310365 -0.02340784685094309 -0.2754970686554156 
0.01561021400168744 -0.01569445867866721 -0.0003037801260727186 
-0.4223919072236023 0.4240298787299377 -0.08048542088518999 
0.04119174844015301 -0.05286493838865505 -0.09503242801992372 
-0.2552586658646813 0.2538634823136011 -0.0001752737030024506 
-0.1521457248590298 0.1534826767876385 -0.002677538264929558 
0.6403389805926104 -0.6517213979969337 -0.137731943237909 
0.02855604097310365 -0.02340784685094309 -0.2754970686554156 
0.05398005746161225 -0.05400166983982729 -0.001899308732775253 
-0.000944170909941193 -0.002712373234895125 -0.03193748526362473 
-0.3762545912107881 0.3732372427839246 -0.000345895378182115 
-0.1535111801496135 0.1536080738004009 -0.2503671980885759 
-0.2563025762528961 0.2549471273655317 -0.0007158434978630963 
-0.2563025762528961 0.2549471273655317 -0.0007158434978630963 
-0.2319664153128412 0.2335298367093142 -0.002061411847725489 
-0.1042710913806519 0.1047497679241786 -0.002092795428774194 
-0.000944170909941193 -0.002712373234895125 -0.03193748526362473 
-0.2218667301157483 0.2196330417470152 -0.2502538704960212 
0.3209505142507599 -0.3212439624023173 -0.06317533606266405 
0.3209505142507599 -0.3212439624023173 -0.06317533606266405 
-0.1192351767108754 0.1260249435608761 -0.07709080622988325 
-0.6681228597353485 0.6664981557575239 -0.005926449675693599 
0.0377833267683654 -0.02935177277273305 -0.02356369267918215 
0.01551712016615754 -0.01580355032281509 -0.003216544189413504 
0.01265659303602596 -0.01290996157878482 -0.002730359729280126 
0.01551712016615754 -0.01580355032281509 -0.003216544189413504 
0.01265659303602596 -0.01290996157878482 -0.002730359729280126 
0.04930070641119781 -0.04956777267270058 -0.01253272023510576 
0.01265659303602596 -0.01290996157878482 -0.002730359729280126 
0.03638346824282966 -0.03627938919316451 -0.006162696497017146 
0.2113239859550774 -0.2132388259555448 -0.01265685897582274 
0.03836607347725794 -0.0327920246368243 -0.2519288535507407 
0.03836607347725794 -0.0327920246368243 -0.2519288535507407 
0.2113239859550774 -0.2132388259555448 -0.01265685897582274 
0.2344759091710797 -0.2359129661777011 -0.5583704345946054 
0.2344759091710797 -0.2359129661777011 -0.5583704345946054 
0.1121803400019946 -0.1125992436160399 -0.05976135428536967 
0.2855899206657669 -0.2922437837283487 -0.1887852493443171 
0.04876878976038135 -0.04851409937441473 -0.01621027346246369 
0.04876878976038135 -0.04851409937441473 -0.01621027346246369 
0.2855899206657669 -0.2922437837283487 -0.1887852493443171 
0.03638346824282966 -0.03627938919316451 -0.006162696497017146 
0.1307410394083848 -0.132189258851819 -0.05999375769708169 
0.08516565703413181 -0.0850562027638844 -0.1443187251692474 
0.08516565703413181 -0.0850562027638844 -0.1443187251692474 
0.1408867908975718 -0.1407597281549385 -0.02839333728918364 
0 0 0 
0.1408867908975718 -0.1407597281549385 -0.02839333728918364 
0.1244679371070967 -0.1256974233471218 -0.09566822557824213 
0.1782760552219445 -0.1789992617895391 -0.1000222745219591 
0.1849474773719844 -0.2151663956062473 -0.2749419332154504 
0.1849474773719844 -0.2151663956062473 -0.2749419332154504 
0.05549247011010629 -0.05299117441969324 -0.008537745010736866 
0.2882273687019855 -0.2870927752352726 -0.01173693265866052 
0.1532364190261391 -0.1511276681447632 -0.008946425144248983 
-0.2921213196448155 0.3000765223874006 -0.01238201532265381 
0.1538236851458688 -0.141485400127874 -0.1870996165069852 
0.1522415711310508 -0.146615240626527 -0.0134439556728775 
-0.002997883072935217 0.01221189000813118 -0.2979983858575937 
0.1111525955342787 -0.1118015566211072 -0.001705882615599335 
0.1111525955342787 -0.1118015566211072 -0.001705882615599335 
-0.197729572751534 0.200987443365755 -0.2717487174207753 
-0.197729572751534 0.200987443365755 -0.2717487174207753 
0.05072840878866687 -0.05008869327184975 -0.001410618445256288 
0.04763080554863546 -0.0494160899760585 -0.06223148520469565 
0.05072840878866687 -0.05008869327184975 -0.001410618445256288 
0.05072840878866687 -0.05008869327184975 -0.001410618445256288 
0.1245959388199907 -0.1247278234814688 -0.02158160985235674 
0.2059557057886275 -0.2090803470036351 -0.07025661063181329 
1.058399641586315 -1.061750717374012 -0.1869021888468332 
-0.1185914277811101 0.1159968947584623 -0.07373877272223495 
0.08646913023789622 -0.08616615978001302 -0.01845323534601974 
-0.4388177510242763 0.4380211498538064 -0.1184821098093265 
-1.021614106681686 1.025689023006312 -0.3450793697951917 
0.3276117481969196 -0.3181990942794165 -0.09847159651568178 
0.08646913023789622 -0.08616615978001302 -0.01845323534601974 
0.05432616860260283 -0.05363906440101708 -0.0002414712598583168 
0.1515794786070607 -0.1522164735719844 -0.05138974374143947 
-0.06344677971802896 0.06271616886895223 -0.0556161822030056 
0.02449443357299145 -0.02463818966445154 -0.01476579965302711 
0.2344857851749057 -0.2345148347362295 -0.09579680409373413 
0.02449443357299145 -0.02463818966445154 -0.01476579965302711 
0.02449443357299145 -0.02463818966445154 -0.01476579965302711 
0.1633260139955064 -0.1633766446998869 -0.02844790979424901 
-0.002297972330206491 -5.14841127722647e-05 -0.03833847402807331 
0.02449443357299145 -0.02463818966445154 -0.01476579965302711 
0.02449443357299145 -0.02463818966445154 -0.01476579965302711 
-0.002297972330206491 -5.14841127722647e-05 -0.03833847402807331 
0.02449443357299145 -0.02463818966445154 -0.01476579965302711 
0.1076988765101437 -0.1075046322528689 -0.07449948770899763 
0.02449443357299145 -0.02463818966445154 -0.01476579965302711 
0.02449443357299145 -0.02463818966445154 -0.01476579965302711 
-0.1125451658304145 0.1166612892897126 -0.04808845203988606 
0.02449443357299145 -0.02463818966445154 -0.01476579965302711 
0.09087911330430726 -0.08913650788412823 -0.02007738628934195 
0.09087911330430726 -0.08913650788412823 -0.02007738628934195 
-0.2201007387628734 0.2188049018334803 -0.01982450541927602 
-0.2201007387628734 0.2188049018334803 -0.01982450541927602 
-0.2338289085652628 0.2327671512862416 -0.02998871709431349 
0.06275654333330581 -0.06332038032281775 -0.02125480525274273 
0.3365572913057542 -0.339024520044673 -0.43792818721754 
0.1184158828910837 -0.1195592841905405 -0.02804546921329043 
0.2249381057232912 -0.2272848888143153 -0.02237996831118932 
0.3365572913057542 -0.339024520044673 -0.43792818721754 
0.1074142965677489 -0.1086728241843396 -0.2612224459231413 
-0.1507370626931349 0.1490769698455013 -0.07459559645492128 
0.0321429616352934 -0.03252709537899594 -0.01821176408616142 
0.169696992207874 -0.1705996233404649 -0.07267206139708871 
0.1077953311717945 -0.1079641303973897 -0.0128569681238681 
0.3127051844351003 -0.3131845688426194 -0.2028173648370545 
0.2638788557657492 -0.26533882674271 -0.01171479515875272 
0.4990083252785535 -0.4987696402758678 -0.07961159770085906 
0.3127051844351003 -0.3131845688426194 -0.2028173648370545 
0.09947392679690698 -0.09964509366421681 -0.009918651071737202 
-0.576992493631365 0.5830694277575452 -0.09085997477850302 
-0.1455230500030731 0.1505351265968428 -0.6347027870449176 
0.169696992207874 -0.1705996233404649 -0.07267206139708871 
0.09947392679690698 -0.09964509366421681 -0.009918651071737202 
-0.2071332577197808 0.2077180056673985 -0.0004675158422010198 
-0.2071332577197808 0.2077180056673985 -0.0004675158422010198 
-0.1424421469070702 0.1439070222496311 -0.03371864846060897 
0.007255722565992447 -0.00701711307444987 -0.0001819657073723429 
0.007255722565992447 -0.00701711307444987 -0.0001819657073723429 
-0.09938795066479701 0.1011415699769867 -0.04819976649662292 
-0.1424421469070702 0.1439070222496311 -0.03371864846060897 
-0.09938795066479701 0.1011415699769867 -0.04819976649662292 
0.007609902773924785 0.001413005464224892 -0.01533041657895908 
-0.102602009645834 0.1037246179611417 -0.03804391722842275 
-0.06496179702059907 0.06570976307198283 -0.007566681920423743 
-0.102602009645834 0.1037246179611417 -0.03804391722842275 
-0.06496179702059907 0.06570976307198283 -0.007566681920423743 
0.08546325773672157 -0.08869096343183336 -0.4015049266037475 
0.06815859391625649 -0.06863086611327181 -0.005122933310047795 
0.06815859391625649 -0.06863086611327181 -0.005122933310047795 
0.4755779223567727 -0.4753768186482929 -0.5432155492278854 
0.2217122850144961 -0.2243784686655616 -0.004801915033969609 
-0.2978166119367784 0.3048911330769704 -0.2822023320514461 
0.1728101680984198 -0.1738074192443816 -0.02367238102584146 
0.06944088252476097 -0.07030048060058161 -0.006422831507179527 
0.07087972132336202 -0.07133287663399354 -0.007123659599569524 
0.05062369660725726 -0.04966953298586554 -0.01381839764743239 
0.001875296275135843 0.00967683084199537 -0.09606790156727144 
0.1535623521988864 -0.1550381220650653 -0.0295877134398124 
-0.04465251111820825 0.04265309212946333 -0.04245498427525141 
-0.04465251111820825 0.04265309212946333 -0.04245498427525141 
0.1535623521988864 -0.1550381220650653 -0.0295877134398124 
0.2338402837050584 -0.2347127946907407 -0.006083212647220125 
0.2217122850144961 -0.2243784686655616 -0.004801915033969609 
-0.2324896214277747 0.2299731890531732 -0.007113466366920405 
-0.2324896214277747 0.2299731890531732 -0.007113466366920405 
0.02630968643042009 -0.02644967662617211 -0.0009303267644443555 
0.01429470176428307 -0.01439781909977563 -0.0006251715860904456 
0.01429470176428307 -0.01439781909977563 -0.0006251715860904456 
0.01675301323083762 -0.01689352426831978 -0.0008888139405484721 
0.01429470176428307 -0.01439781909977563 -0.0006251715860904456 
0.02630968643042009 -0.02644967662617211 -0.0009303267644443555 
0.01429470176428307 -0.01439781909977563 -0.0006251715860904456 
0.1103531581154035 -0.1121691023609298 -0.06834122313467361 
0.278706996153211 -0.2811566829342163 -0.02473749435273677 
0.278706996153211 -0.2811566829342163 -0.02473749435273677 
0.06036531103583748 -0.05941765199334563 -0.001210450534431333 
0.5096756903637065 -0.5054734008071666 -0.03401296970475801 
-0.02217250187933758 0.02705262985814622 -0.134382744385016 
-0.4758365490843388 0.4782022405081198 -0.1346074789653671 
0.250213347617979 -0.2473609698496155 -0.0002755751877465977 
0.0204699769890627 -0.01849582198009788 -0.0001722916684250132 
0.07040156838057746 -0.06761680181416913 -0.003239813158881336 
0.07040156838057746 -0.06761680181416913 -0.003239813158881336 
0.07083985858148928 -0.1239062337200868 -0.003804478362559325 
0.07083985858148928 -0.1239062337200868 -0.003804478362559325 
0.1552247585903579 -0.1560581343536702 -0.1917971156415935 
-0.06678446248884908 0.06723387776787587 -0.2164247305731416 
-0.02203634638861466 0.02254270014561445 -0.2493772658338076 
-0.1416463275687638 0.1421243086121277 -0.1822397609566902 
0.0204699769890627 -0.01849582198009788 -0.0001722916684250132 
0.1445633627139563 -0.1427943238410142 -0.003405124477410234 
0.1445633627139563 -0.1427943238410142 -0.003405124477410234 
-0.648398572329986 0.6552930791987964 -0.5396420934218991 
-1.072467885692593 1.071662136638184 -0.1346033647715843 
0.9408696225801279 -0.9296434911337655 -0.180503298614201 
-0.1627441354170494 0.1679111476134242 -0.003992677106034099 
-0.1627441354170494 0.1679111476134242 -0.003992677106034099 
0.313522492261305 -0.3115623998853552 -0.001213409240162774 
0.1001921898557282 -0.09995392017388639 -0.02784564969270115 
0.1043477759232878 -0.1041108134061383 -0.0301755963678222 
0.1001921898557282 -0.09995392017388639 -0.02784564969270115 
0.1043477759232878 -0.1041108134061383 -0.0301755963678222 
0.1001921898557282 -0.09995392017388639 -0.02784564969270115 
0.1001921898557282 -0.09995392017388639 -0.02784564969270115 
0.1001921898557282 -0.09995392017388639 -0.02784564969270115 
0.510573220566072 -0.5101067472222174 -0.123523258334088 
0.1001921898557282 -0.09995392017388639 -0.02784564969270115 
-0.5691241019999534 0.5684322391187346 -0.1132450053225915 
-1.385238528624531 1.391374688787225 -0.3293449485147172 
-0.4584677379443359 0.4569842954602577 -0.2842410348171807 
-0.4759199309931769 0.4831320986592593 -0.1142852411096448 
-0.003397499131467744 0.003367333391504068 -0.003725556057005186 
-0.02932754535278127 0.02075724237826927 -0.198720632019733 
-2.883233900077673 2.89026586698452 -0.5361847648146438 
-0.003397499131467744 0.003367333391504068 -0.003725556057005186 
0.3130510476781057 -0.2666241656835356 -0.1887172990315155 
-0.2338300996827097 0.2351123478915264 -0.001862225822387732 
-0.2338300996827097 0.2351123478915264 -0.001862225822387732 
-0.2268989849471147 0.2285838931182265 -0.003579894724761172 
-0.2338300996827097 0.2351123478915264 -0.001862225822387732 
0.3642297509484618 -0.3649234579571727 -0.0368044881531458 
-0.2338300996827097 0.2351123478915264 -0.001862225822387732 
-0.2033781887483959 0.2053399681162136 -0.002368679382131624 
-0.1834201065939827 0.1858779560386527 -0.002443728262952449 
-0.1459468146549651 0.1485371132757496 -0.005738117390950242 
-0.2338300996827097 0.2351123478915264 -0.001862225822387732 
0.3642297509484618 -0.3649234579571727 -0.0368044881531458 
-0.2338300996827097 0.2351123478915264 -0.001862225822387732 
-0.2338300996827097 0.2351123478915264 -0.001862225822387732 
-0.2338300996827097 0.2351123478915264 -0.001862225822387732 
-0.2268989849471147 0.2285838931182265 -0.003579894724761172 
-0.4813159056266919 0.475351242872232 -0.05889133518859903 
0.09736799423798762 -0.09136162947280252 -0.04741324140260406 
-0.4813159056266919 0.475351242872232 -0.05889133518859903 
-0.277738935179197 0.2759305461977946 -0.0002697186083480694 
-0.277738935179197 0.2759305461977946 -0.0002697186083480694 
-0.277738935179197 0.2759305461977946 -0.0002697186083480694 
-0.277738935179197 0.2759305461977946 -0.0002697186083480694 
0.09736799423798762 -0.09136162947280252 -0.04741324140260406 
-0.277738935179197 0.2759305461977946 -0.0002697186083480694 
-0.1634434668130847 0.1635147129790505 -0.01908314581738812 
-0.277738935179197 0.2759305461977946 -0.0002697186083480694 
-0.2742510841893076 0.2723933670505137 -0.001271102288442904 
-0.277738935179197 0.2759305461977946 -0.0002697186083480694 
-0.277738935179197 0.2759305461977946 -0.0002697186083480694 
0.02715550831493431 -0.02698510806127292 -0.02342682767879193 
0.05025608614637377 -0.05029181919188848 -0.04710051220510653 
0.02715550831493431 -0.02698510806127292 -0.02342682767879193 
0.02342692450008319 -0.02333365691535704 -0.02152602531199252 
0.01592040797385019 -0.01600287425356434 -0.0002883476381153291 
0.01592040797385019 -0.01600287425356434 -0.0002883476381153291 
0.09263091593164011 -0.09272562151417067 -0.0172409382415978 
0.08250262858656063 -0.08259307971001097 -0.0135783693038949 
0.2681082274472902 -0.2685479405860128 -0.02010099215129742 
-0.09126932035473037 0.09140202015303525 -0.02133997833887083 
0.1906863443110859 -0.1909230993926619 -0.01822126234418047 
-0.0003555431826420432 0.0001715966434495204 -0.04707479151079372 
0.5964478570424995 -0.6005244613737889 -0.0275106901805836 
0.1906863443110859 -0.1909230993926619 -0.01822126234418047 
-0.09126932035473037 0.09140202015303525 -0.02133997833887083 
-0.02677522937318786 0.02650976848168047 -0.04628981275355692 
-0.0003555431826420432 0.0001715966434495204 -0.04707479151079372 
-0.02677522937318786 0.02650976848168047 -0.04628981275355692 
0.3202024324796721 -0.3210594553662293 -0.02582998210920351 
0.2489071936015637 -0.2497609623107347 -0.1440311311095245 
